genomestart 1
trait 1 0.1 0 0 0 0 0 0 0
node 1 0 1 1
node 2 0 1 1
node 3 0 1 1
node 4 0 1 1
node 5 0 1 1
node 6 0 1 1
node 7 0 1 1
node 8 0 1 1
node 9 0 1 1
node 10 0 1 1
node 11 0 1 1
node 12 0 1 1
node 13 0 1 1
node 14 0 1 1
node 15 0 1 1
node 16 0 1 1
node 17 0 1 1
node 18 0 1 1
node 19 0 1 1
node 20 0 1 1
node 21 0 1 1
node 22 0 1 1
node 23 0 1 1
node 24 0 1 1
node 25 0 1 3
node 26 0 0 2
node 27 0 0 2
node 28 0 0 2
node 29 0 0 2
node 30 0 0 2
node 31 0 0 2
node 32 0 0 2
node 33 0 0 2
node 34 0 0 2
node 35 0 0 2
node 36 0 0 2
node 37 0 0 2
node 38 0 0 2
node 39 0 0 2
node 40 0 0 2
node 41 0 0 2
node 42 0 0 2
node 43 0 0 2
node 44 0 0 2
node 45 0 0 2
node 46 0 0 2
node 47 0 0 2
node 48 0 0 2
node 49 0 0 2
node 50 0 0 2
node 51 0 0 2
node 52 0 0 2
node 53 0 0 2
node 54 0 0 2
node 55 0 0 2
node 56 0 0 2
node 57 0 0 2
node 58 0 0 2
node 59 0 0 2
node 60 0 0 2
node 61 0 0 2
node 62 0 0 2
node 63 0 0 2
node 64 0 0 2
node 65 0 0 2
node 66 0 0 2
node 67 0 0 2
node 68 0 0 2
node 69 0 0 2
node 70 0 0 2
node 71 0 0 2
node 72 0 0 2
node 73 0 0 2
node 74 0 0 2
node 75 0 0 2
node 76 0 0 2
node 77 0 0 2
node 78 0 0 2
node 79 0 0 2
node 80 0 0 2
node 81 0 0 2
node 82 0 0 2
node 83 0 0 2
node 84 0 0 2
node 85 0 0 2
node 86 0 0 2
node 87 0 0 2
node 88 0 0 2
node 89 0 0 2
node 90 0 0 2
node 91 0 0 2
node 92 0 0 2
node 93 0 0 2
node 94 0 0 2
node 95 0 0 2
node 96 0 0 2
node 97 0 0 2
node 98 0 0 2
node 99 0 0 2
node 100 0 0 2
node 101 0 0 2
node 102 0 0 2
node 103 0 0 2
node 104 0 0 2
node 105 0 0 2
node 106 0 0 2
node 107 0 0 2
node 108 0 0 2
node 109 0 0 2
node 110 0 0 2
node 111 0 0 2
node 112 0 0 2
node 113 0 0 2
node 114 0 0 2
node 115 0 0 2
node 116 0 0 2
node 117 0 0 2
node 118 0 0 2
node 119 0 0 2
node 120 0 0 2
node 121 0 0 2
node 122 0 0 2
node 123 0 0 2
node 124 0 0 2
node 125 0 0 2
node 126 0 0 2
node 127 0 0 2
node 128 0 0 2
node 129 0 0 2
node 130 0 0 2
node 131 0 0 2
node 132 0 0 2
node 133 0 0 2
node 134 0 0 2
node 135 0 0 2
node 136 0 0 2
node 137 0 0 2
node 138 0 0 2
node 139 0 0 2
node 140 0 0 2
node 141 0 0 2
node 142 0 0 2
node 143 0 0 2
node 144 0 0 2
node 145 0 0 2
node 146 0 0 2
node 147 0 0 2
node 148 0 0 2
node 149 0 0 2
node 150 0 0 2
node 151 0 0 2
node 152 0 0 2
node 153 0 0 2
node 154 0 0 2
node 155 0 0 2
node 156 0 0 2
node 157 0 0 2
node 158 0 0 2
node 159 0 0 2
node 160 0 0 2
node 161 0 0 2
node 162 0 0 2
node 163 0 0 2
node 164 0 0 2
node 165 0 0 2
node 166 0 0 2
node 167 0 0 2
node 168 0 0 2
node 169 0 0 2
node 170 0 0 2
node 171 0 0 2
node 172 0 0 2
node 173 0 0 2
node 174 0 0 2
node 175 0 0 2
node 176 0 0 2
node 177 0 0 2
node 178 0 0 2
node 179 0 0 2
node 180 0 0 2
node 181 0 0 2
node 182 0 0 2
node 183 0 0 2
node 184 0 0 2
node 185 0 0 2
node 186 0 0 2
node 187 0 0 2
node 188 0 0 2
node 189 0 0 2
node 190 0 0 2
node 191 0 0 2
node 192 0 0 2
node 193 0 0 2
node 194 0 0 2
node 195 0 0 2
node 196 0 0 2
node 197 0 0 2
node 198 0 0 2
node 199 0 0 2
node 200 0 0 2
node 201 0 0 2
node 202 0 0 2
node 203 0 0 2
node 204 0 0 2
node 205 0 0 2
node 206 0 0 2
node 207 0 0 2
node 208 0 0 2
node 209 0 0 2
node 210 0 0 2
node 211 0 0 2
node 212 0 0 2
node 213 0 0 2
node 214 0 0 2
node 215 0 0 2
node 216 0 0 2
node 217 0 0 2
node 218 0 0 2
node 219 0 0 2
node 220 0 0 2
node 221 0 0 2
node 222 0 0 2
node 223 0 0 2
node 224 0 0 2
node 225 0 0 2
node 226 0 0 2
node 227 0 0 2
node 228 0 0 2
node 229 0 0 2
node 230 0 0 2
node 231 0 0 2
node 232 0 0 2
node 233 0 0 2
node 234 0 0 2
node 235 0 0 2
node 236 0 0 2
node 237 0 0 2
node 238 0 0 2
node 239 0 0 2
node 240 0 0 2
node 241 0 0 2
node 242 0 0 2
node 243 0 0 2
node 244 0 0 2
node 245 0 0 2
node 246 0 0 2
node 247 0 0 2
node 248 0 0 2
node 249 0 0 2
node 250 0 0 2
node 251 0 0 2
node 252 0 0 2
node 253 0 0 2
node 254 0 0 2
node 255 0 0 2
node 256 0 0 2
node 257 0 0 2
node 258 0 0 2
node 259 0 0 2
node 260 0 0 2
node 261 0 0 2
node 262 0 0 2
node 263 0 0 2
node 264 0 0 2
node 265 0 0 2
node 266 0 0 2
node 267 0 0 2
node 268 0 0 2
node 269 0 0 2
node 270 0 0 2
node 271 0 0 2
node 272 0 0 2
node 273 0 0 2
node 274 0 0 2
node 275 0 0 2
node 276 0 0 2
node 277 0 0 2
node 278 0 0 2
node 279 0 0 2
node 280 0 0 2
node 281 0 0 2
node 282 0 0 2
node 283 0 0 2
node 284 0 0 2
node 285 0 0 2
node 286 0 0 2
node 287 0 0 2
node 288 0 0 2
node 289 0 0 2
node 290 0 0 2
node 291 0 0 2
node 292 0 0 2
node 293 0 0 2
node 294 0 0 2
node 295 0 0 2
node 296 0 0 2
node 297 0 0 2
node 298 0 0 2
node 299 0 0 2
node 300 0 0 2
node 301 0 0 2
node 302 0 0 2
node 303 0 0 2
node 304 0 0 2
node 305 0 0 2
node 306 0 0 2
node 307 0 0 2
node 308 0 0 2
node 309 0 0 2
node 310 0 0 2
node 311 0 0 2
node 312 0 0 2
node 313 0 0 2
node 314 0 0 2
node 315 0 0 2
node 316 0 0 2
node 317 0 0 2
node 318 0 0 2
node 319 0 0 2
node 320 0 0 2
node 321 0 0 2
node 322 0 0 2
node 323 0 0 2
node 324 0 0 2
node 325 0 0 2
node 326 0 0 2
node 327 0 0 2
node 328 0 0 2
node 329 0 0 2
node 330 0 0 2
node 331 0 0 2
node 332 0 0 2
node 333 0 0 2
node 334 0 0 2
node 335 0 0 2
node 336 0 0 2
node 337 0 0 2
node 338 0 0 2
node 339 0 0 2
node 340 0 0 2
node 341 0 0 2
node 342 0 0 2
node 343 0 0 2
node 344 0 0 2
node 345 0 0 2
node 346 0 0 2
node 347 0 0 2
node 348 0 0 2
node 349 0 0 2
node 350 0 0 2
node 351 0 0 2
node 352 0 0 2
node 353 0 0 2
node 354 0 0 2
node 355 0 0 2
node 356 0 0 2
node 357 0 0 2
node 358 0 0 2
node 359 0 0 2
node 360 0 0 2
node 361 0 0 2
node 362 0 0 2
node 363 0 0 2
node 364 0 0 2
node 365 0 0 2
node 366 0 0 2
node 367 0 0 2
node 368 0 0 2
node 369 0 0 2
node 370 0 0 2
node 371 0 0 2
node 372 0 0 2
node 373 0 0 2
node 374 0 0 2
node 375 0 0 2
node 376 0 0 2
node 377 0 0 2
node 378 0 0 2
node 379 0 0 2
node 380 0 0 2
node 381 0 0 2
node 382 0 0 2
node 383 0 0 2
node 384 0 0 2
node 385 0 0 2
node 386 0 0 2
node 387 0 0 2
node 388 0 0 2
node 389 0 0 2
node 390 0 0 2
node 391 0 0 2
node 392 0 0 2
node 393 0 0 2
node 394 0 0 2
node 395 0 0 2
node 396 0 0 2
node 397 0 0 2
node 398 0 0 2
node 399 0 0 2
node 400 0 0 2
node 401 0 0 2
node 402 0 0 2
node 403 0 0 2
node 404 0 0 2
node 405 0 0 2
node 406 0 0 2
node 407 0 0 2
node 408 0 0 2
node 409 0 0 2
node 410 0 0 2
node 411 0 0 2
node 412 0 0 2
node 413 0 0 2
node 414 0 0 2
node 415 0 0 2
node 416 0 0 2
node 417 0 0 2
node 418 0 0 2
node 419 0 0 2
node 420 0 0 2
node 421 0 0 2
node 422 0 0 2
node 423 0 0 2
node 424 0 0 2
node 425 0 0 2
node 426 0 0 2
node 427 0 0 2
node 428 0 0 2
node 429 0 0 2
node 430 0 0 2
node 431 0 0 2
node 432 0 0 2
node 433 0 0 2
node 434 0 0 2
node 435 0 0 2
node 436 0 0 2
node 437 0 0 2
node 438 0 0 2
node 439 0 0 2
node 440 0 0 2
node 441 0 0 2
node 442 0 0 2
node 443 0 0 2
node 444 0 0 2
node 445 0 0 2
node 446 0 0 2
node 447 0 0 2
node 448 0 0 2
node 449 0 0 2
node 450 0 0 2
node 451 0 0 2
node 452 0 0 2
node 453 0 0 2
node 454 0 0 2
node 455 0 0 2
node 456 0 0 2
node 457 0 0 2
node 458 0 0 2
node 459 0 0 2
node 460 0 0 2
node 461 0 0 2
node 462 0 0 2
node 463 0 0 2
node 464 0 0 2
node 465 0 0 2
node 466 0 0 2
node 467 0 0 2
node 468 0 0 2
node 469 0 0 2
node 470 0 0 2
node 471 0 0 2
node 472 0 0 2
node 473 0 0 2
node 474 0 0 2
node 475 0 0 2
node 476 0 0 2
node 477 0 0 2
node 478 0 0 2
node 479 0 0 2
node 480 0 0 2
node 481 0 0 2
node 482 0 0 2
node 483 0 0 2
node 484 0 0 2
node 485 0 0 2
node 486 0 0 2
node 487 0 0 2
node 488 0 0 2
node 489 0 0 2
node 490 0 0 2
node 491 0 0 2
node 492 0 0 2
node 493 0 0 2
node 494 0 0 2
node 495 0 0 2
node 496 0 0 2
node 497 0 0 2
node 498 0 0 2
node 499 0 0 2
node 500 0 0 2
node 501 0 0 2
node 502 0 0 2
node 503 0 0 2
node 504 0 0 2
node 505 0 0 2
node 506 0 0 2
node 507 0 0 2
node 508 0 0 2
node 509 0 0 2
node 510 0 0 2
node 511 0 0 2
node 512 0 0 2
node 513 0 0 2
node 514 0 0 2
node 515 0 0 2
node 516 0 0 2
node 517 0 0 2
node 518 0 0 2
node 519 0 0 2
node 520 0 0 2
node 521 0 0 2
node 522 0 0 2
node 523 0 0 2
node 524 0 0 2
node 525 0 0 2
node 526 0 0 2
node 527 0 0 2
node 528 0 0 2
node 529 0 0 2
node 530 0 0 2
node 531 0 0 2
node 532 0 0 2
node 533 0 0 2
node 534 0 0 2
node 535 0 0 2
node 536 0 0 2
node 537 0 0 2
node 538 0 0 2
node 539 0 0 2
node 540 0 0 2
node 541 0 0 2
node 542 0 0 2
node 543 0 0 2
node 544 0 0 2
node 545 0 0 2
node 546 0 0 2
node 547 0 0 2
node 548 0 0 2
node 549 0 0 2
node 550 0 0 2
node 551 0 0 2
node 552 0 0 2
node 553 0 0 2
node 554 0 0 2
node 555 0 0 2
node 556 0 0 2
node 557 0 0 2
node 558 0 0 2
node 559 0 0 2
node 560 0 0 2
node 561 0 0 2
node 562 0 0 2
node 563 0 0 2
node 564 0 0 2
node 565 0 0 2
node 566 0 0 2
node 567 0 0 2
node 568 0 0 2
node 569 0 0 2
node 570 0 0 2
node 571 0 0 2
node 572 0 0 2
node 573 0 0 2
node 574 0 0 2
node 575 0 0 2
node 576 0 0 2
node 577 0 0 2
node 578 0 0 2
node 579 0 0 2
node 580 0 0 2
node 581 0 0 2
node 582 0 0 2
node 583 0 0 2
node 584 0 0 2
node 585 0 0 2
node 586 0 0 2
node 587 0 0 2
node 588 0 0 2
node 589 0 0 2
node 590 0 0 2
node 591 0 0 2
node 592 0 0 2
node 593 0 0 2
node 594 0 0 2
node 595 0 0 2
node 596 0 0 2
node 597 0 0 2
node 598 0 0 2
node 599 0 0 2
node 600 0 0 2
node 601 0 0 2
node 602 0 0 2
node 603 0 0 2
node 604 0 0 2
node 605 0 0 2
node 606 0 0 2
node 607 0 0 2
node 608 0 0 2
node 609 0 0 2
node 610 0 0 2
node 611 0 0 2
node 612 0 0 2
node 613 0 0 2
node 614 0 0 2
node 615 0 0 2
node 616 0 0 2
node 617 0 0 2
node 618 0 0 2
node 619 0 0 2
node 620 0 0 2
node 621 0 0 2
node 622 0 0 2
node 623 0 0 2
node 624 0 0 2
node 625 0 0 2
node 626 0 0 2
node 627 0 0 2
node 628 0 0 2
node 629 0 0 2
node 630 0 0 2
node 631 0 0 2
node 632 0 0 2
node 633 0 0 2
node 634 0 0 2
node 635 0 0 2
node 636 0 0 2
node 637 0 0 2
node 638 0 0 2
node 639 0 0 2
node 640 0 0 2
node 641 0 0 2
node 642 0 0 2
node 643 0 0 2
node 644 0 0 2
node 645 0 0 2
node 646 0 0 2
node 647 0 0 2
node 648 0 0 2
node 649 0 0 2
node 650 0 0 2
node 651 0 0 2
node 652 0 0 2
node 653 0 0 2
node 654 0 0 2
node 655 0 0 2
node 656 0 0 2
node 657 0 0 2
node 658 0 0 2
node 659 0 0 2
node 660 0 0 2
node 661 0 0 2
node 662 0 0 2
node 663 0 0 2
node 664 0 0 2
node 665 0 0 2
node 666 0 0 2
node 667 0 0 2
node 668 0 0 2
node 669 0 0 2
node 670 0 0 2
node 671 0 0 2
node 672 0 0 2
node 673 0 0 2
node 674 0 0 2
node 675 0 0 2
node 676 0 0 2
node 677 0 0 2
node 678 0 0 2
node 679 0 0 2
node 680 0 0 2
node 681 0 0 2
node 682 0 0 2
node 683 0 0 2
node 684 0 0 2
node 685 0 0 2
node 686 0 0 2
node 687 0 0 2
node 688 0 0 2
node 689 0 0 2
node 690 0 0 2
node 691 0 0 2
node 692 0 0 2
node 693 0 0 2
node 694 0 0 2
node 695 0 0 2
node 696 0 0 2
node 697 0 0 2
node 698 0 0 2
node 699 0 0 2
node 700 0 0 2
node 701 0 0 2
node 702 0 0 2
node 703 0 0 2
node 704 0 0 2
node 705 0 0 2
node 706 0 0 2
node 707 0 0 2
node 708 0 0 2
node 709 0 0 2
node 710 0 0 2
node 711 0 0 2
node 712 0 0 2
node 713 0 0 2
node 714 0 0 2
node 715 0 0 2
node 716 0 0 2
node 717 0 0 2
node 718 0 0 2
node 719 0 0 2
node 720 0 0 2
node 721 0 0 2
node 722 0 0 2
node 723 0 0 2
node 724 0 0 2
node 725 0 0 2
node 726 0 0 2
node 727 0 0 2
node 728 0 0 2
node 729 0 0 2
node 730 0 0 2
node 731 0 0 2
node 732 0 0 2
node 733 0 0 2
node 734 0 0 2
node 735 0 0 2
node 736 0 0 2
node 737 0 0 2
node 738 0 0 2
node 739 0 0 2
node 740 0 0 2
node 741 0 0 2
node 742 0 0 2
node 743 0 0 2
node 744 0 0 2
node 745 0 0 2
node 746 0 0 2
node 747 0 0 2
node 748 0 0 2
node 749 0 0 2
node 750 0 0 2
node 751 0 0 2
node 752 0 0 2
node 753 0 0 2
node 754 0 0 2
node 755 0 0 2
node 756 0 0 2
node 757 0 0 2
node 758 0 0 2
node 759 0 0 2
node 760 0 0 2
node 761 0 0 2
node 762 0 0 2
node 763 0 0 2
node 764 0 0 2
node 765 0 0 2
node 766 0 0 2
node 767 0 0 2
node 768 0 0 2
node 769 0 0 2
node 770 0 0 2
node 771 0 0 2
node 772 0 0 2
node 773 0 0 2
node 774 0 0 2
node 775 0 0 2
node 776 0 0 2
node 777 0 0 2
node 778 0 0 2
node 779 0 0 2
node 780 0 0 2
node 781 0 0 2
node 782 0 0 2
node 783 0 0 2
node 784 0 0 2
node 785 0 0 2
node 786 0 0 2
node 787 0 0 2
node 788 0 0 2
node 789 0 0 2
node 790 0 0 2
node 791 0 0 2
node 792 0 0 2
node 793 0 0 2
node 794 0 0 2
node 795 0 0 2
node 796 0 0 2
node 797 0 0 2
node 798 0 0 2
node 799 0 0 2
node 800 0 0 2
node 801 0 0 2
node 802 0 0 2
node 803 0 0 2
node 804 0 0 2
node 805 0 0 2
node 806 0 0 2
node 807 0 0 2
node 808 0 0 2
node 809 0 0 2
node 810 0 0 2
node 811 0 0 2
node 812 0 0 2
node 813 0 0 2
node 814 0 0 2
node 815 0 0 2
node 816 0 0 2
node 817 0 0 2
node 818 0 0 2
node 819 0 0 2
node 820 0 0 2
node 821 0 0 2
node 822 0 0 2
node 823 0 0 2
node 824 0 0 2
node 825 0 0 2
node 826 0 0 2
node 827 0 0 2
node 828 0 0 2
node 829 0 0 2
node 830 0 0 2
node 831 0 0 2
node 832 0 0 2
node 833 0 0 2
node 834 0 0 2
node 835 0 0 2
node 836 0 0 2
node 837 0 0 2
node 838 0 0 2
node 839 0 0 2
node 840 0 0 2
node 841 0 0 2
node 842 0 0 2
node 843 0 0 2
node 844 0 0 2
node 845 0 0 2
node 846 0 0 2
node 847 0 0 2
node 848 0 0 2
node 849 0 0 2
node 850 0 0 2
node 851 0 0 2
node 852 0 0 2
node 853 0 0 2
node 854 0 0 2
node 855 0 0 2
node 856 0 0 2
node 857 0 0 2
node 858 0 0 2
node 859 0 0 2
node 860 0 0 2
node 861 0 0 2
node 862 0 0 2
node 863 0 0 2
node 864 0 0 2
node 865 0 0 2
node 866 0 0 2
node 867 0 0 2
node 868 0 0 2
node 869 0 0 2
node 870 0 0 2
node 871 0 0 2
node 872 0 0 2
node 873 0 0 2
node 874 0 0 2
node 875 0 0 2
node 876 0 0 2
node 877 0 0 2
node 878 0 0 2
node 879 0 0 2
node 880 0 0 2
node 881 0 0 2
node 882 0 0 2
node 883 0 0 2
node 884 0 0 2
node 885 0 0 2
node 886 0 0 2
node 887 0 0 2
node 888 0 0 2
node 889 0 0 2
node 890 0 0 2
node 891 0 0 2
node 892 0 0 2
node 893 0 0 2
node 894 0 0 2
node 895 0 0 2
node 896 0 0 2
node 897 0 0 2
node 898 0 0 2
node 899 0 0 2
node 900 0 0 2
node 901 0 0 2
node 902 0 0 2
node 903 0 0 2
node 904 0 0 2
node 905 0 0 2
node 906 0 0 2
node 907 0 0 2
node 908 0 0 2
node 909 0 0 2
node 910 0 0 2
node 911 0 0 2
node 912 0 0 2
node 913 0 0 2
node 914 0 0 2
node 915 0 0 2
node 916 0 0 2
node 917 0 0 2
node 918 0 0 2
node 919 0 0 2
node 920 0 0 2
node 921 0 0 2
node 922 0 0 2
node 923 0 0 2
node 924 0 0 2
node 925 0 0 2
node 926 0 0 2
node 927 0 0 2
node 928 0 0 2
node 929 0 0 2
node 930 0 0 2
node 931 0 0 2
node 932 0 0 2
node 933 0 0 2
node 934 0 0 2
node 935 0 0 2
node 936 0 0 2
node 937 0 0 2
node 938 0 0 2
node 939 0 0 2
node 940 0 0 2
node 941 0 0 2
node 942 0 0 2
node 943 0 0 2
node 944 0 0 2
node 945 0 0 2
node 946 0 0 2
node 947 0 0 2
node 948 0 0 2
node 949 0 0 2
node 950 0 0 2
node 951 0 0 2
node 952 0 0 2
node 953 0 0 2
node 954 0 0 2
node 955 0 0 2
node 956 0 0 2
node 957 0 0 2
node 958 0 0 2
node 959 0 0 2
node 960 0 0 2
node 961 0 0 2
node 962 0 0 2
node 963 0 0 2
node 964 0 0 2
node 965 0 0 2
node 966 0 0 2
node 967 0 0 2
node 968 0 0 2
node 969 0 0 2
node 970 0 0 2
node 971 0 0 2
node 972 0 0 2
node 973 0 0 2
node 974 0 0 2
node 975 0 0 2
node 976 0 0 2
node 977 0 0 2
node 978 0 0 2
node 979 0 0 2
node 980 0 0 2
node 981 0 0 2
node 982 0 0 2
node 983 0 0 2
node 984 0 0 2
node 985 0 0 2
node 986 0 0 2
node 987 0 0 2
node 988 0 0 2
node 989 0 0 2
node 990 0 0 2
node 991 0 0 2
node 992 0 0 2
node 993 0 0 2
node 994 0 0 2
node 995 0 0 2
node 996 0 0 2
node 997 0 0 2
node 998 0 0 2
node 999 0 0 2
node 1000 0 0 2
node 1001 0 0 2
node 1002 0 0 2
node 1003 0 0 2
node 1004 0 0 2
node 1005 0 0 2
node 1006 0 0 2
node 1007 0 0 2
node 1008 0 0 2
node 1009 0 0 2
node 1010 0 0 2
node 1011 0 0 2
node 1012 0 0 2
node 1013 0 0 2
node 1014 0 0 2
node 1015 0 0 2
node 1016 0 0 2
node 1017 0 0 2
node 1018 0 0 2
node 1019 0 0 2
node 1020 0 0 2
node 1021 0 0 2
node 1022 0 0 2
node 1023 0 0 2
node 1024 0 0 2
node 1025 0 0 2
node 1026 0 0 2
node 1027 0 0 2
node 1028 0 0 2
node 1029 0 0 2
node 1030 0 0 2
node 1031 0 0 2
node 1032 0 0 2
node 1033 0 0 2
node 1034 0 0 2
node 1035 0 0 2
node 1036 0 0 2
node 1037 0 0 2
node 1038 0 0 2
node 1039 0 0 2
node 1040 0 0 2
node 1041 0 0 2
node 1042 0 0 2
node 1043 0 0 2
node 1044 0 0 2
node 1045 0 0 2
node 1046 0 0 2
node 1047 0 0 2
node 1048 0 0 2
node 1049 0 0 2
node 1050 0 0 2
node 1051 0 0 2
node 1052 0 0 2
node 1053 0 0 2
node 1054 0 0 2
node 1055 0 0 2
node 1056 0 0 2
node 1057 0 0 2
node 1058 0 0 2
node 1059 0 0 2
node 1060 0 0 2
node 1061 0 0 2
node 1062 0 0 2
node 1063 0 0 2
node 1064 0 0 2
node 1065 0 0 2
node 1066 0 0 2
node 1067 0 0 2
node 1068 0 0 2
node 1069 0 0 2
node 1070 0 0 2
node 1071 0 0 2
node 1072 0 0 2
node 1073 0 0 2
node 1074 0 0 2
node 1075 0 0 2
node 1076 0 0 2
node 1077 0 0 2
node 1078 0 0 2
node 1079 0 0 2
node 1080 0 0 2
node 1081 0 0 2
node 1082 0 0 2
node 1083 0 0 2
node 1084 0 0 2
node 1085 0 0 2
node 1086 0 0 2
node 1087 0 0 2
node 1088 0 0 2
node 1089 0 0 2
node 1090 0 0 2
node 1091 0 0 2
node 1092 0 0 2
node 1093 0 0 2
node 1094 0 0 2
node 1095 0 0 2
gene 1 1 26 0.0 0 1 0 1
gene 1 1 27 0.0 0 2 0 1
gene 1 1 28 0.0 0 3 0 1
gene 1 1 29 0.0 0 4 0 1
gene 1 1 30 0.0 0 5 0 1
gene 1 1 31 0.0 0 6 0 1
gene 1 1 32 0.0 0 7 0 1
gene 1 1 33 0.0 0 8 0 1
gene 1 1 34 0.0 0 9 0 1
gene 1 1 35 0.0 0 10 0 1
gene 1 1 36 0.0 0 11 0 1
gene 1 1 37 0.0 0 12 0 1
gene 1 1 38 0.0 0 13 0 1
gene 1 1 39 0.0 0 14 0 1
gene 1 1 40 0.0 0 15 0 1
gene 1 1 41 0.0 0 16 0 1
gene 1 1 42 0.0 0 17 0 1
gene 1 1 43 0.0 0 18 0 1
gene 1 1 44 0.0 0 19 0 1
gene 1 1 45 0.0 0 20 0 1
gene 1 1 46 0.0 0 21 0 1
gene 1 1 47 0.0 0 22 0 1
gene 1 1 48 0.0 0 23 0 1
gene 1 1 49 0.0 0 24 0 1
gene 1 1 50 0.0 0 25 0 1
gene 1 1 51 0.0 0 26 0 1
gene 1 1 52 0.0 0 27 0 1
gene 1 1 53 0.0 0 28 0 1
gene 1 1 54 0.0 0 29 0 1
gene 1 1 55 0.0 0 30 0 1
gene 1 1 56 0.0 0 31 0 1
gene 1 1 57 0.0 0 32 0 1
gene 1 1 58 0.0 0 33 0 1
gene 1 1 59 0.0 0 34 0 1
gene 1 1 60 0.0 0 35 0 1
gene 1 1 61 0.0 0 36 0 1
gene 1 1 62 0.0 0 37 0 1
gene 1 1 63 0.0 0 38 0 1
gene 1 1 64 0.0 0 39 0 1
gene 1 1 65 0.0 0 40 0 1
gene 1 1 66 0.0 0 41 0 1
gene 1 1 67 0.0 0 42 0 1
gene 1 1 68 0.0 0 43 0 1
gene 1 1 69 0.0 0 44 0 1
gene 1 1 70 0.0 0 45 0 1
gene 1 1 71 0.0 0 46 0 1
gene 1 1 72 0.0 0 47 0 1
gene 1 1 73 0.0 0 48 0 1
gene 1 1 74 0.0 0 49 0 1
gene 1 1 75 0.0 0 50 0 1
gene 1 1 76 0.0 0 51 0 1
gene 1 1 77 0.0 0 52 0 1
gene 1 1 78 0.0 0 53 0 1
gene 1 1 79 0.0 0 54 0 1
gene 1 1 80 0.0 0 55 0 1
gene 1 1 81 0.0 0 56 0 1
gene 1 1 82 0.0 0 57 0 1
gene 1 1 83 0.0 0 58 0 1
gene 1 1 84 0.0 0 59 0 1
gene 1 1 85 0.0 0 60 0 1
gene 1 1 86 0.0 0 61 0 1
gene 1 1 87 0.0 0 62 0 1
gene 1 1 88 0.0 0 63 0 1
gene 1 1 89 0.0 0 64 0 1
gene 1 1 90 0.0 0 65 0 1
gene 1 1 91 0.0 0 66 0 1
gene 1 1 92 0.0 0 67 0 1
gene 1 1 93 0.0 0 68 0 1
gene 1 1 94 0.0 0 69 0 1
gene 1 1 95 0.0 0 70 0 1
gene 1 1 96 0.0 0 71 0 1
gene 1 1 97 0.0 0 72 0 1
gene 1 1 98 0.0 0 73 0 1
gene 1 1 99 0.0 0 74 0 1
gene 1 1 100 0.0 0 75 0 1
gene 1 1 101 0.0 0 76 0 1
gene 1 1 102 0.0 0 77 0 1
gene 1 1 103 0.0 0 78 0 1
gene 1 1 104 0.0 0 79 0 1
gene 1 1 105 0.0 0 80 0 1
gene 1 1 106 0.0 0 81 0 1
gene 1 1 107 0.0 0 82 0 1
gene 1 1 108 0.0 0 83 0 1
gene 1 1 109 0.0 0 84 0 1
gene 1 1 110 0.0 0 85 0 1
gene 1 1 111 0.0 0 86 0 1
gene 1 1 112 0.0 0 87 0 1
gene 1 1 113 0.0 0 88 0 1
gene 1 1 114 0.0 0 89 0 1
gene 1 1 115 0.0 0 90 0 1
gene 1 1 116 0.0 0 91 0 1
gene 1 1 117 0.0 0 92 0 1
gene 1 1 118 0.0 0 93 0 1
gene 1 1 119 0.0 0 94 0 1
gene 1 1 120 0.0 0 95 0 1
gene 1 1 121 0.0 0 96 0 1
gene 1 1 122 0.0 0 97 0 1
gene 1 1 123 0.0 0 98 0 1
gene 1 1 124 0.0 0 99 0 1
gene 1 1 125 0.0 0 100 0 1
gene 1 1 126 0.0 0 101 0 1
gene 1 1 127 0.0 0 102 0 1
gene 1 1 128 0.0 0 103 0 1
gene 1 1 129 0.0 0 104 0 1
gene 1 1 130 0.0 0 105 0 1
gene 1 1 131 0.0 0 106 0 1
gene 1 1 132 0.0 0 107 0 1
gene 1 1 133 0.0 0 108 0 1
gene 1 1 134 0.0 0 109 0 1
gene 1 1 135 0.0 0 110 0 1
gene 1 1 136 0.0 0 111 0 1
gene 1 1 137 0.0 0 112 0 1
gene 1 1 138 0.0 0 113 0 1
gene 1 1 139 0.0 0 114 0 1
gene 1 1 140 0.0 0 115 0 1
gene 1 1 141 0.0 0 116 0 1
gene 1 1 142 0.0 0 117 0 1
gene 1 1 143 0.0 0 118 0 1
gene 1 1 144 0.0 0 119 0 1
gene 1 1 145 0.0 0 120 0 1
gene 1 1 146 0.0 0 121 0 1
gene 1 1 147 0.0 0 122 0 1
gene 1 1 148 0.0 0 123 0 1
gene 1 1 149 0.0 0 124 0 1
gene 1 1 150 0.0 0 125 0 1
gene 1 1 151 0.0 0 126 0 1
gene 1 1 152 0.0 0 127 0 1
gene 1 1 153 0.0 0 128 0 1
gene 1 1 154 0.0 0 129 0 1
gene 1 1 155 0.0 0 130 0 1
gene 1 1 156 0.0 0 131 0 1
gene 1 1 157 0.0 0 132 0 1
gene 1 1 158 0.0 0 133 0 1
gene 1 1 159 0.0 0 134 0 1
gene 1 1 160 0.0 0 135 0 1
gene 1 1 161 0.0 0 136 0 1
gene 1 1 162 0.0 0 137 0 1
gene 1 1 163 0.0 0 138 0 1
gene 1 1 164 0.0 0 139 0 1
gene 1 1 165 0.0 0 140 0 1
gene 1 1 166 0.0 0 141 0 1
gene 1 1 167 0.0 0 142 0 1
gene 1 1 168 0.0 0 143 0 1
gene 1 1 169 0.0 0 144 0 1
gene 1 1 170 0.0 0 145 0 1
gene 1 1 171 0.0 0 146 0 1
gene 1 1 172 0.0 0 147 0 1
gene 1 1 173 0.0 0 148 0 1
gene 1 1 174 0.0 0 149 0 1
gene 1 1 175 0.0 0 150 0 1
gene 1 1 176 0.0 0 151 0 1
gene 1 1 177 0.0 0 152 0 1
gene 1 1 178 0.0 0 153 0 1
gene 1 1 179 0.0 0 154 0 1
gene 1 1 180 0.0 0 155 0 1
gene 1 1 181 0.0 0 156 0 1
gene 1 1 182 0.0 0 157 0 1
gene 1 1 183 0.0 0 158 0 1
gene 1 1 184 0.0 0 159 0 1
gene 1 1 185 0.0 0 160 0 1
gene 1 1 186 0.0 0 161 0 1
gene 1 1 187 0.0 0 162 0 1
gene 1 1 188 0.0 0 163 0 1
gene 1 1 189 0.0 0 164 0 1
gene 1 1 190 0.0 0 165 0 1
gene 1 1 191 0.0 0 166 0 1
gene 1 1 192 0.0 0 167 0 1
gene 1 1 193 0.0 0 168 0 1
gene 1 1 194 0.0 0 169 0 1
gene 1 1 195 0.0 0 170 0 1
gene 1 1 196 0.0 0 171 0 1
gene 1 1 197 0.0 0 172 0 1
gene 1 1 198 0.0 0 173 0 1
gene 1 1 199 0.0 0 174 0 1
gene 1 1 200 0.0 0 175 0 1
gene 1 1 201 0.0 0 176 0 1
gene 1 1 202 0.0 0 177 0 1
gene 1 1 203 0.0 0 178 0 1
gene 1 1 204 0.0 0 179 0 1
gene 1 1 205 0.0 0 180 0 1
gene 1 1 206 0.0 0 181 0 1
gene 1 1 207 0.0 0 182 0 1
gene 1 1 208 0.0 0 183 0 1
gene 1 1 209 0.0 0 184 0 1
gene 1 1 210 0.0 0 185 0 1
gene 1 1 211 0.0 0 186 0 1
gene 1 1 212 0.0 0 187 0 1
gene 1 1 213 0.0 0 188 0 1
gene 1 1 214 0.0 0 189 0 1
gene 1 1 215 0.0 0 190 0 1
gene 1 1 216 0.0 0 191 0 1
gene 1 1 217 0.0 0 192 0 1
gene 1 1 218 0.0 0 193 0 1
gene 1 1 219 0.0 0 194 0 1
gene 1 1 220 0.0 0 195 0 1
gene 1 1 221 0.0 0 196 0 1
gene 1 1 222 0.0 0 197 0 1
gene 1 1 223 0.0 0 198 0 1
gene 1 1 224 0.0 0 199 0 1
gene 1 1 225 0.0 0 200 0 1
gene 1 1 226 0.0 0 201 0 1
gene 1 1 227 0.0 0 202 0 1
gene 1 1 228 0.0 0 203 0 1
gene 1 1 229 0.0 0 204 0 1
gene 1 1 230 0.0 0 205 0 1
gene 1 1 231 0.0 0 206 0 1
gene 1 1 232 0.0 0 207 0 1
gene 1 1 233 0.0 0 208 0 1
gene 1 1 234 0.0 0 209 0 1
gene 1 1 235 0.0 0 210 0 1
gene 1 1 236 0.0 0 211 0 1
gene 1 1 237 0.0 0 212 0 1
gene 1 1 238 0.0 0 213 0 1
gene 1 1 239 0.0 0 214 0 1
gene 1 1 240 0.0 0 215 0 1
gene 1 1 241 0.0 0 216 0 1
gene 1 1 242 0.0 0 217 0 1
gene 1 1 243 0.0 0 218 0 1
gene 1 1 244 0.0 0 219 0 1
gene 1 1 245 0.0 0 220 0 1
gene 1 1 246 0.0 0 221 0 1
gene 1 1 247 0.0 0 222 0 1
gene 1 1 248 0.0 0 223 0 1
gene 1 1 249 0.0 0 224 0 1
gene 1 1 250 0.0 0 225 0 1
gene 1 1 251 0.0 0 226 0 1
gene 1 1 252 0.0 0 227 0 1
gene 1 1 253 0.0 0 228 0 1
gene 1 1 254 0.0 0 229 0 1
gene 1 1 255 0.0 0 230 0 1
gene 1 1 256 0.0 0 231 0 1
gene 1 1 257 0.0 0 232 0 1
gene 1 1 258 0.0 0 233 0 1
gene 1 1 259 0.0 0 234 0 1
gene 1 1 260 0.0 0 235 0 1
gene 1 1 261 0.0 0 236 0 1
gene 1 1 262 0.0 0 237 0 1
gene 1 1 263 0.0 0 238 0 1
gene 1 1 264 0.0 0 239 0 1
gene 1 1 265 0.0 0 240 0 1
gene 1 1 266 0.0 0 241 0 1
gene 1 1 267 0.0 0 242 0 1
gene 1 1 268 0.0 0 243 0 1
gene 1 1 269 0.0 0 244 0 1
gene 1 1 270 0.0 0 245 0 1
gene 1 1 271 0.0 0 246 0 1
gene 1 1 272 0.0 0 247 0 1
gene 1 1 273 0.0 0 248 0 1
gene 1 1 274 0.0 0 249 0 1
gene 1 1 275 0.0 0 250 0 1
gene 1 1 276 0.0 0 251 0 1
gene 1 1 277 0.0 0 252 0 1
gene 1 1 278 0.0 0 253 0 1
gene 1 1 279 0.0 0 254 0 1
gene 1 1 280 0.0 0 255 0 1
gene 1 1 281 0.0 0 256 0 1
gene 1 1 282 0.0 0 257 0 1
gene 1 1 283 0.0 0 258 0 1
gene 1 1 284 0.0 0 259 0 1
gene 1 1 285 0.0 0 260 0 1
gene 1 1 286 0.0 0 261 0 1
gene 1 1 287 0.0 0 262 0 1
gene 1 1 288 0.0 0 263 0 1
gene 1 1 289 0.0 0 264 0 1
gene 1 1 290 0.0 0 265 0 1
gene 1 1 291 0.0 0 266 0 1
gene 1 1 292 0.0 0 267 0 1
gene 1 1 293 0.0 0 268 0 1
gene 1 1 294 0.0 0 269 0 1
gene 1 1 295 0.0 0 270 0 1
gene 1 1 296 0.0 0 271 0 1
gene 1 1 297 0.0 0 272 0 1
gene 1 1 298 0.0 0 273 0 1
gene 1 1 299 0.0 0 274 0 1
gene 1 1 300 0.0 0 275 0 1
gene 1 1 301 0.0 0 276 0 1
gene 1 1 302 0.0 0 277 0 1
gene 1 1 303 0.0 0 278 0 1
gene 1 1 304 0.0 0 279 0 1
gene 1 1 305 0.0 0 280 0 1
gene 1 1 306 0.0 0 281 0 1
gene 1 1 307 0.0 0 282 0 1
gene 1 1 308 0.0 0 283 0 1
gene 1 1 309 0.0 0 284 0 1
gene 1 1 310 0.0 0 285 0 1
gene 1 1 311 0.0 0 286 0 1
gene 1 1 312 0.0 0 287 0 1
gene 1 1 313 0.0 0 288 0 1
gene 1 1 314 0.0 0 289 0 1
gene 1 1 315 0.0 0 290 0 1
gene 1 1 316 0.0 0 291 0 1
gene 1 1 317 0.0 0 292 0 1
gene 1 1 318 0.0 0 293 0 1
gene 1 1 319 0.0 0 294 0 1
gene 1 1 320 0.0 0 295 0 1
gene 1 1 321 0.0 0 296 0 1
gene 1 1 322 0.0 0 297 0 1
gene 1 1 323 0.0 0 298 0 1
gene 1 1 324 0.0 0 299 0 1
gene 1 1 325 0.0 0 300 0 1
gene 1 1 326 0.0 0 301 0 1
gene 1 1 327 0.0 0 302 0 1
gene 1 1 328 0.0 0 303 0 1
gene 1 1 329 0.0 0 304 0 1
gene 1 1 330 0.0 0 305 0 1
gene 1 1 331 0.0 0 306 0 1
gene 1 1 332 0.0 0 307 0 1
gene 1 1 333 0.0 0 308 0 1
gene 1 1 334 0.0 0 309 0 1
gene 1 1 335 0.0 0 310 0 1
gene 1 1 336 0.0 0 311 0 1
gene 1 1 337 0.0 0 312 0 1
gene 1 1 338 0.0 0 313 0 1
gene 1 1 339 0.0 0 314 0 1
gene 1 1 340 0.0 0 315 0 1
gene 1 1 341 0.0 0 316 0 1
gene 1 1 342 0.0 0 317 0 1
gene 1 1 343 0.0 0 318 0 1
gene 1 1 344 0.0 0 319 0 1
gene 1 1 345 0.0 0 320 0 1
gene 1 1 346 0.0 0 321 0 1
gene 1 1 347 0.0 0 322 0 1
gene 1 1 348 0.0 0 323 0 1
gene 1 1 349 0.0 0 324 0 1
gene 1 1 350 0.0 0 325 0 1
gene 1 1 351 0.0 0 326 0 1
gene 1 1 352 0.0 0 327 0 1
gene 1 1 353 0.0 0 328 0 1
gene 1 1 354 0.0 0 329 0 1
gene 1 1 355 0.0 0 330 0 1
gene 1 1 356 0.0 0 331 0 1
gene 1 1 357 0.0 0 332 0 1
gene 1 1 358 0.0 0 333 0 1
gene 1 1 359 0.0 0 334 0 1
gene 1 1 360 0.0 0 335 0 1
gene 1 1 361 0.0 0 336 0 1
gene 1 1 362 0.0 0 337 0 1
gene 1 1 363 0.0 0 338 0 1
gene 1 1 364 0.0 0 339 0 1
gene 1 1 365 0.0 0 340 0 1
gene 1 1 366 0.0 0 341 0 1
gene 1 1 367 0.0 0 342 0 1
gene 1 1 368 0.0 0 343 0 1
gene 1 1 369 0.0 0 344 0 1
gene 1 1 370 0.0 0 345 0 1
gene 1 1 371 0.0 0 346 0 1
gene 1 1 372 0.0 0 347 0 1
gene 1 1 373 0.0 0 348 0 1
gene 1 1 374 0.0 0 349 0 1
gene 1 1 375 0.0 0 350 0 1
gene 1 1 376 0.0 0 351 0 1
gene 1 1 377 0.0 0 352 0 1
gene 1 1 378 0.0 0 353 0 1
gene 1 1 379 0.0 0 354 0 1
gene 1 1 380 0.0 0 355 0 1
gene 1 1 381 0.0 0 356 0 1
gene 1 1 382 0.0 0 357 0 1
gene 1 1 383 0.0 0 358 0 1
gene 1 1 384 0.0 0 359 0 1
gene 1 1 385 0.0 0 360 0 1
gene 1 1 386 0.0 0 361 0 1
gene 1 1 387 0.0 0 362 0 1
gene 1 1 388 0.0 0 363 0 1
gene 1 1 389 0.0 0 364 0 1
gene 1 1 390 0.0 0 365 0 1
gene 1 1 391 0.0 0 366 0 1
gene 1 1 392 0.0 0 367 0 1
gene 1 1 393 0.0 0 368 0 1
gene 1 1 394 0.0 0 369 0 1
gene 1 1 395 0.0 0 370 0 1
gene 1 1 396 0.0 0 371 0 1
gene 1 1 397 0.0 0 372 0 1
gene 1 1 398 0.0 0 373 0 1
gene 1 1 399 0.0 0 374 0 1
gene 1 1 400 0.0 0 375 0 1
gene 1 1 401 0.0 0 376 0 1
gene 1 1 402 0.0 0 377 0 1
gene 1 1 403 0.0 0 378 0 1
gene 1 1 404 0.0 0 379 0 1
gene 1 1 405 0.0 0 380 0 1
gene 1 1 406 0.0 0 381 0 1
gene 1 1 407 0.0 0 382 0 1
gene 1 1 408 0.0 0 383 0 1
gene 1 1 409 0.0 0 384 0 1
gene 1 1 410 0.0 0 385 0 1
gene 1 1 411 0.0 0 386 0 1
gene 1 1 412 0.0 0 387 0 1
gene 1 1 413 0.0 0 388 0 1
gene 1 1 414 0.0 0 389 0 1
gene 1 1 415 0.0 0 390 0 1
gene 1 1 416 0.0 0 391 0 1
gene 1 1 417 0.0 0 392 0 1
gene 1 1 418 0.0 0 393 0 1
gene 1 1 419 0.0 0 394 0 1
gene 1 1 420 0.0 0 395 0 1
gene 1 1 421 0.0 0 396 0 1
gene 1 1 422 0.0 0 397 0 1
gene 1 1 423 0.0 0 398 0 1
gene 1 1 424 0.0 0 399 0 1
gene 1 1 425 0.0 0 400 0 1
gene 1 1 426 0.0 0 401 0 1
gene 1 1 427 0.0 0 402 0 1
gene 1 1 428 0.0 0 403 0 1
gene 1 1 429 0.0 0 404 0 1
gene 1 1 430 0.0 0 405 0 1
gene 1 1 431 0.0 0 406 0 1
gene 1 1 432 0.0 0 407 0 1
gene 1 1 433 0.0 0 408 0 1
gene 1 1 434 0.0 0 409 0 1
gene 1 1 435 0.0 0 410 0 1
gene 1 1 436 0.0 0 411 0 1
gene 1 1 437 0.0 0 412 0 1
gene 1 1 438 0.0 0 413 0 1
gene 1 1 439 0.0 0 414 0 1
gene 1 1 440 0.0 0 415 0 1
gene 1 1 441 0.0 0 416 0 1
gene 1 1 442 0.0 0 417 0 1
gene 1 1 443 0.0 0 418 0 1
gene 1 1 444 0.0 0 419 0 1
gene 1 1 445 0.0 0 420 0 1
gene 1 1 446 0.0 0 421 0 1
gene 1 1 447 0.0 0 422 0 1
gene 1 1 448 0.0 0 423 0 1
gene 1 1 449 0.0 0 424 0 1
gene 1 1 450 0.0 0 425 0 1
gene 1 1 451 0.0 0 426 0 1
gene 1 1 452 0.0 0 427 0 1
gene 1 1 453 0.0 0 428 0 1
gene 1 1 454 0.0 0 429 0 1
gene 1 1 455 0.0 0 430 0 1
gene 1 1 456 0.0 0 431 0 1
gene 1 1 457 0.0 0 432 0 1
gene 1 1 458 0.0 0 433 0 1
gene 1 1 459 0.0 0 434 0 1
gene 1 1 460 0.0 0 435 0 1
gene 1 1 461 0.0 0 436 0 1
gene 1 1 462 0.0 0 437 0 1
gene 1 1 463 0.0 0 438 0 1
gene 1 1 464 0.0 0 439 0 1
gene 1 1 465 0.0 0 440 0 1
gene 1 1 466 0.0 0 441 0 1
gene 1 1 467 0.0 0 442 0 1
gene 1 1 468 0.0 0 443 0 1
gene 1 1 469 0.0 0 444 0 1
gene 1 1 470 0.0 0 445 0 1
gene 1 1 471 0.0 0 446 0 1
gene 1 1 472 0.0 0 447 0 1
gene 1 1 473 0.0 0 448 0 1
gene 1 1 474 0.0 0 449 0 1
gene 1 1 475 0.0 0 450 0 1
gene 1 1 476 0.0 0 451 0 1
gene 1 1 477 0.0 0 452 0 1
gene 1 1 478 0.0 0 453 0 1
gene 1 1 479 0.0 0 454 0 1
gene 1 1 480 0.0 0 455 0 1
gene 1 1 481 0.0 0 456 0 1
gene 1 1 482 0.0 0 457 0 1
gene 1 1 483 0.0 0 458 0 1
gene 1 1 484 0.0 0 459 0 1
gene 1 1 485 0.0 0 460 0 1
gene 1 1 486 0.0 0 461 0 1
gene 1 1 487 0.0 0 462 0 1
gene 1 1 488 0.0 0 463 0 1
gene 1 1 489 0.0 0 464 0 1
gene 1 1 490 0.0 0 465 0 1
gene 1 1 491 0.0 0 466 0 1
gene 1 1 492 0.0 0 467 0 1
gene 1 1 493 0.0 0 468 0 1
gene 1 1 494 0.0 0 469 0 1
gene 1 1 495 0.0 0 470 0 1
gene 1 1 496 0.0 0 471 0 1
gene 1 1 497 0.0 0 472 0 1
gene 1 1 498 0.0 0 473 0 1
gene 1 1 499 0.0 0 474 0 1
gene 1 1 500 0.0 0 475 0 1
gene 1 1 501 0.0 0 476 0 1
gene 1 1 502 0.0 0 477 0 1
gene 1 1 503 0.0 0 478 0 1
gene 1 1 504 0.0 0 479 0 1
gene 1 1 505 0.0 0 480 0 1
gene 1 1 506 0.0 0 481 0 1
gene 1 1 507 0.0 0 482 0 1
gene 1 1 508 0.0 0 483 0 1
gene 1 1 509 0.0 0 484 0 1
gene 1 1 510 0.0 0 485 0 1
gene 1 1 511 0.0 0 486 0 1
gene 1 1 512 0.0 0 487 0 1
gene 1 1 513 0.0 0 488 0 1
gene 1 1 514 0.0 0 489 0 1
gene 1 1 515 0.0 0 490 0 1
gene 1 1 516 0.0 0 491 0 1
gene 1 1 517 0.0 0 492 0 1
gene 1 1 518 0.0 0 493 0 1
gene 1 1 519 0.0 0 494 0 1
gene 1 1 520 0.0 0 495 0 1
gene 1 1 521 0.0 0 496 0 1
gene 1 1 522 0.0 0 497 0 1
gene 1 1 523 0.0 0 498 0 1
gene 1 1 524 0.0 0 499 0 1
gene 1 1 525 0.0 0 500 0 1
gene 1 1 526 0.0 0 501 0 1
gene 1 1 527 0.0 0 502 0 1
gene 1 1 528 0.0 0 503 0 1
gene 1 1 529 0.0 0 504 0 1
gene 1 1 530 0.0 0 505 0 1
gene 1 1 531 0.0 0 506 0 1
gene 1 1 532 0.0 0 507 0 1
gene 1 1 533 0.0 0 508 0 1
gene 1 1 534 0.0 0 509 0 1
gene 1 1 535 0.0 0 510 0 1
gene 1 1 536 0.0 0 511 0 1
gene 1 1 537 0.0 0 512 0 1
gene 1 1 538 0.0 0 513 0 1
gene 1 1 539 0.0 0 514 0 1
gene 1 1 540 0.0 0 515 0 1
gene 1 1 541 0.0 0 516 0 1
gene 1 1 542 0.0 0 517 0 1
gene 1 1 543 0.0 0 518 0 1
gene 1 1 544 0.0 0 519 0 1
gene 1 1 545 0.0 0 520 0 1
gene 1 1 546 0.0 0 521 0 1
gene 1 1 547 0.0 0 522 0 1
gene 1 1 548 0.0 0 523 0 1
gene 1 1 549 0.0 0 524 0 1
gene 1 1 550 0.0 0 525 0 1
gene 1 1 551 0.0 0 526 0 1
gene 1 1 552 0.0 0 527 0 1
gene 1 1 553 0.0 0 528 0 1
gene 1 1 554 0.0 0 529 0 1
gene 1 1 555 0.0 0 530 0 1
gene 1 1 556 0.0 0 531 0 1
gene 1 1 557 0.0 0 532 0 1
gene 1 1 558 0.0 0 533 0 1
gene 1 1 559 0.0 0 534 0 1
gene 1 1 560 0.0 0 535 0 1
gene 1 1 561 0.0 0 536 0 1
gene 1 1 562 0.0 0 537 0 1
gene 1 1 563 0.0 0 538 0 1
gene 1 1 564 0.0 0 539 0 1
gene 1 1 565 0.0 0 540 0 1
gene 1 1 566 0.0 0 541 0 1
gene 1 1 567 0.0 0 542 0 1
gene 1 1 568 0.0 0 543 0 1
gene 1 1 569 0.0 0 544 0 1
gene 1 1 570 0.0 0 545 0 1
gene 1 1 571 0.0 0 546 0 1
gene 1 1 572 0.0 0 547 0 1
gene 1 1 573 0.0 0 548 0 1
gene 1 1 574 0.0 0 549 0 1
gene 1 1 575 0.0 0 550 0 1
gene 1 1 576 0.0 0 551 0 1
gene 1 1 577 0.0 0 552 0 1
gene 1 1 578 0.0 0 553 0 1
gene 1 1 579 0.0 0 554 0 1
gene 1 1 580 0.0 0 555 0 1
gene 1 1 581 0.0 0 556 0 1
gene 1 1 582 0.0 0 557 0 1
gene 1 1 583 0.0 0 558 0 1
gene 1 1 584 0.0 0 559 0 1
gene 1 1 585 0.0 0 560 0 1
gene 1 1 586 0.0 0 561 0 1
gene 1 1 587 0.0 0 562 0 1
gene 1 1 588 0.0 0 563 0 1
gene 1 1 589 0.0 0 564 0 1
gene 1 1 590 0.0 0 565 0 1
gene 1 1 591 0.0 0 566 0 1
gene 1 1 592 0.0 0 567 0 1
gene 1 1 593 0.0 0 568 0 1
gene 1 1 594 0.0 0 569 0 1
gene 1 1 595 0.0 0 570 0 1
gene 1 1 596 0.0 0 571 0 1
gene 1 1 597 0.0 0 572 0 1
gene 1 1 598 0.0 0 573 0 1
gene 1 1 599 0.0 0 574 0 1
gene 1 1 600 0.0 0 575 0 1
gene 1 1 601 0.0 0 576 0 1
gene 1 1 602 0.0 0 577 0 1
gene 1 1 603 0.0 0 578 0 1
gene 1 1 604 0.0 0 579 0 1
gene 1 1 605 0.0 0 580 0 1
gene 1 1 606 0.0 0 581 0 1
gene 1 1 607 0.0 0 582 0 1
gene 1 1 608 0.0 0 583 0 1
gene 1 1 609 0.0 0 584 0 1
gene 1 1 610 0.0 0 585 0 1
gene 1 1 611 0.0 0 586 0 1
gene 1 1 612 0.0 0 587 0 1
gene 1 1 613 0.0 0 588 0 1
gene 1 1 614 0.0 0 589 0 1
gene 1 1 615 0.0 0 590 0 1
gene 1 1 616 0.0 0 591 0 1
gene 1 1 617 0.0 0 592 0 1
gene 1 1 618 0.0 0 593 0 1
gene 1 1 619 0.0 0 594 0 1
gene 1 1 620 0.0 0 595 0 1
gene 1 1 621 0.0 0 596 0 1
gene 1 1 622 0.0 0 597 0 1
gene 1 1 623 0.0 0 598 0 1
gene 1 1 624 0.0 0 599 0 1
gene 1 1 625 0.0 0 600 0 1
gene 1 1 626 0.0 0 601 0 1
gene 1 1 627 0.0 0 602 0 1
gene 1 1 628 0.0 0 603 0 1
gene 1 1 629 0.0 0 604 0 1
gene 1 1 630 0.0 0 605 0 1
gene 1 1 631 0.0 0 606 0 1
gene 1 1 632 0.0 0 607 0 1
gene 1 1 633 0.0 0 608 0 1
gene 1 1 634 0.0 0 609 0 1
gene 1 1 635 0.0 0 610 0 1
gene 1 1 636 0.0 0 611 0 1
gene 1 1 637 0.0 0 612 0 1
gene 1 1 638 0.0 0 613 0 1
gene 1 1 639 0.0 0 614 0 1
gene 1 1 640 0.0 0 615 0 1
gene 1 1 641 0.0 0 616 0 1
gene 1 1 642 0.0 0 617 0 1
gene 1 1 643 0.0 0 618 0 1
gene 1 1 644 0.0 0 619 0 1
gene 1 1 645 0.0 0 620 0 1
gene 1 1 646 0.0 0 621 0 1
gene 1 1 647 0.0 0 622 0 1
gene 1 1 648 0.0 0 623 0 1
gene 1 1 649 0.0 0 624 0 1
gene 1 1 650 0.0 0 625 0 1
gene 1 1 651 0.0 0 626 0 1
gene 1 1 652 0.0 0 627 0 1
gene 1 1 653 0.0 0 628 0 1
gene 1 1 654 0.0 0 629 0 1
gene 1 1 655 0.0 0 630 0 1
gene 1 1 656 0.0 0 631 0 1
gene 1 1 657 0.0 0 632 0 1
gene 1 1 658 0.0 0 633 0 1
gene 1 1 659 0.0 0 634 0 1
gene 1 1 660 0.0 0 635 0 1
gene 1 1 661 0.0 0 636 0 1
gene 1 1 662 0.0 0 637 0 1
gene 1 1 663 0.0 0 638 0 1
gene 1 1 664 0.0 0 639 0 1
gene 1 1 665 0.0 0 640 0 1
gene 1 1 666 0.0 0 641 0 1
gene 1 1 667 0.0 0 642 0 1
gene 1 1 668 0.0 0 643 0 1
gene 1 1 669 0.0 0 644 0 1
gene 1 1 670 0.0 0 645 0 1
gene 1 1 671 0.0 0 646 0 1
gene 1 1 672 0.0 0 647 0 1
gene 1 1 673 0.0 0 648 0 1
gene 1 1 674 0.0 0 649 0 1
gene 1 1 675 0.0 0 650 0 1
gene 1 1 676 0.0 0 651 0 1
gene 1 1 677 0.0 0 652 0 1
gene 1 1 678 0.0 0 653 0 1
gene 1 1 679 0.0 0 654 0 1
gene 1 1 680 0.0 0 655 0 1
gene 1 1 681 0.0 0 656 0 1
gene 1 1 682 0.0 0 657 0 1
gene 1 1 683 0.0 0 658 0 1
gene 1 1 684 0.0 0 659 0 1
gene 1 1 685 0.0 0 660 0 1
gene 1 1 686 0.0 0 661 0 1
gene 1 1 687 0.0 0 662 0 1
gene 1 1 688 0.0 0 663 0 1
gene 1 1 689 0.0 0 664 0 1
gene 1 1 690 0.0 0 665 0 1
gene 1 1 691 0.0 0 666 0 1
gene 1 1 692 0.0 0 667 0 1
gene 1 1 693 0.0 0 668 0 1
gene 1 1 694 0.0 0 669 0 1
gene 1 1 695 0.0 0 670 0 1
gene 1 1 696 0.0 0 671 0 1
gene 1 1 697 0.0 0 672 0 1
gene 1 1 698 0.0 0 673 0 1
gene 1 1 699 0.0 0 674 0 1
gene 1 1 700 0.0 0 675 0 1
gene 1 1 701 0.0 0 676 0 1
gene 1 1 702 0.0 0 677 0 1
gene 1 1 703 0.0 0 678 0 1
gene 1 1 704 0.0 0 679 0 1
gene 1 1 705 0.0 0 680 0 1
gene 1 1 706 0.0 0 681 0 1
gene 1 1 707 0.0 0 682 0 1
gene 1 1 708 0.0 0 683 0 1
gene 1 1 709 0.0 0 684 0 1
gene 1 1 710 0.0 0 685 0 1
gene 1 1 711 0.0 0 686 0 1
gene 1 1 712 0.0 0 687 0 1
gene 1 1 713 0.0 0 688 0 1
gene 1 1 714 0.0 0 689 0 1
gene 1 1 715 0.0 0 690 0 1
gene 1 1 716 0.0 0 691 0 1
gene 1 1 717 0.0 0 692 0 1
gene 1 1 718 0.0 0 693 0 1
gene 1 1 719 0.0 0 694 0 1
gene 1 1 720 0.0 0 695 0 1
gene 1 1 721 0.0 0 696 0 1
gene 1 1 722 0.0 0 697 0 1
gene 1 1 723 0.0 0 698 0 1
gene 1 1 724 0.0 0 699 0 1
gene 1 1 725 0.0 0 700 0 1
gene 1 1 726 0.0 0 701 0 1
gene 1 1 727 0.0 0 702 0 1
gene 1 1 728 0.0 0 703 0 1
gene 1 1 729 0.0 0 704 0 1
gene 1 1 730 0.0 0 705 0 1
gene 1 1 731 0.0 0 706 0 1
gene 1 1 732 0.0 0 707 0 1
gene 1 1 733 0.0 0 708 0 1
gene 1 1 734 0.0 0 709 0 1
gene 1 1 735 0.0 0 710 0 1
gene 1 1 736 0.0 0 711 0 1
gene 1 1 737 0.0 0 712 0 1
gene 1 1 738 0.0 0 713 0 1
gene 1 1 739 0.0 0 714 0 1
gene 1 1 740 0.0 0 715 0 1
gene 1 1 741 0.0 0 716 0 1
gene 1 1 742 0.0 0 717 0 1
gene 1 1 743 0.0 0 718 0 1
gene 1 1 744 0.0 0 719 0 1
gene 1 1 745 0.0 0 720 0 1
gene 1 1 746 0.0 0 721 0 1
gene 1 1 747 0.0 0 722 0 1
gene 1 1 748 0.0 0 723 0 1
gene 1 1 749 0.0 0 724 0 1
gene 1 1 750 0.0 0 725 0 1
gene 1 1 751 0.0 0 726 0 1
gene 1 1 752 0.0 0 727 0 1
gene 1 1 753 0.0 0 728 0 1
gene 1 1 754 0.0 0 729 0 1
gene 1 1 755 0.0 0 730 0 1
gene 1 1 756 0.0 0 731 0 1
gene 1 1 757 0.0 0 732 0 1
gene 1 1 758 0.0 0 733 0 1
gene 1 1 759 0.0 0 734 0 1
gene 1 1 760 0.0 0 735 0 1
gene 1 1 761 0.0 0 736 0 1
gene 1 1 762 0.0 0 737 0 1
gene 1 1 763 0.0 0 738 0 1
gene 1 1 764 0.0 0 739 0 1
gene 1 1 765 0.0 0 740 0 1
gene 1 1 766 0.0 0 741 0 1
gene 1 1 767 0.0 0 742 0 1
gene 1 1 768 0.0 0 743 0 1
gene 1 1 769 0.0 0 744 0 1
gene 1 1 770 0.0 0 745 0 1
gene 1 1 771 0.0 0 746 0 1
gene 1 1 772 0.0 0 747 0 1
gene 1 1 773 0.0 0 748 0 1
gene 1 1 774 0.0 0 749 0 1
gene 1 1 775 0.0 0 750 0 1
gene 1 1 776 0.0 0 751 0 1
gene 1 1 777 0.0 0 752 0 1
gene 1 1 778 0.0 0 753 0 1
gene 1 1 779 0.0 0 754 0 1
gene 1 1 780 0.0 0 755 0 1
gene 1 1 781 0.0 0 756 0 1
gene 1 1 782 0.0 0 757 0 1
gene 1 1 783 0.0 0 758 0 1
gene 1 1 784 0.0 0 759 0 1
gene 1 1 785 0.0 0 760 0 1
gene 1 1 786 0.0 0 761 0 1
gene 1 1 787 0.0 0 762 0 1
gene 1 1 788 0.0 0 763 0 1
gene 1 1 789 0.0 0 764 0 1
gene 1 1 790 0.0 0 765 0 1
gene 1 1 791 0.0 0 766 0 1
gene 1 1 792 0.0 0 767 0 1
gene 1 1 793 0.0 0 768 0 1
gene 1 1 794 0.0 0 769 0 1
gene 1 1 795 0.0 0 770 0 1
gene 1 1 796 0.0 0 771 0 1
gene 1 1 797 0.0 0 772 0 1
gene 1 1 798 0.0 0 773 0 1
gene 1 1 799 0.0 0 774 0 1
gene 1 1 800 0.0 0 775 0 1
gene 1 1 801 0.0 0 776 0 1
gene 1 1 802 0.0 0 777 0 1
gene 1 1 803 0.0 0 778 0 1
gene 1 1 804 0.0 0 779 0 1
gene 1 1 805 0.0 0 780 0 1
gene 1 1 806 0.0 0 781 0 1
gene 1 1 807 0.0 0 782 0 1
gene 1 1 808 0.0 0 783 0 1
gene 1 1 809 0.0 0 784 0 1
gene 1 1 810 0.0 0 785 0 1
gene 1 1 811 0.0 0 786 0 1
gene 1 1 812 0.0 0 787 0 1
gene 1 1 813 0.0 0 788 0 1
gene 1 1 814 0.0 0 789 0 1
gene 1 1 815 0.0 0 790 0 1
gene 1 1 816 0.0 0 791 0 1
gene 1 1 817 0.0 0 792 0 1
gene 1 1 818 0.0 0 793 0 1
gene 1 1 819 0.0 0 794 0 1
gene 1 1 820 0.0 0 795 0 1
gene 1 1 821 0.0 0 796 0 1
gene 1 1 822 0.0 0 797 0 1
gene 1 1 823 0.0 0 798 0 1
gene 1 1 824 0.0 0 799 0 1
gene 1 1 825 0.0 0 800 0 1
gene 1 1 826 0.0 0 801 0 1
gene 1 1 827 0.0 0 802 0 1
gene 1 1 828 0.0 0 803 0 1
gene 1 1 829 0.0 0 804 0 1
gene 1 1 830 0.0 0 805 0 1
gene 1 1 831 0.0 0 806 0 1
gene 1 1 832 0.0 0 807 0 1
gene 1 1 833 0.0 0 808 0 1
gene 1 1 834 0.0 0 809 0 1
gene 1 1 835 0.0 0 810 0 1
gene 1 1 836 0.0 0 811 0 1
gene 1 1 837 0.0 0 812 0 1
gene 1 1 838 0.0 0 813 0 1
gene 1 1 839 0.0 0 814 0 1
gene 1 1 840 0.0 0 815 0 1
gene 1 1 841 0.0 0 816 0 1
gene 1 1 842 0.0 0 817 0 1
gene 1 1 843 0.0 0 818 0 1
gene 1 1 844 0.0 0 819 0 1
gene 1 1 845 0.0 0 820 0 1
gene 1 1 846 0.0 0 821 0 1
gene 1 1 847 0.0 0 822 0 1
gene 1 1 848 0.0 0 823 0 1
gene 1 1 849 0.0 0 824 0 1
gene 1 1 850 0.0 0 825 0 1
gene 1 1 851 0.0 0 826 0 1
gene 1 1 852 0.0 0 827 0 1
gene 1 1 853 0.0 0 828 0 1
gene 1 1 854 0.0 0 829 0 1
gene 1 1 855 0.0 0 830 0 1
gene 1 1 856 0.0 0 831 0 1
gene 1 1 857 0.0 0 832 0 1
gene 1 1 858 0.0 0 833 0 1
gene 1 1 859 0.0 0 834 0 1
gene 1 1 860 0.0 0 835 0 1
gene 1 1 861 0.0 0 836 0 1
gene 1 1 862 0.0 0 837 0 1
gene 1 1 863 0.0 0 838 0 1
gene 1 1 864 0.0 0 839 0 1
gene 1 1 865 0.0 0 840 0 1
gene 1 1 866 0.0 0 841 0 1
gene 1 1 867 0.0 0 842 0 1
gene 1 1 868 0.0 0 843 0 1
gene 1 1 869 0.0 0 844 0 1
gene 1 1 870 0.0 0 845 0 1
gene 1 1 871 0.0 0 846 0 1
gene 1 1 872 0.0 0 847 0 1
gene 1 1 873 0.0 0 848 0 1
gene 1 1 874 0.0 0 849 0 1
gene 1 1 875 0.0 0 850 0 1
gene 1 1 876 0.0 0 851 0 1
gene 1 1 877 0.0 0 852 0 1
gene 1 1 878 0.0 0 853 0 1
gene 1 1 879 0.0 0 854 0 1
gene 1 1 880 0.0 0 855 0 1
gene 1 1 881 0.0 0 856 0 1
gene 1 1 882 0.0 0 857 0 1
gene 1 1 883 0.0 0 858 0 1
gene 1 1 884 0.0 0 859 0 1
gene 1 1 885 0.0 0 860 0 1
gene 1 1 886 0.0 0 861 0 1
gene 1 1 887 0.0 0 862 0 1
gene 1 1 888 0.0 0 863 0 1
gene 1 1 889 0.0 0 864 0 1
gene 1 1 890 0.0 0 865 0 1
gene 1 1 891 0.0 0 866 0 1
gene 1 1 892 0.0 0 867 0 1
gene 1 1 893 0.0 0 868 0 1
gene 1 1 894 0.0 0 869 0 1
gene 1 1 895 0.0 0 870 0 1
gene 1 1 896 0.0 0 871 0 1
gene 1 1 897 0.0 0 872 0 1
gene 1 1 898 0.0 0 873 0 1
gene 1 1 899 0.0 0 874 0 1
gene 1 1 900 0.0 0 875 0 1
gene 1 1 901 0.0 0 876 0 1
gene 1 1 902 0.0 0 877 0 1
gene 1 1 903 0.0 0 878 0 1
gene 1 1 904 0.0 0 879 0 1
gene 1 1 905 0.0 0 880 0 1
gene 1 1 906 0.0 0 881 0 1
gene 1 1 907 0.0 0 882 0 1
gene 1 1 908 0.0 0 883 0 1
gene 1 1 909 0.0 0 884 0 1
gene 1 1 910 0.0 0 885 0 1
gene 1 1 911 0.0 0 886 0 1
gene 1 1 912 0.0 0 887 0 1
gene 1 1 913 0.0 0 888 0 1
gene 1 1 914 0.0 0 889 0 1
gene 1 1 915 0.0 0 890 0 1
gene 1 1 916 0.0 0 891 0 1
gene 1 1 917 0.0 0 892 0 1
gene 1 1 918 0.0 0 893 0 1
gene 1 1 919 0.0 0 894 0 1
gene 1 1 920 0.0 0 895 0 1
gene 1 1 921 0.0 0 896 0 1
gene 1 1 922 0.0 0 897 0 1
gene 1 1 923 0.0 0 898 0 1
gene 1 1 924 0.0 0 899 0 1
gene 1 1 925 0.0 0 900 0 1
gene 1 1 926 0.0 0 901 0 1
gene 1 1 927 0.0 0 902 0 1
gene 1 1 928 0.0 0 903 0 1
gene 1 1 929 0.0 0 904 0 1
gene 1 1 930 0.0 0 905 0 1
gene 1 1 931 0.0 0 906 0 1
gene 1 1 932 0.0 0 907 0 1
gene 1 1 933 0.0 0 908 0 1
gene 1 1 934 0.0 0 909 0 1
gene 1 1 935 0.0 0 910 0 1
gene 1 1 936 0.0 0 911 0 1
gene 1 1 937 0.0 0 912 0 1
gene 1 1 938 0.0 0 913 0 1
gene 1 1 939 0.0 0 914 0 1
gene 1 1 940 0.0 0 915 0 1
gene 1 1 941 0.0 0 916 0 1
gene 1 1 942 0.0 0 917 0 1
gene 1 1 943 0.0 0 918 0 1
gene 1 1 944 0.0 0 919 0 1
gene 1 1 945 0.0 0 920 0 1
gene 1 1 946 0.0 0 921 0 1
gene 1 1 947 0.0 0 922 0 1
gene 1 1 948 0.0 0 923 0 1
gene 1 1 949 0.0 0 924 0 1
gene 1 1 950 0.0 0 925 0 1
gene 1 1 951 0.0 0 926 0 1
gene 1 1 952 0.0 0 927 0 1
gene 1 1 953 0.0 0 928 0 1
gene 1 1 954 0.0 0 929 0 1
gene 1 1 955 0.0 0 930 0 1
gene 1 1 956 0.0 0 931 0 1
gene 1 1 957 0.0 0 932 0 1
gene 1 1 958 0.0 0 933 0 1
gene 1 1 959 0.0 0 934 0 1
gene 1 1 960 0.0 0 935 0 1
gene 1 1 961 0.0 0 936 0 1
gene 1 1 962 0.0 0 937 0 1
gene 1 1 963 0.0 0 938 0 1
gene 1 1 964 0.0 0 939 0 1
gene 1 1 965 0.0 0 940 0 1
gene 1 1 966 0.0 0 941 0 1
gene 1 1 967 0.0 0 942 0 1
gene 1 1 968 0.0 0 943 0 1
gene 1 1 969 0.0 0 944 0 1
gene 1 1 970 0.0 0 945 0 1
gene 1 1 971 0.0 0 946 0 1
gene 1 1 972 0.0 0 947 0 1
gene 1 1 973 0.0 0 948 0 1
gene 1 1 974 0.0 0 949 0 1
gene 1 1 975 0.0 0 950 0 1
gene 1 1 976 0.0 0 951 0 1
gene 1 1 977 0.0 0 952 0 1
gene 1 1 978 0.0 0 953 0 1
gene 1 1 979 0.0 0 954 0 1
gene 1 1 980 0.0 0 955 0 1
gene 1 1 981 0.0 0 956 0 1
gene 1 1 982 0.0 0 957 0 1
gene 1 1 983 0.0 0 958 0 1
gene 1 1 984 0.0 0 959 0 1
gene 1 1 985 0.0 0 960 0 1
gene 1 1 986 0.0 0 961 0 1
gene 1 1 987 0.0 0 962 0 1
gene 1 1 988 0.0 0 963 0 1
gene 1 1 989 0.0 0 964 0 1
gene 1 1 990 0.0 0 965 0 1
gene 1 1 991 0.0 0 966 0 1
gene 1 1 992 0.0 0 967 0 1
gene 1 1 993 0.0 0 968 0 1
gene 1 1 994 0.0 0 969 0 1
gene 1 1 995 0.0 0 970 0 1
gene 1 1 996 0.0 0 971 0 1
gene 1 1 997 0.0 0 972 0 1
gene 1 1 998 0.0 0 973 0 1
gene 1 1 999 0.0 0 974 0 1
gene 1 1 1000 0.0 0 975 0 1
gene 1 1 1001 0.0 0 976 0 1
gene 1 1 1002 0.0 0 977 0 1
gene 1 1 1003 0.0 0 978 0 1
gene 1 1 1004 0.0 0 979 0 1
gene 1 1 1005 0.0 0 980 0 1
gene 1 1 1006 0.0 0 981 0 1
gene 1 1 1007 0.0 0 982 0 1
gene 1 1 1008 0.0 0 983 0 1
gene 1 1 1009 0.0 0 984 0 1
gene 1 1 1010 0.0 0 985 0 1
gene 1 1 1011 0.0 0 986 0 1
gene 1 1 1012 0.0 0 987 0 1
gene 1 1 1013 0.0 0 988 0 1
gene 1 1 1014 0.0 0 989 0 1
gene 1 1 1015 0.0 0 990 0 1
gene 1 1 1016 0.0 0 991 0 1
gene 1 1 1017 0.0 0 992 0 1
gene 1 1 1018 0.0 0 993 0 1
gene 1 1 1019 0.0 0 994 0 1
gene 1 1 1020 0.0 0 995 0 1
gene 1 1 1021 0.0 0 996 0 1
gene 1 1 1022 0.0 0 997 0 1
gene 1 1 1023 0.0 0 998 0 1
gene 1 1 1024 0.0 0 999 0 1
gene 1 1 1025 0.0 0 1000 0 1
gene 1 1 1026 0.0 0 1001 0 1
gene 1 1 1027 0.0 0 1002 0 1
gene 1 1 1028 0.0 0 1003 0 1
gene 1 1 1029 0.0 0 1004 0 1
gene 1 1 1030 0.0 0 1005 0 1
gene 1 1 1031 0.0 0 1006 0 1
gene 1 1 1032 0.0 0 1007 0 1
gene 1 1 1033 0.0 0 1008 0 1
gene 1 1 1034 0.0 0 1009 0 1
gene 1 1 1035 0.0 0 1010 0 1
gene 1 1 1036 0.0 0 1011 0 1
gene 1 1 1037 0.0 0 1012 0 1
gene 1 1 1038 0.0 0 1013 0 1
gene 1 1 1039 0.0 0 1014 0 1
gene 1 1 1040 0.0 0 1015 0 1
gene 1 1 1041 0.0 0 1016 0 1
gene 1 1 1042 0.0 0 1017 0 1
gene 1 1 1043 0.0 0 1018 0 1
gene 1 1 1044 0.0 0 1019 0 1
gene 1 1 1045 0.0 0 1020 0 1
gene 1 1 1046 0.0 0 1021 0 1
gene 1 1 1047 0.0 0 1022 0 1
gene 1 1 1048 0.0 0 1023 0 1
gene 1 1 1049 0.0 0 1024 0 1
gene 1 1 1050 0.0 0 1025 0 1
gene 1 1 1051 0.0 0 1026 0 1
gene 1 1 1052 0.0 0 1027 0 1
gene 1 1 1053 0.0 0 1028 0 1
gene 1 1 1054 0.0 0 1029 0 1
gene 1 1 1055 0.0 0 1030 0 1
gene 1 1 1056 0.0 0 1031 0 1
gene 1 1 1057 0.0 0 1032 0 1
gene 1 1 1058 0.0 0 1033 0 1
gene 1 1 1059 0.0 0 1034 0 1
gene 1 1 1060 0.0 0 1035 0 1
gene 1 1 1061 0.0 0 1036 0 1
gene 1 1 1062 0.0 0 1037 0 1
gene 1 1 1063 0.0 0 1038 0 1
gene 1 1 1064 0.0 0 1039 0 1
gene 1 1 1065 0.0 0 1040 0 1
gene 1 1 1066 0.0 0 1041 0 1
gene 1 1 1067 0.0 0 1042 0 1
gene 1 1 1068 0.0 0 1043 0 1
gene 1 1 1069 0.0 0 1044 0 1
gene 1 1 1070 0.0 0 1045 0 1
gene 1 1 1071 0.0 0 1046 0 1
gene 1 1 1072 0.0 0 1047 0 1
gene 1 1 1073 0.0 0 1048 0 1
gene 1 1 1074 0.0 0 1049 0 1
gene 1 1 1075 0.0 0 1050 0 1
gene 1 1 1076 0.0 0 1051 0 1
gene 1 1 1077 0.0 0 1052 0 1
gene 1 1 1078 0.0 0 1053 0 1
gene 1 1 1079 0.0 0 1054 0 1
gene 1 1 1080 0.0 0 1055 0 1
gene 1 1 1081 0.0 0 1056 0 1
gene 1 1 1082 0.0 0 1057 0 1
gene 1 1 1083 0.0 0 1058 0 1
gene 1 1 1084 0.0 0 1059 0 1
gene 1 1 1085 0.0 0 1060 0 1
gene 1 1 1086 0.0 0 1061 0 1
gene 1 1 1087 0.0 0 1062 0 1
gene 1 1 1088 0.0 0 1063 0 1
gene 1 1 1089 0.0 0 1064 0 1
gene 1 1 1090 0.0 0 1065 0 1
gene 1 1 1091 0.0 0 1066 0 1
gene 1 1 1092 0.0 0 1067 0 1
gene 1 1 1093 0.0 0 1068 0 1
gene 1 1 1094 0.0 0 1069 0 1
gene 1 1 1095 0.0 0 1070 0 1
gene 1 2 26 0.0 0 1071 0 1
gene 1 2 27 0.0 0 1072 0 1
gene 1 2 28 0.0 0 1073 0 1
gene 1 2 29 0.0 0 1074 0 1
gene 1 2 30 0.0 0 1075 0 1
gene 1 2 31 0.0 0 1076 0 1
gene 1 2 32 0.0 0 1077 0 1
gene 1 2 33 0.0 0 1078 0 1
gene 1 2 34 0.0 0 1079 0 1
gene 1 2 35 0.0 0 1080 0 1
gene 1 2 36 0.0 0 1081 0 1
gene 1 2 37 0.0 0 1082 0 1
gene 1 2 38 0.0 0 1083 0 1
gene 1 2 39 0.0 0 1084 0 1
gene 1 2 40 0.0 0 1085 0 1
gene 1 2 41 0.0 0 1086 0 1
gene 1 2 42 0.0 0 1087 0 1
gene 1 2 43 0.0 0 1088 0 1
gene 1 2 44 0.0 0 1089 0 1
gene 1 2 45 0.0 0 1090 0 1
gene 1 2 46 0.0 0 1091 0 1
gene 1 2 47 0.0 0 1092 0 1
gene 1 2 48 0.0 0 1093 0 1
gene 1 2 49 0.0 0 1094 0 1
gene 1 2 50 0.0 0 1095 0 1
gene 1 2 51 0.0 0 1096 0 1
gene 1 2 52 0.0 0 1097 0 1
gene 1 2 53 0.0 0 1098 0 1
gene 1 2 54 0.0 0 1099 0 1
gene 1 2 55 0.0 0 1100 0 1
gene 1 2 56 0.0 0 1101 0 1
gene 1 2 57 0.0 0 1102 0 1
gene 1 2 58 0.0 0 1103 0 1
gene 1 2 59 0.0 0 1104 0 1
gene 1 2 60 0.0 0 1105 0 1
gene 1 2 61 0.0 0 1106 0 1
gene 1 2 62 0.0 0 1107 0 1
gene 1 2 63 0.0 0 1108 0 1
gene 1 2 64 0.0 0 1109 0 1
gene 1 2 65 0.0 0 1110 0 1
gene 1 2 66 0.0 0 1111 0 1
gene 1 2 67 0.0 0 1112 0 1
gene 1 2 68 0.0 0 1113 0 1
gene 1 2 69 0.0 0 1114 0 1
gene 1 2 70 0.0 0 1115 0 1
gene 1 2 71 0.0 0 1116 0 1
gene 1 2 72 0.0 0 1117 0 1
gene 1 2 73 0.0 0 1118 0 1
gene 1 2 74 0.0 0 1119 0 1
gene 1 2 75 0.0 0 1120 0 1
gene 1 2 76 0.0 0 1121 0 1
gene 1 2 77 0.0 0 1122 0 1
gene 1 2 78 0.0 0 1123 0 1
gene 1 2 79 0.0 0 1124 0 1
gene 1 2 80 0.0 0 1125 0 1
gene 1 2 81 0.0 0 1126 0 1
gene 1 2 82 0.0 0 1127 0 1
gene 1 2 83 0.0 0 1128 0 1
gene 1 2 84 0.0 0 1129 0 1
gene 1 2 85 0.0 0 1130 0 1
gene 1 2 86 0.0 0 1131 0 1
gene 1 2 87 0.0 0 1132 0 1
gene 1 2 88 0.0 0 1133 0 1
gene 1 2 89 0.0 0 1134 0 1
gene 1 2 90 0.0 0 1135 0 1
gene 1 2 91 0.0 0 1136 0 1
gene 1 2 92 0.0 0 1137 0 1
gene 1 2 93 0.0 0 1138 0 1
gene 1 2 94 0.0 0 1139 0 1
gene 1 2 95 0.0 0 1140 0 1
gene 1 2 96 0.0 0 1141 0 1
gene 1 2 97 0.0 0 1142 0 1
gene 1 2 98 0.0 0 1143 0 1
gene 1 2 99 0.0 0 1144 0 1
gene 1 2 100 0.0 0 1145 0 1
gene 1 2 101 0.0 0 1146 0 1
gene 1 2 102 0.0 0 1147 0 1
gene 1 2 103 0.0 0 1148 0 1
gene 1 2 104 0.0 0 1149 0 1
gene 1 2 105 0.0 0 1150 0 1
gene 1 2 106 0.0 0 1151 0 1
gene 1 2 107 0.0 0 1152 0 1
gene 1 2 108 0.0 0 1153 0 1
gene 1 2 109 0.0 0 1154 0 1
gene 1 2 110 0.0 0 1155 0 1
gene 1 2 111 0.0 0 1156 0 1
gene 1 2 112 0.0 0 1157 0 1
gene 1 2 113 0.0 0 1158 0 1
gene 1 2 114 0.0 0 1159 0 1
gene 1 2 115 0.0 0 1160 0 1
gene 1 2 116 0.0 0 1161 0 1
gene 1 2 117 0.0 0 1162 0 1
gene 1 2 118 0.0 0 1163 0 1
gene 1 2 119 0.0 0 1164 0 1
gene 1 2 120 0.0 0 1165 0 1
gene 1 2 121 0.0 0 1166 0 1
gene 1 2 122 0.0 0 1167 0 1
gene 1 2 123 0.0 0 1168 0 1
gene 1 2 124 0.0 0 1169 0 1
gene 1 2 125 0.0 0 1170 0 1
gene 1 2 126 0.0 0 1171 0 1
gene 1 2 127 0.0 0 1172 0 1
gene 1 2 128 0.0 0 1173 0 1
gene 1 2 129 0.0 0 1174 0 1
gene 1 2 130 0.0 0 1175 0 1
gene 1 2 131 0.0 0 1176 0 1
gene 1 2 132 0.0 0 1177 0 1
gene 1 2 133 0.0 0 1178 0 1
gene 1 2 134 0.0 0 1179 0 1
gene 1 2 135 0.0 0 1180 0 1
gene 1 2 136 0.0 0 1181 0 1
gene 1 2 137 0.0 0 1182 0 1
gene 1 2 138 0.0 0 1183 0 1
gene 1 2 139 0.0 0 1184 0 1
gene 1 2 140 0.0 0 1185 0 1
gene 1 2 141 0.0 0 1186 0 1
gene 1 2 142 0.0 0 1187 0 1
gene 1 2 143 0.0 0 1188 0 1
gene 1 2 144 0.0 0 1189 0 1
gene 1 2 145 0.0 0 1190 0 1
gene 1 2 146 0.0 0 1191 0 1
gene 1 2 147 0.0 0 1192 0 1
gene 1 2 148 0.0 0 1193 0 1
gene 1 2 149 0.0 0 1194 0 1
gene 1 2 150 0.0 0 1195 0 1
gene 1 2 151 0.0 0 1196 0 1
gene 1 2 152 0.0 0 1197 0 1
gene 1 2 153 0.0 0 1198 0 1
gene 1 2 154 0.0 0 1199 0 1
gene 1 2 155 0.0 0 1200 0 1
gene 1 2 156 0.0 0 1201 0 1
gene 1 2 157 0.0 0 1202 0 1
gene 1 2 158 0.0 0 1203 0 1
gene 1 2 159 0.0 0 1204 0 1
gene 1 2 160 0.0 0 1205 0 1
gene 1 2 161 0.0 0 1206 0 1
gene 1 2 162 0.0 0 1207 0 1
gene 1 2 163 0.0 0 1208 0 1
gene 1 2 164 0.0 0 1209 0 1
gene 1 2 165 0.0 0 1210 0 1
gene 1 2 166 0.0 0 1211 0 1
gene 1 2 167 0.0 0 1212 0 1
gene 1 2 168 0.0 0 1213 0 1
gene 1 2 169 0.0 0 1214 0 1
gene 1 2 170 0.0 0 1215 0 1
gene 1 2 171 0.0 0 1216 0 1
gene 1 2 172 0.0 0 1217 0 1
gene 1 2 173 0.0 0 1218 0 1
gene 1 2 174 0.0 0 1219 0 1
gene 1 2 175 0.0 0 1220 0 1
gene 1 2 176 0.0 0 1221 0 1
gene 1 2 177 0.0 0 1222 0 1
gene 1 2 178 0.0 0 1223 0 1
gene 1 2 179 0.0 0 1224 0 1
gene 1 2 180 0.0 0 1225 0 1
gene 1 2 181 0.0 0 1226 0 1
gene 1 2 182 0.0 0 1227 0 1
gene 1 2 183 0.0 0 1228 0 1
gene 1 2 184 0.0 0 1229 0 1
gene 1 2 185 0.0 0 1230 0 1
gene 1 2 186 0.0 0 1231 0 1
gene 1 2 187 0.0 0 1232 0 1
gene 1 2 188 0.0 0 1233 0 1
gene 1 2 189 0.0 0 1234 0 1
gene 1 2 190 0.0 0 1235 0 1
gene 1 2 191 0.0 0 1236 0 1
gene 1 2 192 0.0 0 1237 0 1
gene 1 2 193 0.0 0 1238 0 1
gene 1 2 194 0.0 0 1239 0 1
gene 1 2 195 0.0 0 1240 0 1
gene 1 2 196 0.0 0 1241 0 1
gene 1 2 197 0.0 0 1242 0 1
gene 1 2 198 0.0 0 1243 0 1
gene 1 2 199 0.0 0 1244 0 1
gene 1 2 200 0.0 0 1245 0 1
gene 1 2 201 0.0 0 1246 0 1
gene 1 2 202 0.0 0 1247 0 1
gene 1 2 203 0.0 0 1248 0 1
gene 1 2 204 0.0 0 1249 0 1
gene 1 2 205 0.0 0 1250 0 1
gene 1 2 206 0.0 0 1251 0 1
gene 1 2 207 0.0 0 1252 0 1
gene 1 2 208 0.0 0 1253 0 1
gene 1 2 209 0.0 0 1254 0 1
gene 1 2 210 0.0 0 1255 0 1
gene 1 2 211 0.0 0 1256 0 1
gene 1 2 212 0.0 0 1257 0 1
gene 1 2 213 0.0 0 1258 0 1
gene 1 2 214 0.0 0 1259 0 1
gene 1 2 215 0.0 0 1260 0 1
gene 1 2 216 0.0 0 1261 0 1
gene 1 2 217 0.0 0 1262 0 1
gene 1 2 218 0.0 0 1263 0 1
gene 1 2 219 0.0 0 1264 0 1
gene 1 2 220 0.0 0 1265 0 1
gene 1 2 221 0.0 0 1266 0 1
gene 1 2 222 0.0 0 1267 0 1
gene 1 2 223 0.0 0 1268 0 1
gene 1 2 224 0.0 0 1269 0 1
gene 1 2 225 0.0 0 1270 0 1
gene 1 2 226 0.0 0 1271 0 1
gene 1 2 227 0.0 0 1272 0 1
gene 1 2 228 0.0 0 1273 0 1
gene 1 2 229 0.0 0 1274 0 1
gene 1 2 230 0.0 0 1275 0 1
gene 1 2 231 0.0 0 1276 0 1
gene 1 2 232 0.0 0 1277 0 1
gene 1 2 233 0.0 0 1278 0 1
gene 1 2 234 0.0 0 1279 0 1
gene 1 2 235 0.0 0 1280 0 1
gene 1 2 236 0.0 0 1281 0 1
gene 1 2 237 0.0 0 1282 0 1
gene 1 2 238 0.0 0 1283 0 1
gene 1 2 239 0.0 0 1284 0 1
gene 1 2 240 0.0 0 1285 0 1
gene 1 2 241 0.0 0 1286 0 1
gene 1 2 242 0.0 0 1287 0 1
gene 1 2 243 0.0 0 1288 0 1
gene 1 2 244 0.0 0 1289 0 1
gene 1 2 245 0.0 0 1290 0 1
gene 1 2 246 0.0 0 1291 0 1
gene 1 2 247 0.0 0 1292 0 1
gene 1 2 248 0.0 0 1293 0 1
gene 1 2 249 0.0 0 1294 0 1
gene 1 2 250 0.0 0 1295 0 1
gene 1 2 251 0.0 0 1296 0 1
gene 1 2 252 0.0 0 1297 0 1
gene 1 2 253 0.0 0 1298 0 1
gene 1 2 254 0.0 0 1299 0 1
gene 1 2 255 0.0 0 1300 0 1
gene 1 2 256 0.0 0 1301 0 1
gene 1 2 257 0.0 0 1302 0 1
gene 1 2 258 0.0 0 1303 0 1
gene 1 2 259 0.0 0 1304 0 1
gene 1 2 260 0.0 0 1305 0 1
gene 1 2 261 0.0 0 1306 0 1
gene 1 2 262 0.0 0 1307 0 1
gene 1 2 263 0.0 0 1308 0 1
gene 1 2 264 0.0 0 1309 0 1
gene 1 2 265 0.0 0 1310 0 1
gene 1 2 266 0.0 0 1311 0 1
gene 1 2 267 0.0 0 1312 0 1
gene 1 2 268 0.0 0 1313 0 1
gene 1 2 269 0.0 0 1314 0 1
gene 1 2 270 0.0 0 1315 0 1
gene 1 2 271 0.0 0 1316 0 1
gene 1 2 272 0.0 0 1317 0 1
gene 1 2 273 0.0 0 1318 0 1
gene 1 2 274 0.0 0 1319 0 1
gene 1 2 275 0.0 0 1320 0 1
gene 1 2 276 0.0 0 1321 0 1
gene 1 2 277 0.0 0 1322 0 1
gene 1 2 278 0.0 0 1323 0 1
gene 1 2 279 0.0 0 1324 0 1
gene 1 2 280 0.0 0 1325 0 1
gene 1 2 281 0.0 0 1326 0 1
gene 1 2 282 0.0 0 1327 0 1
gene 1 2 283 0.0 0 1328 0 1
gene 1 2 284 0.0 0 1329 0 1
gene 1 2 285 0.0 0 1330 0 1
gene 1 2 286 0.0 0 1331 0 1
gene 1 2 287 0.0 0 1332 0 1
gene 1 2 288 0.0 0 1333 0 1
gene 1 2 289 0.0 0 1334 0 1
gene 1 2 290 0.0 0 1335 0 1
gene 1 2 291 0.0 0 1336 0 1
gene 1 2 292 0.0 0 1337 0 1
gene 1 2 293 0.0 0 1338 0 1
gene 1 2 294 0.0 0 1339 0 1
gene 1 2 295 0.0 0 1340 0 1
gene 1 2 296 0.0 0 1341 0 1
gene 1 2 297 0.0 0 1342 0 1
gene 1 2 298 0.0 0 1343 0 1
gene 1 2 299 0.0 0 1344 0 1
gene 1 2 300 0.0 0 1345 0 1
gene 1 2 301 0.0 0 1346 0 1
gene 1 2 302 0.0 0 1347 0 1
gene 1 2 303 0.0 0 1348 0 1
gene 1 2 304 0.0 0 1349 0 1
gene 1 2 305 0.0 0 1350 0 1
gene 1 2 306 0.0 0 1351 0 1
gene 1 2 307 0.0 0 1352 0 1
gene 1 2 308 0.0 0 1353 0 1
gene 1 2 309 0.0 0 1354 0 1
gene 1 2 310 0.0 0 1355 0 1
gene 1 2 311 0.0 0 1356 0 1
gene 1 2 312 0.0 0 1357 0 1
gene 1 2 313 0.0 0 1358 0 1
gene 1 2 314 0.0 0 1359 0 1
gene 1 2 315 0.0 0 1360 0 1
gene 1 2 316 0.0 0 1361 0 1
gene 1 2 317 0.0 0 1362 0 1
gene 1 2 318 0.0 0 1363 0 1
gene 1 2 319 0.0 0 1364 0 1
gene 1 2 320 0.0 0 1365 0 1
gene 1 2 321 0.0 0 1366 0 1
gene 1 2 322 0.0 0 1367 0 1
gene 1 2 323 0.0 0 1368 0 1
gene 1 2 324 0.0 0 1369 0 1
gene 1 2 325 0.0 0 1370 0 1
gene 1 2 326 0.0 0 1371 0 1
gene 1 2 327 0.0 0 1372 0 1
gene 1 2 328 0.0 0 1373 0 1
gene 1 2 329 0.0 0 1374 0 1
gene 1 2 330 0.0 0 1375 0 1
gene 1 2 331 0.0 0 1376 0 1
gene 1 2 332 0.0 0 1377 0 1
gene 1 2 333 0.0 0 1378 0 1
gene 1 2 334 0.0 0 1379 0 1
gene 1 2 335 0.0 0 1380 0 1
gene 1 2 336 0.0 0 1381 0 1
gene 1 2 337 0.0 0 1382 0 1
gene 1 2 338 0.0 0 1383 0 1
gene 1 2 339 0.0 0 1384 0 1
gene 1 2 340 0.0 0 1385 0 1
gene 1 2 341 0.0 0 1386 0 1
gene 1 2 342 0.0 0 1387 0 1
gene 1 2 343 0.0 0 1388 0 1
gene 1 2 344 0.0 0 1389 0 1
gene 1 2 345 0.0 0 1390 0 1
gene 1 2 346 0.0 0 1391 0 1
gene 1 2 347 0.0 0 1392 0 1
gene 1 2 348 0.0 0 1393 0 1
gene 1 2 349 0.0 0 1394 0 1
gene 1 2 350 0.0 0 1395 0 1
gene 1 2 351 0.0 0 1396 0 1
gene 1 2 352 0.0 0 1397 0 1
gene 1 2 353 0.0 0 1398 0 1
gene 1 2 354 0.0 0 1399 0 1
gene 1 2 355 0.0 0 1400 0 1
gene 1 2 356 0.0 0 1401 0 1
gene 1 2 357 0.0 0 1402 0 1
gene 1 2 358 0.0 0 1403 0 1
gene 1 2 359 0.0 0 1404 0 1
gene 1 2 360 0.0 0 1405 0 1
gene 1 2 361 0.0 0 1406 0 1
gene 1 2 362 0.0 0 1407 0 1
gene 1 2 363 0.0 0 1408 0 1
gene 1 2 364 0.0 0 1409 0 1
gene 1 2 365 0.0 0 1410 0 1
gene 1 2 366 0.0 0 1411 0 1
gene 1 2 367 0.0 0 1412 0 1
gene 1 2 368 0.0 0 1413 0 1
gene 1 2 369 0.0 0 1414 0 1
gene 1 2 370 0.0 0 1415 0 1
gene 1 2 371 0.0 0 1416 0 1
gene 1 2 372 0.0 0 1417 0 1
gene 1 2 373 0.0 0 1418 0 1
gene 1 2 374 0.0 0 1419 0 1
gene 1 2 375 0.0 0 1420 0 1
gene 1 2 376 0.0 0 1421 0 1
gene 1 2 377 0.0 0 1422 0 1
gene 1 2 378 0.0 0 1423 0 1
gene 1 2 379 0.0 0 1424 0 1
gene 1 2 380 0.0 0 1425 0 1
gene 1 2 381 0.0 0 1426 0 1
gene 1 2 382 0.0 0 1427 0 1
gene 1 2 383 0.0 0 1428 0 1
gene 1 2 384 0.0 0 1429 0 1
gene 1 2 385 0.0 0 1430 0 1
gene 1 2 386 0.0 0 1431 0 1
gene 1 2 387 0.0 0 1432 0 1
gene 1 2 388 0.0 0 1433 0 1
gene 1 2 389 0.0 0 1434 0 1
gene 1 2 390 0.0 0 1435 0 1
gene 1 2 391 0.0 0 1436 0 1
gene 1 2 392 0.0 0 1437 0 1
gene 1 2 393 0.0 0 1438 0 1
gene 1 2 394 0.0 0 1439 0 1
gene 1 2 395 0.0 0 1440 0 1
gene 1 2 396 0.0 0 1441 0 1
gene 1 2 397 0.0 0 1442 0 1
gene 1 2 398 0.0 0 1443 0 1
gene 1 2 399 0.0 0 1444 0 1
gene 1 2 400 0.0 0 1445 0 1
gene 1 2 401 0.0 0 1446 0 1
gene 1 2 402 0.0 0 1447 0 1
gene 1 2 403 0.0 0 1448 0 1
gene 1 2 404 0.0 0 1449 0 1
gene 1 2 405 0.0 0 1450 0 1
gene 1 2 406 0.0 0 1451 0 1
gene 1 2 407 0.0 0 1452 0 1
gene 1 2 408 0.0 0 1453 0 1
gene 1 2 409 0.0 0 1454 0 1
gene 1 2 410 0.0 0 1455 0 1
gene 1 2 411 0.0 0 1456 0 1
gene 1 2 412 0.0 0 1457 0 1
gene 1 2 413 0.0 0 1458 0 1
gene 1 2 414 0.0 0 1459 0 1
gene 1 2 415 0.0 0 1460 0 1
gene 1 2 416 0.0 0 1461 0 1
gene 1 2 417 0.0 0 1462 0 1
gene 1 2 418 0.0 0 1463 0 1
gene 1 2 419 0.0 0 1464 0 1
gene 1 2 420 0.0 0 1465 0 1
gene 1 2 421 0.0 0 1466 0 1
gene 1 2 422 0.0 0 1467 0 1
gene 1 2 423 0.0 0 1468 0 1
gene 1 2 424 0.0 0 1469 0 1
gene 1 2 425 0.0 0 1470 0 1
gene 1 2 426 0.0 0 1471 0 1
gene 1 2 427 0.0 0 1472 0 1
gene 1 2 428 0.0 0 1473 0 1
gene 1 2 429 0.0 0 1474 0 1
gene 1 2 430 0.0 0 1475 0 1
gene 1 2 431 0.0 0 1476 0 1
gene 1 2 432 0.0 0 1477 0 1
gene 1 2 433 0.0 0 1478 0 1
gene 1 2 434 0.0 0 1479 0 1
gene 1 2 435 0.0 0 1480 0 1
gene 1 2 436 0.0 0 1481 0 1
gene 1 2 437 0.0 0 1482 0 1
gene 1 2 438 0.0 0 1483 0 1
gene 1 2 439 0.0 0 1484 0 1
gene 1 2 440 0.0 0 1485 0 1
gene 1 2 441 0.0 0 1486 0 1
gene 1 2 442 0.0 0 1487 0 1
gene 1 2 443 0.0 0 1488 0 1
gene 1 2 444 0.0 0 1489 0 1
gene 1 2 445 0.0 0 1490 0 1
gene 1 2 446 0.0 0 1491 0 1
gene 1 2 447 0.0 0 1492 0 1
gene 1 2 448 0.0 0 1493 0 1
gene 1 2 449 0.0 0 1494 0 1
gene 1 2 450 0.0 0 1495 0 1
gene 1 2 451 0.0 0 1496 0 1
gene 1 2 452 0.0 0 1497 0 1
gene 1 2 453 0.0 0 1498 0 1
gene 1 2 454 0.0 0 1499 0 1
gene 1 2 455 0.0 0 1500 0 1
gene 1 2 456 0.0 0 1501 0 1
gene 1 2 457 0.0 0 1502 0 1
gene 1 2 458 0.0 0 1503 0 1
gene 1 2 459 0.0 0 1504 0 1
gene 1 2 460 0.0 0 1505 0 1
gene 1 2 461 0.0 0 1506 0 1
gene 1 2 462 0.0 0 1507 0 1
gene 1 2 463 0.0 0 1508 0 1
gene 1 2 464 0.0 0 1509 0 1
gene 1 2 465 0.0 0 1510 0 1
gene 1 2 466 0.0 0 1511 0 1
gene 1 2 467 0.0 0 1512 0 1
gene 1 2 468 0.0 0 1513 0 1
gene 1 2 469 0.0 0 1514 0 1
gene 1 2 470 0.0 0 1515 0 1
gene 1 2 471 0.0 0 1516 0 1
gene 1 2 472 0.0 0 1517 0 1
gene 1 2 473 0.0 0 1518 0 1
gene 1 2 474 0.0 0 1519 0 1
gene 1 2 475 0.0 0 1520 0 1
gene 1 2 476 0.0 0 1521 0 1
gene 1 2 477 0.0 0 1522 0 1
gene 1 2 478 0.0 0 1523 0 1
gene 1 2 479 0.0 0 1524 0 1
gene 1 2 480 0.0 0 1525 0 1
gene 1 2 481 0.0 0 1526 0 1
gene 1 2 482 0.0 0 1527 0 1
gene 1 2 483 0.0 0 1528 0 1
gene 1 2 484 0.0 0 1529 0 1
gene 1 2 485 0.0 0 1530 0 1
gene 1 2 486 0.0 0 1531 0 1
gene 1 2 487 0.0 0 1532 0 1
gene 1 2 488 0.0 0 1533 0 1
gene 1 2 489 0.0 0 1534 0 1
gene 1 2 490 0.0 0 1535 0 1
gene 1 2 491 0.0 0 1536 0 1
gene 1 2 492 0.0 0 1537 0 1
gene 1 2 493 0.0 0 1538 0 1
gene 1 2 494 0.0 0 1539 0 1
gene 1 2 495 0.0 0 1540 0 1
gene 1 2 496 0.0 0 1541 0 1
gene 1 2 497 0.0 0 1542 0 1
gene 1 2 498 0.0 0 1543 0 1
gene 1 2 499 0.0 0 1544 0 1
gene 1 2 500 0.0 0 1545 0 1
gene 1 2 501 0.0 0 1546 0 1
gene 1 2 502 0.0 0 1547 0 1
gene 1 2 503 0.0 0 1548 0 1
gene 1 2 504 0.0 0 1549 0 1
gene 1 2 505 0.0 0 1550 0 1
gene 1 2 506 0.0 0 1551 0 1
gene 1 2 507 0.0 0 1552 0 1
gene 1 2 508 0.0 0 1553 0 1
gene 1 2 509 0.0 0 1554 0 1
gene 1 2 510 0.0 0 1555 0 1
gene 1 2 511 0.0 0 1556 0 1
gene 1 2 512 0.0 0 1557 0 1
gene 1 2 513 0.0 0 1558 0 1
gene 1 2 514 0.0 0 1559 0 1
gene 1 2 515 0.0 0 1560 0 1
gene 1 2 516 0.0 0 1561 0 1
gene 1 2 517 0.0 0 1562 0 1
gene 1 2 518 0.0 0 1563 0 1
gene 1 2 519 0.0 0 1564 0 1
gene 1 2 520 0.0 0 1565 0 1
gene 1 2 521 0.0 0 1566 0 1
gene 1 2 522 0.0 0 1567 0 1
gene 1 2 523 0.0 0 1568 0 1
gene 1 2 524 0.0 0 1569 0 1
gene 1 2 525 0.0 0 1570 0 1
gene 1 2 526 0.0 0 1571 0 1
gene 1 2 527 0.0 0 1572 0 1
gene 1 2 528 0.0 0 1573 0 1
gene 1 2 529 0.0 0 1574 0 1
gene 1 2 530 0.0 0 1575 0 1
gene 1 2 531 0.0 0 1576 0 1
gene 1 2 532 0.0 0 1577 0 1
gene 1 2 533 0.0 0 1578 0 1
gene 1 2 534 0.0 0 1579 0 1
gene 1 2 535 0.0 0 1580 0 1
gene 1 2 536 0.0 0 1581 0 1
gene 1 2 537 0.0 0 1582 0 1
gene 1 2 538 0.0 0 1583 0 1
gene 1 2 539 0.0 0 1584 0 1
gene 1 2 540 0.0 0 1585 0 1
gene 1 2 541 0.0 0 1586 0 1
gene 1 2 542 0.0 0 1587 0 1
gene 1 2 543 0.0 0 1588 0 1
gene 1 2 544 0.0 0 1589 0 1
gene 1 2 545 0.0 0 1590 0 1
gene 1 2 546 0.0 0 1591 0 1
gene 1 2 547 0.0 0 1592 0 1
gene 1 2 548 0.0 0 1593 0 1
gene 1 2 549 0.0 0 1594 0 1
gene 1 2 550 0.0 0 1595 0 1
gene 1 2 551 0.0 0 1596 0 1
gene 1 2 552 0.0 0 1597 0 1
gene 1 2 553 0.0 0 1598 0 1
gene 1 2 554 0.0 0 1599 0 1
gene 1 2 555 0.0 0 1600 0 1
gene 1 2 556 0.0 0 1601 0 1
gene 1 2 557 0.0 0 1602 0 1
gene 1 2 558 0.0 0 1603 0 1
gene 1 2 559 0.0 0 1604 0 1
gene 1 2 560 0.0 0 1605 0 1
gene 1 2 561 0.0 0 1606 0 1
gene 1 2 562 0.0 0 1607 0 1
gene 1 2 563 0.0 0 1608 0 1
gene 1 2 564 0.0 0 1609 0 1
gene 1 2 565 0.0 0 1610 0 1
gene 1 2 566 0.0 0 1611 0 1
gene 1 2 567 0.0 0 1612 0 1
gene 1 2 568 0.0 0 1613 0 1
gene 1 2 569 0.0 0 1614 0 1
gene 1 2 570 0.0 0 1615 0 1
gene 1 2 571 0.0 0 1616 0 1
gene 1 2 572 0.0 0 1617 0 1
gene 1 2 573 0.0 0 1618 0 1
gene 1 2 574 0.0 0 1619 0 1
gene 1 2 575 0.0 0 1620 0 1
gene 1 2 576 0.0 0 1621 0 1
gene 1 2 577 0.0 0 1622 0 1
gene 1 2 578 0.0 0 1623 0 1
gene 1 2 579 0.0 0 1624 0 1
gene 1 2 580 0.0 0 1625 0 1
gene 1 2 581 0.0 0 1626 0 1
gene 1 2 582 0.0 0 1627 0 1
gene 1 2 583 0.0 0 1628 0 1
gene 1 2 584 0.0 0 1629 0 1
gene 1 2 585 0.0 0 1630 0 1
gene 1 2 586 0.0 0 1631 0 1
gene 1 2 587 0.0 0 1632 0 1
gene 1 2 588 0.0 0 1633 0 1
gene 1 2 589 0.0 0 1634 0 1
gene 1 2 590 0.0 0 1635 0 1
gene 1 2 591 0.0 0 1636 0 1
gene 1 2 592 0.0 0 1637 0 1
gene 1 2 593 0.0 0 1638 0 1
gene 1 2 594 0.0 0 1639 0 1
gene 1 2 595 0.0 0 1640 0 1
gene 1 2 596 0.0 0 1641 0 1
gene 1 2 597 0.0 0 1642 0 1
gene 1 2 598 0.0 0 1643 0 1
gene 1 2 599 0.0 0 1644 0 1
gene 1 2 600 0.0 0 1645 0 1
gene 1 2 601 0.0 0 1646 0 1
gene 1 2 602 0.0 0 1647 0 1
gene 1 2 603 0.0 0 1648 0 1
gene 1 2 604 0.0 0 1649 0 1
gene 1 2 605 0.0 0 1650 0 1
gene 1 2 606 0.0 0 1651 0 1
gene 1 2 607 0.0 0 1652 0 1
gene 1 2 608 0.0 0 1653 0 1
gene 1 2 609 0.0 0 1654 0 1
gene 1 2 610 0.0 0 1655 0 1
gene 1 2 611 0.0 0 1656 0 1
gene 1 2 612 0.0 0 1657 0 1
gene 1 2 613 0.0 0 1658 0 1
gene 1 2 614 0.0 0 1659 0 1
gene 1 2 615 0.0 0 1660 0 1
gene 1 2 616 0.0 0 1661 0 1
gene 1 2 617 0.0 0 1662 0 1
gene 1 2 618 0.0 0 1663 0 1
gene 1 2 619 0.0 0 1664 0 1
gene 1 2 620 0.0 0 1665 0 1
gene 1 2 621 0.0 0 1666 0 1
gene 1 2 622 0.0 0 1667 0 1
gene 1 2 623 0.0 0 1668 0 1
gene 1 2 624 0.0 0 1669 0 1
gene 1 2 625 0.0 0 1670 0 1
gene 1 2 626 0.0 0 1671 0 1
gene 1 2 627 0.0 0 1672 0 1
gene 1 2 628 0.0 0 1673 0 1
gene 1 2 629 0.0 0 1674 0 1
gene 1 2 630 0.0 0 1675 0 1
gene 1 2 631 0.0 0 1676 0 1
gene 1 2 632 0.0 0 1677 0 1
gene 1 2 633 0.0 0 1678 0 1
gene 1 2 634 0.0 0 1679 0 1
gene 1 2 635 0.0 0 1680 0 1
gene 1 2 636 0.0 0 1681 0 1
gene 1 2 637 0.0 0 1682 0 1
gene 1 2 638 0.0 0 1683 0 1
gene 1 2 639 0.0 0 1684 0 1
gene 1 2 640 0.0 0 1685 0 1
gene 1 2 641 0.0 0 1686 0 1
gene 1 2 642 0.0 0 1687 0 1
gene 1 2 643 0.0 0 1688 0 1
gene 1 2 644 0.0 0 1689 0 1
gene 1 2 645 0.0 0 1690 0 1
gene 1 2 646 0.0 0 1691 0 1
gene 1 2 647 0.0 0 1692 0 1
gene 1 2 648 0.0 0 1693 0 1
gene 1 2 649 0.0 0 1694 0 1
gene 1 2 650 0.0 0 1695 0 1
gene 1 2 651 0.0 0 1696 0 1
gene 1 2 652 0.0 0 1697 0 1
gene 1 2 653 0.0 0 1698 0 1
gene 1 2 654 0.0 0 1699 0 1
gene 1 2 655 0.0 0 1700 0 1
gene 1 2 656 0.0 0 1701 0 1
gene 1 2 657 0.0 0 1702 0 1
gene 1 2 658 0.0 0 1703 0 1
gene 1 2 659 0.0 0 1704 0 1
gene 1 2 660 0.0 0 1705 0 1
gene 1 2 661 0.0 0 1706 0 1
gene 1 2 662 0.0 0 1707 0 1
gene 1 2 663 0.0 0 1708 0 1
gene 1 2 664 0.0 0 1709 0 1
gene 1 2 665 0.0 0 1710 0 1
gene 1 2 666 0.0 0 1711 0 1
gene 1 2 667 0.0 0 1712 0 1
gene 1 2 668 0.0 0 1713 0 1
gene 1 2 669 0.0 0 1714 0 1
gene 1 2 670 0.0 0 1715 0 1
gene 1 2 671 0.0 0 1716 0 1
gene 1 2 672 0.0 0 1717 0 1
gene 1 2 673 0.0 0 1718 0 1
gene 1 2 674 0.0 0 1719 0 1
gene 1 2 675 0.0 0 1720 0 1
gene 1 2 676 0.0 0 1721 0 1
gene 1 2 677 0.0 0 1722 0 1
gene 1 2 678 0.0 0 1723 0 1
gene 1 2 679 0.0 0 1724 0 1
gene 1 2 680 0.0 0 1725 0 1
gene 1 2 681 0.0 0 1726 0 1
gene 1 2 682 0.0 0 1727 0 1
gene 1 2 683 0.0 0 1728 0 1
gene 1 2 684 0.0 0 1729 0 1
gene 1 2 685 0.0 0 1730 0 1
gene 1 2 686 0.0 0 1731 0 1
gene 1 2 687 0.0 0 1732 0 1
gene 1 2 688 0.0 0 1733 0 1
gene 1 2 689 0.0 0 1734 0 1
gene 1 2 690 0.0 0 1735 0 1
gene 1 2 691 0.0 0 1736 0 1
gene 1 2 692 0.0 0 1737 0 1
gene 1 2 693 0.0 0 1738 0 1
gene 1 2 694 0.0 0 1739 0 1
gene 1 2 695 0.0 0 1740 0 1
gene 1 2 696 0.0 0 1741 0 1
gene 1 2 697 0.0 0 1742 0 1
gene 1 2 698 0.0 0 1743 0 1
gene 1 2 699 0.0 0 1744 0 1
gene 1 2 700 0.0 0 1745 0 1
gene 1 2 701 0.0 0 1746 0 1
gene 1 2 702 0.0 0 1747 0 1
gene 1 2 703 0.0 0 1748 0 1
gene 1 2 704 0.0 0 1749 0 1
gene 1 2 705 0.0 0 1750 0 1
gene 1 2 706 0.0 0 1751 0 1
gene 1 2 707 0.0 0 1752 0 1
gene 1 2 708 0.0 0 1753 0 1
gene 1 2 709 0.0 0 1754 0 1
gene 1 2 710 0.0 0 1755 0 1
gene 1 2 711 0.0 0 1756 0 1
gene 1 2 712 0.0 0 1757 0 1
gene 1 2 713 0.0 0 1758 0 1
gene 1 2 714 0.0 0 1759 0 1
gene 1 2 715 0.0 0 1760 0 1
gene 1 2 716 0.0 0 1761 0 1
gene 1 2 717 0.0 0 1762 0 1
gene 1 2 718 0.0 0 1763 0 1
gene 1 2 719 0.0 0 1764 0 1
gene 1 2 720 0.0 0 1765 0 1
gene 1 2 721 0.0 0 1766 0 1
gene 1 2 722 0.0 0 1767 0 1
gene 1 2 723 0.0 0 1768 0 1
gene 1 2 724 0.0 0 1769 0 1
gene 1 2 725 0.0 0 1770 0 1
gene 1 2 726 0.0 0 1771 0 1
gene 1 2 727 0.0 0 1772 0 1
gene 1 2 728 0.0 0 1773 0 1
gene 1 2 729 0.0 0 1774 0 1
gene 1 2 730 0.0 0 1775 0 1
gene 1 2 731 0.0 0 1776 0 1
gene 1 2 732 0.0 0 1777 0 1
gene 1 2 733 0.0 0 1778 0 1
gene 1 2 734 0.0 0 1779 0 1
gene 1 2 735 0.0 0 1780 0 1
gene 1 2 736 0.0 0 1781 0 1
gene 1 2 737 0.0 0 1782 0 1
gene 1 2 738 0.0 0 1783 0 1
gene 1 2 739 0.0 0 1784 0 1
gene 1 2 740 0.0 0 1785 0 1
gene 1 2 741 0.0 0 1786 0 1
gene 1 2 742 0.0 0 1787 0 1
gene 1 2 743 0.0 0 1788 0 1
gene 1 2 744 0.0 0 1789 0 1
gene 1 2 745 0.0 0 1790 0 1
gene 1 2 746 0.0 0 1791 0 1
gene 1 2 747 0.0 0 1792 0 1
gene 1 2 748 0.0 0 1793 0 1
gene 1 2 749 0.0 0 1794 0 1
gene 1 2 750 0.0 0 1795 0 1
gene 1 2 751 0.0 0 1796 0 1
gene 1 2 752 0.0 0 1797 0 1
gene 1 2 753 0.0 0 1798 0 1
gene 1 2 754 0.0 0 1799 0 1
gene 1 2 755 0.0 0 1800 0 1
gene 1 2 756 0.0 0 1801 0 1
gene 1 2 757 0.0 0 1802 0 1
gene 1 2 758 0.0 0 1803 0 1
gene 1 2 759 0.0 0 1804 0 1
gene 1 2 760 0.0 0 1805 0 1
gene 1 2 761 0.0 0 1806 0 1
gene 1 2 762 0.0 0 1807 0 1
gene 1 2 763 0.0 0 1808 0 1
gene 1 2 764 0.0 0 1809 0 1
gene 1 2 765 0.0 0 1810 0 1
gene 1 2 766 0.0 0 1811 0 1
gene 1 2 767 0.0 0 1812 0 1
gene 1 2 768 0.0 0 1813 0 1
gene 1 2 769 0.0 0 1814 0 1
gene 1 2 770 0.0 0 1815 0 1
gene 1 2 771 0.0 0 1816 0 1
gene 1 2 772 0.0 0 1817 0 1
gene 1 2 773 0.0 0 1818 0 1
gene 1 2 774 0.0 0 1819 0 1
gene 1 2 775 0.0 0 1820 0 1
gene 1 2 776 0.0 0 1821 0 1
gene 1 2 777 0.0 0 1822 0 1
gene 1 2 778 0.0 0 1823 0 1
gene 1 2 779 0.0 0 1824 0 1
gene 1 2 780 0.0 0 1825 0 1
gene 1 2 781 0.0 0 1826 0 1
gene 1 2 782 0.0 0 1827 0 1
gene 1 2 783 0.0 0 1828 0 1
gene 1 2 784 0.0 0 1829 0 1
gene 1 2 785 0.0 0 1830 0 1
gene 1 2 786 0.0 0 1831 0 1
gene 1 2 787 0.0 0 1832 0 1
gene 1 2 788 0.0 0 1833 0 1
gene 1 2 789 0.0 0 1834 0 1
gene 1 2 790 0.0 0 1835 0 1
gene 1 2 791 0.0 0 1836 0 1
gene 1 2 792 0.0 0 1837 0 1
gene 1 2 793 0.0 0 1838 0 1
gene 1 2 794 0.0 0 1839 0 1
gene 1 2 795 0.0 0 1840 0 1
gene 1 2 796 0.0 0 1841 0 1
gene 1 2 797 0.0 0 1842 0 1
gene 1 2 798 0.0 0 1843 0 1
gene 1 2 799 0.0 0 1844 0 1
gene 1 2 800 0.0 0 1845 0 1
gene 1 2 801 0.0 0 1846 0 1
gene 1 2 802 0.0 0 1847 0 1
gene 1 2 803 0.0 0 1848 0 1
gene 1 2 804 0.0 0 1849 0 1
gene 1 2 805 0.0 0 1850 0 1
gene 1 2 806 0.0 0 1851 0 1
gene 1 2 807 0.0 0 1852 0 1
gene 1 2 808 0.0 0 1853 0 1
gene 1 2 809 0.0 0 1854 0 1
gene 1 2 810 0.0 0 1855 0 1
gene 1 2 811 0.0 0 1856 0 1
gene 1 2 812 0.0 0 1857 0 1
gene 1 2 813 0.0 0 1858 0 1
gene 1 2 814 0.0 0 1859 0 1
gene 1 2 815 0.0 0 1860 0 1
gene 1 2 816 0.0 0 1861 0 1
gene 1 2 817 0.0 0 1862 0 1
gene 1 2 818 0.0 0 1863 0 1
gene 1 2 819 0.0 0 1864 0 1
gene 1 2 820 0.0 0 1865 0 1
gene 1 2 821 0.0 0 1866 0 1
gene 1 2 822 0.0 0 1867 0 1
gene 1 2 823 0.0 0 1868 0 1
gene 1 2 824 0.0 0 1869 0 1
gene 1 2 825 0.0 0 1870 0 1
gene 1 2 826 0.0 0 1871 0 1
gene 1 2 827 0.0 0 1872 0 1
gene 1 2 828 0.0 0 1873 0 1
gene 1 2 829 0.0 0 1874 0 1
gene 1 2 830 0.0 0 1875 0 1
gene 1 2 831 0.0 0 1876 0 1
gene 1 2 832 0.0 0 1877 0 1
gene 1 2 833 0.0 0 1878 0 1
gene 1 2 834 0.0 0 1879 0 1
gene 1 2 835 0.0 0 1880 0 1
gene 1 2 836 0.0 0 1881 0 1
gene 1 2 837 0.0 0 1882 0 1
gene 1 2 838 0.0 0 1883 0 1
gene 1 2 839 0.0 0 1884 0 1
gene 1 2 840 0.0 0 1885 0 1
gene 1 2 841 0.0 0 1886 0 1
gene 1 2 842 0.0 0 1887 0 1
gene 1 2 843 0.0 0 1888 0 1
gene 1 2 844 0.0 0 1889 0 1
gene 1 2 845 0.0 0 1890 0 1
gene 1 2 846 0.0 0 1891 0 1
gene 1 2 847 0.0 0 1892 0 1
gene 1 2 848 0.0 0 1893 0 1
gene 1 2 849 0.0 0 1894 0 1
gene 1 2 850 0.0 0 1895 0 1
gene 1 2 851 0.0 0 1896 0 1
gene 1 2 852 0.0 0 1897 0 1
gene 1 2 853 0.0 0 1898 0 1
gene 1 2 854 0.0 0 1899 0 1
gene 1 2 855 0.0 0 1900 0 1
gene 1 2 856 0.0 0 1901 0 1
gene 1 2 857 0.0 0 1902 0 1
gene 1 2 858 0.0 0 1903 0 1
gene 1 2 859 0.0 0 1904 0 1
gene 1 2 860 0.0 0 1905 0 1
gene 1 2 861 0.0 0 1906 0 1
gene 1 2 862 0.0 0 1907 0 1
gene 1 2 863 0.0 0 1908 0 1
gene 1 2 864 0.0 0 1909 0 1
gene 1 2 865 0.0 0 1910 0 1
gene 1 2 866 0.0 0 1911 0 1
gene 1 2 867 0.0 0 1912 0 1
gene 1 2 868 0.0 0 1913 0 1
gene 1 2 869 0.0 0 1914 0 1
gene 1 2 870 0.0 0 1915 0 1
gene 1 2 871 0.0 0 1916 0 1
gene 1 2 872 0.0 0 1917 0 1
gene 1 2 873 0.0 0 1918 0 1
gene 1 2 874 0.0 0 1919 0 1
gene 1 2 875 0.0 0 1920 0 1
gene 1 2 876 0.0 0 1921 0 1
gene 1 2 877 0.0 0 1922 0 1
gene 1 2 878 0.0 0 1923 0 1
gene 1 2 879 0.0 0 1924 0 1
gene 1 2 880 0.0 0 1925 0 1
gene 1 2 881 0.0 0 1926 0 1
gene 1 2 882 0.0 0 1927 0 1
gene 1 2 883 0.0 0 1928 0 1
gene 1 2 884 0.0 0 1929 0 1
gene 1 2 885 0.0 0 1930 0 1
gene 1 2 886 0.0 0 1931 0 1
gene 1 2 887 0.0 0 1932 0 1
gene 1 2 888 0.0 0 1933 0 1
gene 1 2 889 0.0 0 1934 0 1
gene 1 2 890 0.0 0 1935 0 1
gene 1 2 891 0.0 0 1936 0 1
gene 1 2 892 0.0 0 1937 0 1
gene 1 2 893 0.0 0 1938 0 1
gene 1 2 894 0.0 0 1939 0 1
gene 1 2 895 0.0 0 1940 0 1
gene 1 2 896 0.0 0 1941 0 1
gene 1 2 897 0.0 0 1942 0 1
gene 1 2 898 0.0 0 1943 0 1
gene 1 2 899 0.0 0 1944 0 1
gene 1 2 900 0.0 0 1945 0 1
gene 1 2 901 0.0 0 1946 0 1
gene 1 2 902 0.0 0 1947 0 1
gene 1 2 903 0.0 0 1948 0 1
gene 1 2 904 0.0 0 1949 0 1
gene 1 2 905 0.0 0 1950 0 1
gene 1 2 906 0.0 0 1951 0 1
gene 1 2 907 0.0 0 1952 0 1
gene 1 2 908 0.0 0 1953 0 1
gene 1 2 909 0.0 0 1954 0 1
gene 1 2 910 0.0 0 1955 0 1
gene 1 2 911 0.0 0 1956 0 1
gene 1 2 912 0.0 0 1957 0 1
gene 1 2 913 0.0 0 1958 0 1
gene 1 2 914 0.0 0 1959 0 1
gene 1 2 915 0.0 0 1960 0 1
gene 1 2 916 0.0 0 1961 0 1
gene 1 2 917 0.0 0 1962 0 1
gene 1 2 918 0.0 0 1963 0 1
gene 1 2 919 0.0 0 1964 0 1
gene 1 2 920 0.0 0 1965 0 1
gene 1 2 921 0.0 0 1966 0 1
gene 1 2 922 0.0 0 1967 0 1
gene 1 2 923 0.0 0 1968 0 1
gene 1 2 924 0.0 0 1969 0 1
gene 1 2 925 0.0 0 1970 0 1
gene 1 2 926 0.0 0 1971 0 1
gene 1 2 927 0.0 0 1972 0 1
gene 1 2 928 0.0 0 1973 0 1
gene 1 2 929 0.0 0 1974 0 1
gene 1 2 930 0.0 0 1975 0 1
gene 1 2 931 0.0 0 1976 0 1
gene 1 2 932 0.0 0 1977 0 1
gene 1 2 933 0.0 0 1978 0 1
gene 1 2 934 0.0 0 1979 0 1
gene 1 2 935 0.0 0 1980 0 1
gene 1 2 936 0.0 0 1981 0 1
gene 1 2 937 0.0 0 1982 0 1
gene 1 2 938 0.0 0 1983 0 1
gene 1 2 939 0.0 0 1984 0 1
gene 1 2 940 0.0 0 1985 0 1
gene 1 2 941 0.0 0 1986 0 1
gene 1 2 942 0.0 0 1987 0 1
gene 1 2 943 0.0 0 1988 0 1
gene 1 2 944 0.0 0 1989 0 1
gene 1 2 945 0.0 0 1990 0 1
gene 1 2 946 0.0 0 1991 0 1
gene 1 2 947 0.0 0 1992 0 1
gene 1 2 948 0.0 0 1993 0 1
gene 1 2 949 0.0 0 1994 0 1
gene 1 2 950 0.0 0 1995 0 1
gene 1 2 951 0.0 0 1996 0 1
gene 1 2 952 0.0 0 1997 0 1
gene 1 2 953 0.0 0 1998 0 1
gene 1 2 954 0.0 0 1999 0 1
gene 1 2 955 0.0 0 2000 0 1
gene 1 2 956 0.0 0 2001 0 1
gene 1 2 957 0.0 0 2002 0 1
gene 1 2 958 0.0 0 2003 0 1
gene 1 2 959 0.0 0 2004 0 1
gene 1 2 960 0.0 0 2005 0 1
gene 1 2 961 0.0 0 2006 0 1
gene 1 2 962 0.0 0 2007 0 1
gene 1 2 963 0.0 0 2008 0 1
gene 1 2 964 0.0 0 2009 0 1
gene 1 2 965 0.0 0 2010 0 1
gene 1 2 966 0.0 0 2011 0 1
gene 1 2 967 0.0 0 2012 0 1
gene 1 2 968 0.0 0 2013 0 1
gene 1 2 969 0.0 0 2014 0 1
gene 1 2 970 0.0 0 2015 0 1
gene 1 2 971 0.0 0 2016 0 1
gene 1 2 972 0.0 0 2017 0 1
gene 1 2 973 0.0 0 2018 0 1
gene 1 2 974 0.0 0 2019 0 1
gene 1 2 975 0.0 0 2020 0 1
gene 1 2 976 0.0 0 2021 0 1
gene 1 2 977 0.0 0 2022 0 1
gene 1 2 978 0.0 0 2023 0 1
gene 1 2 979 0.0 0 2024 0 1
gene 1 2 980 0.0 0 2025 0 1
gene 1 2 981 0.0 0 2026 0 1
gene 1 2 982 0.0 0 2027 0 1
gene 1 2 983 0.0 0 2028 0 1
gene 1 2 984 0.0 0 2029 0 1
gene 1 2 985 0.0 0 2030 0 1
gene 1 2 986 0.0 0 2031 0 1
gene 1 2 987 0.0 0 2032 0 1
gene 1 2 988 0.0 0 2033 0 1
gene 1 2 989 0.0 0 2034 0 1
gene 1 2 990 0.0 0 2035 0 1
gene 1 2 991 0.0 0 2036 0 1
gene 1 2 992 0.0 0 2037 0 1
gene 1 2 993 0.0 0 2038 0 1
gene 1 2 994 0.0 0 2039 0 1
gene 1 2 995 0.0 0 2040 0 1
gene 1 2 996 0.0 0 2041 0 1
gene 1 2 997 0.0 0 2042 0 1
gene 1 2 998 0.0 0 2043 0 1
gene 1 2 999 0.0 0 2044 0 1
gene 1 2 1000 0.0 0 2045 0 1
gene 1 2 1001 0.0 0 2046 0 1
gene 1 2 1002 0.0 0 2047 0 1
gene 1 2 1003 0.0 0 2048 0 1
gene 1 2 1004 0.0 0 2049 0 1
gene 1 2 1005 0.0 0 2050 0 1
gene 1 2 1006 0.0 0 2051 0 1
gene 1 2 1007 0.0 0 2052 0 1
gene 1 2 1008 0.0 0 2053 0 1
gene 1 2 1009 0.0 0 2054 0 1
gene 1 2 1010 0.0 0 2055 0 1
gene 1 2 1011 0.0 0 2056 0 1
gene 1 2 1012 0.0 0 2057 0 1
gene 1 2 1013 0.0 0 2058 0 1
gene 1 2 1014 0.0 0 2059 0 1
gene 1 2 1015 0.0 0 2060 0 1
gene 1 2 1016 0.0 0 2061 0 1
gene 1 2 1017 0.0 0 2062 0 1
gene 1 2 1018 0.0 0 2063 0 1
gene 1 2 1019 0.0 0 2064 0 1
gene 1 2 1020 0.0 0 2065 0 1
gene 1 2 1021 0.0 0 2066 0 1
gene 1 2 1022 0.0 0 2067 0 1
gene 1 2 1023 0.0 0 2068 0 1
gene 1 2 1024 0.0 0 2069 0 1
gene 1 2 1025 0.0 0 2070 0 1
gene 1 2 1026 0.0 0 2071 0 1
gene 1 2 1027 0.0 0 2072 0 1
gene 1 2 1028 0.0 0 2073 0 1
gene 1 2 1029 0.0 0 2074 0 1
gene 1 2 1030 0.0 0 2075 0 1
gene 1 2 1031 0.0 0 2076 0 1
gene 1 2 1032 0.0 0 2077 0 1
gene 1 2 1033 0.0 0 2078 0 1
gene 1 2 1034 0.0 0 2079 0 1
gene 1 2 1035 0.0 0 2080 0 1
gene 1 2 1036 0.0 0 2081 0 1
gene 1 2 1037 0.0 0 2082 0 1
gene 1 2 1038 0.0 0 2083 0 1
gene 1 2 1039 0.0 0 2084 0 1
gene 1 2 1040 0.0 0 2085 0 1
gene 1 2 1041 0.0 0 2086 0 1
gene 1 2 1042 0.0 0 2087 0 1
gene 1 2 1043 0.0 0 2088 0 1
gene 1 2 1044 0.0 0 2089 0 1
gene 1 2 1045 0.0 0 2090 0 1
gene 1 2 1046 0.0 0 2091 0 1
gene 1 2 1047 0.0 0 2092 0 1
gene 1 2 1048 0.0 0 2093 0 1
gene 1 2 1049 0.0 0 2094 0 1
gene 1 2 1050 0.0 0 2095 0 1
gene 1 2 1051 0.0 0 2096 0 1
gene 1 2 1052 0.0 0 2097 0 1
gene 1 2 1053 0.0 0 2098 0 1
gene 1 2 1054 0.0 0 2099 0 1
gene 1 2 1055 0.0 0 2100 0 1
gene 1 2 1056 0.0 0 2101 0 1
gene 1 2 1057 0.0 0 2102 0 1
gene 1 2 1058 0.0 0 2103 0 1
gene 1 2 1059 0.0 0 2104 0 1
gene 1 2 1060 0.0 0 2105 0 1
gene 1 2 1061 0.0 0 2106 0 1
gene 1 2 1062 0.0 0 2107 0 1
gene 1 2 1063 0.0 0 2108 0 1
gene 1 2 1064 0.0 0 2109 0 1
gene 1 2 1065 0.0 0 2110 0 1
gene 1 2 1066 0.0 0 2111 0 1
gene 1 2 1067 0.0 0 2112 0 1
gene 1 2 1068 0.0 0 2113 0 1
gene 1 2 1069 0.0 0 2114 0 1
gene 1 2 1070 0.0 0 2115 0 1
gene 1 2 1071 0.0 0 2116 0 1
gene 1 2 1072 0.0 0 2117 0 1
gene 1 2 1073 0.0 0 2118 0 1
gene 1 2 1074 0.0 0 2119 0 1
gene 1 2 1075 0.0 0 2120 0 1
gene 1 2 1076 0.0 0 2121 0 1
gene 1 2 1077 0.0 0 2122 0 1
gene 1 2 1078 0.0 0 2123 0 1
gene 1 2 1079 0.0 0 2124 0 1
gene 1 2 1080 0.0 0 2125 0 1
gene 1 2 1081 0.0 0 2126 0 1
gene 1 2 1082 0.0 0 2127 0 1
gene 1 2 1083 0.0 0 2128 0 1
gene 1 2 1084 0.0 0 2129 0 1
gene 1 2 1085 0.0 0 2130 0 1
gene 1 2 1086 0.0 0 2131 0 1
gene 1 2 1087 0.0 0 2132 0 1
gene 1 2 1088 0.0 0 2133 0 1
gene 1 2 1089 0.0 0 2134 0 1
gene 1 2 1090 0.0 0 2135 0 1
gene 1 2 1091 0.0 0 2136 0 1
gene 1 2 1092 0.0 0 2137 0 1
gene 1 2 1093 0.0 0 2138 0 1
gene 1 2 1094 0.0 0 2139 0 1
gene 1 2 1095 0.0 0 2140 0 1
gene 1 3 26 0.0 0 2141 0 1
gene 1 3 27 0.0 0 2142 0 1
gene 1 3 28 0.0 0 2143 0 1
gene 1 3 29 0.0 0 2144 0 1
gene 1 3 30 0.0 0 2145 0 1
gene 1 3 31 0.0 0 2146 0 1
gene 1 3 32 0.0 0 2147 0 1
gene 1 3 33 0.0 0 2148 0 1
gene 1 3 34 0.0 0 2149 0 1
gene 1 3 35 0.0 0 2150 0 1
gene 1 3 36 0.0 0 2151 0 1
gene 1 3 37 0.0 0 2152 0 1
gene 1 3 38 0.0 0 2153 0 1
gene 1 3 39 0.0 0 2154 0 1
gene 1 3 40 0.0 0 2155 0 1
gene 1 3 41 0.0 0 2156 0 1
gene 1 3 42 0.0 0 2157 0 1
gene 1 3 43 0.0 0 2158 0 1
gene 1 3 44 0.0 0 2159 0 1
gene 1 3 45 0.0 0 2160 0 1
gene 1 3 46 0.0 0 2161 0 1
gene 1 3 47 0.0 0 2162 0 1
gene 1 3 48 0.0 0 2163 0 1
gene 1 3 49 0.0 0 2164 0 1
gene 1 3 50 0.0 0 2165 0 1
gene 1 3 51 0.0 0 2166 0 1
gene 1 3 52 0.0 0 2167 0 1
gene 1 3 53 0.0 0 2168 0 1
gene 1 3 54 0.0 0 2169 0 1
gene 1 3 55 0.0 0 2170 0 1
gene 1 3 56 0.0 0 2171 0 1
gene 1 3 57 0.0 0 2172 0 1
gene 1 3 58 0.0 0 2173 0 1
gene 1 3 59 0.0 0 2174 0 1
gene 1 3 60 0.0 0 2175 0 1
gene 1 3 61 0.0 0 2176 0 1
gene 1 3 62 0.0 0 2177 0 1
gene 1 3 63 0.0 0 2178 0 1
gene 1 3 64 0.0 0 2179 0 1
gene 1 3 65 0.0 0 2180 0 1
gene 1 3 66 0.0 0 2181 0 1
gene 1 3 67 0.0 0 2182 0 1
gene 1 3 68 0.0 0 2183 0 1
gene 1 3 69 0.0 0 2184 0 1
gene 1 3 70 0.0 0 2185 0 1
gene 1 3 71 0.0 0 2186 0 1
gene 1 3 72 0.0 0 2187 0 1
gene 1 3 73 0.0 0 2188 0 1
gene 1 3 74 0.0 0 2189 0 1
gene 1 3 75 0.0 0 2190 0 1
gene 1 3 76 0.0 0 2191 0 1
gene 1 3 77 0.0 0 2192 0 1
gene 1 3 78 0.0 0 2193 0 1
gene 1 3 79 0.0 0 2194 0 1
gene 1 3 80 0.0 0 2195 0 1
gene 1 3 81 0.0 0 2196 0 1
gene 1 3 82 0.0 0 2197 0 1
gene 1 3 83 0.0 0 2198 0 1
gene 1 3 84 0.0 0 2199 0 1
gene 1 3 85 0.0 0 2200 0 1
gene 1 3 86 0.0 0 2201 0 1
gene 1 3 87 0.0 0 2202 0 1
gene 1 3 88 0.0 0 2203 0 1
gene 1 3 89 0.0 0 2204 0 1
gene 1 3 90 0.0 0 2205 0 1
gene 1 3 91 0.0 0 2206 0 1
gene 1 3 92 0.0 0 2207 0 1
gene 1 3 93 0.0 0 2208 0 1
gene 1 3 94 0.0 0 2209 0 1
gene 1 3 95 0.0 0 2210 0 1
gene 1 3 96 0.0 0 2211 0 1
gene 1 3 97 0.0 0 2212 0 1
gene 1 3 98 0.0 0 2213 0 1
gene 1 3 99 0.0 0 2214 0 1
gene 1 3 100 0.0 0 2215 0 1
gene 1 3 101 0.0 0 2216 0 1
gene 1 3 102 0.0 0 2217 0 1
gene 1 3 103 0.0 0 2218 0 1
gene 1 3 104 0.0 0 2219 0 1
gene 1 3 105 0.0 0 2220 0 1
gene 1 3 106 0.0 0 2221 0 1
gene 1 3 107 0.0 0 2222 0 1
gene 1 3 108 0.0 0 2223 0 1
gene 1 3 109 0.0 0 2224 0 1
gene 1 3 110 0.0 0 2225 0 1
gene 1 3 111 0.0 0 2226 0 1
gene 1 3 112 0.0 0 2227 0 1
gene 1 3 113 0.0 0 2228 0 1
gene 1 3 114 0.0 0 2229 0 1
gene 1 3 115 0.0 0 2230 0 1
gene 1 3 116 0.0 0 2231 0 1
gene 1 3 117 0.0 0 2232 0 1
gene 1 3 118 0.0 0 2233 0 1
gene 1 3 119 0.0 0 2234 0 1
gene 1 3 120 0.0 0 2235 0 1
gene 1 3 121 0.0 0 2236 0 1
gene 1 3 122 0.0 0 2237 0 1
gene 1 3 123 0.0 0 2238 0 1
gene 1 3 124 0.0 0 2239 0 1
gene 1 3 125 0.0 0 2240 0 1
gene 1 3 126 0.0 0 2241 0 1
gene 1 3 127 0.0 0 2242 0 1
gene 1 3 128 0.0 0 2243 0 1
gene 1 3 129 0.0 0 2244 0 1
gene 1 3 130 0.0 0 2245 0 1
gene 1 3 131 0.0 0 2246 0 1
gene 1 3 132 0.0 0 2247 0 1
gene 1 3 133 0.0 0 2248 0 1
gene 1 3 134 0.0 0 2249 0 1
gene 1 3 135 0.0 0 2250 0 1
gene 1 3 136 0.0 0 2251 0 1
gene 1 3 137 0.0 0 2252 0 1
gene 1 3 138 0.0 0 2253 0 1
gene 1 3 139 0.0 0 2254 0 1
gene 1 3 140 0.0 0 2255 0 1
gene 1 3 141 0.0 0 2256 0 1
gene 1 3 142 0.0 0 2257 0 1
gene 1 3 143 0.0 0 2258 0 1
gene 1 3 144 0.0 0 2259 0 1
gene 1 3 145 0.0 0 2260 0 1
gene 1 3 146 0.0 0 2261 0 1
gene 1 3 147 0.0 0 2262 0 1
gene 1 3 148 0.0 0 2263 0 1
gene 1 3 149 0.0 0 2264 0 1
gene 1 3 150 0.0 0 2265 0 1
gene 1 3 151 0.0 0 2266 0 1
gene 1 3 152 0.0 0 2267 0 1
gene 1 3 153 0.0 0 2268 0 1
gene 1 3 154 0.0 0 2269 0 1
gene 1 3 155 0.0 0 2270 0 1
gene 1 3 156 0.0 0 2271 0 1
gene 1 3 157 0.0 0 2272 0 1
gene 1 3 158 0.0 0 2273 0 1
gene 1 3 159 0.0 0 2274 0 1
gene 1 3 160 0.0 0 2275 0 1
gene 1 3 161 0.0 0 2276 0 1
gene 1 3 162 0.0 0 2277 0 1
gene 1 3 163 0.0 0 2278 0 1
gene 1 3 164 0.0 0 2279 0 1
gene 1 3 165 0.0 0 2280 0 1
gene 1 3 166 0.0 0 2281 0 1
gene 1 3 167 0.0 0 2282 0 1
gene 1 3 168 0.0 0 2283 0 1
gene 1 3 169 0.0 0 2284 0 1
gene 1 3 170 0.0 0 2285 0 1
gene 1 3 171 0.0 0 2286 0 1
gene 1 3 172 0.0 0 2287 0 1
gene 1 3 173 0.0 0 2288 0 1
gene 1 3 174 0.0 0 2289 0 1
gene 1 3 175 0.0 0 2290 0 1
gene 1 3 176 0.0 0 2291 0 1
gene 1 3 177 0.0 0 2292 0 1
gene 1 3 178 0.0 0 2293 0 1
gene 1 3 179 0.0 0 2294 0 1
gene 1 3 180 0.0 0 2295 0 1
gene 1 3 181 0.0 0 2296 0 1
gene 1 3 182 0.0 0 2297 0 1
gene 1 3 183 0.0 0 2298 0 1
gene 1 3 184 0.0 0 2299 0 1
gene 1 3 185 0.0 0 2300 0 1
gene 1 3 186 0.0 0 2301 0 1
gene 1 3 187 0.0 0 2302 0 1
gene 1 3 188 0.0 0 2303 0 1
gene 1 3 189 0.0 0 2304 0 1
gene 1 3 190 0.0 0 2305 0 1
gene 1 3 191 0.0 0 2306 0 1
gene 1 3 192 0.0 0 2307 0 1
gene 1 3 193 0.0 0 2308 0 1
gene 1 3 194 0.0 0 2309 0 1
gene 1 3 195 0.0 0 2310 0 1
gene 1 3 196 0.0 0 2311 0 1
gene 1 3 197 0.0 0 2312 0 1
gene 1 3 198 0.0 0 2313 0 1
gene 1 3 199 0.0 0 2314 0 1
gene 1 3 200 0.0 0 2315 0 1
gene 1 3 201 0.0 0 2316 0 1
gene 1 3 202 0.0 0 2317 0 1
gene 1 3 203 0.0 0 2318 0 1
gene 1 3 204 0.0 0 2319 0 1
gene 1 3 205 0.0 0 2320 0 1
gene 1 3 206 0.0 0 2321 0 1
gene 1 3 207 0.0 0 2322 0 1
gene 1 3 208 0.0 0 2323 0 1
gene 1 3 209 0.0 0 2324 0 1
gene 1 3 210 0.0 0 2325 0 1
gene 1 3 211 0.0 0 2326 0 1
gene 1 3 212 0.0 0 2327 0 1
gene 1 3 213 0.0 0 2328 0 1
gene 1 3 214 0.0 0 2329 0 1
gene 1 3 215 0.0 0 2330 0 1
gene 1 3 216 0.0 0 2331 0 1
gene 1 3 217 0.0 0 2332 0 1
gene 1 3 218 0.0 0 2333 0 1
gene 1 3 219 0.0 0 2334 0 1
gene 1 3 220 0.0 0 2335 0 1
gene 1 3 221 0.0 0 2336 0 1
gene 1 3 222 0.0 0 2337 0 1
gene 1 3 223 0.0 0 2338 0 1
gene 1 3 224 0.0 0 2339 0 1
gene 1 3 225 0.0 0 2340 0 1
gene 1 3 226 0.0 0 2341 0 1
gene 1 3 227 0.0 0 2342 0 1
gene 1 3 228 0.0 0 2343 0 1
gene 1 3 229 0.0 0 2344 0 1
gene 1 3 230 0.0 0 2345 0 1
gene 1 3 231 0.0 0 2346 0 1
gene 1 3 232 0.0 0 2347 0 1
gene 1 3 233 0.0 0 2348 0 1
gene 1 3 234 0.0 0 2349 0 1
gene 1 3 235 0.0 0 2350 0 1
gene 1 3 236 0.0 0 2351 0 1
gene 1 3 237 0.0 0 2352 0 1
gene 1 3 238 0.0 0 2353 0 1
gene 1 3 239 0.0 0 2354 0 1
gene 1 3 240 0.0 0 2355 0 1
gene 1 3 241 0.0 0 2356 0 1
gene 1 3 242 0.0 0 2357 0 1
gene 1 3 243 0.0 0 2358 0 1
gene 1 3 244 0.0 0 2359 0 1
gene 1 3 245 0.0 0 2360 0 1
gene 1 3 246 0.0 0 2361 0 1
gene 1 3 247 0.0 0 2362 0 1
gene 1 3 248 0.0 0 2363 0 1
gene 1 3 249 0.0 0 2364 0 1
gene 1 3 250 0.0 0 2365 0 1
gene 1 3 251 0.0 0 2366 0 1
gene 1 3 252 0.0 0 2367 0 1
gene 1 3 253 0.0 0 2368 0 1
gene 1 3 254 0.0 0 2369 0 1
gene 1 3 255 0.0 0 2370 0 1
gene 1 3 256 0.0 0 2371 0 1
gene 1 3 257 0.0 0 2372 0 1
gene 1 3 258 0.0 0 2373 0 1
gene 1 3 259 0.0 0 2374 0 1
gene 1 3 260 0.0 0 2375 0 1
gene 1 3 261 0.0 0 2376 0 1
gene 1 3 262 0.0 0 2377 0 1
gene 1 3 263 0.0 0 2378 0 1
gene 1 3 264 0.0 0 2379 0 1
gene 1 3 265 0.0 0 2380 0 1
gene 1 3 266 0.0 0 2381 0 1
gene 1 3 267 0.0 0 2382 0 1
gene 1 3 268 0.0 0 2383 0 1
gene 1 3 269 0.0 0 2384 0 1
gene 1 3 270 0.0 0 2385 0 1
gene 1 3 271 0.0 0 2386 0 1
gene 1 3 272 0.0 0 2387 0 1
gene 1 3 273 0.0 0 2388 0 1
gene 1 3 274 0.0 0 2389 0 1
gene 1 3 275 0.0 0 2390 0 1
gene 1 3 276 0.0 0 2391 0 1
gene 1 3 277 0.0 0 2392 0 1
gene 1 3 278 0.0 0 2393 0 1
gene 1 3 279 0.0 0 2394 0 1
gene 1 3 280 0.0 0 2395 0 1
gene 1 3 281 0.0 0 2396 0 1
gene 1 3 282 0.0 0 2397 0 1
gene 1 3 283 0.0 0 2398 0 1
gene 1 3 284 0.0 0 2399 0 1
gene 1 3 285 0.0 0 2400 0 1
gene 1 3 286 0.0 0 2401 0 1
gene 1 3 287 0.0 0 2402 0 1
gene 1 3 288 0.0 0 2403 0 1
gene 1 3 289 0.0 0 2404 0 1
gene 1 3 290 0.0 0 2405 0 1
gene 1 3 291 0.0 0 2406 0 1
gene 1 3 292 0.0 0 2407 0 1
gene 1 3 293 0.0 0 2408 0 1
gene 1 3 294 0.0 0 2409 0 1
gene 1 3 295 0.0 0 2410 0 1
gene 1 3 296 0.0 0 2411 0 1
gene 1 3 297 0.0 0 2412 0 1
gene 1 3 298 0.0 0 2413 0 1
gene 1 3 299 0.0 0 2414 0 1
gene 1 3 300 0.0 0 2415 0 1
gene 1 3 301 0.0 0 2416 0 1
gene 1 3 302 0.0 0 2417 0 1
gene 1 3 303 0.0 0 2418 0 1
gene 1 3 304 0.0 0 2419 0 1
gene 1 3 305 0.0 0 2420 0 1
gene 1 3 306 0.0 0 2421 0 1
gene 1 3 307 0.0 0 2422 0 1
gene 1 3 308 0.0 0 2423 0 1
gene 1 3 309 0.0 0 2424 0 1
gene 1 3 310 0.0 0 2425 0 1
gene 1 3 311 0.0 0 2426 0 1
gene 1 3 312 0.0 0 2427 0 1
gene 1 3 313 0.0 0 2428 0 1
gene 1 3 314 0.0 0 2429 0 1
gene 1 3 315 0.0 0 2430 0 1
gene 1 3 316 0.0 0 2431 0 1
gene 1 3 317 0.0 0 2432 0 1
gene 1 3 318 0.0 0 2433 0 1
gene 1 3 319 0.0 0 2434 0 1
gene 1 3 320 0.0 0 2435 0 1
gene 1 3 321 0.0 0 2436 0 1
gene 1 3 322 0.0 0 2437 0 1
gene 1 3 323 0.0 0 2438 0 1
gene 1 3 324 0.0 0 2439 0 1
gene 1 3 325 0.0 0 2440 0 1
gene 1 3 326 0.0 0 2441 0 1
gene 1 3 327 0.0 0 2442 0 1
gene 1 3 328 0.0 0 2443 0 1
gene 1 3 329 0.0 0 2444 0 1
gene 1 3 330 0.0 0 2445 0 1
gene 1 3 331 0.0 0 2446 0 1
gene 1 3 332 0.0 0 2447 0 1
gene 1 3 333 0.0 0 2448 0 1
gene 1 3 334 0.0 0 2449 0 1
gene 1 3 335 0.0 0 2450 0 1
gene 1 3 336 0.0 0 2451 0 1
gene 1 3 337 0.0 0 2452 0 1
gene 1 3 338 0.0 0 2453 0 1
gene 1 3 339 0.0 0 2454 0 1
gene 1 3 340 0.0 0 2455 0 1
gene 1 3 341 0.0 0 2456 0 1
gene 1 3 342 0.0 0 2457 0 1
gene 1 3 343 0.0 0 2458 0 1
gene 1 3 344 0.0 0 2459 0 1
gene 1 3 345 0.0 0 2460 0 1
gene 1 3 346 0.0 0 2461 0 1
gene 1 3 347 0.0 0 2462 0 1
gene 1 3 348 0.0 0 2463 0 1
gene 1 3 349 0.0 0 2464 0 1
gene 1 3 350 0.0 0 2465 0 1
gene 1 3 351 0.0 0 2466 0 1
gene 1 3 352 0.0 0 2467 0 1
gene 1 3 353 0.0 0 2468 0 1
gene 1 3 354 0.0 0 2469 0 1
gene 1 3 355 0.0 0 2470 0 1
gene 1 3 356 0.0 0 2471 0 1
gene 1 3 357 0.0 0 2472 0 1
gene 1 3 358 0.0 0 2473 0 1
gene 1 3 359 0.0 0 2474 0 1
gene 1 3 360 0.0 0 2475 0 1
gene 1 3 361 0.0 0 2476 0 1
gene 1 3 362 0.0 0 2477 0 1
gene 1 3 363 0.0 0 2478 0 1
gene 1 3 364 0.0 0 2479 0 1
gene 1 3 365 0.0 0 2480 0 1
gene 1 3 366 0.0 0 2481 0 1
gene 1 3 367 0.0 0 2482 0 1
gene 1 3 368 0.0 0 2483 0 1
gene 1 3 369 0.0 0 2484 0 1
gene 1 3 370 0.0 0 2485 0 1
gene 1 3 371 0.0 0 2486 0 1
gene 1 3 372 0.0 0 2487 0 1
gene 1 3 373 0.0 0 2488 0 1
gene 1 3 374 0.0 0 2489 0 1
gene 1 3 375 0.0 0 2490 0 1
gene 1 3 376 0.0 0 2491 0 1
gene 1 3 377 0.0 0 2492 0 1
gene 1 3 378 0.0 0 2493 0 1
gene 1 3 379 0.0 0 2494 0 1
gene 1 3 380 0.0 0 2495 0 1
gene 1 3 381 0.0 0 2496 0 1
gene 1 3 382 0.0 0 2497 0 1
gene 1 3 383 0.0 0 2498 0 1
gene 1 3 384 0.0 0 2499 0 1
gene 1 3 385 0.0 0 2500 0 1
gene 1 3 386 0.0 0 2501 0 1
gene 1 3 387 0.0 0 2502 0 1
gene 1 3 388 0.0 0 2503 0 1
gene 1 3 389 0.0 0 2504 0 1
gene 1 3 390 0.0 0 2505 0 1
gene 1 3 391 0.0 0 2506 0 1
gene 1 3 392 0.0 0 2507 0 1
gene 1 3 393 0.0 0 2508 0 1
gene 1 3 394 0.0 0 2509 0 1
gene 1 3 395 0.0 0 2510 0 1
gene 1 3 396 0.0 0 2511 0 1
gene 1 3 397 0.0 0 2512 0 1
gene 1 3 398 0.0 0 2513 0 1
gene 1 3 399 0.0 0 2514 0 1
gene 1 3 400 0.0 0 2515 0 1
gene 1 3 401 0.0 0 2516 0 1
gene 1 3 402 0.0 0 2517 0 1
gene 1 3 403 0.0 0 2518 0 1
gene 1 3 404 0.0 0 2519 0 1
gene 1 3 405 0.0 0 2520 0 1
gene 1 3 406 0.0 0 2521 0 1
gene 1 3 407 0.0 0 2522 0 1
gene 1 3 408 0.0 0 2523 0 1
gene 1 3 409 0.0 0 2524 0 1
gene 1 3 410 0.0 0 2525 0 1
gene 1 3 411 0.0 0 2526 0 1
gene 1 3 412 0.0 0 2527 0 1
gene 1 3 413 0.0 0 2528 0 1
gene 1 3 414 0.0 0 2529 0 1
gene 1 3 415 0.0 0 2530 0 1
gene 1 3 416 0.0 0 2531 0 1
gene 1 3 417 0.0 0 2532 0 1
gene 1 3 418 0.0 0 2533 0 1
gene 1 3 419 0.0 0 2534 0 1
gene 1 3 420 0.0 0 2535 0 1
gene 1 3 421 0.0 0 2536 0 1
gene 1 3 422 0.0 0 2537 0 1
gene 1 3 423 0.0 0 2538 0 1
gene 1 3 424 0.0 0 2539 0 1
gene 1 3 425 0.0 0 2540 0 1
gene 1 3 426 0.0 0 2541 0 1
gene 1 3 427 0.0 0 2542 0 1
gene 1 3 428 0.0 0 2543 0 1
gene 1 3 429 0.0 0 2544 0 1
gene 1 3 430 0.0 0 2545 0 1
gene 1 3 431 0.0 0 2546 0 1
gene 1 3 432 0.0 0 2547 0 1
gene 1 3 433 0.0 0 2548 0 1
gene 1 3 434 0.0 0 2549 0 1
gene 1 3 435 0.0 0 2550 0 1
gene 1 3 436 0.0 0 2551 0 1
gene 1 3 437 0.0 0 2552 0 1
gene 1 3 438 0.0 0 2553 0 1
gene 1 3 439 0.0 0 2554 0 1
gene 1 3 440 0.0 0 2555 0 1
gene 1 3 441 0.0 0 2556 0 1
gene 1 3 442 0.0 0 2557 0 1
gene 1 3 443 0.0 0 2558 0 1
gene 1 3 444 0.0 0 2559 0 1
gene 1 3 445 0.0 0 2560 0 1
gene 1 3 446 0.0 0 2561 0 1
gene 1 3 447 0.0 0 2562 0 1
gene 1 3 448 0.0 0 2563 0 1
gene 1 3 449 0.0 0 2564 0 1
gene 1 3 450 0.0 0 2565 0 1
gene 1 3 451 0.0 0 2566 0 1
gene 1 3 452 0.0 0 2567 0 1
gene 1 3 453 0.0 0 2568 0 1
gene 1 3 454 0.0 0 2569 0 1
gene 1 3 455 0.0 0 2570 0 1
gene 1 3 456 0.0 0 2571 0 1
gene 1 3 457 0.0 0 2572 0 1
gene 1 3 458 0.0 0 2573 0 1
gene 1 3 459 0.0 0 2574 0 1
gene 1 3 460 0.0 0 2575 0 1
gene 1 3 461 0.0 0 2576 0 1
gene 1 3 462 0.0 0 2577 0 1
gene 1 3 463 0.0 0 2578 0 1
gene 1 3 464 0.0 0 2579 0 1
gene 1 3 465 0.0 0 2580 0 1
gene 1 3 466 0.0 0 2581 0 1
gene 1 3 467 0.0 0 2582 0 1
gene 1 3 468 0.0 0 2583 0 1
gene 1 3 469 0.0 0 2584 0 1
gene 1 3 470 0.0 0 2585 0 1
gene 1 3 471 0.0 0 2586 0 1
gene 1 3 472 0.0 0 2587 0 1
gene 1 3 473 0.0 0 2588 0 1
gene 1 3 474 0.0 0 2589 0 1
gene 1 3 475 0.0 0 2590 0 1
gene 1 3 476 0.0 0 2591 0 1
gene 1 3 477 0.0 0 2592 0 1
gene 1 3 478 0.0 0 2593 0 1
gene 1 3 479 0.0 0 2594 0 1
gene 1 3 480 0.0 0 2595 0 1
gene 1 3 481 0.0 0 2596 0 1
gene 1 3 482 0.0 0 2597 0 1
gene 1 3 483 0.0 0 2598 0 1
gene 1 3 484 0.0 0 2599 0 1
gene 1 3 485 0.0 0 2600 0 1
gene 1 3 486 0.0 0 2601 0 1
gene 1 3 487 0.0 0 2602 0 1
gene 1 3 488 0.0 0 2603 0 1
gene 1 3 489 0.0 0 2604 0 1
gene 1 3 490 0.0 0 2605 0 1
gene 1 3 491 0.0 0 2606 0 1
gene 1 3 492 0.0 0 2607 0 1
gene 1 3 493 0.0 0 2608 0 1
gene 1 3 494 0.0 0 2609 0 1
gene 1 3 495 0.0 0 2610 0 1
gene 1 3 496 0.0 0 2611 0 1
gene 1 3 497 0.0 0 2612 0 1
gene 1 3 498 0.0 0 2613 0 1
gene 1 3 499 0.0 0 2614 0 1
gene 1 3 500 0.0 0 2615 0 1
gene 1 3 501 0.0 0 2616 0 1
gene 1 3 502 0.0 0 2617 0 1
gene 1 3 503 0.0 0 2618 0 1
gene 1 3 504 0.0 0 2619 0 1
gene 1 3 505 0.0 0 2620 0 1
gene 1 3 506 0.0 0 2621 0 1
gene 1 3 507 0.0 0 2622 0 1
gene 1 3 508 0.0 0 2623 0 1
gene 1 3 509 0.0 0 2624 0 1
gene 1 3 510 0.0 0 2625 0 1
gene 1 3 511 0.0 0 2626 0 1
gene 1 3 512 0.0 0 2627 0 1
gene 1 3 513 0.0 0 2628 0 1
gene 1 3 514 0.0 0 2629 0 1
gene 1 3 515 0.0 0 2630 0 1
gene 1 3 516 0.0 0 2631 0 1
gene 1 3 517 0.0 0 2632 0 1
gene 1 3 518 0.0 0 2633 0 1
gene 1 3 519 0.0 0 2634 0 1
gene 1 3 520 0.0 0 2635 0 1
gene 1 3 521 0.0 0 2636 0 1
gene 1 3 522 0.0 0 2637 0 1
gene 1 3 523 0.0 0 2638 0 1
gene 1 3 524 0.0 0 2639 0 1
gene 1 3 525 0.0 0 2640 0 1
gene 1 3 526 0.0 0 2641 0 1
gene 1 3 527 0.0 0 2642 0 1
gene 1 3 528 0.0 0 2643 0 1
gene 1 3 529 0.0 0 2644 0 1
gene 1 3 530 0.0 0 2645 0 1
gene 1 3 531 0.0 0 2646 0 1
gene 1 3 532 0.0 0 2647 0 1
gene 1 3 533 0.0 0 2648 0 1
gene 1 3 534 0.0 0 2649 0 1
gene 1 3 535 0.0 0 2650 0 1
gene 1 3 536 0.0 0 2651 0 1
gene 1 3 537 0.0 0 2652 0 1
gene 1 3 538 0.0 0 2653 0 1
gene 1 3 539 0.0 0 2654 0 1
gene 1 3 540 0.0 0 2655 0 1
gene 1 3 541 0.0 0 2656 0 1
gene 1 3 542 0.0 0 2657 0 1
gene 1 3 543 0.0 0 2658 0 1
gene 1 3 544 0.0 0 2659 0 1
gene 1 3 545 0.0 0 2660 0 1
gene 1 3 546 0.0 0 2661 0 1
gene 1 3 547 0.0 0 2662 0 1
gene 1 3 548 0.0 0 2663 0 1
gene 1 3 549 0.0 0 2664 0 1
gene 1 3 550 0.0 0 2665 0 1
gene 1 3 551 0.0 0 2666 0 1
gene 1 3 552 0.0 0 2667 0 1
gene 1 3 553 0.0 0 2668 0 1
gene 1 3 554 0.0 0 2669 0 1
gene 1 3 555 0.0 0 2670 0 1
gene 1 3 556 0.0 0 2671 0 1
gene 1 3 557 0.0 0 2672 0 1
gene 1 3 558 0.0 0 2673 0 1
gene 1 3 559 0.0 0 2674 0 1
gene 1 3 560 0.0 0 2675 0 1
gene 1 3 561 0.0 0 2676 0 1
gene 1 3 562 0.0 0 2677 0 1
gene 1 3 563 0.0 0 2678 0 1
gene 1 3 564 0.0 0 2679 0 1
gene 1 3 565 0.0 0 2680 0 1
gene 1 3 566 0.0 0 2681 0 1
gene 1 3 567 0.0 0 2682 0 1
gene 1 3 568 0.0 0 2683 0 1
gene 1 3 569 0.0 0 2684 0 1
gene 1 3 570 0.0 0 2685 0 1
gene 1 3 571 0.0 0 2686 0 1
gene 1 3 572 0.0 0 2687 0 1
gene 1 3 573 0.0 0 2688 0 1
gene 1 3 574 0.0 0 2689 0 1
gene 1 3 575 0.0 0 2690 0 1
gene 1 3 576 0.0 0 2691 0 1
gene 1 3 577 0.0 0 2692 0 1
gene 1 3 578 0.0 0 2693 0 1
gene 1 3 579 0.0 0 2694 0 1
gene 1 3 580 0.0 0 2695 0 1
gene 1 3 581 0.0 0 2696 0 1
gene 1 3 582 0.0 0 2697 0 1
gene 1 3 583 0.0 0 2698 0 1
gene 1 3 584 0.0 0 2699 0 1
gene 1 3 585 0.0 0 2700 0 1
gene 1 3 586 0.0 0 2701 0 1
gene 1 3 587 0.0 0 2702 0 1
gene 1 3 588 0.0 0 2703 0 1
gene 1 3 589 0.0 0 2704 0 1
gene 1 3 590 0.0 0 2705 0 1
gene 1 3 591 0.0 0 2706 0 1
gene 1 3 592 0.0 0 2707 0 1
gene 1 3 593 0.0 0 2708 0 1
gene 1 3 594 0.0 0 2709 0 1
gene 1 3 595 0.0 0 2710 0 1
gene 1 3 596 0.0 0 2711 0 1
gene 1 3 597 0.0 0 2712 0 1
gene 1 3 598 0.0 0 2713 0 1
gene 1 3 599 0.0 0 2714 0 1
gene 1 3 600 0.0 0 2715 0 1
gene 1 3 601 0.0 0 2716 0 1
gene 1 3 602 0.0 0 2717 0 1
gene 1 3 603 0.0 0 2718 0 1
gene 1 3 604 0.0 0 2719 0 1
gene 1 3 605 0.0 0 2720 0 1
gene 1 3 606 0.0 0 2721 0 1
gene 1 3 607 0.0 0 2722 0 1
gene 1 3 608 0.0 0 2723 0 1
gene 1 3 609 0.0 0 2724 0 1
gene 1 3 610 0.0 0 2725 0 1
gene 1 3 611 0.0 0 2726 0 1
gene 1 3 612 0.0 0 2727 0 1
gene 1 3 613 0.0 0 2728 0 1
gene 1 3 614 0.0 0 2729 0 1
gene 1 3 615 0.0 0 2730 0 1
gene 1 3 616 0.0 0 2731 0 1
gene 1 3 617 0.0 0 2732 0 1
gene 1 3 618 0.0 0 2733 0 1
gene 1 3 619 0.0 0 2734 0 1
gene 1 3 620 0.0 0 2735 0 1
gene 1 3 621 0.0 0 2736 0 1
gene 1 3 622 0.0 0 2737 0 1
gene 1 3 623 0.0 0 2738 0 1
gene 1 3 624 0.0 0 2739 0 1
gene 1 3 625 0.0 0 2740 0 1
gene 1 3 626 0.0 0 2741 0 1
gene 1 3 627 0.0 0 2742 0 1
gene 1 3 628 0.0 0 2743 0 1
gene 1 3 629 0.0 0 2744 0 1
gene 1 3 630 0.0 0 2745 0 1
gene 1 3 631 0.0 0 2746 0 1
gene 1 3 632 0.0 0 2747 0 1
gene 1 3 633 0.0 0 2748 0 1
gene 1 3 634 0.0 0 2749 0 1
gene 1 3 635 0.0 0 2750 0 1
gene 1 3 636 0.0 0 2751 0 1
gene 1 3 637 0.0 0 2752 0 1
gene 1 3 638 0.0 0 2753 0 1
gene 1 3 639 0.0 0 2754 0 1
gene 1 3 640 0.0 0 2755 0 1
gene 1 3 641 0.0 0 2756 0 1
gene 1 3 642 0.0 0 2757 0 1
gene 1 3 643 0.0 0 2758 0 1
gene 1 3 644 0.0 0 2759 0 1
gene 1 3 645 0.0 0 2760 0 1
gene 1 3 646 0.0 0 2761 0 1
gene 1 3 647 0.0 0 2762 0 1
gene 1 3 648 0.0 0 2763 0 1
gene 1 3 649 0.0 0 2764 0 1
gene 1 3 650 0.0 0 2765 0 1
gene 1 3 651 0.0 0 2766 0 1
gene 1 3 652 0.0 0 2767 0 1
gene 1 3 653 0.0 0 2768 0 1
gene 1 3 654 0.0 0 2769 0 1
gene 1 3 655 0.0 0 2770 0 1
gene 1 3 656 0.0 0 2771 0 1
gene 1 3 657 0.0 0 2772 0 1
gene 1 3 658 0.0 0 2773 0 1
gene 1 3 659 0.0 0 2774 0 1
gene 1 3 660 0.0 0 2775 0 1
gene 1 3 661 0.0 0 2776 0 1
gene 1 3 662 0.0 0 2777 0 1
gene 1 3 663 0.0 0 2778 0 1
gene 1 3 664 0.0 0 2779 0 1
gene 1 3 665 0.0 0 2780 0 1
gene 1 3 666 0.0 0 2781 0 1
gene 1 3 667 0.0 0 2782 0 1
gene 1 3 668 0.0 0 2783 0 1
gene 1 3 669 0.0 0 2784 0 1
gene 1 3 670 0.0 0 2785 0 1
gene 1 3 671 0.0 0 2786 0 1
gene 1 3 672 0.0 0 2787 0 1
gene 1 3 673 0.0 0 2788 0 1
gene 1 3 674 0.0 0 2789 0 1
gene 1 3 675 0.0 0 2790 0 1
gene 1 3 676 0.0 0 2791 0 1
gene 1 3 677 0.0 0 2792 0 1
gene 1 3 678 0.0 0 2793 0 1
gene 1 3 679 0.0 0 2794 0 1
gene 1 3 680 0.0 0 2795 0 1
gene 1 3 681 0.0 0 2796 0 1
gene 1 3 682 0.0 0 2797 0 1
gene 1 3 683 0.0 0 2798 0 1
gene 1 3 684 0.0 0 2799 0 1
gene 1 3 685 0.0 0 2800 0 1
gene 1 3 686 0.0 0 2801 0 1
gene 1 3 687 0.0 0 2802 0 1
gene 1 3 688 0.0 0 2803 0 1
gene 1 3 689 0.0 0 2804 0 1
gene 1 3 690 0.0 0 2805 0 1
gene 1 3 691 0.0 0 2806 0 1
gene 1 3 692 0.0 0 2807 0 1
gene 1 3 693 0.0 0 2808 0 1
gene 1 3 694 0.0 0 2809 0 1
gene 1 3 695 0.0 0 2810 0 1
gene 1 3 696 0.0 0 2811 0 1
gene 1 3 697 0.0 0 2812 0 1
gene 1 3 698 0.0 0 2813 0 1
gene 1 3 699 0.0 0 2814 0 1
gene 1 3 700 0.0 0 2815 0 1
gene 1 3 701 0.0 0 2816 0 1
gene 1 3 702 0.0 0 2817 0 1
gene 1 3 703 0.0 0 2818 0 1
gene 1 3 704 0.0 0 2819 0 1
gene 1 3 705 0.0 0 2820 0 1
gene 1 3 706 0.0 0 2821 0 1
gene 1 3 707 0.0 0 2822 0 1
gene 1 3 708 0.0 0 2823 0 1
gene 1 3 709 0.0 0 2824 0 1
gene 1 3 710 0.0 0 2825 0 1
gene 1 3 711 0.0 0 2826 0 1
gene 1 3 712 0.0 0 2827 0 1
gene 1 3 713 0.0 0 2828 0 1
gene 1 3 714 0.0 0 2829 0 1
gene 1 3 715 0.0 0 2830 0 1
gene 1 3 716 0.0 0 2831 0 1
gene 1 3 717 0.0 0 2832 0 1
gene 1 3 718 0.0 0 2833 0 1
gene 1 3 719 0.0 0 2834 0 1
gene 1 3 720 0.0 0 2835 0 1
gene 1 3 721 0.0 0 2836 0 1
gene 1 3 722 0.0 0 2837 0 1
gene 1 3 723 0.0 0 2838 0 1
gene 1 3 724 0.0 0 2839 0 1
gene 1 3 725 0.0 0 2840 0 1
gene 1 3 726 0.0 0 2841 0 1
gene 1 3 727 0.0 0 2842 0 1
gene 1 3 728 0.0 0 2843 0 1
gene 1 3 729 0.0 0 2844 0 1
gene 1 3 730 0.0 0 2845 0 1
gene 1 3 731 0.0 0 2846 0 1
gene 1 3 732 0.0 0 2847 0 1
gene 1 3 733 0.0 0 2848 0 1
gene 1 3 734 0.0 0 2849 0 1
gene 1 3 735 0.0 0 2850 0 1
gene 1 3 736 0.0 0 2851 0 1
gene 1 3 737 0.0 0 2852 0 1
gene 1 3 738 0.0 0 2853 0 1
gene 1 3 739 0.0 0 2854 0 1
gene 1 3 740 0.0 0 2855 0 1
gene 1 3 741 0.0 0 2856 0 1
gene 1 3 742 0.0 0 2857 0 1
gene 1 3 743 0.0 0 2858 0 1
gene 1 3 744 0.0 0 2859 0 1
gene 1 3 745 0.0 0 2860 0 1
gene 1 3 746 0.0 0 2861 0 1
gene 1 3 747 0.0 0 2862 0 1
gene 1 3 748 0.0 0 2863 0 1
gene 1 3 749 0.0 0 2864 0 1
gene 1 3 750 0.0 0 2865 0 1
gene 1 3 751 0.0 0 2866 0 1
gene 1 3 752 0.0 0 2867 0 1
gene 1 3 753 0.0 0 2868 0 1
gene 1 3 754 0.0 0 2869 0 1
gene 1 3 755 0.0 0 2870 0 1
gene 1 3 756 0.0 0 2871 0 1
gene 1 3 757 0.0 0 2872 0 1
gene 1 3 758 0.0 0 2873 0 1
gene 1 3 759 0.0 0 2874 0 1
gene 1 3 760 0.0 0 2875 0 1
gene 1 3 761 0.0 0 2876 0 1
gene 1 3 762 0.0 0 2877 0 1
gene 1 3 763 0.0 0 2878 0 1
gene 1 3 764 0.0 0 2879 0 1
gene 1 3 765 0.0 0 2880 0 1
gene 1 3 766 0.0 0 2881 0 1
gene 1 3 767 0.0 0 2882 0 1
gene 1 3 768 0.0 0 2883 0 1
gene 1 3 769 0.0 0 2884 0 1
gene 1 3 770 0.0 0 2885 0 1
gene 1 3 771 0.0 0 2886 0 1
gene 1 3 772 0.0 0 2887 0 1
gene 1 3 773 0.0 0 2888 0 1
gene 1 3 774 0.0 0 2889 0 1
gene 1 3 775 0.0 0 2890 0 1
gene 1 3 776 0.0 0 2891 0 1
gene 1 3 777 0.0 0 2892 0 1
gene 1 3 778 0.0 0 2893 0 1
gene 1 3 779 0.0 0 2894 0 1
gene 1 3 780 0.0 0 2895 0 1
gene 1 3 781 0.0 0 2896 0 1
gene 1 3 782 0.0 0 2897 0 1
gene 1 3 783 0.0 0 2898 0 1
gene 1 3 784 0.0 0 2899 0 1
gene 1 3 785 0.0 0 2900 0 1
gene 1 3 786 0.0 0 2901 0 1
gene 1 3 787 0.0 0 2902 0 1
gene 1 3 788 0.0 0 2903 0 1
gene 1 3 789 0.0 0 2904 0 1
gene 1 3 790 0.0 0 2905 0 1
gene 1 3 791 0.0 0 2906 0 1
gene 1 3 792 0.0 0 2907 0 1
gene 1 3 793 0.0 0 2908 0 1
gene 1 3 794 0.0 0 2909 0 1
gene 1 3 795 0.0 0 2910 0 1
gene 1 3 796 0.0 0 2911 0 1
gene 1 3 797 0.0 0 2912 0 1
gene 1 3 798 0.0 0 2913 0 1
gene 1 3 799 0.0 0 2914 0 1
gene 1 3 800 0.0 0 2915 0 1
gene 1 3 801 0.0 0 2916 0 1
gene 1 3 802 0.0 0 2917 0 1
gene 1 3 803 0.0 0 2918 0 1
gene 1 3 804 0.0 0 2919 0 1
gene 1 3 805 0.0 0 2920 0 1
gene 1 3 806 0.0 0 2921 0 1
gene 1 3 807 0.0 0 2922 0 1
gene 1 3 808 0.0 0 2923 0 1
gene 1 3 809 0.0 0 2924 0 1
gene 1 3 810 0.0 0 2925 0 1
gene 1 3 811 0.0 0 2926 0 1
gene 1 3 812 0.0 0 2927 0 1
gene 1 3 813 0.0 0 2928 0 1
gene 1 3 814 0.0 0 2929 0 1
gene 1 3 815 0.0 0 2930 0 1
gene 1 3 816 0.0 0 2931 0 1
gene 1 3 817 0.0 0 2932 0 1
gene 1 3 818 0.0 0 2933 0 1
gene 1 3 819 0.0 0 2934 0 1
gene 1 3 820 0.0 0 2935 0 1
gene 1 3 821 0.0 0 2936 0 1
gene 1 3 822 0.0 0 2937 0 1
gene 1 3 823 0.0 0 2938 0 1
gene 1 3 824 0.0 0 2939 0 1
gene 1 3 825 0.0 0 2940 0 1
gene 1 3 826 0.0 0 2941 0 1
gene 1 3 827 0.0 0 2942 0 1
gene 1 3 828 0.0 0 2943 0 1
gene 1 3 829 0.0 0 2944 0 1
gene 1 3 830 0.0 0 2945 0 1
gene 1 3 831 0.0 0 2946 0 1
gene 1 3 832 0.0 0 2947 0 1
gene 1 3 833 0.0 0 2948 0 1
gene 1 3 834 0.0 0 2949 0 1
gene 1 3 835 0.0 0 2950 0 1
gene 1 3 836 0.0 0 2951 0 1
gene 1 3 837 0.0 0 2952 0 1
gene 1 3 838 0.0 0 2953 0 1
gene 1 3 839 0.0 0 2954 0 1
gene 1 3 840 0.0 0 2955 0 1
gene 1 3 841 0.0 0 2956 0 1
gene 1 3 842 0.0 0 2957 0 1
gene 1 3 843 0.0 0 2958 0 1
gene 1 3 844 0.0 0 2959 0 1
gene 1 3 845 0.0 0 2960 0 1
gene 1 3 846 0.0 0 2961 0 1
gene 1 3 847 0.0 0 2962 0 1
gene 1 3 848 0.0 0 2963 0 1
gene 1 3 849 0.0 0 2964 0 1
gene 1 3 850 0.0 0 2965 0 1
gene 1 3 851 0.0 0 2966 0 1
gene 1 3 852 0.0 0 2967 0 1
gene 1 3 853 0.0 0 2968 0 1
gene 1 3 854 0.0 0 2969 0 1
gene 1 3 855 0.0 0 2970 0 1
gene 1 3 856 0.0 0 2971 0 1
gene 1 3 857 0.0 0 2972 0 1
gene 1 3 858 0.0 0 2973 0 1
gene 1 3 859 0.0 0 2974 0 1
gene 1 3 860 0.0 0 2975 0 1
gene 1 3 861 0.0 0 2976 0 1
gene 1 3 862 0.0 0 2977 0 1
gene 1 3 863 0.0 0 2978 0 1
gene 1 3 864 0.0 0 2979 0 1
gene 1 3 865 0.0 0 2980 0 1
gene 1 3 866 0.0 0 2981 0 1
gene 1 3 867 0.0 0 2982 0 1
gene 1 3 868 0.0 0 2983 0 1
gene 1 3 869 0.0 0 2984 0 1
gene 1 3 870 0.0 0 2985 0 1
gene 1 3 871 0.0 0 2986 0 1
gene 1 3 872 0.0 0 2987 0 1
gene 1 3 873 0.0 0 2988 0 1
gene 1 3 874 0.0 0 2989 0 1
gene 1 3 875 0.0 0 2990 0 1
gene 1 3 876 0.0 0 2991 0 1
gene 1 3 877 0.0 0 2992 0 1
gene 1 3 878 0.0 0 2993 0 1
gene 1 3 879 0.0 0 2994 0 1
gene 1 3 880 0.0 0 2995 0 1
gene 1 3 881 0.0 0 2996 0 1
gene 1 3 882 0.0 0 2997 0 1
gene 1 3 883 0.0 0 2998 0 1
gene 1 3 884 0.0 0 2999 0 1
gene 1 3 885 0.0 0 3000 0 1
gene 1 3 886 0.0 0 3001 0 1
gene 1 3 887 0.0 0 3002 0 1
gene 1 3 888 0.0 0 3003 0 1
gene 1 3 889 0.0 0 3004 0 1
gene 1 3 890 0.0 0 3005 0 1
gene 1 3 891 0.0 0 3006 0 1
gene 1 3 892 0.0 0 3007 0 1
gene 1 3 893 0.0 0 3008 0 1
gene 1 3 894 0.0 0 3009 0 1
gene 1 3 895 0.0 0 3010 0 1
gene 1 3 896 0.0 0 3011 0 1
gene 1 3 897 0.0 0 3012 0 1
gene 1 3 898 0.0 0 3013 0 1
gene 1 3 899 0.0 0 3014 0 1
gene 1 3 900 0.0 0 3015 0 1
gene 1 3 901 0.0 0 3016 0 1
gene 1 3 902 0.0 0 3017 0 1
gene 1 3 903 0.0 0 3018 0 1
gene 1 3 904 0.0 0 3019 0 1
gene 1 3 905 0.0 0 3020 0 1
gene 1 3 906 0.0 0 3021 0 1
gene 1 3 907 0.0 0 3022 0 1
gene 1 3 908 0.0 0 3023 0 1
gene 1 3 909 0.0 0 3024 0 1
