genomestart 1
trait 1 0.1 0 0 0 0 0 0 0
node 1 0 1 1
node 2 0 1 1
node 3 0 1 1
node 4 0 1 1
node 5 0 1 1
node 6 0 1 1
node 7 0 1 1
node 8 0 1 1
node 9 0 1 1
node 10 0 1 1
node 11 0 1 1
node 12 0 1 1
node 13 0 1 1
node 14 0 1 1
node 15 0 1 1
node 16 0 1 1
node 17 0 1 1
node 18 0 1 1
node 19 0 1 1
node 20 0 1 1
node 21 0 1 1
node 22 0 1 1
node 23 0 1 1
node 24 0 1 1
node 25 0 1 3
node 26 0 0 2
node 27 0 0 2
node 28 0 0 2
node 29 0 0 2
node 30 0 0 2
node 31 0 0 2
node 32 0 0 2
node 33 0 0 2
node 34 0 0 2
node 35 0 0 2
node 36 0 0 2
node 37 0 0 2
node 38 0 0 2
node 39 0 0 2
node 40 0 0 2
node 41 0 0 2
node 42 0 0 2
node 43 0 0 2
node 44 0 0 2
node 45 0 0 2
node 46 0 0 2
node 47 0 0 2
node 48 0 0 2
node 49 0 0 2
node 50 0 0 2
node 51 0 0 2
node 52 0 0 2
node 53 0 0 2
node 54 0 0 2
node 55 0 0 2
node 56 0 0 2
node 57 0 0 2
node 58 0 0 2
node 59 0 0 2
node 60 0 0 2
node 61 0 0 2
node 62 0 0 2
node 63 0 0 2
node 64 0 0 2
node 65 0 0 2
node 66 0 0 2
node 67 0 0 2
node 68 0 0 2
node 69 0 0 2
node 70 0 0 2
node 71 0 0 2
node 72 0 0 2
node 73 0 0 2
node 74 0 0 2
node 75 0 0 2
node 76 0 0 2
node 77 0 0 2
node 78 0 0 2
node 79 0 0 2
node 80 0 0 2
node 81 0 0 2
node 82 0 0 2
node 83 0 0 2
node 84 0 0 2
node 85 0 0 2
node 86 0 0 2
node 87 0 0 2
node 88 0 0 2
node 89 0 0 2
node 90 0 0 2
node 91 0 0 2
node 92 0 0 2
node 93 0 0 2
node 94 0 0 2
node 95 0 0 2
node 96 0 0 2
node 97 0 0 2
node 98 0 0 2
node 99 0 0 2
node 100 0 0 2
node 101 0 0 2
node 102 0 0 2
node 103 0 0 2
node 104 0 0 2
node 105 0 0 2
node 106 0 0 2
node 107 0 0 2
node 108 0 0 2
node 109 0 0 2
node 110 0 0 2
node 111 0 0 2
node 112 0 0 2
node 113 0 0 2
node 114 0 0 2
node 115 0 0 2
node 116 0 0 2
node 117 0 0 2
node 118 0 0 2
node 119 0 0 2
node 120 0 0 2
node 121 0 0 2
node 122 0 0 2
node 123 0 0 2
node 124 0 0 2
node 125 0 0 2
node 126 0 0 2
node 127 0 0 2
node 128 0 0 2
node 129 0 0 2
node 130 0 0 2
node 131 0 0 2
node 132 0 0 2
node 133 0 0 2
node 134 0 0 2
node 135 0 0 2
node 136 0 0 2
node 137 0 0 2
node 138 0 0 2
node 139 0 0 2
node 140 0 0 2
node 141 0 0 2
node 142 0 0 2
node 143 0 0 2
node 144 0 0 2
node 145 0 0 2
node 146 0 0 2
node 147 0 0 2
node 148 0 0 2
node 149 0 0 2
node 150 0 0 2
node 151 0 0 2
node 152 0 0 2
node 153 0 0 2
node 154 0 0 2
node 155 0 0 2
node 156 0 0 2
node 157 0 0 2
node 158 0 0 2
node 159 0 0 2
node 160 0 0 2
node 161 0 0 2
node 162 0 0 2
node 163 0 0 2
node 164 0 0 2
node 165 0 0 2
node 166 0 0 2
node 167 0 0 2
node 168 0 0 2
node 169 0 0 2
node 170 0 0 2
node 171 0 0 2
node 172 0 0 2
node 173 0 0 2
node 174 0 0 2
node 175 0 0 2
node 176 0 0 2
node 177 0 0 2
node 178 0 0 2
node 179 0 0 2
node 180 0 0 2
node 181 0 0 2
node 182 0 0 2
node 183 0 0 2
node 184 0 0 2
node 185 0 0 2
node 186 0 0 2
node 187 0 0 2
node 188 0 0 2
node 189 0 0 2
node 190 0 0 2
node 191 0 0 2
node 192 0 0 2
node 193 0 0 2
node 194 0 0 2
node 195 0 0 2
node 196 0 0 2
node 197 0 0 2
node 198 0 0 2
node 199 0 0 2
node 200 0 0 2
node 201 0 0 2
node 202 0 0 2
node 203 0 0 2
node 204 0 0 2
node 205 0 0 2
node 206 0 0 2
node 207 0 0 2
node 208 0 0 2
node 209 0 0 2
node 210 0 0 2
node 211 0 0 2
node 212 0 0 2
node 213 0 0 2
node 214 0 0 2
node 215 0 0 2
node 216 0 0 2
node 217 0 0 2
node 218 0 0 2
node 219 0 0 2
node 220 0 0 2
node 221 0 0 2
node 222 0 0 2
node 223 0 0 2
node 224 0 0 2
node 225 0 0 2
node 226 0 0 2
node 227 0 0 2
node 228 0 0 2
node 229 0 0 2
node 230 0 0 2
node 231 0 0 2
node 232 0 0 2
node 233 0 0 2
node 234 0 0 2
node 235 0 0 2
node 236 0 0 2
node 237 0 0 2
node 238 0 0 2
node 239 0 0 2
node 240 0 0 2
node 241 0 0 2
node 242 0 0 2
node 243 0 0 2
node 244 0 0 2
node 245 0 0 2
node 246 0 0 2
node 247 0 0 2
node 248 0 0 2
node 249 0 0 2
node 250 0 0 2
node 251 0 0 2
node 252 0 0 2
node 253 0 0 2
node 254 0 0 2
node 255 0 0 2
node 256 0 0 2
node 257 0 0 2
node 258 0 0 2
node 259 0 0 2
node 260 0 0 2
node 261 0 0 2
node 262 0 0 2
node 263 0 0 2
node 264 0 0 2
node 265 0 0 2
node 266 0 0 2
node 267 0 0 2
node 268 0 0 2
node 269 0 0 2
node 270 0 0 2
node 271 0 0 2
node 272 0 0 2
node 273 0 0 2
node 274 0 0 2
node 275 0 0 2
node 276 0 0 2
node 277 0 0 2
node 278 0 0 2
node 279 0 0 2
node 280 0 0 2
node 281 0 0 2
node 282 0 0 2
node 283 0 0 2
node 284 0 0 2
node 285 0 0 2
node 286 0 0 2
node 287 0 0 2
node 288 0 0 2
node 289 0 0 2
node 290 0 0 2
node 291 0 0 2
node 292 0 0 2
node 293 0 0 2
node 294 0 0 2
node 295 0 0 2
node 296 0 0 2
node 297 0 0 2
node 298 0 0 2
node 299 0 0 2
node 300 0 0 2
node 301 0 0 2
node 302 0 0 2
node 303 0 0 2
node 304 0 0 2
node 305 0 0 2
node 306 0 0 2
node 307 0 0 2
node 308 0 0 2
node 309 0 0 2
node 310 0 0 2
node 311 0 0 2
node 312 0 0 2
node 313 0 0 2
node 314 0 0 2
node 315 0 0 2
node 316 0 0 2
node 317 0 0 2
node 318 0 0 2
node 319 0 0 2
node 320 0 0 2
node 321 0 0 2
node 322 0 0 2
node 323 0 0 2
node 324 0 0 2
node 325 0 0 2
node 326 0 0 2
node 327 0 0 2
node 328 0 0 2
node 329 0 0 2
node 330 0 0 2
node 331 0 0 2
node 332 0 0 2
node 333 0 0 2
node 334 0 0 2
node 335 0 0 2
node 336 0 0 2
node 337 0 0 2
node 338 0 0 2
node 339 0 0 2
node 340 0 0 2
node 341 0 0 2
node 342 0 0 2
node 343 0 0 2
node 344 0 0 2
node 345 0 0 2
node 346 0 0 2
node 347 0 0 2
node 348 0 0 2
node 349 0 0 2
node 350 0 0 2
node 351 0 0 2
node 352 0 0 2
node 353 0 0 2
node 354 0 0 2
node 355 0 0 2
node 356 0 0 2
node 357 0 0 2
node 358 0 0 2
node 359 0 0 2
node 360 0 0 2
node 361 0 0 2
node 362 0 0 2
node 363 0 0 2
node 364 0 0 2
node 365 0 0 2
node 366 0 0 2
node 367 0 0 2
node 368 0 0 2
node 369 0 0 2
node 370 0 0 2
node 371 0 0 2
node 372 0 0 2
node 373 0 0 2
node 374 0 0 2
node 375 0 0 2
node 376 0 0 2
node 377 0 0 2
node 378 0 0 2
node 379 0 0 2
node 380 0 0 2
node 381 0 0 2
node 382 0 0 2
node 383 0 0 2
node 384 0 0 2
node 385 0 0 2
node 386 0 0 2
node 387 0 0 2
node 388 0 0 2
node 389 0 0 2
node 390 0 0 2
node 391 0 0 2
node 392 0 0 2
node 393 0 0 2
node 394 0 0 2
node 395 0 0 2
node 396 0 0 2
gene 1 1 26 0.0 0 1 0 1
gene 1 1 27 0.0 0 2 0 1
gene 1 1 28 0.0 0 3 0 1
gene 1 1 29 0.0 0 4 0 1
gene 1 1 30 0.0 0 5 0 1
gene 1 1 31 0.0 0 6 0 1
gene 1 1 32 0.0 0 7 0 1
gene 1 1 33 0.0 0 8 0 1
gene 1 1 34 0.0 0 9 0 1
gene 1 1 35 0.0 0 10 0 1
gene 1 1 36 0.0 0 11 0 1
gene 1 1 37 0.0 0 12 0 1
gene 1 1 38 0.0 0 13 0 1
gene 1 1 39 0.0 0 14 0 1
gene 1 1 40 0.0 0 15 0 1
gene 1 1 41 0.0 0 16 0 1
gene 1 1 42 0.0 0 17 0 1
gene 1 1 43 0.0 0 18 0 1
gene 1 1 44 0.0 0 19 0 1
gene 1 1 45 0.0 0 20 0 1
gene 1 1 46 0.0 0 21 0 1
gene 1 1 47 0.0 0 22 0 1
gene 1 1 48 0.0 0 23 0 1
gene 1 1 49 0.0 0 24 0 1
gene 1 1 50 0.0 0 25 0 1
gene 1 1 51 0.0 0 26 0 1
gene 1 1 52 0.0 0 27 0 1
gene 1 1 53 0.0 0 28 0 1
gene 1 1 54 0.0 0 29 0 1
gene 1 1 55 0.0 0 30 0 1
gene 1 1 56 0.0 0 31 0 1
gene 1 1 57 0.0 0 32 0 1
gene 1 1 58 0.0 0 33 0 1
gene 1 1 59 0.0 0 34 0 1
gene 1 1 60 0.0 0 35 0 1
gene 1 1 61 0.0 0 36 0 1
gene 1 1 62 0.0 0 37 0 1
gene 1 1 63 0.0 0 38 0 1
gene 1 1 64 0.0 0 39 0 1
gene 1 1 65 0.0 0 40 0 1
gene 1 1 66 0.0 0 41 0 1
gene 1 1 67 0.0 0 42 0 1
gene 1 1 68 0.0 0 43 0 1
gene 1 1 69 0.0 0 44 0 1
gene 1 1 70 0.0 0 45 0 1
gene 1 1 71 0.0 0 46 0 1
gene 1 1 72 0.0 0 47 0 1
gene 1 1 73 0.0 0 48 0 1
gene 1 1 74 0.0 0 49 0 1
gene 1 1 75 0.0 0 50 0 1
gene 1 1 76 0.0 0 51 0 1
gene 1 1 77 0.0 0 52 0 1
gene 1 1 78 0.0 0 53 0 1
gene 1 1 79 0.0 0 54 0 1
gene 1 1 80 0.0 0 55 0 1
gene 1 1 81 0.0 0 56 0 1
gene 1 1 82 0.0 0 57 0 1
gene 1 1 83 0.0 0 58 0 1
gene 1 1 84 0.0 0 59 0 1
gene 1 1 85 0.0 0 60 0 1
gene 1 1 86 0.0 0 61 0 1
gene 1 1 87 0.0 0 62 0 1
gene 1 1 88 0.0 0 63 0 1
gene 1 1 89 0.0 0 64 0 1
gene 1 1 90 0.0 0 65 0 1
gene 1 1 91 0.0 0 66 0 1
gene 1 1 92 0.0 0 67 0 1
gene 1 1 93 0.0 0 68 0 1
gene 1 1 94 0.0 0 69 0 1
gene 1 1 95 0.0 0 70 0 1
gene 1 1 96 0.0 0 71 0 1
gene 1 1 97 0.0 0 72 0 1
gene 1 1 98 0.0 0 73 0 1
gene 1 1 99 0.0 0 74 0 1
gene 1 1 100 0.0 0 75 0 1
gene 1 1 101 0.0 0 76 0 1
gene 1 1 102 0.0 0 77 0 1
gene 1 1 103 0.0 0 78 0 1
gene 1 1 104 0.0 0 79 0 1
gene 1 1 105 0.0 0 80 0 1
gene 1 1 106 0.0 0 81 0 1
gene 1 1 107 0.0 0 82 0 1
gene 1 1 108 0.0 0 83 0 1
gene 1 1 109 0.0 0 84 0 1
gene 1 1 110 0.0 0 85 0 1
gene 1 1 111 0.0 0 86 0 1
gene 1 1 112 0.0 0 87 0 1
gene 1 1 113 0.0 0 88 0 1
gene 1 1 114 0.0 0 89 0 1
gene 1 1 115 0.0 0 90 0 1
gene 1 1 116 0.0 0 91 0 1
gene 1 1 117 0.0 0 92 0 1
gene 1 1 118 0.0 0 93 0 1
gene 1 1 119 0.0 0 94 0 1
gene 1 1 120 0.0 0 95 0 1
gene 1 1 121 0.0 0 96 0 1
gene 1 1 122 0.0 0 97 0 1
gene 1 1 123 0.0 0 98 0 1
gene 1 1 124 0.0 0 99 0 1
gene 1 1 125 0.0 0 100 0 1
gene 1 1 126 0.0 0 101 0 1
gene 1 1 127 0.0 0 102 0 1
gene 1 1 128 0.0 0 103 0 1
gene 1 1 129 0.0 0 104 0 1
gene 1 1 130 0.0 0 105 0 1
gene 1 1 131 0.0 0 106 0 1
gene 1 1 132 0.0 0 107 0 1
gene 1 1 133 0.0 0 108 0 1
gene 1 1 134 0.0 0 109 0 1
gene 1 1 135 0.0 0 110 0 1
gene 1 1 136 0.0 0 111 0 1
gene 1 1 137 0.0 0 112 0 1
gene 1 1 138 0.0 0 113 0 1
gene 1 1 139 0.0 0 114 0 1
gene 1 1 140 0.0 0 115 0 1
gene 1 1 141 0.0 0 116 0 1
gene 1 1 142 0.0 0 117 0 1
gene 1 1 143 0.0 0 118 0 1
gene 1 1 144 0.0 0 119 0 1
gene 1 1 145 0.0 0 120 0 1
gene 1 1 146 0.0 0 121 0 1
gene 1 1 147 0.0 0 122 0 1
gene 1 1 148 0.0 0 123 0 1
gene 1 1 149 0.0 0 124 0 1
gene 1 1 150 0.0 0 125 0 1
gene 1 1 151 0.0 0 126 0 1
gene 1 1 152 0.0 0 127 0 1
gene 1 1 153 0.0 0 128 0 1
gene 1 1 154 0.0 0 129 0 1
gene 1 1 155 0.0 0 130 0 1
gene 1 1 156 0.0 0 131 0 1
gene 1 1 157 0.0 0 132 0 1
gene 1 1 158 0.0 0 133 0 1
gene 1 1 159 0.0 0 134 0 1
gene 1 1 160 0.0 0 135 0 1
gene 1 1 161 0.0 0 136 0 1
gene 1 1 162 0.0 0 137 0 1
gene 1 1 163 0.0 0 138 0 1
gene 1 1 164 0.0 0 139 0 1
gene 1 1 165 0.0 0 140 0 1
gene 1 1 166 0.0 0 141 0 1
gene 1 1 167 0.0 0 142 0 1
gene 1 1 168 0.0 0 143 0 1
gene 1 1 169 0.0 0 144 0 1
gene 1 1 170 0.0 0 145 0 1
gene 1 1 171 0.0 0 146 0 1
gene 1 1 172 0.0 0 147 0 1
gene 1 1 173 0.0 0 148 0 1
gene 1 1 174 0.0 0 149 0 1
gene 1 1 175 0.0 0 150 0 1
gene 1 1 176 0.0 0 151 0 1
gene 1 1 177 0.0 0 152 0 1
gene 1 1 178 0.0 0 153 0 1
gene 1 1 179 0.0 0 154 0 1
gene 1 1 180 0.0 0 155 0 1
gene 1 1 181 0.0 0 156 0 1
gene 1 1 182 0.0 0 157 0 1
gene 1 1 183 0.0 0 158 0 1
gene 1 1 184 0.0 0 159 0 1
gene 1 1 185 0.0 0 160 0 1
gene 1 1 186 0.0 0 161 0 1
gene 1 1 187 0.0 0 162 0 1
gene 1 1 188 0.0 0 163 0 1
gene 1 1 189 0.0 0 164 0 1
gene 1 1 190 0.0 0 165 0 1
gene 1 1 191 0.0 0 166 0 1
gene 1 1 192 0.0 0 167 0 1
gene 1 1 193 0.0 0 168 0 1
gene 1 1 194 0.0 0 169 0 1
gene 1 1 195 0.0 0 170 0 1
gene 1 1 196 0.0 0 171 0 1
gene 1 1 197 0.0 0 172 0 1
gene 1 1 198 0.0 0 173 0 1
gene 1 1 199 0.0 0 174 0 1
gene 1 1 200 0.0 0 175 0 1
gene 1 1 201 0.0 0 176 0 1
gene 1 1 202 0.0 0 177 0 1
gene 1 1 203 0.0 0 178 0 1
gene 1 1 204 0.0 0 179 0 1
gene 1 1 205 0.0 0 180 0 1
gene 1 1 206 0.0 0 181 0 1
gene 1 1 207 0.0 0 182 0 1
gene 1 1 208 0.0 0 183 0 1
gene 1 1 209 0.0 0 184 0 1
gene 1 1 210 0.0 0 185 0 1
gene 1 1 211 0.0 0 186 0 1
gene 1 1 212 0.0 0 187 0 1
gene 1 1 213 0.0 0 188 0 1
gene 1 1 214 0.0 0 189 0 1
gene 1 1 215 0.0 0 190 0 1
gene 1 1 216 0.0 0 191 0 1
gene 1 1 217 0.0 0 192 0 1
gene 1 1 218 0.0 0 193 0 1
gene 1 1 219 0.0 0 194 0 1
gene 1 1 220 0.0 0 195 0 1
gene 1 1 221 0.0 0 196 0 1
gene 1 1 222 0.0 0 197 0 1
gene 1 1 223 0.0 0 198 0 1
gene 1 1 224 0.0 0 199 0 1
gene 1 1 225 0.0 0 200 0 1
gene 1 1 226 0.0 0 201 0 1
gene 1 1 227 0.0 0 202 0 1
gene 1 1 228 0.0 0 203 0 1
gene 1 1 229 0.0 0 204 0 1
gene 1 1 230 0.0 0 205 0 1
gene 1 1 231 0.0 0 206 0 1
gene 1 1 232 0.0 0 207 0 1
gene 1 1 233 0.0 0 208 0 1
gene 1 1 234 0.0 0 209 0 1
gene 1 1 235 0.0 0 210 0 1
gene 1 1 236 0.0 0 211 0 1
gene 1 1 237 0.0 0 212 0 1
gene 1 1 238 0.0 0 213 0 1
gene 1 1 239 0.0 0 214 0 1
gene 1 1 240 0.0 0 215 0 1
gene 1 1 241 0.0 0 216 0 1
gene 1 1 242 0.0 0 217 0 1
gene 1 1 243 0.0 0 218 0 1
gene 1 1 244 0.0 0 219 0 1
gene 1 1 245 0.0 0 220 0 1
gene 1 1 246 0.0 0 221 0 1
gene 1 1 247 0.0 0 222 0 1
gene 1 1 248 0.0 0 223 0 1
gene 1 1 249 0.0 0 224 0 1
gene 1 1 250 0.0 0 225 0 1
gene 1 1 251 0.0 0 226 0 1
gene 1 1 252 0.0 0 227 0 1
gene 1 1 253 0.0 0 228 0 1
gene 1 1 254 0.0 0 229 0 1
gene 1 1 255 0.0 0 230 0 1
gene 1 1 256 0.0 0 231 0 1
gene 1 1 257 0.0 0 232 0 1
gene 1 1 258 0.0 0 233 0 1
gene 1 1 259 0.0 0 234 0 1
gene 1 1 260 0.0 0 235 0 1
gene 1 1 261 0.0 0 236 0 1
gene 1 1 262 0.0 0 237 0 1
gene 1 1 263 0.0 0 238 0 1
gene 1 1 264 0.0 0 239 0 1
gene 1 1 265 0.0 0 240 0 1
gene 1 1 266 0.0 0 241 0 1
gene 1 1 267 0.0 0 242 0 1
gene 1 1 268 0.0 0 243 0 1
gene 1 1 269 0.0 0 244 0 1
gene 1 1 270 0.0 0 245 0 1
gene 1 1 271 0.0 0 246 0 1
gene 1 1 272 0.0 0 247 0 1
gene 1 1 273 0.0 0 248 0 1
gene 1 1 274 0.0 0 249 0 1
gene 1 1 275 0.0 0 250 0 1
gene 1 1 276 0.0 0 251 0 1
gene 1 1 277 0.0 0 252 0 1
gene 1 1 278 0.0 0 253 0 1
gene 1 1 279 0.0 0 254 0 1
gene 1 1 280 0.0 0 255 0 1
gene 1 1 281 0.0 0 256 0 1
gene 1 1 282 0.0 0 257 0 1
gene 1 1 283 0.0 0 258 0 1
gene 1 1 284 0.0 0 259 0 1
gene 1 1 285 0.0 0 260 0 1
gene 1 1 286 0.0 0 261 0 1
gene 1 1 287 0.0 0 262 0 1
gene 1 1 288 0.0 0 263 0 1
gene 1 1 289 0.0 0 264 0 1
gene 1 1 290 0.0 0 265 0 1
gene 1 1 291 0.0 0 266 0 1
gene 1 1 292 0.0 0 267 0 1
gene 1 1 293 0.0 0 268 0 1
gene 1 1 294 0.0 0 269 0 1
gene 1 1 295 0.0 0 270 0 1
gene 1 1 296 0.0 0 271 0 1
gene 1 1 297 0.0 0 272 0 1
gene 1 1 298 0.0 0 273 0 1
gene 1 1 299 0.0 0 274 0 1
gene 1 1 300 0.0 0 275 0 1
gene 1 1 301 0.0 0 276 0 1
gene 1 1 302 0.0 0 277 0 1
gene 1 1 303 0.0 0 278 0 1
gene 1 1 304 0.0 0 279 0 1
gene 1 1 305 0.0 0 280 0 1
gene 1 1 306 0.0 0 281 0 1
gene 1 1 307 0.0 0 282 0 1
gene 1 1 308 0.0 0 283 0 1
gene 1 1 309 0.0 0 284 0 1
gene 1 1 310 0.0 0 285 0 1
gene 1 1 311 0.0 0 286 0 1
gene 1 1 312 0.0 0 287 0 1
gene 1 1 313 0.0 0 288 0 1
gene 1 1 314 0.0 0 289 0 1
gene 1 1 315 0.0 0 290 0 1
gene 1 1 316 0.0 0 291 0 1
gene 1 1 317 0.0 0 292 0 1
gene 1 1 318 0.0 0 293 0 1
gene 1 1 319 0.0 0 294 0 1
gene 1 1 320 0.0 0 295 0 1
gene 1 1 321 0.0 0 296 0 1
gene 1 1 322 0.0 0 297 0 1
gene 1 1 323 0.0 0 298 0 1
gene 1 1 324 0.0 0 299 0 1
gene 1 1 325 0.0 0 300 0 1
gene 1 1 326 0.0 0 301 0 1
gene 1 1 327 0.0 0 302 0 1
gene 1 1 328 0.0 0 303 0 1
gene 1 1 329 0.0 0 304 0 1
gene 1 1 330 0.0 0 305 0 1
gene 1 1 331 0.0 0 306 0 1
gene 1 1 332 0.0 0 307 0 1
gene 1 1 333 0.0 0 308 0 1
gene 1 1 334 0.0 0 309 0 1
gene 1 1 335 0.0 0 310 0 1
gene 1 1 336 0.0 0 311 0 1
gene 1 1 337 0.0 0 312 0 1
gene 1 1 338 0.0 0 313 0 1
gene 1 1 339 0.0 0 314 0 1
gene 1 1 340 0.0 0 315 0 1
gene 1 1 341 0.0 0 316 0 1
gene 1 1 342 0.0 0 317 0 1
gene 1 1 343 0.0 0 318 0 1
gene 1 1 344 0.0 0 319 0 1
gene 1 1 345 0.0 0 320 0 1
gene 1 1 346 0.0 0 321 0 1
gene 1 1 347 0.0 0 322 0 1
gene 1 1 348 0.0 0 323 0 1
gene 1 1 349 0.0 0 324 0 1
gene 1 1 350 0.0 0 325 0 1
gene 1 1 351 0.0 0 326 0 1
gene 1 1 352 0.0 0 327 0 1
gene 1 1 353 0.0 0 328 0 1
gene 1 1 354 0.0 0 329 0 1
gene 1 1 355 0.0 0 330 0 1
gene 1 1 356 0.0 0 331 0 1
gene 1 1 357 0.0 0 332 0 1
gene 1 1 358 0.0 0 333 0 1
gene 1 1 359 0.0 0 334 0 1
gene 1 1 360 0.0 0 335 0 1
gene 1 1 361 0.0 0 336 0 1
gene 1 1 362 0.0 0 337 0 1
gene 1 1 363 0.0 0 338 0 1
gene 1 1 364 0.0 0 339 0 1
gene 1 1 365 0.0 0 340 0 1
gene 1 1 366 0.0 0 341 0 1
gene 1 1 367 0.0 0 342 0 1
gene 1 1 368 0.0 0 343 0 1
gene 1 1 369 0.0 0 344 0 1
gene 1 1 370 0.0 0 345 0 1
gene 1 1 371 0.0 0 346 0 1
gene 1 1 372 0.0 0 347 0 1
gene 1 1 373 0.0 0 348 0 1
gene 1 1 374 0.0 0 349 0 1
gene 1 1 375 0.0 0 350 0 1
gene 1 1 376 0.0 0 351 0 1
gene 1 1 377 0.0 0 352 0 1
gene 1 1 378 0.0 0 353 0 1
gene 1 1 379 0.0 0 354 0 1
gene 1 1 380 0.0 0 355 0 1
gene 1 1 381 0.0 0 356 0 1
gene 1 1 382 0.0 0 357 0 1
gene 1 1 383 0.0 0 358 0 1
gene 1 1 384 0.0 0 359 0 1
gene 1 1 385 0.0 0 360 0 1
gene 1 1 386 0.0 0 361 0 1
gene 1 1 387 0.0 0 362 0 1
gene 1 1 388 0.0 0 363 0 1
gene 1 1 389 0.0 0 364 0 1
gene 1 1 390 0.0 0 365 0 1
gene 1 1 391 0.0 0 366 0 1
gene 1 1 392 0.0 0 367 0 1
gene 1 1 393 0.0 0 368 0 1
gene 1 1 394 0.0 0 369 0 1
gene 1 1 395 0.0 0 370 0 1
gene 1 1 396 0.0 0 371 0 1
gene 1 2 26 0.0 0 372 0 1
gene 1 2 27 0.0 0 373 0 1
gene 1 2 28 0.0 0 374 0 1
gene 1 2 29 0.0 0 375 0 1
gene 1 2 30 0.0 0 376 0 1
gene 1 2 31 0.0 0 377 0 1
gene 1 2 32 0.0 0 378 0 1
gene 1 2 33 0.0 0 379 0 1
gene 1 2 34 0.0 0 380 0 1
gene 1 2 35 0.0 0 381 0 1
gene 1 2 36 0.0 0 382 0 1
gene 1 2 37 0.0 0 383 0 1
gene 1 2 38 0.0 0 384 0 1
gene 1 2 39 0.0 0 385 0 1
gene 1 2 40 0.0 0 386 0 1
gene 1 2 41 0.0 0 387 0 1
gene 1 2 42 0.0 0 388 0 1
gene 1 2 43 0.0 0 389 0 1
gene 1 2 44 0.0 0 390 0 1
gene 1 2 45 0.0 0 391 0 1
gene 1 2 46 0.0 0 392 0 1
gene 1 2 47 0.0 0 393 0 1
gene 1 2 48 0.0 0 394 0 1
gene 1 2 49 0.0 0 395 0 1
gene 1 2 50 0.0 0 396 0 1
gene 1 2 51 0.0 0 397 0 1
gene 1 2 52 0.0 0 398 0 1
gene 1 2 53 0.0 0 399 0 1
gene 1 2 54 0.0 0 400 0 1
gene 1 2 55 0.0 0 401 0 1
gene 1 2 56 0.0 0 402 0 1
gene 1 2 57 0.0 0 403 0 1
gene 1 2 58 0.0 0 404 0 1
gene 1 2 59 0.0 0 405 0 1
gene 1 2 60 0.0 0 406 0 1
gene 1 2 61 0.0 0 407 0 1
gene 1 2 62 0.0 0 408 0 1
gene 1 2 63 0.0 0 409 0 1
gene 1 2 64 0.0 0 410 0 1
gene 1 2 65 0.0 0 411 0 1
gene 1 2 66 0.0 0 412 0 1
gene 1 2 67 0.0 0 413 0 1
gene 1 2 68 0.0 0 414 0 1
gene 1 2 69 0.0 0 415 0 1
gene 1 2 70 0.0 0 416 0 1
gene 1 2 71 0.0 0 417 0 1
gene 1 2 72 0.0 0 418 0 1
gene 1 2 73 0.0 0 419 0 1
gene 1 2 74 0.0 0 420 0 1
gene 1 2 75 0.0 0 421 0 1
gene 1 2 76 0.0 0 422 0 1
gene 1 2 77 0.0 0 423 0 1
gene 1 2 78 0.0 0 424 0 1
gene 1 2 79 0.0 0 425 0 1
gene 1 2 80 0.0 0 426 0 1
gene 1 2 81 0.0 0 427 0 1
gene 1 2 82 0.0 0 428 0 1
gene 1 2 83 0.0 0 429 0 1
gene 1 2 84 0.0 0 430 0 1
gene 1 2 85 0.0 0 431 0 1
gene 1 2 86 0.0 0 432 0 1
gene 1 2 87 0.0 0 433 0 1
gene 1 2 88 0.0 0 434 0 1
gene 1 2 89 0.0 0 435 0 1
gene 1 2 90 0.0 0 436 0 1
gene 1 2 91 0.0 0 437 0 1
gene 1 2 92 0.0 0 438 0 1
gene 1 2 93 0.0 0 439 0 1
gene 1 2 94 0.0 0 440 0 1
gene 1 2 95 0.0 0 441 0 1
gene 1 2 96 0.0 0 442 0 1
gene 1 2 97 0.0 0 443 0 1
gene 1 2 98 0.0 0 444 0 1
gene 1 2 99 0.0 0 445 0 1
gene 1 2 100 0.0 0 446 0 1
gene 1 2 101 0.0 0 447 0 1
gene 1 2 102 0.0 0 448 0 1
gene 1 2 103 0.0 0 449 0 1
gene 1 2 104 0.0 0 450 0 1
gene 1 2 105 0.0 0 451 0 1
gene 1 2 106 0.0 0 452 0 1
gene 1 2 107 0.0 0 453 0 1
gene 1 2 108 0.0 0 454 0 1
gene 1 2 109 0.0 0 455 0 1
gene 1 2 110 0.0 0 456 0 1
gene 1 2 111 0.0 0 457 0 1
gene 1 2 112 0.0 0 458 0 1
gene 1 2 113 0.0 0 459 0 1
gene 1 2 114 0.0 0 460 0 1
gene 1 2 115 0.0 0 461 0 1
gene 1 2 116 0.0 0 462 0 1
gene 1 2 117 0.0 0 463 0 1
gene 1 2 118 0.0 0 464 0 1
gene 1 2 119 0.0 0 465 0 1
gene 1 2 120 0.0 0 466 0 1
gene 1 2 121 0.0 0 467 0 1
gene 1 2 122 0.0 0 468 0 1
gene 1 2 123 0.0 0 469 0 1
gene 1 2 124 0.0 0 470 0 1
gene 1 2 125 0.0 0 471 0 1
gene 1 2 126 0.0 0 472 0 1
gene 1 2 127 0.0 0 473 0 1
gene 1 2 128 0.0 0 474 0 1
gene 1 2 129 0.0 0 475 0 1
gene 1 2 130 0.0 0 476 0 1
gene 1 2 131 0.0 0 477 0 1
gene 1 2 132 0.0 0 478 0 1
gene 1 2 133 0.0 0 479 0 1
gene 1 2 134 0.0 0 480 0 1
gene 1 2 135 0.0 0 481 0 1
gene 1 2 136 0.0 0 482 0 1
gene 1 2 137 0.0 0 483 0 1
gene 1 2 138 0.0 0 484 0 1
gene 1 2 139 0.0 0 485 0 1
gene 1 2 140 0.0 0 486 0 1
gene 1 2 141 0.0 0 487 0 1
gene 1 2 142 0.0 0 488 0 1
gene 1 2 143 0.0 0 489 0 1
gene 1 2 144 0.0 0 490 0 1
gene 1 2 145 0.0 0 491 0 1
gene 1 2 146 0.0 0 492 0 1
gene 1 2 147 0.0 0 493 0 1
gene 1 2 148 0.0 0 494 0 1
gene 1 2 149 0.0 0 495 0 1
gene 1 2 150 0.0 0 496 0 1
gene 1 2 151 0.0 0 497 0 1
gene 1 2 152 0.0 0 498 0 1
gene 1 2 153 0.0 0 499 0 1
gene 1 2 154 0.0 0 500 0 1
gene 1 2 155 0.0 0 501 0 1
gene 1 2 156 0.0 0 502 0 1
gene 1 2 157 0.0 0 503 0 1
gene 1 2 158 0.0 0 504 0 1
gene 1 2 159 0.0 0 505 0 1
gene 1 2 160 0.0 0 506 0 1
gene 1 2 161 0.0 0 507 0 1
gene 1 2 162 0.0 0 508 0 1
gene 1 2 163 0.0 0 509 0 1
gene 1 2 164 0.0 0 510 0 1
gene 1 2 165 0.0 0 511 0 1
gene 1 2 166 0.0 0 512 0 1
gene 1 2 167 0.0 0 513 0 1
gene 1 2 168 0.0 0 514 0 1
gene 1 2 169 0.0 0 515 0 1
gene 1 2 170 0.0 0 516 0 1
gene 1 2 171 0.0 0 517 0 1
gene 1 2 172 0.0 0 518 0 1
gene 1 2 173 0.0 0 519 0 1
gene 1 2 174 0.0 0 520 0 1
gene 1 2 175 0.0 0 521 0 1
gene 1 2 176 0.0 0 522 0 1
gene 1 2 177 0.0 0 523 0 1
gene 1 2 178 0.0 0 524 0 1
gene 1 2 179 0.0 0 525 0 1
gene 1 2 180 0.0 0 526 0 1
gene 1 2 181 0.0 0 527 0 1
gene 1 2 182 0.0 0 528 0 1
gene 1 2 183 0.0 0 529 0 1
gene 1 2 184 0.0 0 530 0 1
gene 1 2 185 0.0 0 531 0 1
gene 1 2 186 0.0 0 532 0 1
gene 1 2 187 0.0 0 533 0 1
gene 1 2 188 0.0 0 534 0 1
gene 1 2 189 0.0 0 535 0 1
gene 1 2 190 0.0 0 536 0 1
gene 1 2 191 0.0 0 537 0 1
gene 1 2 192 0.0 0 538 0 1
gene 1 2 193 0.0 0 539 0 1
gene 1 2 194 0.0 0 540 0 1
gene 1 2 195 0.0 0 541 0 1
gene 1 2 196 0.0 0 542 0 1
gene 1 2 197 0.0 0 543 0 1
gene 1 2 198 0.0 0 544 0 1
gene 1 2 199 0.0 0 545 0 1
gene 1 2 200 0.0 0 546 0 1
gene 1 2 201 0.0 0 547 0 1
gene 1 2 202 0.0 0 548 0 1
gene 1 2 203 0.0 0 549 0 1
gene 1 2 204 0.0 0 550 0 1
gene 1 2 205 0.0 0 551 0 1
gene 1 2 206 0.0 0 552 0 1
gene 1 2 207 0.0 0 553 0 1
gene 1 2 208 0.0 0 554 0 1
gene 1 2 209 0.0 0 555 0 1
gene 1 2 210 0.0 0 556 0 1
gene 1 2 211 0.0 0 557 0 1
gene 1 2 212 0.0 0 558 0 1
gene 1 2 213 0.0 0 559 0 1
gene 1 2 214 0.0 0 560 0 1
gene 1 2 215 0.0 0 561 0 1
gene 1 2 216 0.0 0 562 0 1
gene 1 2 217 0.0 0 563 0 1
gene 1 2 218 0.0 0 564 0 1
gene 1 2 219 0.0 0 565 0 1
gene 1 2 220 0.0 0 566 0 1
gene 1 2 221 0.0 0 567 0 1
gene 1 2 222 0.0 0 568 0 1
gene 1 2 223 0.0 0 569 0 1
gene 1 2 224 0.0 0 570 0 1
gene 1 2 225 0.0 0 571 0 1
gene 1 2 226 0.0 0 572 0 1
gene 1 2 227 0.0 0 573 0 1
gene 1 2 228 0.0 0 574 0 1
gene 1 2 229 0.0 0 575 0 1
gene 1 2 230 0.0 0 576 0 1
gene 1 2 231 0.0 0 577 0 1
gene 1 2 232 0.0 0 578 0 1
gene 1 2 233 0.0 0 579 0 1
gene 1 2 234 0.0 0 580 0 1
gene 1 2 235 0.0 0 581 0 1
gene 1 2 236 0.0 0 582 0 1
gene 1 2 237 0.0 0 583 0 1
gene 1 2 238 0.0 0 584 0 1
gene 1 2 239 0.0 0 585 0 1
gene 1 2 240 0.0 0 586 0 1
gene 1 2 241 0.0 0 587 0 1
gene 1 2 242 0.0 0 588 0 1
gene 1 2 243 0.0 0 589 0 1
gene 1 2 244 0.0 0 590 0 1
gene 1 2 245 0.0 0 591 0 1
gene 1 2 246 0.0 0 592 0 1
gene 1 2 247 0.0 0 593 0 1
gene 1 2 248 0.0 0 594 0 1
gene 1 2 249 0.0 0 595 0 1
gene 1 2 250 0.0 0 596 0 1
gene 1 2 251 0.0 0 597 0 1
gene 1 2 252 0.0 0 598 0 1
gene 1 2 253 0.0 0 599 0 1
gene 1 2 254 0.0 0 600 0 1
gene 1 2 255 0.0 0 601 0 1
gene 1 2 256 0.0 0 602 0 1
gene 1 2 257 0.0 0 603 0 1
gene 1 2 258 0.0 0 604 0 1
gene 1 2 259 0.0 0 605 0 1
gene 1 2 260 0.0 0 606 0 1
gene 1 2 261 0.0 0 607 0 1
gene 1 2 262 0.0 0 608 0 1
gene 1 2 263 0.0 0 609 0 1
gene 1 2 264 0.0 0 610 0 1
gene 1 2 265 0.0 0 611 0 1
gene 1 2 266 0.0 0 612 0 1
gene 1 2 267 0.0 0 613 0 1
gene 1 2 268 0.0 0 614 0 1
gene 1 2 269 0.0 0 615 0 1
gene 1 2 270 0.0 0 616 0 1
gene 1 2 271 0.0 0 617 0 1
gene 1 2 272 0.0 0 618 0 1
gene 1 2 273 0.0 0 619 0 1
gene 1 2 274 0.0 0 620 0 1
gene 1 2 275 0.0 0 621 0 1
gene 1 2 276 0.0 0 622 0 1
gene 1 2 277 0.0 0 623 0 1
gene 1 2 278 0.0 0 624 0 1
gene 1 2 279 0.0 0 625 0 1
gene 1 2 280 0.0 0 626 0 1
gene 1 2 281 0.0 0 627 0 1
gene 1 2 282 0.0 0 628 0 1
gene 1 2 283 0.0 0 629 0 1
gene 1 2 284 0.0 0 630 0 1
gene 1 2 285 0.0 0 631 0 1
gene 1 2 286 0.0 0 632 0 1
gene 1 2 287 0.0 0 633 0 1
gene 1 2 288 0.0 0 634 0 1
gene 1 2 289 0.0 0 635 0 1
gene 1 2 290 0.0 0 636 0 1
gene 1 2 291 0.0 0 637 0 1
gene 1 2 292 0.0 0 638 0 1
gene 1 2 293 0.0 0 639 0 1
gene 1 2 294 0.0 0 640 0 1
gene 1 2 295 0.0 0 641 0 1
gene 1 2 296 0.0 0 642 0 1
gene 1 2 297 0.0 0 643 0 1
gene 1 2 298 0.0 0 644 0 1
gene 1 2 299 0.0 0 645 0 1
gene 1 2 300 0.0 0 646 0 1
gene 1 2 301 0.0 0 647 0 1
gene 1 2 302 0.0 0 648 0 1
gene 1 2 303 0.0 0 649 0 1
gene 1 2 304 0.0 0 650 0 1
gene 1 2 305 0.0 0 651 0 1
gene 1 2 306 0.0 0 652 0 1
gene 1 2 307 0.0 0 653 0 1
gene 1 2 308 0.0 0 654 0 1
gene 1 2 309 0.0 0 655 0 1
gene 1 2 310 0.0 0 656 0 1
gene 1 2 311 0.0 0 657 0 1
gene 1 2 312 0.0 0 658 0 1
gene 1 2 313 0.0 0 659 0 1
gene 1 2 314 0.0 0 660 0 1
gene 1 2 315 0.0 0 661 0 1
gene 1 2 316 0.0 0 662 0 1
gene 1 2 317 0.0 0 663 0 1
gene 1 2 318 0.0 0 664 0 1
gene 1 2 319 0.0 0 665 0 1
gene 1 2 320 0.0 0 666 0 1
gene 1 2 321 0.0 0 667 0 1
gene 1 2 322 0.0 0 668 0 1
gene 1 2 323 0.0 0 669 0 1
gene 1 2 324 0.0 0 670 0 1
gene 1 2 325 0.0 0 671 0 1
gene 1 2 326 0.0 0 672 0 1
gene 1 2 327 0.0 0 673 0 1
gene 1 2 328 0.0 0 674 0 1
gene 1 2 329 0.0 0 675 0 1
gene 1 2 330 0.0 0 676 0 1
gene 1 2 331 0.0 0 677 0 1
gene 1 2 332 0.0 0 678 0 1
gene 1 2 333 0.0 0 679 0 1
gene 1 2 334 0.0 0 680 0 1
gene 1 2 335 0.0 0 681 0 1
gene 1 2 336 0.0 0 682 0 1
gene 1 2 337 0.0 0 683 0 1
gene 1 2 338 0.0 0 684 0 1
gene 1 2 339 0.0 0 685 0 1
gene 1 2 340 0.0 0 686 0 1
gene 1 2 341 0.0 0 687 0 1
gene 1 2 342 0.0 0 688 0 1
gene 1 2 343 0.0 0 689 0 1
gene 1 2 344 0.0 0 690 0 1
gene 1 2 345 0.0 0 691 0 1
gene 1 2 346 0.0 0 692 0 1
gene 1 2 347 0.0 0 693 0 1
gene 1 2 348 0.0 0 694 0 1
gene 1 2 349 0.0 0 695 0 1
gene 1 2 350 0.0 0 696 0 1
gene 1 2 351 0.0 0 697 0 1
gene 1 2 352 0.0 0 698 0 1
gene 1 2 353 0.0 0 699 0 1
gene 1 2 354 0.0 0 700 0 1
gene 1 2 355 0.0 0 701 0 1
gene 1 2 356 0.0 0 702 0 1
gene 1 2 357 0.0 0 703 0 1
gene 1 2 358 0.0 0 704 0 1
gene 1 2 359 0.0 0 705 0 1
gene 1 2 360 0.0 0 706 0 1
gene 1 2 361 0.0 0 707 0 1
gene 1 2 362 0.0 0 708 0 1
gene 1 2 363 0.0 0 709 0 1
gene 1 2 364 0.0 0 710 0 1
gene 1 2 365 0.0 0 711 0 1
gene 1 2 366 0.0 0 712 0 1
gene 1 2 367 0.0 0 713 0 1
gene 1 2 368 0.0 0 714 0 1
gene 1 2 369 0.0 0 715 0 1
gene 1 2 370 0.0 0 716 0 1
gene 1 2 371 0.0 0 717 0 1
gene 1 2 372 0.0 0 718 0 1
gene 1 2 373 0.0 0 719 0 1
gene 1 2 374 0.0 0 720 0 1
gene 1 2 375 0.0 0 721 0 1
gene 1 2 376 0.0 0 722 0 1
gene 1 2 377 0.0 0 723 0 1
gene 1 2 378 0.0 0 724 0 1
gene 1 2 379 0.0 0 725 0 1
gene 1 2 380 0.0 0 726 0 1
gene 1 2 381 0.0 0 727 0 1
gene 1 2 382 0.0 0 728 0 1
gene 1 2 383 0.0 0 729 0 1
gene 1 2 384 0.0 0 730 0 1
gene 1 2 385 0.0 0 731 0 1
gene 1 2 386 0.0 0 732 0 1
gene 1 2 387 0.0 0 733 0 1
gene 1 2 388 0.0 0 734 0 1
gene 1 2 389 0.0 0 735 0 1
gene 1 2 390 0.0 0 736 0 1
gene 1 2 391 0.0 0 737 0 1
gene 1 2 392 0.0 0 738 0 1
gene 1 2 393 0.0 0 739 0 1
gene 1 2 394 0.0 0 740 0 1
gene 1 2 395 0.0 0 741 0 1
gene 1 2 396 0.0 0 742 0 1
gene 1 3 26 0.0 0 743 0 1
gene 1 3 27 0.0 0 744 0 1
gene 1 3 28 0.0 0 745 0 1
gene 1 3 29 0.0 0 746 0 1
gene 1 3 30 0.0 0 747 0 1
gene 1 3 31 0.0 0 748 0 1
gene 1 3 32 0.0 0 749 0 1
gene 1 3 33 0.0 0 750 0 1
gene 1 3 34 0.0 0 751 0 1
gene 1 3 35 0.0 0 752 0 1
gene 1 3 36 0.0 0 753 0 1
gene 1 3 37 0.0 0 754 0 1
gene 1 3 38 0.0 0 755 0 1
gene 1 3 39 0.0 0 756 0 1
gene 1 3 40 0.0 0 757 0 1
gene 1 3 41 0.0 0 758 0 1
gene 1 3 42 0.0 0 759 0 1
gene 1 3 43 0.0 0 760 0 1
gene 1 3 44 0.0 0 761 0 1
gene 1 3 45 0.0 0 762 0 1
gene 1 3 46 0.0 0 763 0 1
gene 1 3 47 0.0 0 764 0 1
gene 1 3 48 0.0 0 765 0 1
gene 1 3 49 0.0 0 766 0 1
gene 1 3 50 0.0 0 767 0 1
gene 1 3 51 0.0 0 768 0 1
gene 1 3 52 0.0 0 769 0 1
gene 1 3 53 0.0 0 770 0 1
gene 1 3 54 0.0 0 771 0 1
gene 1 3 55 0.0 0 772 0 1
gene 1 3 56 0.0 0 773 0 1
gene 1 3 57 0.0 0 774 0 1
gene 1 3 58 0.0 0 775 0 1
gene 1 3 59 0.0 0 776 0 1
gene 1 3 60 0.0 0 777 0 1
gene 1 3 61 0.0 0 778 0 1
gene 1 3 62 0.0 0 779 0 1
gene 1 3 63 0.0 0 780 0 1
gene 1 3 64 0.0 0 781 0 1
gene 1 3 65 0.0 0 782 0 1
gene 1 3 66 0.0 0 783 0 1
gene 1 3 67 0.0 0 784 0 1
gene 1 3 68 0.0 0 785 0 1
gene 1 3 69 0.0 0 786 0 1
gene 1 3 70 0.0 0 787 0 1
gene 1 3 71 0.0 0 788 0 1
gene 1 3 72 0.0 0 789 0 1
gene 1 3 73 0.0 0 790 0 1
gene 1 3 74 0.0 0 791 0 1
gene 1 3 75 0.0 0 792 0 1
gene 1 3 76 0.0 0 793 0 1
gene 1 3 77 0.0 0 794 0 1
gene 1 3 78 0.0 0 795 0 1
gene 1 3 79 0.0 0 796 0 1
gene 1 3 80 0.0 0 797 0 1
gene 1 3 81 0.0 0 798 0 1
gene 1 3 82 0.0 0 799 0 1
gene 1 3 83 0.0 0 800 0 1
gene 1 3 84 0.0 0 801 0 1
gene 1 3 85 0.0 0 802 0 1
gene 1 3 86 0.0 0 803 0 1
gene 1 3 87 0.0 0 804 0 1
gene 1 3 88 0.0 0 805 0 1
gene 1 3 89 0.0 0 806 0 1
gene 1 3 90 0.0 0 807 0 1
gene 1 3 91 0.0 0 808 0 1
gene 1 3 92 0.0 0 809 0 1
gene 1 3 93 0.0 0 810 0 1
gene 1 3 94 0.0 0 811 0 1
gene 1 3 95 0.0 0 812 0 1
gene 1 3 96 0.0 0 813 0 1
gene 1 3 97 0.0 0 814 0 1
gene 1 3 98 0.0 0 815 0 1
gene 1 3 99 0.0 0 816 0 1
gene 1 3 100 0.0 0 817 0 1
gene 1 3 101 0.0 0 818 0 1
gene 1 3 102 0.0 0 819 0 1
gene 1 3 103 0.0 0 820 0 1
gene 1 3 104 0.0 0 821 0 1
gene 1 3 105 0.0 0 822 0 1
gene 1 3 106 0.0 0 823 0 1
gene 1 3 107 0.0 0 824 0 1
gene 1 3 108 0.0 0 825 0 1
gene 1 3 109 0.0 0 826 0 1
gene 1 3 110 0.0 0 827 0 1
gene 1 3 111 0.0 0 828 0 1
gene 1 3 112 0.0 0 829 0 1
gene 1 3 113 0.0 0 830 0 1
gene 1 3 114 0.0 0 831 0 1
gene 1 3 115 0.0 0 832 0 1
gene 1 3 116 0.0 0 833 0 1
gene 1 3 117 0.0 0 834 0 1
gene 1 3 118 0.0 0 835 0 1
gene 1 3 119 0.0 0 836 0 1
gene 1 3 120 0.0 0 837 0 1
gene 1 3 121 0.0 0 838 0 1
gene 1 3 122 0.0 0 839 0 1
gene 1 3 123 0.0 0 840 0 1
gene 1 3 124 0.0 0 841 0 1
gene 1 3 125 0.0 0 842 0 1
gene 1 3 126 0.0 0 843 0 1
gene 1 3 127 0.0 0 844 0 1
gene 1 3 128 0.0 0 845 0 1
gene 1 3 129 0.0 0 846 0 1
gene 1 3 130 0.0 0 847 0 1
gene 1 3 131 0.0 0 848 0 1
gene 1 3 132 0.0 0 849 0 1
gene 1 3 133 0.0 0 850 0 1
gene 1 3 134 0.0 0 851 0 1
gene 1 3 135 0.0 0 852 0 1
gene 1 3 136 0.0 0 853 0 1
gene 1 3 137 0.0 0 854 0 1
gene 1 3 138 0.0 0 855 0 1
gene 1 3 139 0.0 0 856 0 1
gene 1 3 140 0.0 0 857 0 1
gene 1 3 141 0.0 0 858 0 1
gene 1 3 142 0.0 0 859 0 1
gene 1 3 143 0.0 0 860 0 1
gene 1 3 144 0.0 0 861 0 1
gene 1 3 145 0.0 0 862 0 1
gene 1 3 146 0.0 0 863 0 1
gene 1 3 147 0.0 0 864 0 1
gene 1 3 148 0.0 0 865 0 1
gene 1 3 149 0.0 0 866 0 1
gene 1 3 150 0.0 0 867 0 1
gene 1 3 151 0.0 0 868 0 1
gene 1 3 152 0.0 0 869 0 1
gene 1 3 153 0.0 0 870 0 1
gene 1 3 154 0.0 0 871 0 1
gene 1 3 155 0.0 0 872 0 1
gene 1 3 156 0.0 0 873 0 1
gene 1 3 157 0.0 0 874 0 1
gene 1 3 158 0.0 0 875 0 1
gene 1 3 159 0.0 0 876 0 1
gene 1 3 160 0.0 0 877 0 1
gene 1 3 161 0.0 0 878 0 1
gene 1 3 162 0.0 0 879 0 1
gene 1 3 163 0.0 0 880 0 1
gene 1 3 164 0.0 0 881 0 1
gene 1 3 165 0.0 0 882 0 1
gene 1 3 166 0.0 0 883 0 1
gene 1 3 167 0.0 0 884 0 1
gene 1 3 168 0.0 0 885 0 1
gene 1 3 169 0.0 0 886 0 1
gene 1 3 170 0.0 0 887 0 1
gene 1 3 171 0.0 0 888 0 1
gene 1 3 172 0.0 0 889 0 1
gene 1 3 173 0.0 0 890 0 1
gene 1 3 174 0.0 0 891 0 1
gene 1 3 175 0.0 0 892 0 1
gene 1 3 176 0.0 0 893 0 1
gene 1 3 177 0.0 0 894 0 1
gene 1 3 178 0.0 0 895 0 1
gene 1 3 179 0.0 0 896 0 1
gene 1 3 180 0.0 0 897 0 1
gene 1 3 181 0.0 0 898 0 1
gene 1 3 182 0.0 0 899 0 1
gene 1 3 183 0.0 0 900 0 1
gene 1 3 184 0.0 0 901 0 1
gene 1 3 185 0.0 0 902 0 1
gene 1 3 186 0.0 0 903 0 1
gene 1 3 187 0.0 0 904 0 1
gene 1 3 188 0.0 0 905 0 1
gene 1 3 189 0.0 0 906 0 1
gene 1 3 190 0.0 0 907 0 1
gene 1 3 191 0.0 0 908 0 1
gene 1 3 192 0.0 0 909 0 1
gene 1 3 193 0.0 0 910 0 1
gene 1 3 194 0.0 0 911 0 1
gene 1 3 195 0.0 0 912 0 1
gene 1 3 196 0.0 0 913 0 1
gene 1 3 197 0.0 0 914 0 1
gene 1 3 198 0.0 0 915 0 1
gene 1 3 199 0.0 0 916 0 1
gene 1 3 200 0.0 0 917 0 1
gene 1 3 201 0.0 0 918 0 1
gene 1 3 202 0.0 0 919 0 1
gene 1 3 203 0.0 0 920 0 1
gene 1 3 204 0.0 0 921 0 1
gene 1 3 205 0.0 0 922 0 1
gene 1 3 206 0.0 0 923 0 1
gene 1 3 207 0.0 0 924 0 1
gene 1 3 208 0.0 0 925 0 1
gene 1 3 209 0.0 0 926 0 1
gene 1 3 210 0.0 0 927 0 1
gene 1 3 211 0.0 0 928 0 1
gene 1 3 212 0.0 0 929 0 1
gene 1 3 213 0.0 0 930 0 1
gene 1 3 214 0.0 0 931 0 1
gene 1 3 215 0.0 0 932 0 1
gene 1 3 216 0.0 0 933 0 1
gene 1 3 217 0.0 0 934 0 1
gene 1 3 218 0.0 0 935 0 1
gene 1 3 219 0.0 0 936 0 1
gene 1 3 220 0.0 0 937 0 1
gene 1 3 221 0.0 0 938 0 1
gene 1 3 222 0.0 0 939 0 1
gene 1 3 223 0.0 0 940 0 1
gene 1 3 224 0.0 0 941 0 1
gene 1 3 225 0.0 0 942 0 1
gene 1 3 226 0.0 0 943 0 1
gene 1 3 227 0.0 0 944 0 1
gene 1 3 228 0.0 0 945 0 1
gene 1 3 229 0.0 0 946 0 1
gene 1 3 230 0.0 0 947 0 1
gene 1 3 231 0.0 0 948 0 1
gene 1 3 232 0.0 0 949 0 1
gene 1 3 233 0.0 0 950 0 1
gene 1 3 234 0.0 0 951 0 1
gene 1 3 235 0.0 0 952 0 1
gene 1 3 236 0.0 0 953 0 1
gene 1 3 237 0.0 0 954 0 1
gene 1 3 238 0.0 0 955 0 1
gene 1 3 239 0.0 0 956 0 1
gene 1 3 240 0.0 0 957 0 1
gene 1 3 241 0.0 0 958 0 1
gene 1 3 242 0.0 0 959 0 1
gene 1 3 243 0.0 0 960 0 1
gene 1 3 244 0.0 0 961 0 1
gene 1 3 245 0.0 0 962 0 1
gene 1 3 246 0.0 0 963 0 1
gene 1 3 247 0.0 0 964 0 1
gene 1 3 248 0.0 0 965 0 1
gene 1 3 249 0.0 0 966 0 1
gene 1 3 250 0.0 0 967 0 1
gene 1 3 251 0.0 0 968 0 1
gene 1 3 252 0.0 0 969 0 1
gene 1 3 253 0.0 0 970 0 1
gene 1 3 254 0.0 0 971 0 1
gene 1 3 255 0.0 0 972 0 1
gene 1 3 256 0.0 0 973 0 1
gene 1 3 257 0.0 0 974 0 1
gene 1 3 258 0.0 0 975 0 1
gene 1 3 259 0.0 0 976 0 1
gene 1 3 260 0.0 0 977 0 1
gene 1 3 261 0.0 0 978 0 1
gene 1 3 262 0.0 0 979 0 1
gene 1 3 263 0.0 0 980 0 1
gene 1 3 264 0.0 0 981 0 1
gene 1 3 265 0.0 0 982 0 1
gene 1 3 266 0.0 0 983 0 1
gene 1 3 267 0.0 0 984 0 1
gene 1 3 268 0.0 0 985 0 1
gene 1 3 269 0.0 0 986 0 1
gene 1 3 270 0.0 0 987 0 1
gene 1 3 271 0.0 0 988 0 1
gene 1 3 272 0.0 0 989 0 1
gene 1 3 273 0.0 0 990 0 1
gene 1 3 274 0.0 0 991 0 1
gene 1 3 275 0.0 0 992 0 1
gene 1 3 276 0.0 0 993 0 1
gene 1 3 277 0.0 0 994 0 1
gene 1 3 278 0.0 0 995 0 1
gene 1 3 279 0.0 0 996 0 1
gene 1 3 280 0.0 0 997 0 1
gene 1 3 281 0.0 0 998 0 1
gene 1 3 282 0.0 0 999 0 1
gene 1 3 283 0.0 0 1000 0 1
gene 1 3 284 0.0 0 1001 0 1
gene 1 3 285 0.0 0 1002 0 1
gene 1 3 286 0.0 0 1003 0 1
gene 1 3 287 0.0 0 1004 0 1
gene 1 3 288 0.0 0 1005 0 1
gene 1 3 289 0.0 0 1006 0 1
gene 1 3 290 0.0 0 1007 0 1
gene 1 3 291 0.0 0 1008 0 1
gene 1 3 292 0.0 0 1009 0 1
gene 1 3 293 0.0 0 1010 0 1
gene 1 3 294 0.0 0 1011 0 1
gene 1 3 295 0.0 0 1012 0 1
gene 1 3 296 0.0 0 1013 0 1
gene 1 3 297 0.0 0 1014 0 1
gene 1 3 298 0.0 0 1015 0 1
gene 1 3 299 0.0 0 1016 0 1
gene 1 3 300 0.0 0 1017 0 1
gene 1 3 301 0.0 0 1018 0 1
gene 1 3 302 0.0 0 1019 0 1
gene 1 3 303 0.0 0 1020 0 1
gene 1 3 304 0.0 0 1021 0 1
gene 1 3 305 0.0 0 1022 0 1
gene 1 3 306 0.0 0 1023 0 1
gene 1 3 307 0.0 0 1024 0 1
gene 1 3 308 0.0 0 1025 0 1
gene 1 3 309 0.0 0 1026 0 1
gene 1 3 310 0.0 0 1027 0 1
gene 1 3 311 0.0 0 1028 0 1
gene 1 3 312 0.0 0 1029 0 1
gene 1 3 313 0.0 0 1030 0 1
gene 1 3 314 0.0 0 1031 0 1
gene 1 3 315 0.0 0 1032 0 1
gene 1 3 316 0.0 0 1033 0 1
gene 1 3 317 0.0 0 1034 0 1
gene 1 3 318 0.0 0 1035 0 1
gene 1 3 319 0.0 0 1036 0 1
gene 1 3 320 0.0 0 1037 0 1
gene 1 3 321 0.0 0 1038 0 1
gene 1 3 322 0.0 0 1039 0 1
gene 1 3 323 0.0 0 1040 0 1
gene 1 3 324 0.0 0 1041 0 1
gene 1 3 325 0.0 0 1042 0 1
gene 1 3 326 0.0 0 1043 0 1
gene 1 3 327 0.0 0 1044 0 1
gene 1 3 328 0.0 0 1045 0 1
gene 1 3 329 0.0 0 1046 0 1
gene 1 3 330 0.0 0 1047 0 1
gene 1 3 331 0.0 0 1048 0 1
gene 1 3 332 0.0 0 1049 0 1
gene 1 3 333 0.0 0 1050 0 1
gene 1 3 334 0.0 0 1051 0 1
gene 1 3 335 0.0 0 1052 0 1
gene 1 3 336 0.0 0 1053 0 1
gene 1 3 337 0.0 0 1054 0 1
gene 1 3 338 0.0 0 1055 0 1
gene 1 3 339 0.0 0 1056 0 1
gene 1 3 340 0.0 0 1057 0 1
gene 1 3 341 0.0 0 1058 0 1
gene 1 3 342 0.0 0 1059 0 1
gene 1 3 343 0.0 0 1060 0 1
gene 1 3 344 0.0 0 1061 0 1
gene 1 3 345 0.0 0 1062 0 1
gene 1 3 346 0.0 0 1063 0 1
gene 1 3 347 0.0 0 1064 0 1
gene 1 3 348 0.0 0 1065 0 1
gene 1 3 349 0.0 0 1066 0 1
gene 1 3 350 0.0 0 1067 0 1
gene 1 3 351 0.0 0 1068 0 1
gene 1 3 352 0.0 0 1069 0 1
gene 1 3 353 0.0 0 1070 0 1
gene 1 3 354 0.0 0 1071 0 1
gene 1 3 355 0.0 0 1072 0 1
gene 1 3 356 0.0 0 1073 0 1
gene 1 3 357 0.0 0 1074 0 1
gene 1 3 358 0.0 0 1075 0 1
gene 1 3 359 0.0 0 1076 0 1
gene 1 3 360 0.0 0 1077 0 1
gene 1 3 361 0.0 0 1078 0 1
gene 1 3 362 0.0 0 1079 0 1
gene 1 3 363 0.0 0 1080 0 1
gene 1 3 364 0.0 0 1081 0 1
gene 1 3 365 0.0 0 1082 0 1
gene 1 3 366 0.0 0 1083 0 1
gene 1 3 367 0.0 0 1084 0 1
gene 1 3 368 0.0 0 1085 0 1
gene 1 3 369 0.0 0 1086 0 1
gene 1 3 370 0.0 0 1087 0 1
gene 1 3 371 0.0 0 1088 0 1
gene 1 3 372 0.0 0 1089 0 1
gene 1 3 373 0.0 0 1090 0 1
gene 1 3 374 0.0 0 1091 0 1
gene 1 3 375 0.0 0 1092 0 1
gene 1 3 376 0.0 0 1093 0 1
gene 1 3 377 0.0 0 1094 0 1
gene 1 3 378 0.0 0 1095 0 1
gene 1 3 379 0.0 0 1096 0 1
gene 1 3 380 0.0 0 1097 0 1
gene 1 3 381 0.0 0 1098 0 1
gene 1 3 382 0.0 0 1099 0 1
gene 1 3 383 0.0 0 1100 0 1
gene 1 3 384 0.0 0 1101 0 1
gene 1 3 385 0.0 0 1102 0 1
gene 1 3 386 0.0 0 1103 0 1
gene 1 3 387 0.0 0 1104 0 1
gene 1 3 388 0.0 0 1105 0 1
gene 1 3 389 0.0 0 1106 0 1
gene 1 3 390 0.0 0 1107 0 1
gene 1 3 391 0.0 0 1108 0 1
gene 1 3 392 0.0 0 1109 0 1
gene 1 3 393 0.0 0 1110 0 1
gene 1 3 394 0.0 0 1111 0 1
gene 1 3 395 0.0 0 1112 0 1
gene 1 3 396 0.0 0 1113 0 1
gene 1 4 26 0.0 0 1114 0 1
gene 1 4 27 0.0 0 1115 0 1
gene 1 4 28 0.0 0 1116 0 1
gene 1 4 29 0.0 0 1117 0 1
gene 1 4 30 0.0 0 1118 0 1
gene 1 4 31 0.0 0 1119 0 1
gene 1 4 32 0.0 0 1120 0 1
gene 1 4 33 0.0 0 1121 0 1
gene 1 4 34 0.0 0 1122 0 1
gene 1 4 35 0.0 0 1123 0 1
gene 1 4 36 0.0 0 1124 0 1
gene 1 4 37 0.0 0 1125 0 1
gene 1 4 38 0.0 0 1126 0 1
gene 1 4 39 0.0 0 1127 0 1
gene 1 4 40 0.0 0 1128 0 1
gene 1 4 41 0.0 0 1129 0 1
gene 1 4 42 0.0 0 1130 0 1
gene 1 4 43 0.0 0 1131 0 1
gene 1 4 44 0.0 0 1132 0 1
gene 1 4 45 0.0 0 1133 0 1
gene 1 4 46 0.0 0 1134 0 1
gene 1 4 47 0.0 0 1135 0 1
gene 1 4 48 0.0 0 1136 0 1
gene 1 4 49 0.0 0 1137 0 1
gene 1 4 50 0.0 0 1138 0 1
gene 1 4 51 0.0 0 1139 0 1
gene 1 4 52 0.0 0 1140 0 1
gene 1 4 53 0.0 0 1141 0 1
gene 1 4 54 0.0 0 1142 0 1
gene 1 4 55 0.0 0 1143 0 1
gene 1 4 56 0.0 0 1144 0 1
gene 1 4 57 0.0 0 1145 0 1
gene 1 4 58 0.0 0 1146 0 1
gene 1 4 59 0.0 0 1147 0 1
gene 1 4 60 0.0 0 1148 0 1
gene 1 4 61 0.0 0 1149 0 1
gene 1 4 62 0.0 0 1150 0 1
gene 1 4 63 0.0 0 1151 0 1
gene 1 4 64 0.0 0 1152 0 1
gene 1 4 65 0.0 0 1153 0 1
gene 1 4 66 0.0 0 1154 0 1
gene 1 4 67 0.0 0 1155 0 1
gene 1 4 68 0.0 0 1156 0 1
gene 1 4 69 0.0 0 1157 0 1
gene 1 4 70 0.0 0 1158 0 1
gene 1 4 71 0.0 0 1159 0 1
gene 1 4 72 0.0 0 1160 0 1
gene 1 4 73 0.0 0 1161 0 1
gene 1 4 74 0.0 0 1162 0 1
gene 1 4 75 0.0 0 1163 0 1
gene 1 4 76 0.0 0 1164 0 1
gene 1 4 77 0.0 0 1165 0 1
gene 1 4 78 0.0 0 1166 0 1
gene 1 4 79 0.0 0 1167 0 1
gene 1 4 80 0.0 0 1168 0 1
gene 1 4 81 0.0 0 1169 0 1
gene 1 4 82 0.0 0 1170 0 1
gene 1 4 83 0.0 0 1171 0 1
gene 1 4 84 0.0 0 1172 0 1
gene 1 4 85 0.0 0 1173 0 1
gene 1 4 86 0.0 0 1174 0 1
gene 1 4 87 0.0 0 1175 0 1
gene 1 4 88 0.0 0 1176 0 1
gene 1 4 89 0.0 0 1177 0 1
gene 1 4 90 0.0 0 1178 0 1
gene 1 4 91 0.0 0 1179 0 1
gene 1 4 92 0.0 0 1180 0 1
gene 1 4 93 0.0 0 1181 0 1
gene 1 4 94 0.0 0 1182 0 1
gene 1 4 95 0.0 0 1183 0 1
gene 1 4 96 0.0 0 1184 0 1
gene 1 4 97 0.0 0 1185 0 1
gene 1 4 98 0.0 0 1186 0 1
gene 1 4 99 0.0 0 1187 0 1
gene 1 4 100 0.0 0 1188 0 1
gene 1 4 101 0.0 0 1189 0 1
gene 1 4 102 0.0 0 1190 0 1
gene 1 4 103 0.0 0 1191 0 1
gene 1 4 104 0.0 0 1192 0 1
gene 1 4 105 0.0 0 1193 0 1
gene 1 4 106 0.0 0 1194 0 1
gene 1 4 107 0.0 0 1195 0 1
gene 1 4 108 0.0 0 1196 0 1
gene 1 4 109 0.0 0 1197 0 1
gene 1 4 110 0.0 0 1198 0 1
gene 1 4 111 0.0 0 1199 0 1
gene 1 4 112 0.0 0 1200 0 1
gene 1 4 113 0.0 0 1201 0 1
gene 1 4 114 0.0 0 1202 0 1
gene 1 4 115 0.0 0 1203 0 1
gene 1 4 116 0.0 0 1204 0 1
gene 1 4 117 0.0 0 1205 0 1
gene 1 4 118 0.0 0 1206 0 1
gene 1 4 119 0.0 0 1207 0 1
gene 1 4 120 0.0 0 1208 0 1
gene 1 4 121 0.0 0 1209 0 1
gene 1 4 122 0.0 0 1210 0 1
gene 1 4 123 0.0 0 1211 0 1
gene 1 4 124 0.0 0 1212 0 1
gene 1 4 125 0.0 0 1213 0 1
gene 1 4 126 0.0 0 1214 0 1
gene 1 4 127 0.0 0 1215 0 1
gene 1 4 128 0.0 0 1216 0 1
gene 1 4 129 0.0 0 1217 0 1
gene 1 4 130 0.0 0 1218 0 1
gene 1 4 131 0.0 0 1219 0 1
gene 1 4 132 0.0 0 1220 0 1
gene 1 4 133 0.0 0 1221 0 1
gene 1 4 134 0.0 0 1222 0 1
gene 1 4 135 0.0 0 1223 0 1
gene 1 4 136 0.0 0 1224 0 1
gene 1 4 137 0.0 0 1225 0 1
gene 1 4 138 0.0 0 1226 0 1
gene 1 4 139 0.0 0 1227 0 1
gene 1 4 140 0.0 0 1228 0 1
gene 1 4 141 0.0 0 1229 0 1
gene 1 4 142 0.0 0 1230 0 1
gene 1 4 143 0.0 0 1231 0 1
gene 1 4 144 0.0 0 1232 0 1
gene 1 4 145 0.0 0 1233 0 1
gene 1 4 146 0.0 0 1234 0 1
gene 1 4 147 0.0 0 1235 0 1
gene 1 4 148 0.0 0 1236 0 1
gene 1 4 149 0.0 0 1237 0 1
gene 1 4 150 0.0 0 1238 0 1
gene 1 4 151 0.0 0 1239 0 1
gene 1 4 152 0.0 0 1240 0 1
gene 1 4 153 0.0 0 1241 0 1
gene 1 4 154 0.0 0 1242 0 1
gene 1 4 155 0.0 0 1243 0 1
gene 1 4 156 0.0 0 1244 0 1
gene 1 4 157 0.0 0 1245 0 1
gene 1 4 158 0.0 0 1246 0 1
gene 1 4 159 0.0 0 1247 0 1
gene 1 4 160 0.0 0 1248 0 1
gene 1 4 161 0.0 0 1249 0 1
gene 1 4 162 0.0 0 1250 0 1
gene 1 4 163 0.0 0 1251 0 1
gene 1 4 164 0.0 0 1252 0 1
gene 1 4 165 0.0 0 1253 0 1
gene 1 4 166 0.0 0 1254 0 1
gene 1 4 167 0.0 0 1255 0 1
gene 1 4 168 0.0 0 1256 0 1
gene 1 4 169 0.0 0 1257 0 1
gene 1 4 170 0.0 0 1258 0 1
gene 1 4 171 0.0 0 1259 0 1
gene 1 4 172 0.0 0 1260 0 1
gene 1 4 173 0.0 0 1261 0 1
gene 1 4 174 0.0 0 1262 0 1
gene 1 4 175 0.0 0 1263 0 1
gene 1 4 176 0.0 0 1264 0 1
gene 1 4 177 0.0 0 1265 0 1
gene 1 4 178 0.0 0 1266 0 1
gene 1 4 179 0.0 0 1267 0 1
gene 1 4 180 0.0 0 1268 0 1
gene 1 4 181 0.0 0 1269 0 1
gene 1 4 182 0.0 0 1270 0 1
gene 1 4 183 0.0 0 1271 0 1
gene 1 4 184 0.0 0 1272 0 1
gene 1 4 185 0.0 0 1273 0 1
gene 1 4 186 0.0 0 1274 0 1
gene 1 4 187 0.0 0 1275 0 1
gene 1 4 188 0.0 0 1276 0 1
gene 1 4 189 0.0 0 1277 0 1
gene 1 4 190 0.0 0 1278 0 1
gene 1 4 191 0.0 0 1279 0 1
gene 1 4 192 0.0 0 1280 0 1
gene 1 4 193 0.0 0 1281 0 1
gene 1 4 194 0.0 0 1282 0 1
gene 1 4 195 0.0 0 1283 0 1
gene 1 4 196 0.0 0 1284 0 1
gene 1 4 197 0.0 0 1285 0 1
gene 1 4 198 0.0 0 1286 0 1
gene 1 4 199 0.0 0 1287 0 1
gene 1 4 200 0.0 0 1288 0 1
gene 1 4 201 0.0 0 1289 0 1
gene 1 4 202 0.0 0 1290 0 1
gene 1 4 203 0.0 0 1291 0 1
gene 1 4 204 0.0 0 1292 0 1
gene 1 4 205 0.0 0 1293 0 1
gene 1 4 206 0.0 0 1294 0 1
gene 1 4 207 0.0 0 1295 0 1
gene 1 4 208 0.0 0 1296 0 1
gene 1 4 209 0.0 0 1297 0 1
gene 1 4 210 0.0 0 1298 0 1
gene 1 4 211 0.0 0 1299 0 1
gene 1 4 212 0.0 0 1300 0 1
gene 1 4 213 0.0 0 1301 0 1
gene 1 4 214 0.0 0 1302 0 1
gene 1 4 215 0.0 0 1303 0 1
gene 1 4 216 0.0 0 1304 0 1
gene 1 4 217 0.0 0 1305 0 1
gene 1 4 218 0.0 0 1306 0 1
gene 1 4 219 0.0 0 1307 0 1
gene 1 4 220 0.0 0 1308 0 1
gene 1 4 221 0.0 0 1309 0 1
gene 1 4 222 0.0 0 1310 0 1
gene 1 4 223 0.0 0 1311 0 1
gene 1 4 224 0.0 0 1312 0 1
gene 1 4 225 0.0 0 1313 0 1
gene 1 4 226 0.0 0 1314 0 1
gene 1 4 227 0.0 0 1315 0 1
gene 1 4 228 0.0 0 1316 0 1
gene 1 4 229 0.0 0 1317 0 1
gene 1 4 230 0.0 0 1318 0 1
gene 1 4 231 0.0 0 1319 0 1
gene 1 4 232 0.0 0 1320 0 1
gene 1 4 233 0.0 0 1321 0 1
gene 1 4 234 0.0 0 1322 0 1
gene 1 4 235 0.0 0 1323 0 1
gene 1 4 236 0.0 0 1324 0 1
gene 1 4 237 0.0 0 1325 0 1
gene 1 4 238 0.0 0 1326 0 1
gene 1 4 239 0.0 0 1327 0 1
gene 1 4 240 0.0 0 1328 0 1
gene 1 4 241 0.0 0 1329 0 1
gene 1 4 242 0.0 0 1330 0 1
gene 1 4 243 0.0 0 1331 0 1
gene 1 4 244 0.0 0 1332 0 1
gene 1 4 245 0.0 0 1333 0 1
gene 1 4 246 0.0 0 1334 0 1
gene 1 4 247 0.0 0 1335 0 1
gene 1 4 248 0.0 0 1336 0 1
gene 1 4 249 0.0 0 1337 0 1
gene 1 4 250 0.0 0 1338 0 1
gene 1 4 251 0.0 0 1339 0 1
gene 1 4 252 0.0 0 1340 0 1
gene 1 4 253 0.0 0 1341 0 1
gene 1 4 254 0.0 0 1342 0 1
gene 1 4 255 0.0 0 1343 0 1
gene 1 4 256 0.0 0 1344 0 1
gene 1 4 257 0.0 0 1345 0 1
gene 1 4 258 0.0 0 1346 0 1
gene 1 4 259 0.0 0 1347 0 1
gene 1 4 260 0.0 0 1348 0 1
gene 1 4 261 0.0 0 1349 0 1
gene 1 4 262 0.0 0 1350 0 1
gene 1 4 263 0.0 0 1351 0 1
gene 1 4 264 0.0 0 1352 0 1
gene 1 4 265 0.0 0 1353 0 1
gene 1 4 266 0.0 0 1354 0 1
gene 1 4 267 0.0 0 1355 0 1
gene 1 4 268 0.0 0 1356 0 1
gene 1 4 269 0.0 0 1357 0 1
gene 1 4 270 0.0 0 1358 0 1
gene 1 4 271 0.0 0 1359 0 1
gene 1 4 272 0.0 0 1360 0 1
gene 1 4 273 0.0 0 1361 0 1
gene 1 4 274 0.0 0 1362 0 1
gene 1 4 275 0.0 0 1363 0 1
gene 1 4 276 0.0 0 1364 0 1
gene 1 4 277 0.0 0 1365 0 1
gene 1 4 278 0.0 0 1366 0 1
gene 1 4 279 0.0 0 1367 0 1
gene 1 4 280 0.0 0 1368 0 1
gene 1 4 281 0.0 0 1369 0 1
gene 1 4 282 0.0 0 1370 0 1
gene 1 4 283 0.0 0 1371 0 1
gene 1 4 284 0.0 0 1372 0 1
gene 1 4 285 0.0 0 1373 0 1
gene 1 4 286 0.0 0 1374 0 1
gene 1 4 287 0.0 0 1375 0 1
gene 1 4 288 0.0 0 1376 0 1
gene 1 4 289 0.0 0 1377 0 1
gene 1 4 290 0.0 0 1378 0 1
gene 1 4 291 0.0 0 1379 0 1
gene 1 4 292 0.0 0 1380 0 1
gene 1 4 293 0.0 0 1381 0 1
gene 1 4 294 0.0 0 1382 0 1
gene 1 4 295 0.0 0 1383 0 1
gene 1 4 296 0.0 0 1384 0 1
gene 1 4 297 0.0 0 1385 0 1
gene 1 4 298 0.0 0 1386 0 1
gene 1 4 299 0.0 0 1387 0 1
gene 1 4 300 0.0 0 1388 0 1
gene 1 4 301 0.0 0 1389 0 1
gene 1 4 302 0.0 0 1390 0 1
gene 1 4 303 0.0 0 1391 0 1
gene 1 4 304 0.0 0 1392 0 1
gene 1 4 305 0.0 0 1393 0 1
gene 1 4 306 0.0 0 1394 0 1
gene 1 4 307 0.0 0 1395 0 1
gene 1 4 308 0.0 0 1396 0 1
gene 1 4 309 0.0 0 1397 0 1
gene 1 4 310 0.0 0 1398 0 1
gene 1 4 311 0.0 0 1399 0 1
gene 1 4 312 0.0 0 1400 0 1
gene 1 4 313 0.0 0 1401 0 1
gene 1 4 314 0.0 0 1402 0 1
gene 1 4 315 0.0 0 1403 0 1
gene 1 4 316 0.0 0 1404 0 1
gene 1 4 317 0.0 0 1405 0 1
gene 1 4 318 0.0 0 1406 0 1
gene 1 4 319 0.0 0 1407 0 1
gene 1 4 320 0.0 0 1408 0 1
gene 1 4 321 0.0 0 1409 0 1
gene 1 4 322 0.0 0 1410 0 1
gene 1 4 323 0.0 0 1411 0 1
gene 1 4 324 0.0 0 1412 0 1
gene 1 4 325 0.0 0 1413 0 1
gene 1 4 326 0.0 0 1414 0 1
gene 1 4 327 0.0 0 1415 0 1
gene 1 4 328 0.0 0 1416 0 1
gene 1 4 329 0.0 0 1417 0 1
gene 1 4 330 0.0 0 1418 0 1
gene 1 4 331 0.0 0 1419 0 1
gene 1 4 332 0.0 0 1420 0 1
gene 1 4 333 0.0 0 1421 0 1
gene 1 4 334 0.0 0 1422 0 1
gene 1 4 335 0.0 0 1423 0 1
gene 1 4 336 0.0 0 1424 0 1
gene 1 4 337 0.0 0 1425 0 1
gene 1 4 338 0.0 0 1426 0 1
gene 1 4 339 0.0 0 1427 0 1
gene 1 4 340 0.0 0 1428 0 1
gene 1 4 341 0.0 0 1429 0 1
gene 1 4 342 0.0 0 1430 0 1
gene 1 4 343 0.0 0 1431 0 1
gene 1 4 344 0.0 0 1432 0 1
gene 1 4 345 0.0 0 1433 0 1
gene 1 4 346 0.0 0 1434 0 1
gene 1 4 347 0.0 0 1435 0 1
gene 1 4 348 0.0 0 1436 0 1
gene 1 4 349 0.0 0 1437 0 1
gene 1 4 350 0.0 0 1438 0 1
gene 1 4 351 0.0 0 1439 0 1
gene 1 4 352 0.0 0 1440 0 1
gene 1 4 353 0.0 0 1441 0 1
gene 1 4 354 0.0 0 1442 0 1
gene 1 4 355 0.0 0 1443 0 1
gene 1 4 356 0.0 0 1444 0 1
gene 1 4 357 0.0 0 1445 0 1
gene 1 4 358 0.0 0 1446 0 1
gene 1 4 359 0.0 0 1447 0 1
gene 1 4 360 0.0 0 1448 0 1
gene 1 4 361 0.0 0 1449 0 1
gene 1 4 362 0.0 0 1450 0 1
gene 1 4 363 0.0 0 1451 0 1
gene 1 4 364 0.0 0 1452 0 1
gene 1 4 365 0.0 0 1453 0 1
gene 1 4 366 0.0 0 1454 0 1
gene 1 4 367 0.0 0 1455 0 1
gene 1 4 368 0.0 0 1456 0 1
gene 1 4 369 0.0 0 1457 0 1
gene 1 4 370 0.0 0 1458 0 1
gene 1 4 371 0.0 0 1459 0 1
gene 1 4 372 0.0 0 1460 0 1
gene 1 4 373 0.0 0 1461 0 1
gene 1 4 374 0.0 0 1462 0 1
gene 1 4 375 0.0 0 1463 0 1
gene 1 4 376 0.0 0 1464 0 1
gene 1 4 377 0.0 0 1465 0 1
gene 1 4 378 0.0 0 1466 0 1
gene 1 4 379 0.0 0 1467 0 1
gene 1 4 380 0.0 0 1468 0 1
gene 1 4 381 0.0 0 1469 0 1
gene 1 4 382 0.0 0 1470 0 1
gene 1 4 383 0.0 0 1471 0 1
gene 1 4 384 0.0 0 1472 0 1
gene 1 4 385 0.0 0 1473 0 1
gene 1 4 386 0.0 0 1474 0 1
gene 1 4 387 0.0 0 1475 0 1
gene 1 4 388 0.0 0 1476 0 1
gene 1 4 389 0.0 0 1477 0 1
gene 1 4 390 0.0 0 1478 0 1
gene 1 4 391 0.0 0 1479 0 1
gene 1 4 392 0.0 0 1480 0 1
gene 1 4 393 0.0 0 1481 0 1
gene 1 4 394 0.0 0 1482 0 1
gene 1 4 395 0.0 0 1483 0 1
gene 1 4 396 0.0 0 1484 0 1
gene 1 5 26 0.0 0 1485 0 1
gene 1 5 27 0.0 0 1486 0 1
gene 1 5 28 0.0 0 1487 0 1
gene 1 5 29 0.0 0 1488 0 1
gene 1 5 30 0.0 0 1489 0 1
gene 1 5 31 0.0 0 1490 0 1
gene 1 5 32 0.0 0 1491 0 1
gene 1 5 33 0.0 0 1492 0 1
gene 1 5 34 0.0 0 1493 0 1
gene 1 5 35 0.0 0 1494 0 1
gene 1 5 36 0.0 0 1495 0 1
gene 1 5 37 0.0 0 1496 0 1
gene 1 5 38 0.0 0 1497 0 1
gene 1 5 39 0.0 0 1498 0 1
gene 1 5 40 0.0 0 1499 0 1
gene 1 5 41 0.0 0 1500 0 1
gene 1 5 42 0.0 0 1501 0 1
gene 1 5 43 0.0 0 1502 0 1
gene 1 5 44 0.0 0 1503 0 1
gene 1 5 45 0.0 0 1504 0 1
gene 1 5 46 0.0 0 1505 0 1
gene 1 5 47 0.0 0 1506 0 1
gene 1 5 48 0.0 0 1507 0 1
gene 1 5 49 0.0 0 1508 0 1
gene 1 5 50 0.0 0 1509 0 1
gene 1 5 51 0.0 0 1510 0 1
gene 1 5 52 0.0 0 1511 0 1
gene 1 5 53 0.0 0 1512 0 1
gene 1 5 54 0.0 0 1513 0 1
gene 1 5 55 0.0 0 1514 0 1
gene 1 5 56 0.0 0 1515 0 1
gene 1 5 57 0.0 0 1516 0 1
gene 1 5 58 0.0 0 1517 0 1
gene 1 5 59 0.0 0 1518 0 1
gene 1 5 60 0.0 0 1519 0 1
gene 1 5 61 0.0 0 1520 0 1
gene 1 5 62 0.0 0 1521 0 1
gene 1 5 63 0.0 0 1522 0 1
gene 1 5 64 0.0 0 1523 0 1
gene 1 5 65 0.0 0 1524 0 1
gene 1 5 66 0.0 0 1525 0 1
gene 1 5 67 0.0 0 1526 0 1
gene 1 5 68 0.0 0 1527 0 1
gene 1 5 69 0.0 0 1528 0 1
gene 1 5 70 0.0 0 1529 0 1
gene 1 5 71 0.0 0 1530 0 1
gene 1 5 72 0.0 0 1531 0 1
gene 1 5 73 0.0 0 1532 0 1
gene 1 5 74 0.0 0 1533 0 1
gene 1 5 75 0.0 0 1534 0 1
gene 1 5 76 0.0 0 1535 0 1
gene 1 5 77 0.0 0 1536 0 1
gene 1 5 78 0.0 0 1537 0 1
gene 1 5 79 0.0 0 1538 0 1
gene 1 5 80 0.0 0 1539 0 1
gene 1 5 81 0.0 0 1540 0 1
gene 1 5 82 0.0 0 1541 0 1
gene 1 5 83 0.0 0 1542 0 1
gene 1 5 84 0.0 0 1543 0 1
gene 1 5 85 0.0 0 1544 0 1
gene 1 5 86 0.0 0 1545 0 1
gene 1 5 87 0.0 0 1546 0 1
gene 1 5 88 0.0 0 1547 0 1
gene 1 5 89 0.0 0 1548 0 1
gene 1 5 90 0.0 0 1549 0 1
gene 1 5 91 0.0 0 1550 0 1
gene 1 5 92 0.0 0 1551 0 1
gene 1 5 93 0.0 0 1552 0 1
gene 1 5 94 0.0 0 1553 0 1
gene 1 5 95 0.0 0 1554 0 1
gene 1 5 96 0.0 0 1555 0 1
gene 1 5 97 0.0 0 1556 0 1
gene 1 5 98 0.0 0 1557 0 1
gene 1 5 99 0.0 0 1558 0 1
gene 1 5 100 0.0 0 1559 0 1
gene 1 5 101 0.0 0 1560 0 1
gene 1 5 102 0.0 0 1561 0 1
gene 1 5 103 0.0 0 1562 0 1
gene 1 5 104 0.0 0 1563 0 1
gene 1 5 105 0.0 0 1564 0 1
gene 1 5 106 0.0 0 1565 0 1
gene 1 5 107 0.0 0 1566 0 1
gene 1 5 108 0.0 0 1567 0 1
gene 1 5 109 0.0 0 1568 0 1
gene 1 5 110 0.0 0 1569 0 1
gene 1 5 111 0.0 0 1570 0 1
gene 1 5 112 0.0 0 1571 0 1
gene 1 5 113 0.0 0 1572 0 1
gene 1 5 114 0.0 0 1573 0 1
gene 1 5 115 0.0 0 1574 0 1
gene 1 5 116 0.0 0 1575 0 1
gene 1 5 117 0.0 0 1576 0 1
gene 1 5 118 0.0 0 1577 0 1
gene 1 5 119 0.0 0 1578 0 1
gene 1 5 120 0.0 0 1579 0 1
gene 1 5 121 0.0 0 1580 0 1
gene 1 5 122 0.0 0 1581 0 1
gene 1 5 123 0.0 0 1582 0 1
gene 1 5 124 0.0 0 1583 0 1
gene 1 5 125 0.0 0 1584 0 1
gene 1 5 126 0.0 0 1585 0 1
gene 1 5 127 0.0 0 1586 0 1
gene 1 5 128 0.0 0 1587 0 1
gene 1 5 129 0.0 0 1588 0 1
gene 1 5 130 0.0 0 1589 0 1
gene 1 5 131 0.0 0 1590 0 1
gene 1 5 132 0.0 0 1591 0 1
gene 1 5 133 0.0 0 1592 0 1
gene 1 5 134 0.0 0 1593 0 1
gene 1 5 135 0.0 0 1594 0 1
gene 1 5 136 0.0 0 1595 0 1
gene 1 5 137 0.0 0 1596 0 1
gene 1 5 138 0.0 0 1597 0 1
gene 1 5 139 0.0 0 1598 0 1
gene 1 5 140 0.0 0 1599 0 1
gene 1 5 141 0.0 0 1600 0 1
gene 1 5 142 0.0 0 1601 0 1
gene 1 5 143 0.0 0 1602 0 1
gene 1 5 144 0.0 0 1603 0 1
gene 1 5 145 0.0 0 1604 0 1
gene 1 5 146 0.0 0 1605 0 1
gene 1 5 147 0.0 0 1606 0 1
gene 1 5 148 0.0 0 1607 0 1
gene 1 5 149 0.0 0 1608 0 1
gene 1 5 150 0.0 0 1609 0 1
gene 1 5 151 0.0 0 1610 0 1
gene 1 5 152 0.0 0 1611 0 1
gene 1 5 153 0.0 0 1612 0 1
gene 1 5 154 0.0 0 1613 0 1
gene 1 5 155 0.0 0 1614 0 1
gene 1 5 156 0.0 0 1615 0 1
gene 1 5 157 0.0 0 1616 0 1
gene 1 5 158 0.0 0 1617 0 1
gene 1 5 159 0.0 0 1618 0 1
gene 1 5 160 0.0 0 1619 0 1
gene 1 5 161 0.0 0 1620 0 1
gene 1 5 162 0.0 0 1621 0 1
gene 1 5 163 0.0 0 1622 0 1
gene 1 5 164 0.0 0 1623 0 1
gene 1 5 165 0.0 0 1624 0 1
gene 1 5 166 0.0 0 1625 0 1
gene 1 5 167 0.0 0 1626 0 1
gene 1 5 168 0.0 0 1627 0 1
gene 1 5 169 0.0 0 1628 0 1
gene 1 5 170 0.0 0 1629 0 1
gene 1 5 171 0.0 0 1630 0 1
gene 1 5 172 0.0 0 1631 0 1
gene 1 5 173 0.0 0 1632 0 1
gene 1 5 174 0.0 0 1633 0 1
gene 1 5 175 0.0 0 1634 0 1
gene 1 5 176 0.0 0 1635 0 1
gene 1 5 177 0.0 0 1636 0 1
gene 1 5 178 0.0 0 1637 0 1
gene 1 5 179 0.0 0 1638 0 1
gene 1 5 180 0.0 0 1639 0 1
gene 1 5 181 0.0 0 1640 0 1
gene 1 5 182 0.0 0 1641 0 1
gene 1 5 183 0.0 0 1642 0 1
gene 1 5 184 0.0 0 1643 0 1
gene 1 5 185 0.0 0 1644 0 1
gene 1 5 186 0.0 0 1645 0 1
gene 1 5 187 0.0 0 1646 0 1
gene 1 5 188 0.0 0 1647 0 1
gene 1 5 189 0.0 0 1648 0 1
gene 1 5 190 0.0 0 1649 0 1
gene 1 5 191 0.0 0 1650 0 1
gene 1 5 192 0.0 0 1651 0 1
gene 1 5 193 0.0 0 1652 0 1
gene 1 5 194 0.0 0 1653 0 1
gene 1 5 195 0.0 0 1654 0 1
gene 1 5 196 0.0 0 1655 0 1
gene 1 5 197 0.0 0 1656 0 1
gene 1 5 198 0.0 0 1657 0 1
gene 1 5 199 0.0 0 1658 0 1
gene 1 5 200 0.0 0 1659 0 1
gene 1 5 201 0.0 0 1660 0 1
gene 1 5 202 0.0 0 1661 0 1
gene 1 5 203 0.0 0 1662 0 1
gene 1 5 204 0.0 0 1663 0 1
gene 1 5 205 0.0 0 1664 0 1
gene 1 5 206 0.0 0 1665 0 1
gene 1 5 207 0.0 0 1666 0 1
gene 1 5 208 0.0 0 1667 0 1
gene 1 5 209 0.0 0 1668 0 1
gene 1 5 210 0.0 0 1669 0 1
gene 1 5 211 0.0 0 1670 0 1
gene 1 5 212 0.0 0 1671 0 1
gene 1 5 213 0.0 0 1672 0 1
gene 1 5 214 0.0 0 1673 0 1
gene 1 5 215 0.0 0 1674 0 1
gene 1 5 216 0.0 0 1675 0 1
gene 1 5 217 0.0 0 1676 0 1
gene 1 5 218 0.0 0 1677 0 1
gene 1 5 219 0.0 0 1678 0 1
gene 1 5 220 0.0 0 1679 0 1
gene 1 5 221 0.0 0 1680 0 1
gene 1 5 222 0.0 0 1681 0 1
gene 1 5 223 0.0 0 1682 0 1
gene 1 5 224 0.0 0 1683 0 1
gene 1 5 225 0.0 0 1684 0 1
gene 1 5 226 0.0 0 1685 0 1
gene 1 5 227 0.0 0 1686 0 1
gene 1 5 228 0.0 0 1687 0 1
gene 1 5 229 0.0 0 1688 0 1
gene 1 5 230 0.0 0 1689 0 1
gene 1 5 231 0.0 0 1690 0 1
gene 1 5 232 0.0 0 1691 0 1
gene 1 5 233 0.0 0 1692 0 1
gene 1 5 234 0.0 0 1693 0 1
gene 1 5 235 0.0 0 1694 0 1
gene 1 5 236 0.0 0 1695 0 1
gene 1 5 237 0.0 0 1696 0 1
gene 1 5 238 0.0 0 1697 0 1
gene 1 5 239 0.0 0 1698 0 1
gene 1 5 240 0.0 0 1699 0 1
gene 1 5 241 0.0 0 1700 0 1
gene 1 5 242 0.0 0 1701 0 1
gene 1 5 243 0.0 0 1702 0 1
gene 1 5 244 0.0 0 1703 0 1
gene 1 5 245 0.0 0 1704 0 1
gene 1 5 246 0.0 0 1705 0 1
gene 1 5 247 0.0 0 1706 0 1
gene 1 5 248 0.0 0 1707 0 1
gene 1 5 249 0.0 0 1708 0 1
gene 1 5 250 0.0 0 1709 0 1
gene 1 5 251 0.0 0 1710 0 1
gene 1 5 252 0.0 0 1711 0 1
gene 1 5 253 0.0 0 1712 0 1
gene 1 5 254 0.0 0 1713 0 1
gene 1 5 255 0.0 0 1714 0 1
gene 1 5 256 0.0 0 1715 0 1
gene 1 5 257 0.0 0 1716 0 1
gene 1 5 258 0.0 0 1717 0 1
gene 1 5 259 0.0 0 1718 0 1
gene 1 5 260 0.0 0 1719 0 1
gene 1 5 261 0.0 0 1720 0 1
gene 1 5 262 0.0 0 1721 0 1
gene 1 5 263 0.0 0 1722 0 1
gene 1 5 264 0.0 0 1723 0 1
gene 1 5 265 0.0 0 1724 0 1
gene 1 5 266 0.0 0 1725 0 1
gene 1 5 267 0.0 0 1726 0 1
gene 1 5 268 0.0 0 1727 0 1
gene 1 5 269 0.0 0 1728 0 1
gene 1 5 270 0.0 0 1729 0 1
gene 1 5 271 0.0 0 1730 0 1
gene 1 5 272 0.0 0 1731 0 1
gene 1 5 273 0.0 0 1732 0 1
gene 1 5 274 0.0 0 1733 0 1
gene 1 5 275 0.0 0 1734 0 1
gene 1 5 276 0.0 0 1735 0 1
gene 1 5 277 0.0 0 1736 0 1
gene 1 5 278 0.0 0 1737 0 1
gene 1 5 279 0.0 0 1738 0 1
gene 1 5 280 0.0 0 1739 0 1
gene 1 5 281 0.0 0 1740 0 1
gene 1 5 282 0.0 0 1741 0 1
gene 1 5 283 0.0 0 1742 0 1
gene 1 5 284 0.0 0 1743 0 1
gene 1 5 285 0.0 0 1744 0 1
gene 1 5 286 0.0 0 1745 0 1
gene 1 5 287 0.0 0 1746 0 1
gene 1 5 288 0.0 0 1747 0 1
gene 1 5 289 0.0 0 1748 0 1
gene 1 5 290 0.0 0 1749 0 1
gene 1 5 291 0.0 0 1750 0 1
gene 1 5 292 0.0 0 1751 0 1
gene 1 5 293 0.0 0 1752 0 1
gene 1 5 294 0.0 0 1753 0 1
gene 1 5 295 0.0 0 1754 0 1
gene 1 5 296 0.0 0 1755 0 1
gene 1 5 297 0.0 0 1756 0 1
gene 1 5 298 0.0 0 1757 0 1
gene 1 5 299 0.0 0 1758 0 1
gene 1 5 300 0.0 0 1759 0 1
gene 1 5 301 0.0 0 1760 0 1
gene 1 5 302 0.0 0 1761 0 1
gene 1 5 303 0.0 0 1762 0 1
gene 1 5 304 0.0 0 1763 0 1
gene 1 5 305 0.0 0 1764 0 1
gene 1 5 306 0.0 0 1765 0 1
gene 1 5 307 0.0 0 1766 0 1
gene 1 5 308 0.0 0 1767 0 1
gene 1 5 309 0.0 0 1768 0 1
gene 1 5 310 0.0 0 1769 0 1
gene 1 5 311 0.0 0 1770 0 1
gene 1 5 312 0.0 0 1771 0 1
gene 1 5 313 0.0 0 1772 0 1
gene 1 5 314 0.0 0 1773 0 1
gene 1 5 315 0.0 0 1774 0 1
gene 1 5 316 0.0 0 1775 0 1
gene 1 5 317 0.0 0 1776 0 1
gene 1 5 318 0.0 0 1777 0 1
gene 1 5 319 0.0 0 1778 0 1
gene 1 5 320 0.0 0 1779 0 1
gene 1 5 321 0.0 0 1780 0 1
gene 1 5 322 0.0 0 1781 0 1
gene 1 5 323 0.0 0 1782 0 1
gene 1 5 324 0.0 0 1783 0 1
gene 1 5 325 0.0 0 1784 0 1
gene 1 5 326 0.0 0 1785 0 1
gene 1 5 327 0.0 0 1786 0 1
gene 1 5 328 0.0 0 1787 0 1
gene 1 5 329 0.0 0 1788 0 1
gene 1 5 330 0.0 0 1789 0 1
gene 1 5 331 0.0 0 1790 0 1
gene 1 5 332 0.0 0 1791 0 1
gene 1 5 333 0.0 0 1792 0 1
gene 1 5 334 0.0 0 1793 0 1
gene 1 5 335 0.0 0 1794 0 1
gene 1 5 336 0.0 0 1795 0 1
gene 1 5 337 0.0 0 1796 0 1
gene 1 5 338 0.0 0 1797 0 1
gene 1 5 339 0.0 0 1798 0 1
gene 1 5 340 0.0 0 1799 0 1
gene 1 5 341 0.0 0 1800 0 1
gene 1 5 342 0.0 0 1801 0 1
gene 1 5 343 0.0 0 1802 0 1
gene 1 5 344 0.0 0 1803 0 1
gene 1 5 345 0.0 0 1804 0 1
gene 1 5 346 0.0 0 1805 0 1
gene 1 5 347 0.0 0 1806 0 1
gene 1 5 348 0.0 0 1807 0 1
gene 1 5 349 0.0 0 1808 0 1
gene 1 5 350 0.0 0 1809 0 1
gene 1 5 351 0.0 0 1810 0 1
gene 1 5 352 0.0 0 1811 0 1
gene 1 5 353 0.0 0 1812 0 1
gene 1 5 354 0.0 0 1813 0 1
gene 1 5 355 0.0 0 1814 0 1
gene 1 5 356 0.0 0 1815 0 1
gene 1 5 357 0.0 0 1816 0 1
gene 1 5 358 0.0 0 1817 0 1
gene 1 5 359 0.0 0 1818 0 1
gene 1 5 360 0.0 0 1819 0 1
gene 1 5 361 0.0 0 1820 0 1
gene 1 5 362 0.0 0 1821 0 1
gene 1 5 363 0.0 0 1822 0 1
gene 1 5 364 0.0 0 1823 0 1
gene 1 5 365 0.0 0 1824 0 1
gene 1 5 366 0.0 0 1825 0 1
gene 1 5 367 0.0 0 1826 0 1
gene 1 5 368 0.0 0 1827 0 1
gene 1 5 369 0.0 0 1828 0 1
gene 1 5 370 0.0 0 1829 0 1
gene 1 5 371 0.0 0 1830 0 1
gene 1 5 372 0.0 0 1831 0 1
gene 1 5 373 0.0 0 1832 0 1
gene 1 5 374 0.0 0 1833 0 1
gene 1 5 375 0.0 0 1834 0 1
gene 1 5 376 0.0 0 1835 0 1
gene 1 5 377 0.0 0 1836 0 1
gene 1 5 378 0.0 0 1837 0 1
gene 1 5 379 0.0 0 1838 0 1
gene 1 5 380 0.0 0 1839 0 1
gene 1 5 381 0.0 0 1840 0 1
gene 1 5 382 0.0 0 1841 0 1
gene 1 5 383 0.0 0 1842 0 1
gene 1 5 384 0.0 0 1843 0 1
gene 1 5 385 0.0 0 1844 0 1
gene 1 5 386 0.0 0 1845 0 1
gene 1 5 387 0.0 0 1846 0 1
gene 1 5 388 0.0 0 1847 0 1
gene 1 5 389 0.0 0 1848 0 1
gene 1 5 390 0.0 0 1849 0 1
gene 1 5 391 0.0 0 1850 0 1
gene 1 5 392 0.0 0 1851 0 1
gene 1 5 393 0.0 0 1852 0 1
gene 1 5 394 0.0 0 1853 0 1
gene 1 5 395 0.0 0 1854 0 1
gene 1 5 396 0.0 0 1855 0 1
gene 1 6 26 0.0 0 1856 0 1
gene 1 6 27 0.0 0 1857 0 1
gene 1 6 28 0.0 0 1858 0 1
gene 1 6 29 0.0 0 1859 0 1
gene 1 6 30 0.0 0 1860 0 1
gene 1 6 31 0.0 0 1861 0 1
gene 1 6 32 0.0 0 1862 0 1
gene 1 6 33 0.0 0 1863 0 1
gene 1 6 34 0.0 0 1864 0 1
gene 1 6 35 0.0 0 1865 0 1
gene 1 6 36 0.0 0 1866 0 1
gene 1 6 37 0.0 0 1867 0 1
gene 1 6 38 0.0 0 1868 0 1
gene 1 6 39 0.0 0 1869 0 1
gene 1 6 40 0.0 0 1870 0 1
gene 1 6 41 0.0 0 1871 0 1
gene 1 6 42 0.0 0 1872 0 1
gene 1 6 43 0.0 0 1873 0 1
gene 1 6 44 0.0 0 1874 0 1
gene 1 6 45 0.0 0 1875 0 1
gene 1 6 46 0.0 0 1876 0 1
gene 1 6 47 0.0 0 1877 0 1
gene 1 6 48 0.0 0 1878 0 1
gene 1 6 49 0.0 0 1879 0 1
gene 1 6 50 0.0 0 1880 0 1
gene 1 6 51 0.0 0 1881 0 1
gene 1 6 52 0.0 0 1882 0 1
gene 1 6 53 0.0 0 1883 0 1
gene 1 6 54 0.0 0 1884 0 1
gene 1 6 55 0.0 0 1885 0 1
gene 1 6 56 0.0 0 1886 0 1
gene 1 6 57 0.0 0 1887 0 1
gene 1 6 58 0.0 0 1888 0 1
gene 1 6 59 0.0 0 1889 0 1
gene 1 6 60 0.0 0 1890 0 1
gene 1 6 61 0.0 0 1891 0 1
gene 1 6 62 0.0 0 1892 0 1
gene 1 6 63 0.0 0 1893 0 1
gene 1 6 64 0.0 0 1894 0 1
gene 1 6 65 0.0 0 1895 0 1
gene 1 6 66 0.0 0 1896 0 1
gene 1 6 67 0.0 0 1897 0 1
gene 1 6 68 0.0 0 1898 0 1
gene 1 6 69 0.0 0 1899 0 1
gene 1 6 70 0.0 0 1900 0 1
gene 1 6 71 0.0 0 1901 0 1
gene 1 6 72 0.0 0 1902 0 1
gene 1 6 73 0.0 0 1903 0 1
gene 1 6 74 0.0 0 1904 0 1
gene 1 6 75 0.0 0 1905 0 1
gene 1 6 76 0.0 0 1906 0 1
gene 1 6 77 0.0 0 1907 0 1
gene 1 6 78 0.0 0 1908 0 1
gene 1 6 79 0.0 0 1909 0 1
gene 1 6 80 0.0 0 1910 0 1
gene 1 6 81 0.0 0 1911 0 1
gene 1 6 82 0.0 0 1912 0 1
gene 1 6 83 0.0 0 1913 0 1
gene 1 6 84 0.0 0 1914 0 1
gene 1 6 85 0.0 0 1915 0 1
gene 1 6 86 0.0 0 1916 0 1
gene 1 6 87 0.0 0 1917 0 1
gene 1 6 88 0.0 0 1918 0 1
gene 1 6 89 0.0 0 1919 0 1
gene 1 6 90 0.0 0 1920 0 1
gene 1 6 91 0.0 0 1921 0 1
gene 1 6 92 0.0 0 1922 0 1
gene 1 6 93 0.0 0 1923 0 1
gene 1 6 94 0.0 0 1924 0 1
gene 1 6 95 0.0 0 1925 0 1
gene 1 6 96 0.0 0 1926 0 1
gene 1 6 97 0.0 0 1927 0 1
gene 1 6 98 0.0 0 1928 0 1
gene 1 6 99 0.0 0 1929 0 1
gene 1 6 100 0.0 0 1930 0 1
gene 1 6 101 0.0 0 1931 0 1
gene 1 6 102 0.0 0 1932 0 1
gene 1 6 103 0.0 0 1933 0 1
gene 1 6 104 0.0 0 1934 0 1
gene 1 6 105 0.0 0 1935 0 1
gene 1 6 106 0.0 0 1936 0 1
gene 1 6 107 0.0 0 1937 0 1
gene 1 6 108 0.0 0 1938 0 1
gene 1 6 109 0.0 0 1939 0 1
gene 1 6 110 0.0 0 1940 0 1
gene 1 6 111 0.0 0 1941 0 1
gene 1 6 112 0.0 0 1942 0 1
gene 1 6 113 0.0 0 1943 0 1
gene 1 6 114 0.0 0 1944 0 1
gene 1 6 115 0.0 0 1945 0 1
gene 1 6 116 0.0 0 1946 0 1
gene 1 6 117 0.0 0 1947 0 1
gene 1 6 118 0.0 0 1948 0 1
gene 1 6 119 0.0 0 1949 0 1
gene 1 6 120 0.0 0 1950 0 1
gene 1 6 121 0.0 0 1951 0 1
gene 1 6 122 0.0 0 1952 0 1
gene 1 6 123 0.0 0 1953 0 1
gene 1 6 124 0.0 0 1954 0 1
gene 1 6 125 0.0 0 1955 0 1
gene 1 6 126 0.0 0 1956 0 1
gene 1 6 127 0.0 0 1957 0 1
gene 1 6 128 0.0 0 1958 0 1
gene 1 6 129 0.0 0 1959 0 1
gene 1 6 130 0.0 0 1960 0 1
gene 1 6 131 0.0 0 1961 0 1
gene 1 6 132 0.0 0 1962 0 1
gene 1 6 133 0.0 0 1963 0 1
gene 1 6 134 0.0 0 1964 0 1
gene 1 6 135 0.0 0 1965 0 1
gene 1 6 136 0.0 0 1966 0 1
gene 1 6 137 0.0 0 1967 0 1
gene 1 6 138 0.0 0 1968 0 1
gene 1 6 139 0.0 0 1969 0 1
gene 1 6 140 0.0 0 1970 0 1
gene 1 6 141 0.0 0 1971 0 1
gene 1 6 142 0.0 0 1972 0 1
gene 1 6 143 0.0 0 1973 0 1
gene 1 6 144 0.0 0 1974 0 1
gene 1 6 145 0.0 0 1975 0 1
gene 1 6 146 0.0 0 1976 0 1
gene 1 6 147 0.0 0 1977 0 1
gene 1 6 148 0.0 0 1978 0 1
gene 1 6 149 0.0 0 1979 0 1
gene 1 6 150 0.0 0 1980 0 1
gene 1 6 151 0.0 0 1981 0 1
gene 1 6 152 0.0 0 1982 0 1
gene 1 6 153 0.0 0 1983 0 1
gene 1 6 154 0.0 0 1984 0 1
gene 1 6 155 0.0 0 1985 0 1
gene 1 6 156 0.0 0 1986 0 1
gene 1 6 157 0.0 0 1987 0 1
gene 1 6 158 0.0 0 1988 0 1
gene 1 6 159 0.0 0 1989 0 1
gene 1 6 160 0.0 0 1990 0 1
gene 1 6 161 0.0 0 1991 0 1
gene 1 6 162 0.0 0 1992 0 1
gene 1 6 163 0.0 0 1993 0 1
gene 1 6 164 0.0 0 1994 0 1
gene 1 6 165 0.0 0 1995 0 1
gene 1 6 166 0.0 0 1996 0 1
gene 1 6 167 0.0 0 1997 0 1
gene 1 6 168 0.0 0 1998 0 1
gene 1 6 169 0.0 0 1999 0 1
gene 1 6 170 0.0 0 2000 0 1
gene 1 6 171 0.0 0 2001 0 1
gene 1 6 172 0.0 0 2002 0 1
gene 1 6 173 0.0 0 2003 0 1
gene 1 6 174 0.0 0 2004 0 1
gene 1 6 175 0.0 0 2005 0 1
gene 1 6 176 0.0 0 2006 0 1
gene 1 6 177 0.0 0 2007 0 1
gene 1 6 178 0.0 0 2008 0 1
gene 1 6 179 0.0 0 2009 0 1
gene 1 6 180 0.0 0 2010 0 1
gene 1 6 181 0.0 0 2011 0 1
gene 1 6 182 0.0 0 2012 0 1
gene 1 6 183 0.0 0 2013 0 1
gene 1 6 184 0.0 0 2014 0 1
gene 1 6 185 0.0 0 2015 0 1
gene 1 6 186 0.0 0 2016 0 1
gene 1 6 187 0.0 0 2017 0 1
gene 1 6 188 0.0 0 2018 0 1
gene 1 6 189 0.0 0 2019 0 1
gene 1 6 190 0.0 0 2020 0 1
gene 1 6 191 0.0 0 2021 0 1
gene 1 6 192 0.0 0 2022 0 1
gene 1 6 193 0.0 0 2023 0 1
gene 1 6 194 0.0 0 2024 0 1
gene 1 6 195 0.0 0 2025 0 1
gene 1 6 196 0.0 0 2026 0 1
gene 1 6 197 0.0 0 2027 0 1
gene 1 6 198 0.0 0 2028 0 1
gene 1 6 199 0.0 0 2029 0 1
gene 1 6 200 0.0 0 2030 0 1
gene 1 6 201 0.0 0 2031 0 1
gene 1 6 202 0.0 0 2032 0 1
gene 1 6 203 0.0 0 2033 0 1
gene 1 6 204 0.0 0 2034 0 1
gene 1 6 205 0.0 0 2035 0 1
gene 1 6 206 0.0 0 2036 0 1
gene 1 6 207 0.0 0 2037 0 1
gene 1 6 208 0.0 0 2038 0 1
gene 1 6 209 0.0 0 2039 0 1
gene 1 6 210 0.0 0 2040 0 1
gene 1 6 211 0.0 0 2041 0 1
gene 1 6 212 0.0 0 2042 0 1
gene 1 6 213 0.0 0 2043 0 1
gene 1 6 214 0.0 0 2044 0 1
gene 1 6 215 0.0 0 2045 0 1
gene 1 6 216 0.0 0 2046 0 1
gene 1 6 217 0.0 0 2047 0 1
gene 1 6 218 0.0 0 2048 0 1
gene 1 6 219 0.0 0 2049 0 1
gene 1 6 220 0.0 0 2050 0 1
gene 1 6 221 0.0 0 2051 0 1
gene 1 6 222 0.0 0 2052 0 1
gene 1 6 223 0.0 0 2053 0 1
gene 1 6 224 0.0 0 2054 0 1
gene 1 6 225 0.0 0 2055 0 1
gene 1 6 226 0.0 0 2056 0 1
gene 1 6 227 0.0 0 2057 0 1
gene 1 6 228 0.0 0 2058 0 1
gene 1 6 229 0.0 0 2059 0 1
gene 1 6 230 0.0 0 2060 0 1
gene 1 6 231 0.0 0 2061 0 1
gene 1 6 232 0.0 0 2062 0 1
gene 1 6 233 0.0 0 2063 0 1
gene 1 6 234 0.0 0 2064 0 1
gene 1 6 235 0.0 0 2065 0 1
gene 1 6 236 0.0 0 2066 0 1
gene 1 6 237 0.0 0 2067 0 1
gene 1 6 238 0.0 0 2068 0 1
gene 1 6 239 0.0 0 2069 0 1
gene 1 6 240 0.0 0 2070 0 1
gene 1 6 241 0.0 0 2071 0 1
gene 1 6 242 0.0 0 2072 0 1
gene 1 6 243 0.0 0 2073 0 1
gene 1 6 244 0.0 0 2074 0 1
gene 1 6 245 0.0 0 2075 0 1
gene 1 6 246 0.0 0 2076 0 1
gene 1 6 247 0.0 0 2077 0 1
gene 1 6 248 0.0 0 2078 0 1
gene 1 6 249 0.0 0 2079 0 1
gene 1 6 250 0.0 0 2080 0 1
gene 1 6 251 0.0 0 2081 0 1
gene 1 6 252 0.0 0 2082 0 1
gene 1 6 253 0.0 0 2083 0 1
gene 1 6 254 0.0 0 2084 0 1
gene 1 6 255 0.0 0 2085 0 1
gene 1 6 256 0.0 0 2086 0 1
gene 1 6 257 0.0 0 2087 0 1
gene 1 6 258 0.0 0 2088 0 1
gene 1 6 259 0.0 0 2089 0 1
gene 1 6 260 0.0 0 2090 0 1
gene 1 6 261 0.0 0 2091 0 1
gene 1 6 262 0.0 0 2092 0 1
gene 1 6 263 0.0 0 2093 0 1
gene 1 6 264 0.0 0 2094 0 1
gene 1 6 265 0.0 0 2095 0 1
gene 1 6 266 0.0 0 2096 0 1
gene 1 6 267 0.0 0 2097 0 1
gene 1 6 268 0.0 0 2098 0 1
gene 1 6 269 0.0 0 2099 0 1
gene 1 6 270 0.0 0 2100 0 1
gene 1 6 271 0.0 0 2101 0 1
gene 1 6 272 0.0 0 2102 0 1
gene 1 6 273 0.0 0 2103 0 1
gene 1 6 274 0.0 0 2104 0 1
gene 1 6 275 0.0 0 2105 0 1
gene 1 6 276 0.0 0 2106 0 1
gene 1 6 277 0.0 0 2107 0 1
gene 1 6 278 0.0 0 2108 0 1
gene 1 6 279 0.0 0 2109 0 1
gene 1 6 280 0.0 0 2110 0 1
gene 1 6 281 0.0 0 2111 0 1
gene 1 6 282 0.0 0 2112 0 1
gene 1 6 283 0.0 0 2113 0 1
gene 1 6 284 0.0 0 2114 0 1
gene 1 6 285 0.0 0 2115 0 1
gene 1 6 286 0.0 0 2116 0 1
gene 1 6 287 0.0 0 2117 0 1
gene 1 6 288 0.0 0 2118 0 1
gene 1 6 289 0.0 0 2119 0 1
gene 1 6 290 0.0 0 2120 0 1
gene 1 6 291 0.0 0 2121 0 1
gene 1 6 292 0.0 0 2122 0 1
gene 1 6 293 0.0 0 2123 0 1
gene 1 6 294 0.0 0 2124 0 1
gene 1 6 295 0.0 0 2125 0 1
gene 1 6 296 0.0 0 2126 0 1
gene 1 6 297 0.0 0 2127 0 1
gene 1 6 298 0.0 0 2128 0 1
gene 1 6 299 0.0 0 2129 0 1
gene 1 6 300 0.0 0 2130 0 1
gene 1 6 301 0.0 0 2131 0 1
gene 1 6 302 0.0 0 2132 0 1
gene 1 6 303 0.0 0 2133 0 1
gene 1 6 304 0.0 0 2134 0 1
gene 1 6 305 0.0 0 2135 0 1
gene 1 6 306 0.0 0 2136 0 1
gene 1 6 307 0.0 0 2137 0 1
gene 1 6 308 0.0 0 2138 0 1
gene 1 6 309 0.0 0 2139 0 1
gene 1 6 310 0.0 0 2140 0 1
gene 1 6 311 0.0 0 2141 0 1
gene 1 6 312 0.0 0 2142 0 1
gene 1 6 313 0.0 0 2143 0 1
gene 1 6 314 0.0 0 2144 0 1
gene 1 6 315 0.0 0 2145 0 1
gene 1 6 316 0.0 0 2146 0 1
gene 1 6 317 0.0 0 2147 0 1
gene 1 6 318 0.0 0 2148 0 1
gene 1 6 319 0.0 0 2149 0 1
gene 1 6 320 0.0 0 2150 0 1
gene 1 6 321 0.0 0 2151 0 1
gene 1 6 322 0.0 0 2152 0 1
gene 1 6 323 0.0 0 2153 0 1
gene 1 6 324 0.0 0 2154 0 1
gene 1 6 325 0.0 0 2155 0 1
gene 1 6 326 0.0 0 2156 0 1
gene 1 6 327 0.0 0 2157 0 1
gene 1 6 328 0.0 0 2158 0 1
gene 1 6 329 0.0 0 2159 0 1
gene 1 6 330 0.0 0 2160 0 1
gene 1 6 331 0.0 0 2161 0 1
gene 1 6 332 0.0 0 2162 0 1
gene 1 6 333 0.0 0 2163 0 1
gene 1 6 334 0.0 0 2164 0 1
gene 1 6 335 0.0 0 2165 0 1
gene 1 6 336 0.0 0 2166 0 1
gene 1 6 337 0.0 0 2167 0 1
gene 1 6 338 0.0 0 2168 0 1
gene 1 6 339 0.0 0 2169 0 1
gene 1 6 340 0.0 0 2170 0 1
gene 1 6 341 0.0 0 2171 0 1
gene 1 6 342 0.0 0 2172 0 1
gene 1 6 343 0.0 0 2173 0 1
gene 1 6 344 0.0 0 2174 0 1
gene 1 6 345 0.0 0 2175 0 1
gene 1 6 346 0.0 0 2176 0 1
gene 1 6 347 0.0 0 2177 0 1
gene 1 6 348 0.0 0 2178 0 1
gene 1 6 349 0.0 0 2179 0 1
gene 1 6 350 0.0 0 2180 0 1
gene 1 6 351 0.0 0 2181 0 1
gene 1 6 352 0.0 0 2182 0 1
gene 1 6 353 0.0 0 2183 0 1
gene 1 6 354 0.0 0 2184 0 1
gene 1 6 355 0.0 0 2185 0 1
gene 1 6 356 0.0 0 2186 0 1
gene 1 6 357 0.0 0 2187 0 1
gene 1 6 358 0.0 0 2188 0 1
gene 1 6 359 0.0 0 2189 0 1
gene 1 6 360 0.0 0 2190 0 1
gene 1 6 361 0.0 0 2191 0 1
gene 1 6 362 0.0 0 2192 0 1
gene 1 6 363 0.0 0 2193 0 1
gene 1 6 364 0.0 0 2194 0 1
gene 1 6 365 0.0 0 2195 0 1
gene 1 6 366 0.0 0 2196 0 1
gene 1 6 367 0.0 0 2197 0 1
gene 1 6 368 0.0 0 2198 0 1
gene 1 6 369 0.0 0 2199 0 1
gene 1 6 370 0.0 0 2200 0 1
gene 1 6 371 0.0 0 2201 0 1
gene 1 6 372 0.0 0 2202 0 1
gene 1 6 373 0.0 0 2203 0 1
gene 1 6 374 0.0 0 2204 0 1
gene 1 6 375 0.0 0 2205 0 1
gene 1 6 376 0.0 0 2206 0 1
gene 1 6 377 0.0 0 2207 0 1
gene 1 6 378 0.0 0 2208 0 1
gene 1 6 379 0.0 0 2209 0 1
gene 1 6 380 0.0 0 2210 0 1
gene 1 6 381 0.0 0 2211 0 1
gene 1 6 382 0.0 0 2212 0 1
gene 1 6 383 0.0 0 2213 0 1
gene 1 6 384 0.0 0 2214 0 1
gene 1 6 385 0.0 0 2215 0 1
gene 1 6 386 0.0 0 2216 0 1
gene 1 6 387 0.0 0 2217 0 1
gene 1 6 388 0.0 0 2218 0 1
gene 1 6 389 0.0 0 2219 0 1
gene 1 6 390 0.0 0 2220 0 1
gene 1 6 391 0.0 0 2221 0 1
gene 1 6 392 0.0 0 2222 0 1
gene 1 6 393 0.0 0 2223 0 1
gene 1 6 394 0.0 0 2224 0 1
gene 1 6 395 0.0 0 2225 0 1
gene 1 6 396 0.0 0 2226 0 1
gene 1 7 26 0.0 0 2227 0 1
gene 1 7 27 0.0 0 2228 0 1
gene 1 7 28 0.0 0 2229 0 1
gene 1 7 29 0.0 0 2230 0 1
gene 1 7 30 0.0 0 2231 0 1
gene 1 7 31 0.0 0 2232 0 1
gene 1 7 32 0.0 0 2233 0 1
gene 1 7 33 0.0 0 2234 0 1
gene 1 7 34 0.0 0 2235 0 1
gene 1 7 35 0.0 0 2236 0 1
gene 1 7 36 0.0 0 2237 0 1
gene 1 7 37 0.0 0 2238 0 1
gene 1 7 38 0.0 0 2239 0 1
gene 1 7 39 0.0 0 2240 0 1
gene 1 7 40 0.0 0 2241 0 1
gene 1 7 41 0.0 0 2242 0 1
gene 1 7 42 0.0 0 2243 0 1
gene 1 7 43 0.0 0 2244 0 1
gene 1 7 44 0.0 0 2245 0 1
gene 1 7 45 0.0 0 2246 0 1
gene 1 7 46 0.0 0 2247 0 1
gene 1 7 47 0.0 0 2248 0 1
gene 1 7 48 0.0 0 2249 0 1
gene 1 7 49 0.0 0 2250 0 1
gene 1 7 50 0.0 0 2251 0 1
gene 1 7 51 0.0 0 2252 0 1
gene 1 7 52 0.0 0 2253 0 1
gene 1 7 53 0.0 0 2254 0 1
gene 1 7 54 0.0 0 2255 0 1
gene 1 7 55 0.0 0 2256 0 1
gene 1 7 56 0.0 0 2257 0 1
gene 1 7 57 0.0 0 2258 0 1
gene 1 7 58 0.0 0 2259 0 1
gene 1 7 59 0.0 0 2260 0 1
gene 1 7 60 0.0 0 2261 0 1
gene 1 7 61 0.0 0 2262 0 1
gene 1 7 62 0.0 0 2263 0 1
gene 1 7 63 0.0 0 2264 0 1
gene 1 7 64 0.0 0 2265 0 1
gene 1 7 65 0.0 0 2266 0 1
gene 1 7 66 0.0 0 2267 0 1
gene 1 7 67 0.0 0 2268 0 1
gene 1 7 68 0.0 0 2269 0 1
gene 1 7 69 0.0 0 2270 0 1
gene 1 7 70 0.0 0 2271 0 1
gene 1 7 71 0.0 0 2272 0 1
gene 1 7 72 0.0 0 2273 0 1
gene 1 7 73 0.0 0 2274 0 1
gene 1 7 74 0.0 0 2275 0 1
gene 1 7 75 0.0 0 2276 0 1
gene 1 7 76 0.0 0 2277 0 1
gene 1 7 77 0.0 0 2278 0 1
gene 1 7 78 0.0 0 2279 0 1
gene 1 7 79 0.0 0 2280 0 1
gene 1 7 80 0.0 0 2281 0 1
gene 1 7 81 0.0 0 2282 0 1
gene 1 7 82 0.0 0 2283 0 1
gene 1 7 83 0.0 0 2284 0 1
gene 1 7 84 0.0 0 2285 0 1
gene 1 7 85 0.0 0 2286 0 1
gene 1 7 86 0.0 0 2287 0 1
gene 1 7 87 0.0 0 2288 0 1
gene 1 7 88 0.0 0 2289 0 1
gene 1 7 89 0.0 0 2290 0 1
gene 1 7 90 0.0 0 2291 0 1
gene 1 7 91 0.0 0 2292 0 1
gene 1 7 92 0.0 0 2293 0 1
gene 1 7 93 0.0 0 2294 0 1
gene 1 7 94 0.0 0 2295 0 1
gene 1 7 95 0.0 0 2296 0 1
gene 1 7 96 0.0 0 2297 0 1
gene 1 7 97 0.0 0 2298 0 1
gene 1 7 98 0.0 0 2299 0 1
gene 1 7 99 0.0 0 2300 0 1
gene 1 7 100 0.0 0 2301 0 1
gene 1 7 101 0.0 0 2302 0 1
gene 1 7 102 0.0 0 2303 0 1
gene 1 7 103 0.0 0 2304 0 1
gene 1 7 104 0.0 0 2305 0 1
gene 1 7 105 0.0 0 2306 0 1
gene 1 7 106 0.0 0 2307 0 1
gene 1 7 107 0.0 0 2308 0 1
gene 1 7 108 0.0 0 2309 0 1
gene 1 7 109 0.0 0 2310 0 1
gene 1 7 110 0.0 0 2311 0 1
gene 1 7 111 0.0 0 2312 0 1
gene 1 7 112 0.0 0 2313 0 1
gene 1 7 113 0.0 0 2314 0 1
gene 1 7 114 0.0 0 2315 0 1
gene 1 7 115 0.0 0 2316 0 1
gene 1 7 116 0.0 0 2317 0 1
gene 1 7 117 0.0 0 2318 0 1
gene 1 7 118 0.0 0 2319 0 1
gene 1 7 119 0.0 0 2320 0 1
gene 1 7 120 0.0 0 2321 0 1
gene 1 7 121 0.0 0 2322 0 1
gene 1 7 122 0.0 0 2323 0 1
gene 1 7 123 0.0 0 2324 0 1
gene 1 7 124 0.0 0 2325 0 1
gene 1 7 125 0.0 0 2326 0 1
gene 1 7 126 0.0 0 2327 0 1
gene 1 7 127 0.0 0 2328 0 1
gene 1 7 128 0.0 0 2329 0 1
gene 1 7 129 0.0 0 2330 0 1
gene 1 7 130 0.0 0 2331 0 1
gene 1 7 131 0.0 0 2332 0 1
gene 1 7 132 0.0 0 2333 0 1
gene 1 7 133 0.0 0 2334 0 1
gene 1 7 134 0.0 0 2335 0 1
gene 1 7 135 0.0 0 2336 0 1
gene 1 7 136 0.0 0 2337 0 1
gene 1 7 137 0.0 0 2338 0 1
gene 1 7 138 0.0 0 2339 0 1
gene 1 7 139 0.0 0 2340 0 1
gene 1 7 140 0.0 0 2341 0 1
gene 1 7 141 0.0 0 2342 0 1
gene 1 7 142 0.0 0 2343 0 1
gene 1 7 143 0.0 0 2344 0 1
gene 1 7 144 0.0 0 2345 0 1
gene 1 7 145 0.0 0 2346 0 1
gene 1 7 146 0.0 0 2347 0 1
gene 1 7 147 0.0 0 2348 0 1
gene 1 7 148 0.0 0 2349 0 1
gene 1 7 149 0.0 0 2350 0 1
gene 1 7 150 0.0 0 2351 0 1
gene 1 7 151 0.0 0 2352 0 1
gene 1 7 152 0.0 0 2353 0 1
gene 1 7 153 0.0 0 2354 0 1
gene 1 7 154 0.0 0 2355 0 1
gene 1 7 155 0.0 0 2356 0 1
gene 1 7 156 0.0 0 2357 0 1
gene 1 7 157 0.0 0 2358 0 1
gene 1 7 158 0.0 0 2359 0 1
gene 1 7 159 0.0 0 2360 0 1
gene 1 7 160 0.0 0 2361 0 1
gene 1 7 161 0.0 0 2362 0 1
gene 1 7 162 0.0 0 2363 0 1
gene 1 7 163 0.0 0 2364 0 1
gene 1 7 164 0.0 0 2365 0 1
gene 1 7 165 0.0 0 2366 0 1
gene 1 7 166 0.0 0 2367 0 1
gene 1 7 167 0.0 0 2368 0 1
gene 1 7 168 0.0 0 2369 0 1
gene 1 7 169 0.0 0 2370 0 1
gene 1 7 170 0.0 0 2371 0 1
gene 1 7 171 0.0 0 2372 0 1
gene 1 7 172 0.0 0 2373 0 1
gene 1 7 173 0.0 0 2374 0 1
gene 1 7 174 0.0 0 2375 0 1
gene 1 7 175 0.0 0 2376 0 1
gene 1 7 176 0.0 0 2377 0 1
gene 1 7 177 0.0 0 2378 0 1
gene 1 7 178 0.0 0 2379 0 1
gene 1 7 179 0.0 0 2380 0 1
gene 1 7 180 0.0 0 2381 0 1
gene 1 7 181 0.0 0 2382 0 1
gene 1 7 182 0.0 0 2383 0 1
gene 1 7 183 0.0 0 2384 0 1
gene 1 7 184 0.0 0 2385 0 1
gene 1 7 185 0.0 0 2386 0 1
gene 1 7 186 0.0 0 2387 0 1
gene 1 7 187 0.0 0 2388 0 1
gene 1 7 188 0.0 0 2389 0 1
gene 1 7 189 0.0 0 2390 0 1
gene 1 7 190 0.0 0 2391 0 1
gene 1 7 191 0.0 0 2392 0 1
gene 1 7 192 0.0 0 2393 0 1
gene 1 7 193 0.0 0 2394 0 1
gene 1 7 194 0.0 0 2395 0 1
gene 1 7 195 0.0 0 2396 0 1
gene 1 7 196 0.0 0 2397 0 1
gene 1 7 197 0.0 0 2398 0 1
gene 1 7 198 0.0 0 2399 0 1
gene 1 7 199 0.0 0 2400 0 1
gene 1 7 200 0.0 0 2401 0 1
gene 1 7 201 0.0 0 2402 0 1
gene 1 7 202 0.0 0 2403 0 1
gene 1 7 203 0.0 0 2404 0 1
gene 1 7 204 0.0 0 2405 0 1
gene 1 7 205 0.0 0 2406 0 1
gene 1 7 206 0.0 0 2407 0 1
gene 1 7 207 0.0 0 2408 0 1
gene 1 7 208 0.0 0 2409 0 1
gene 1 7 209 0.0 0 2410 0 1
gene 1 7 210 0.0 0 2411 0 1
gene 1 7 211 0.0 0 2412 0 1
gene 1 7 212 0.0 0 2413 0 1
gene 1 7 213 0.0 0 2414 0 1
gene 1 7 214 0.0 0 2415 0 1
gene 1 7 215 0.0 0 2416 0 1
gene 1 7 216 0.0 0 2417 0 1
gene 1 7 217 0.0 0 2418 0 1
gene 1 7 218 0.0 0 2419 0 1
gene 1 7 219 0.0 0 2420 0 1
gene 1 7 220 0.0 0 2421 0 1
gene 1 7 221 0.0 0 2422 0 1
gene 1 7 222 0.0 0 2423 0 1
gene 1 7 223 0.0 0 2424 0 1
gene 1 7 224 0.0 0 2425 0 1
gene 1 7 225 0.0 0 2426 0 1
gene 1 7 226 0.0 0 2427 0 1
gene 1 7 227 0.0 0 2428 0 1
gene 1 7 228 0.0 0 2429 0 1
gene 1 7 229 0.0 0 2430 0 1
gene 1 7 230 0.0 0 2431 0 1
gene 1 7 231 0.0 0 2432 0 1
gene 1 7 232 0.0 0 2433 0 1
gene 1 7 233 0.0 0 2434 0 1
gene 1 7 234 0.0 0 2435 0 1
gene 1 7 235 0.0 0 2436 0 1
gene 1 7 236 0.0 0 2437 0 1
gene 1 7 237 0.0 0 2438 0 1
gene 1 7 238 0.0 0 2439 0 1
gene 1 7 239 0.0 0 2440 0 1
gene 1 7 240 0.0 0 2441 0 1
gene 1 7 241 0.0 0 2442 0 1
gene 1 7 242 0.0 0 2443 0 1
gene 1 7 243 0.0 0 2444 0 1
gene 1 7 244 0.0 0 2445 0 1
gene 1 7 245 0.0 0 2446 0 1
gene 1 7 246 0.0 0 2447 0 1
gene 1 7 247 0.0 0 2448 0 1
gene 1 7 248 0.0 0 2449 0 1
gene 1 7 249 0.0 0 2450 0 1
gene 1 7 250 0.0 0 2451 0 1
gene 1 7 251 0.0 0 2452 0 1
gene 1 7 252 0.0 0 2453 0 1
gene 1 7 253 0.0 0 2454 0 1
gene 1 7 254 0.0 0 2455 0 1
gene 1 7 255 0.0 0 2456 0 1
gene 1 7 256 0.0 0 2457 0 1
gene 1 7 257 0.0 0 2458 0 1
gene 1 7 258 0.0 0 2459 0 1
gene 1 7 259 0.0 0 2460 0 1
gene 1 7 260 0.0 0 2461 0 1
gene 1 7 261 0.0 0 2462 0 1
gene 1 7 262 0.0 0 2463 0 1
gene 1 7 263 0.0 0 2464 0 1
gene 1 7 264 0.0 0 2465 0 1
gene 1 7 265 0.0 0 2466 0 1
gene 1 7 266 0.0 0 2467 0 1
gene 1 7 267 0.0 0 2468 0 1
gene 1 7 268 0.0 0 2469 0 1
gene 1 7 269 0.0 0 2470 0 1
gene 1 7 270 0.0 0 2471 0 1
gene 1 7 271 0.0 0 2472 0 1
gene 1 7 272 0.0 0 2473 0 1
gene 1 7 273 0.0 0 2474 0 1
gene 1 7 274 0.0 0 2475 0 1
gene 1 7 275 0.0 0 2476 0 1
gene 1 7 276 0.0 0 2477 0 1
gene 1 7 277 0.0 0 2478 0 1
gene 1 7 278 0.0 0 2479 0 1
gene 1 7 279 0.0 0 2480 0 1
gene 1 7 280 0.0 0 2481 0 1
gene 1 7 281 0.0 0 2482 0 1
gene 1 7 282 0.0 0 2483 0 1
gene 1 7 283 0.0 0 2484 0 1
gene 1 7 284 0.0 0 2485 0 1
gene 1 7 285 0.0 0 2486 0 1
gene 1 7 286 0.0 0 2487 0 1
gene 1 7 287 0.0 0 2488 0 1
gene 1 7 288 0.0 0 2489 0 1
gene 1 7 289 0.0 0 2490 0 1
gene 1 7 290 0.0 0 2491 0 1
gene 1 7 291 0.0 0 2492 0 1
gene 1 7 292 0.0 0 2493 0 1
gene 1 7 293 0.0 0 2494 0 1
gene 1 7 294 0.0 0 2495 0 1
gene 1 7 295 0.0 0 2496 0 1
gene 1 7 296 0.0 0 2497 0 1
gene 1 7 297 0.0 0 2498 0 1
gene 1 7 298 0.0 0 2499 0 1
gene 1 7 299 0.0 0 2500 0 1
gene 1 7 300 0.0 0 2501 0 1
gene 1 7 301 0.0 0 2502 0 1
gene 1 7 302 0.0 0 2503 0 1
gene 1 7 303 0.0 0 2504 0 1
gene 1 7 304 0.0 0 2505 0 1
gene 1 7 305 0.0 0 2506 0 1
gene 1 7 306 0.0 0 2507 0 1
gene 1 7 307 0.0 0 2508 0 1
gene 1 7 308 0.0 0 2509 0 1
gene 1 7 309 0.0 0 2510 0 1
gene 1 7 310 0.0 0 2511 0 1
gene 1 7 311 0.0 0 2512 0 1
gene 1 7 312 0.0 0 2513 0 1
gene 1 7 313 0.0 0 2514 0 1
gene 1 7 314 0.0 0 2515 0 1
gene 1 7 315 0.0 0 2516 0 1
gene 1 7 316 0.0 0 2517 0 1
gene 1 7 317 0.0 0 2518 0 1
gene 1 7 318 0.0 0 2519 0 1
gene 1 7 319 0.0 0 2520 0 1
gene 1 7 320 0.0 0 2521 0 1
gene 1 7 321 0.0 0 2522 0 1
gene 1 7 322 0.0 0 2523 0 1
gene 1 7 323 0.0 0 2524 0 1
gene 1 7 324 0.0 0 2525 0 1
gene 1 7 325 0.0 0 2526 0 1
gene 1 7 326 0.0 0 2527 0 1
gene 1 7 327 0.0 0 2528 0 1
gene 1 7 328 0.0 0 2529 0 1
gene 1 7 329 0.0 0 2530 0 1
gene 1 7 330 0.0 0 2531 0 1
gene 1 7 331 0.0 0 2532 0 1
gene 1 7 332 0.0 0 2533 0 1
gene 1 7 333 0.0 0 2534 0 1
gene 1 7 334 0.0 0 2535 0 1
gene 1 7 335 0.0 0 2536 0 1
gene 1 7 336 0.0 0 2537 0 1
gene 1 7 337 0.0 0 2538 0 1
gene 1 7 338 0.0 0 2539 0 1
gene 1 7 339 0.0 0 2540 0 1
gene 1 7 340 0.0 0 2541 0 1
gene 1 7 341 0.0 0 2542 0 1
gene 1 7 342 0.0 0 2543 0 1
gene 1 7 343 0.0 0 2544 0 1
gene 1 7 344 0.0 0 2545 0 1
gene 1 7 345 0.0 0 2546 0 1
gene 1 7 346 0.0 0 2547 0 1
gene 1 7 347 0.0 0 2548 0 1
gene 1 7 348 0.0 0 2549 0 1
gene 1 7 349 0.0 0 2550 0 1
gene 1 7 350 0.0 0 2551 0 1
gene 1 7 351 0.0 0 2552 0 1
gene 1 7 352 0.0 0 2553 0 1
gene 1 7 353 0.0 0 2554 0 1
gene 1 7 354 0.0 0 2555 0 1
gene 1 7 355 0.0 0 2556 0 1
gene 1 7 356 0.0 0 2557 0 1
gene 1 7 357 0.0 0 2558 0 1
gene 1 7 358 0.0 0 2559 0 1
gene 1 7 359 0.0 0 2560 0 1
gene 1 7 360 0.0 0 2561 0 1
gene 1 7 361 0.0 0 2562 0 1
gene 1 7 362 0.0 0 2563 0 1
gene 1 7 363 0.0 0 2564 0 1
gene 1 7 364 0.0 0 2565 0 1
gene 1 7 365 0.0 0 2566 0 1
gene 1 7 366 0.0 0 2567 0 1
gene 1 7 367 0.0 0 2568 0 1
gene 1 7 368 0.0 0 2569 0 1
gene 1 7 369 0.0 0 2570 0 1
gene 1 7 370 0.0 0 2571 0 1
gene 1 7 371 0.0 0 2572 0 1
gene 1 7 372 0.0 0 2573 0 1
gene 1 7 373 0.0 0 2574 0 1
gene 1 7 374 0.0 0 2575 0 1
gene 1 7 375 0.0 0 2576 0 1
gene 1 7 376 0.0 0 2577 0 1
gene 1 7 377 0.0 0 2578 0 1
gene 1 7 378 0.0 0 2579 0 1
gene 1 7 379 0.0 0 2580 0 1
gene 1 7 380 0.0 0 2581 0 1
gene 1 7 381 0.0 0 2582 0 1
gene 1 7 382 0.0 0 2583 0 1
gene 1 7 383 0.0 0 2584 0 1
gene 1 7 384 0.0 0 2585 0 1
gene 1 7 385 0.0 0 2586 0 1
gene 1 7 386 0.0 0 2587 0 1
gene 1 7 387 0.0 0 2588 0 1
gene 1 7 388 0.0 0 2589 0 1
gene 1 7 389 0.0 0 2590 0 1
gene 1 7 390 0.0 0 2591 0 1
gene 1 7 391 0.0 0 2592 0 1
gene 1 7 392 0.0 0 2593 0 1
gene 1 7 393 0.0 0 2594 0 1
gene 1 7 394 0.0 0 2595 0 1
gene 1 7 395 0.0 0 2596 0 1
gene 1 7 396 0.0 0 2597 0 1
gene 1 8 26 0.0 0 2598 0 1
gene 1 8 27 0.0 0 2599 0 1
gene 1 8 28 0.0 0 2600 0 1
gene 1 8 29 0.0 0 2601 0 1
gene 1 8 30 0.0 0 2602 0 1
gene 1 8 31 0.0 0 2603 0 1
gene 1 8 32 0.0 0 2604 0 1
gene 1 8 33 0.0 0 2605 0 1
gene 1 8 34 0.0 0 2606 0 1
gene 1 8 35 0.0 0 2607 0 1
gene 1 8 36 0.0 0 2608 0 1
gene 1 8 37 0.0 0 2609 0 1
gene 1 8 38 0.0 0 2610 0 1
gene 1 8 39 0.0 0 2611 0 1
gene 1 8 40 0.0 0 2612 0 1
gene 1 8 41 0.0 0 2613 0 1
gene 1 8 42 0.0 0 2614 0 1
gene 1 8 43 0.0 0 2615 0 1
gene 1 8 44 0.0 0 2616 0 1
gene 1 8 45 0.0 0 2617 0 1
gene 1 8 46 0.0 0 2618 0 1
gene 1 8 47 0.0 0 2619 0 1
gene 1 8 48 0.0 0 2620 0 1
gene 1 8 49 0.0 0 2621 0 1
gene 1 8 50 0.0 0 2622 0 1
gene 1 8 51 0.0 0 2623 0 1
gene 1 8 52 0.0 0 2624 0 1
gene 1 8 53 0.0 0 2625 0 1
gene 1 8 54 0.0 0 2626 0 1
gene 1 8 55 0.0 0 2627 0 1
gene 1 8 56 0.0 0 2628 0 1
gene 1 8 57 0.0 0 2629 0 1
gene 1 8 58 0.0 0 2630 0 1
gene 1 8 59 0.0 0 2631 0 1
gene 1 8 60 0.0 0 2632 0 1
gene 1 8 61 0.0 0 2633 0 1
gene 1 8 62 0.0 0 2634 0 1
gene 1 8 63 0.0 0 2635 0 1
gene 1 8 64 0.0 0 2636 0 1
gene 1 8 65 0.0 0 2637 0 1
gene 1 8 66 0.0 0 2638 0 1
gene 1 8 67 0.0 0 2639 0 1
gene 1 8 68 0.0 0 2640 0 1
gene 1 8 69 0.0 0 2641 0 1
gene 1 8 70 0.0 0 2642 0 1
gene 1 8 71 0.0 0 2643 0 1
gene 1 8 72 0.0 0 2644 0 1
gene 1 8 73 0.0 0 2645 0 1
gene 1 8 74 0.0 0 2646 0 1
gene 1 8 75 0.0 0 2647 0 1
gene 1 8 76 0.0 0 2648 0 1
gene 1 8 77 0.0 0 2649 0 1
gene 1 8 78 0.0 0 2650 0 1
gene 1 8 79 0.0 0 2651 0 1
gene 1 8 80 0.0 0 2652 0 1
gene 1 8 81 0.0 0 2653 0 1
gene 1 8 82 0.0 0 2654 0 1
gene 1 8 83 0.0 0 2655 0 1
gene 1 8 84 0.0 0 2656 0 1
gene 1 8 85 0.0 0 2657 0 1
gene 1 8 86 0.0 0 2658 0 1
gene 1 8 87 0.0 0 2659 0 1
gene 1 8 88 0.0 0 2660 0 1
gene 1 8 89 0.0 0 2661 0 1
gene 1 8 90 0.0 0 2662 0 1
gene 1 8 91 0.0 0 2663 0 1
gene 1 8 92 0.0 0 2664 0 1
gene 1 8 93 0.0 0 2665 0 1
gene 1 8 94 0.0 0 2666 0 1
gene 1 8 95 0.0 0 2667 0 1
gene 1 8 96 0.0 0 2668 0 1
gene 1 8 97 0.0 0 2669 0 1
gene 1 8 98 0.0 0 2670 0 1
gene 1 8 99 0.0 0 2671 0 1
gene 1 8 100 0.0 0 2672 0 1
gene 1 8 101 0.0 0 2673 0 1
gene 1 8 102 0.0 0 2674 0 1
gene 1 8 103 0.0 0 2675 0 1
gene 1 8 104 0.0 0 2676 0 1
gene 1 8 105 0.0 0 2677 0 1
gene 1 8 106 0.0 0 2678 0 1
gene 1 8 107 0.0 0 2679 0 1
gene 1 8 108 0.0 0 2680 0 1
gene 1 8 109 0.0 0 2681 0 1
gene 1 8 110 0.0 0 2682 0 1
gene 1 8 111 0.0 0 2683 0 1
gene 1 8 112 0.0 0 2684 0 1
gene 1 8 113 0.0 0 2685 0 1
gene 1 8 114 0.0 0 2686 0 1
gene 1 8 115 0.0 0 2687 0 1
gene 1 8 116 0.0 0 2688 0 1
gene 1 8 117 0.0 0 2689 0 1
gene 1 8 118 0.0 0 2690 0 1
gene 1 8 119 0.0 0 2691 0 1
gene 1 8 120 0.0 0 2692 0 1
gene 1 8 121 0.0 0 2693 0 1
gene 1 8 122 0.0 0 2694 0 1
gene 1 8 123 0.0 0 2695 0 1
gene 1 8 124 0.0 0 2696 0 1
gene 1 8 125 0.0 0 2697 0 1
gene 1 8 126 0.0 0 2698 0 1
gene 1 8 127 0.0 0 2699 0 1
gene 1 8 128 0.0 0 2700 0 1
gene 1 8 129 0.0 0 2701 0 1
gene 1 8 130 0.0 0 2702 0 1
gene 1 8 131 0.0 0 2703 0 1
gene 1 8 132 0.0 0 2704 0 1
gene 1 8 133 0.0 0 2705 0 1
gene 1 8 134 0.0 0 2706 0 1
gene 1 8 135 0.0 0 2707 0 1
gene 1 8 136 0.0 0 2708 0 1
gene 1 8 137 0.0 0 2709 0 1
gene 1 8 138 0.0 0 2710 0 1
gene 1 8 139 0.0 0 2711 0 1
gene 1 8 140 0.0 0 2712 0 1
gene 1 8 141 0.0 0 2713 0 1
gene 1 8 142 0.0 0 2714 0 1
gene 1 8 143 0.0 0 2715 0 1
gene 1 8 144 0.0 0 2716 0 1
gene 1 8 145 0.0 0 2717 0 1
gene 1 8 146 0.0 0 2718 0 1
gene 1 8 147 0.0 0 2719 0 1
gene 1 8 148 0.0 0 2720 0 1
gene 1 8 149 0.0 0 2721 0 1
gene 1 8 150 0.0 0 2722 0 1
gene 1 8 151 0.0 0 2723 0 1
gene 1 8 152 0.0 0 2724 0 1
gene 1 8 153 0.0 0 2725 0 1
gene 1 8 154 0.0 0 2726 0 1
gene 1 8 155 0.0 0 2727 0 1
gene 1 8 156 0.0 0 2728 0 1
gene 1 8 157 0.0 0 2729 0 1
gene 1 8 158 0.0 0 2730 0 1
gene 1 8 159 0.0 0 2731 0 1
gene 1 8 160 0.0 0 2732 0 1
gene 1 8 161 0.0 0 2733 0 1
gene 1 8 162 0.0 0 2734 0 1
gene 1 8 163 0.0 0 2735 0 1
gene 1 8 164 0.0 0 2736 0 1
gene 1 8 165 0.0 0 2737 0 1
gene 1 8 166 0.0 0 2738 0 1
gene 1 8 167 0.0 0 2739 0 1
gene 1 8 168 0.0 0 2740 0 1
gene 1 8 169 0.0 0 2741 0 1
gene 1 8 170 0.0 0 2742 0 1
gene 1 8 171 0.0 0 2743 0 1
gene 1 8 172 0.0 0 2744 0 1
gene 1 8 173 0.0 0 2745 0 1
gene 1 8 174 0.0 0 2746 0 1
gene 1 8 175 0.0 0 2747 0 1
gene 1 8 176 0.0 0 2748 0 1
gene 1 8 177 0.0 0 2749 0 1
gene 1 8 178 0.0 0 2750 0 1
gene 1 8 179 0.0 0 2751 0 1
gene 1 8 180 0.0 0 2752 0 1
gene 1 8 181 0.0 0 2753 0 1
gene 1 8 182 0.0 0 2754 0 1
gene 1 8 183 0.0 0 2755 0 1
gene 1 8 184 0.0 0 2756 0 1
gene 1 8 185 0.0 0 2757 0 1
gene 1 8 186 0.0 0 2758 0 1
gene 1 8 187 0.0 0 2759 0 1
gene 1 8 188 0.0 0 2760 0 1
gene 1 8 189 0.0 0 2761 0 1
gene 1 8 190 0.0 0 2762 0 1
gene 1 8 191 0.0 0 2763 0 1
gene 1 8 192 0.0 0 2764 0 1
gene 1 8 193 0.0 0 2765 0 1
gene 1 8 194 0.0 0 2766 0 1
gene 1 8 195 0.0 0 2767 0 1
gene 1 8 196 0.0 0 2768 0 1
gene 1 8 197 0.0 0 2769 0 1
gene 1 8 198 0.0 0 2770 0 1
gene 1 8 199 0.0 0 2771 0 1
gene 1 8 200 0.0 0 2772 0 1
gene 1 8 201 0.0 0 2773 0 1
gene 1 8 202 0.0 0 2774 0 1
gene 1 8 203 0.0 0 2775 0 1
gene 1 8 204 0.0 0 2776 0 1
gene 1 8 205 0.0 0 2777 0 1
gene 1 8 206 0.0 0 2778 0 1
gene 1 8 207 0.0 0 2779 0 1
gene 1 8 208 0.0 0 2780 0 1
gene 1 8 209 0.0 0 2781 0 1
gene 1 8 210 0.0 0 2782 0 1
gene 1 8 211 0.0 0 2783 0 1
gene 1 8 212 0.0 0 2784 0 1
gene 1 8 213 0.0 0 2785 0 1
gene 1 8 214 0.0 0 2786 0 1
gene 1 8 215 0.0 0 2787 0 1
gene 1 8 216 0.0 0 2788 0 1
gene 1 8 217 0.0 0 2789 0 1
gene 1 8 218 0.0 0 2790 0 1
gene 1 8 219 0.0 0 2791 0 1
gene 1 8 220 0.0 0 2792 0 1
gene 1 8 221 0.0 0 2793 0 1
gene 1 8 222 0.0 0 2794 0 1
gene 1 8 223 0.0 0 2795 0 1
gene 1 8 224 0.0 0 2796 0 1
gene 1 8 225 0.0 0 2797 0 1
gene 1 8 226 0.0 0 2798 0 1
gene 1 8 227 0.0 0 2799 0 1
gene 1 8 228 0.0 0 2800 0 1
gene 1 8 229 0.0 0 2801 0 1
gene 1 8 230 0.0 0 2802 0 1
gene 1 8 231 0.0 0 2803 0 1
gene 1 8 232 0.0 0 2804 0 1
gene 1 8 233 0.0 0 2805 0 1
gene 1 8 234 0.0 0 2806 0 1
gene 1 8 235 0.0 0 2807 0 1
gene 1 8 236 0.0 0 2808 0 1
gene 1 8 237 0.0 0 2809 0 1
gene 1 8 238 0.0 0 2810 0 1
gene 1 8 239 0.0 0 2811 0 1
gene 1 8 240 0.0 0 2812 0 1
gene 1 8 241 0.0 0 2813 0 1
gene 1 8 242 0.0 0 2814 0 1
gene 1 8 243 0.0 0 2815 0 1
gene 1 8 244 0.0 0 2816 0 1
gene 1 8 245 0.0 0 2817 0 1
gene 1 8 246 0.0 0 2818 0 1
gene 1 8 247 0.0 0 2819 0 1
gene 1 8 248 0.0 0 2820 0 1
gene 1 8 249 0.0 0 2821 0 1
gene 1 8 250 0.0 0 2822 0 1
gene 1 8 251 0.0 0 2823 0 1
gene 1 8 252 0.0 0 2824 0 1
gene 1 8 253 0.0 0 2825 0 1
gene 1 8 254 0.0 0 2826 0 1
gene 1 8 255 0.0 0 2827 0 1
gene 1 8 256 0.0 0 2828 0 1
gene 1 8 257 0.0 0 2829 0 1
gene 1 8 258 0.0 0 2830 0 1
gene 1 8 259 0.0 0 2831 0 1
gene 1 8 260 0.0 0 2832 0 1
gene 1 8 261 0.0 0 2833 0 1
gene 1 8 262 0.0 0 2834 0 1
gene 1 8 263 0.0 0 2835 0 1
gene 1 8 264 0.0 0 2836 0 1
gene 1 8 265 0.0 0 2837 0 1
gene 1 8 266 0.0 0 2838 0 1
gene 1 8 267 0.0 0 2839 0 1
gene 1 8 268 0.0 0 2840 0 1
gene 1 8 269 0.0 0 2841 0 1
gene 1 8 270 0.0 0 2842 0 1
gene 1 8 271 0.0 0 2843 0 1
gene 1 8 272 0.0 0 2844 0 1
gene 1 8 273 0.0 0 2845 0 1
gene 1 8 274 0.0 0 2846 0 1
gene 1 8 275 0.0 0 2847 0 1
gene 1 8 276 0.0 0 2848 0 1
gene 1 8 277 0.0 0 2849 0 1
gene 1 8 278 0.0 0 2850 0 1
gene 1 8 279 0.0 0 2851 0 1
gene 1 8 280 0.0 0 2852 0 1
gene 1 8 281 0.0 0 2853 0 1
gene 1 8 282 0.0 0 2854 0 1
gene 1 8 283 0.0 0 2855 0 1
gene 1 8 284 0.0 0 2856 0 1
gene 1 8 285 0.0 0 2857 0 1
gene 1 8 286 0.0 0 2858 0 1
gene 1 8 287 0.0 0 2859 0 1
gene 1 8 288 0.0 0 2860 0 1
gene 1 8 289 0.0 0 2861 0 1
gene 1 8 290 0.0 0 2862 0 1
gene 1 8 291 0.0 0 2863 0 1
gene 1 8 292 0.0 0 2864 0 1
gene 1 8 293 0.0 0 2865 0 1
gene 1 8 294 0.0 0 2866 0 1
gene 1 8 295 0.0 0 2867 0 1
gene 1 8 296 0.0 0 2868 0 1
gene 1 8 297 0.0 0 2869 0 1
gene 1 8 298 0.0 0 2870 0 1
gene 1 8 299 0.0 0 2871 0 1
gene 1 8 300 0.0 0 2872 0 1
gene 1 8 301 0.0 0 2873 0 1
gene 1 8 302 0.0 0 2874 0 1
gene 1 8 303 0.0 0 2875 0 1
gene 1 8 304 0.0 0 2876 0 1
gene 1 8 305 0.0 0 2877 0 1
gene 1 8 306 0.0 0 2878 0 1
gene 1 8 307 0.0 0 2879 0 1
gene 1 8 308 0.0 0 2880 0 1
gene 1 8 309 0.0 0 2881 0 1
gene 1 8 310 0.0 0 2882 0 1
gene 1 8 311 0.0 0 2883 0 1
gene 1 8 312 0.0 0 2884 0 1
gene 1 8 313 0.0 0 2885 0 1
gene 1 8 314 0.0 0 2886 0 1
gene 1 8 315 0.0 0 2887 0 1
gene 1 8 316 0.0 0 2888 0 1
gene 1 8 317 0.0 0 2889 0 1
gene 1 8 318 0.0 0 2890 0 1
gene 1 8 319 0.0 0 2891 0 1
gene 1 8 320 0.0 0 2892 0 1
gene 1 8 321 0.0 0 2893 0 1
gene 1 8 322 0.0 0 2894 0 1
gene 1 8 323 0.0 0 2895 0 1
gene 1 8 324 0.0 0 2896 0 1
gene 1 8 325 0.0 0 2897 0 1
gene 1 8 326 0.0 0 2898 0 1
gene 1 8 327 0.0 0 2899 0 1
gene 1 8 328 0.0 0 2900 0 1
gene 1 8 329 0.0 0 2901 0 1
gene 1 8 330 0.0 0 2902 0 1
gene 1 8 331 0.0 0 2903 0 1
gene 1 8 332 0.0 0 2904 0 1
gene 1 8 333 0.0 0 2905 0 1
gene 1 8 334 0.0 0 2906 0 1
gene 1 8 335 0.0 0 2907 0 1
gene 1 8 336 0.0 0 2908 0 1
gene 1 8 337 0.0 0 2909 0 1
gene 1 8 338 0.0 0 2910 0 1
gene 1 8 339 0.0 0 2911 0 1
gene 1 8 340 0.0 0 2912 0 1
gene 1 8 341 0.0 0 2913 0 1
gene 1 8 342 0.0 0 2914 0 1
gene 1 8 343 0.0 0 2915 0 1
gene 1 8 344 0.0 0 2916 0 1
gene 1 8 345 0.0 0 2917 0 1
gene 1 8 346 0.0 0 2918 0 1
gene 1 8 347 0.0 0 2919 0 1
gene 1 8 348 0.0 0 2920 0 1
gene 1 8 349 0.0 0 2921 0 1
gene 1 8 350 0.0 0 2922 0 1
gene 1 8 351 0.0 0 2923 0 1
gene 1 8 352 0.0 0 2924 0 1
gene 1 8 353 0.0 0 2925 0 1
gene 1 8 354 0.0 0 2926 0 1
gene 1 8 355 0.0 0 2927 0 1
gene 1 8 356 0.0 0 2928 0 1
gene 1 8 357 0.0 0 2929 0 1
gene 1 8 358 0.0 0 2930 0 1
gene 1 8 359 0.0 0 2931 0 1
gene 1 8 360 0.0 0 2932 0 1
gene 1 8 361 0.0 0 2933 0 1
gene 1 8 362 0.0 0 2934 0 1
gene 1 8 363 0.0 0 2935 0 1
gene 1 8 364 0.0 0 2936 0 1
gene 1 8 365 0.0 0 2937 0 1
gene 1 8 366 0.0 0 2938 0 1
gene 1 8 367 0.0 0 2939 0 1
gene 1 8 368 0.0 0 2940 0 1
gene 1 8 369 0.0 0 2941 0 1
gene 1 8 370 0.0 0 2942 0 1
gene 1 8 371 0.0 0 2943 0 1
gene 1 8 372 0.0 0 2944 0 1
gene 1 8 373 0.0 0 2945 0 1
gene 1 8 374 0.0 0 2946 0 1
gene 1 8 375 0.0 0 2947 0 1
gene 1 8 376 0.0 0 2948 0 1
gene 1 8 377 0.0 0 2949 0 1
gene 1 8 378 0.0 0 2950 0 1
gene 1 8 379 0.0 0 2951 0 1
gene 1 8 380 0.0 0 2952 0 1
gene 1 8 381 0.0 0 2953 0 1
gene 1 8 382 0.0 0 2954 0 1
gene 1 8 383 0.0 0 2955 0 1
gene 1 8 384 0.0 0 2956 0 1
gene 1 8 385 0.0 0 2957 0 1
gene 1 8 386 0.0 0 2958 0 1
gene 1 8 387 0.0 0 2959 0 1
gene 1 8 388 0.0 0 2960 0 1
gene 1 8 389 0.0 0 2961 0 1
gene 1 8 390 0.0 0 2962 0 1
gene 1 8 391 0.0 0 2963 0 1
gene 1 8 392 0.0 0 2964 0 1
gene 1 8 393 0.0 0 2965 0 1
gene 1 8 394 0.0 0 2966 0 1
gene 1 8 395 0.0 0 2967 0 1
gene 1 8 396 0.0 0 2968 0 1
gene 1 9 26 0.0 0 2969 0 1
gene 1 9 27 0.0 0 2970 0 1
gene 1 9 28 0.0 0 2971 0 1
gene 1 9 29 0.0 0 2972 0 1
gene 1 9 30 0.0 0 2973 0 1
gene 1 9 31 0.0 0 2974 0 1
gene 1 9 32 0.0 0 2975 0 1
gene 1 9 33 0.0 0 2976 0 1
gene 1 9 34 0.0 0 2977 0 1
gene 1 9 35 0.0 0 2978 0 1
gene 1 9 36 0.0 0 2979 0 1
gene 1 9 37 0.0 0 2980 0 1
gene 1 9 38 0.0 0 2981 0 1
gene 1 9 39 0.0 0 2982 0 1
gene 1 9 40 0.0 0 2983 0 1
gene 1 9 41 0.0 0 2984 0 1
gene 1 9 42 0.0 0 2985 0 1
gene 1 9 43 0.0 0 2986 0 1
gene 1 9 44 0.0 0 2987 0 1
gene 1 9 45 0.0 0 2988 0 1
gene 1 9 46 0.0 0 2989 0 1
gene 1 9 47 0.0 0 2990 0 1
gene 1 9 48 0.0 0 2991 0 1
gene 1 9 49 0.0 0 2992 0 1
gene 1 9 50 0.0 0 2993 0 1
gene 1 9 51 0.0 0 2994 0 1
gene 1 9 52 0.0 0 2995 0 1
gene 1 9 53 0.0 0 2996 0 1
gene 1 9 54 0.0 0 2997 0 1
gene 1 9 55 0.0 0 2998 0 1
gene 1 9 56 0.0 0 2999 0 1
gene 1 9 57 0.0 0 3000 0 1
gene 1 9 58 0.0 0 3001 0 1
gene 1 9 59 0.0 0 3002 0 1
gene 1 9 60 0.0 0 3003 0 1
gene 1 9 61 0.0 0 3004 0 1
gene 1 9 62 0.0 0 3005 0 1
gene 1 9 63 0.0 0 3006 0 1
gene 1 9 64 0.0 0 3007 0 1
gene 1 9 65 0.0 0 3008 0 1
gene 1 9 66 0.0 0 3009 0 1
gene 1 9 67 0.0 0 3010 0 1
gene 1 9 68 0.0 0 3011 0 1
gene 1 9 69 0.0 0 3012 0 1
gene 1 9 70 0.0 0 3013 0 1
gene 1 9 71 0.0 0 3014 0 1
gene 1 9 72 0.0 0 3015 0 1
gene 1 9 73 0.0 0 3016 0 1
gene 1 9 74 0.0 0 3017 0 1
gene 1 9 75 0.0 0 3018 0 1
gene 1 9 76 0.0 0 3019 0 1
gene 1 9 77 0.0 0 3020 0 1
gene 1 9 78 0.0 0 3021 0 1
gene 1 9 79 0.0 0 3022 0 1
gene 1 9 80 0.0 0 3023 0 1
gene 1 9 81 0.0 0 3024 0 1
gene 1 9 82 0.0 0 3025 0 1
gene 1 9 83 0.0 0 3026 0 1
gene 1 9 84 0.0 0 3027 0 1
gene 1 9 85 0.0 0 3028 0 1
gene 1 9 86 0.0 0 3029 0 1
gene 1 9 87 0.0 0 3030 0 1
gene 1 9 88 0.0 0 3031 0 1
gene 1 9 89 0.0 0 3032 0 1
gene 1 9 90 0.0 0 3033 0 1
gene 1 9 91 0.0 0 3034 0 1
gene 1 9 92 0.0 0 3035 0 1
gene 1 9 93 0.0 0 3036 0 1
gene 1 9 94 0.0 0 3037 0 1
gene 1 9 95 0.0 0 3038 0 1
gene 1 9 96 0.0 0 3039 0 1
gene 1 9 97 0.0 0 3040 0 1
gene 1 9 98 0.0 0 3041 0 1
gene 1 9 99 0.0 0 3042 0 1
gene 1 9 100 0.0 0 3043 0 1
gene 1 9 101 0.0 0 3044 0 1
gene 1 9 102 0.0 0 3045 0 1
gene 1 9 103 0.0 0 3046 0 1
gene 1 9 104 0.0 0 3047 0 1
gene 1 9 105 0.0 0 3048 0 1
gene 1 9 106 0.0 0 3049 0 1
gene 1 9 107 0.0 0 3050 0 1
gene 1 9 108 0.0 0 3051 0 1
gene 1 9 109 0.0 0 3052 0 1
gene 1 9 110 0.0 0 3053 0 1
gene 1 9 111 0.0 0 3054 0 1
gene 1 9 112 0.0 0 3055 0 1
gene 1 9 113 0.0 0 3056 0 1
gene 1 9 114 0.0 0 3057 0 1
gene 1 9 115 0.0 0 3058 0 1
gene 1 9 116 0.0 0 3059 0 1
gene 1 9 117 0.0 0 3060 0 1
gene 1 9 118 0.0 0 3061 0 1
gene 1 9 119 0.0 0 3062 0 1
gene 1 9 120 0.0 0 3063 0 1
gene 1 9 121 0.0 0 3064 0 1
gene 1 9 122 0.0 0 3065 0 1
gene 1 9 123 0.0 0 3066 0 1
gene 1 9 124 0.0 0 3067 0 1
gene 1 9 125 0.0 0 3068 0 1
gene 1 9 126 0.0 0 3069 0 1
gene 1 9 127 0.0 0 3070 0 1
gene 1 9 128 0.0 0 3071 0 1
gene 1 9 129 0.0 0 3072 0 1
gene 1 9 130 0.0 0 3073 0 1
gene 1 9 131 0.0 0 3074 0 1
gene 1 9 132 0.0 0 3075 0 1
gene 1 9 133 0.0 0 3076 0 1
gene 1 9 134 0.0 0 3077 0 1
gene 1 9 135 0.0 0 3078 0 1
gene 1 9 136 0.0 0 3079 0 1
gene 1 9 137 0.0 0 3080 0 1
gene 1 9 138 0.0 0 3081 0 1
gene 1 9 139 0.0 0 3082 0 1
gene 1 9 140 0.0 0 3083 0 1
gene 1 9 141 0.0 0 3084 0 1
gene 1 9 142 0.0 0 3085 0 1
gene 1 9 143 0.0 0 3086 0 1
gene 1 9 144 0.0 0 3087 0 1
gene 1 9 145 0.0 0 3088 0 1
gene 1 9 146 0.0 0 3089 0 1
gene 1 9 147 0.0 0 3090 0 1
gene 1 9 148 0.0 0 3091 0 1
gene 1 9 149 0.0 0 3092 0 1
gene 1 9 150 0.0 0 3093 0 1
gene 1 9 151 0.0 0 3094 0 1
gene 1 9 152 0.0 0 3095 0 1
gene 1 9 153 0.0 0 3096 0 1
gene 1 9 154 0.0 0 3097 0 1
gene 1 9 155 0.0 0 3098 0 1
gene 1 9 156 0.0 0 3099 0 1
gene 1 9 157 0.0 0 3100 0 1
gene 1 9 158 0.0 0 3101 0 1
gene 1 9 159 0.0 0 3102 0 1
gene 1 9 160 0.0 0 3103 0 1
gene 1 9 161 0.0 0 3104 0 1
gene 1 9 162 0.0 0 3105 0 1
gene 1 9 163 0.0 0 3106 0 1
gene 1 9 164 0.0 0 3107 0 1
gene 1 9 165 0.0 0 3108 0 1
gene 1 9 166 0.0 0 3109 0 1
gene 1 9 167 0.0 0 3110 0 1
gene 1 9 168 0.0 0 3111 0 1
gene 1 9 169 0.0 0 3112 0 1
gene 1 9 170 0.0 0 3113 0 1
gene 1 9 171 0.0 0 3114 0 1
gene 1 9 172 0.0 0 3115 0 1
gene 1 9 173 0.0 0 3116 0 1
gene 1 9 174 0.0 0 3117 0 1
gene 1 9 175 0.0 0 3118 0 1
gene 1 9 176 0.0 0 3119 0 1
gene 1 9 177 0.0 0 3120 0 1
gene 1 9 178 0.0 0 3121 0 1
gene 1 9 179 0.0 0 3122 0 1
gene 1 9 180 0.0 0 3123 0 1
gene 1 9 181 0.0 0 3124 0 1
gene 1 9 182 0.0 0 3125 0 1
gene 1 9 183 0.0 0 3126 0 1
gene 1 9 184 0.0 0 3127 0 1
gene 1 9 185 0.0 0 3128 0 1
gene 1 9 186 0.0 0 3129 0 1
gene 1 9 187 0.0 0 3130 0 1
gene 1 9 188 0.0 0 3131 0 1
gene 1 9 189 0.0 0 3132 0 1
gene 1 9 190 0.0 0 3133 0 1
gene 1 9 191 0.0 0 3134 0 1
gene 1 9 192 0.0 0 3135 0 1
gene 1 9 193 0.0 0 3136 0 1
gene 1 9 194 0.0 0 3137 0 1
gene 1 9 195 0.0 0 3138 0 1
gene 1 9 196 0.0 0 3139 0 1
gene 1 9 197 0.0 0 3140 0 1
gene 1 9 198 0.0 0 3141 0 1
gene 1 9 199 0.0 0 3142 0 1
gene 1 9 200 0.0 0 3143 0 1
gene 1 9 201 0.0 0 3144 0 1
gene 1 9 202 0.0 0 3145 0 1
gene 1 9 203 0.0 0 3146 0 1
gene 1 9 204 0.0 0 3147 0 1
gene 1 9 205 0.0 0 3148 0 1
gene 1 9 206 0.0 0 3149 0 1
gene 1 9 207 0.0 0 3150 0 1
gene 1 9 208 0.0 0 3151 0 1
gene 1 9 209 0.0 0 3152 0 1
gene 1 9 210 0.0 0 3153 0 1
gene 1 9 211 0.0 0 3154 0 1
gene 1 9 212 0.0 0 3155 0 1
gene 1 9 213 0.0 0 3156 0 1
gene 1 9 214 0.0 0 3157 0 1
gene 1 9 215 0.0 0 3158 0 1
gene 1 9 216 0.0 0 3159 0 1
gene 1 9 217 0.0 0 3160 0 1
gene 1 9 218 0.0 0 3161 0 1
gene 1 9 219 0.0 0 3162 0 1
gene 1 9 220 0.0 0 3163 0 1
gene 1 9 221 0.0 0 3164 0 1
gene 1 9 222 0.0 0 3165 0 1
gene 1 9 223 0.0 0 3166 0 1
gene 1 9 224 0.0 0 3167 0 1
gene 1 9 225 0.0 0 3168 0 1
gene 1 9 226 0.0 0 3169 0 1
gene 1 9 227 0.0 0 3170 0 1
gene 1 9 228 0.0 0 3171 0 1
gene 1 9 229 0.0 0 3172 0 1
gene 1 9 230 0.0 0 3173 0 1
gene 1 9 231 0.0 0 3174 0 1
gene 1 9 232 0.0 0 3175 0 1
gene 1 9 233 0.0 0 3176 0 1
gene 1 9 234 0.0 0 3177 0 1
gene 1 9 235 0.0 0 3178 0 1
gene 1 9 236 0.0 0 3179 0 1
gene 1 9 237 0.0 0 3180 0 1
gene 1 9 238 0.0 0 3181 0 1
gene 1 9 239 0.0 0 3182 0 1
gene 1 9 240 0.0 0 3183 0 1
gene 1 9 241 0.0 0 3184 0 1
gene 1 9 242 0.0 0 3185 0 1
gene 1 9 243 0.0 0 3186 0 1
gene 1 9 244 0.0 0 3187 0 1
gene 1 9 245 0.0 0 3188 0 1
gene 1 9 246 0.0 0 3189 0 1
gene 1 9 247 0.0 0 3190 0 1
gene 1 9 248 0.0 0 3191 0 1
gene 1 9 249 0.0 0 3192 0 1
gene 1 9 250 0.0 0 3193 0 1
gene 1 9 251 0.0 0 3194 0 1
gene 1 9 252 0.0 0 3195 0 1
gene 1 9 253 0.0 0 3196 0 1
gene 1 9 254 0.0 0 3197 0 1
gene 1 9 255 0.0 0 3198 0 1
gene 1 9 256 0.0 0 3199 0 1
gene 1 9 257 0.0 0 3200 0 1
gene 1 9 258 0.0 0 3201 0 1
gene 1 9 259 0.0 0 3202 0 1
gene 1 9 260 0.0 0 3203 0 1
gene 1 9 261 0.0 0 3204 0 1
gene 1 9 262 0.0 0 3205 0 1
gene 1 9 263 0.0 0 3206 0 1
gene 1 9 264 0.0 0 3207 0 1
gene 1 9 265 0.0 0 3208 0 1
gene 1 9 266 0.0 0 3209 0 1
gene 1 9 267 0.0 0 3210 0 1
gene 1 9 268 0.0 0 3211 0 1
gene 1 9 269 0.0 0 3212 0 1
gene 1 9 270 0.0 0 3213 0 1
gene 1 9 271 0.0 0 3214 0 1
gene 1 9 272 0.0 0 3215 0 1
gene 1 9 273 0.0 0 3216 0 1
gene 1 9 274 0.0 0 3217 0 1
gene 1 9 275 0.0 0 3218 0 1
gene 1 9 276 0.0 0 3219 0 1
gene 1 9 277 0.0 0 3220 0 1
gene 1 9 278 0.0 0 3221 0 1
gene 1 9 279 0.0 0 3222 0 1
gene 1 9 280 0.0 0 3223 0 1
gene 1 9 281 0.0 0 3224 0 1
gene 1 9 282 0.0 0 3225 0 1
gene 1 9 283 0.0 0 3226 0 1
gene 1 9 284 0.0 0 3227 0 1
gene 1 9 285 0.0 0 3228 0 1
gene 1 9 286 0.0 0 3229 0 1
gene 1 9 287 0.0 0 3230 0 1
gene 1 9 288 0.0 0 3231 0 1
gene 1 9 289 0.0 0 3232 0 1
gene 1 9 290 0.0 0 3233 0 1
gene 1 9 291 0.0 0 3234 0 1
gene 1 9 292 0.0 0 3235 0 1
gene 1 9 293 0.0 0 3236 0 1
gene 1 9 294 0.0 0 3237 0 1
gene 1 9 295 0.0 0 3238 0 1
gene 1 9 296 0.0 0 3239 0 1
gene 1 9 297 0.0 0 3240 0 1
gene 1 9 298 0.0 0 3241 0 1
gene 1 9 299 0.0 0 3242 0 1
gene 1 9 300 0.0 0 3243 0 1
gene 1 9 301 0.0 0 3244 0 1
gene 1 9 302 0.0 0 3245 0 1
gene 1 9 303 0.0 0 3246 0 1
gene 1 9 304 0.0 0 3247 0 1
gene 1 9 305 0.0 0 3248 0 1
gene 1 9 306 0.0 0 3249 0 1
gene 1 9 307 0.0 0 3250 0 1
gene 1 9 308 0.0 0 3251 0 1
gene 1 9 309 0.0 0 3252 0 1
gene 1 9 310 0.0 0 3253 0 1
gene 1 9 311 0.0 0 3254 0 1
gene 1 9 312 0.0 0 3255 0 1
gene 1 9 313 0.0 0 3256 0 1
gene 1 9 314 0.0 0 3257 0 1
gene 1 9 315 0.0 0 3258 0 1
gene 1 9 316 0.0 0 3259 0 1
gene 1 9 317 0.0 0 3260 0 1
gene 1 9 318 0.0 0 3261 0 1
gene 1 9 319 0.0 0 3262 0 1
gene 1 9 320 0.0 0 3263 0 1
gene 1 9 321 0.0 0 3264 0 1
gene 1 9 322 0.0 0 3265 0 1
gene 1 9 323 0.0 0 3266 0 1
gene 1 9 324 0.0 0 3267 0 1
gene 1 9 325 0.0 0 3268 0 1
gene 1 9 326 0.0 0 3269 0 1
gene 1 9 327 0.0 0 3270 0 1
gene 1 9 328 0.0 0 3271 0 1
gene 1 9 329 0.0 0 3272 0 1
gene 1 9 330 0.0 0 3273 0 1
gene 1 9 331 0.0 0 3274 0 1
gene 1 9 332 0.0 0 3275 0 1
gene 1 9 333 0.0 0 3276 0 1
gene 1 9 334 0.0 0 3277 0 1
gene 1 9 335 0.0 0 3278 0 1
gene 1 9 336 0.0 0 3279 0 1
gene 1 9 337 0.0 0 3280 0 1
gene 1 9 338 0.0 0 3281 0 1
gene 1 9 339 0.0 0 3282 0 1
gene 1 9 340 0.0 0 3283 0 1
gene 1 9 341 0.0 0 3284 0 1
gene 1 9 342 0.0 0 3285 0 1
gene 1 9 343 0.0 0 3286 0 1
gene 1 9 344 0.0 0 3287 0 1
gene 1 9 345 0.0 0 3288 0 1
gene 1 9 346 0.0 0 3289 0 1
gene 1 9 347 0.0 0 3290 0 1
gene 1 9 348 0.0 0 3291 0 1
gene 1 9 349 0.0 0 3292 0 1
gene 1 9 350 0.0 0 3293 0 1
gene 1 9 351 0.0 0 3294 0 1
gene 1 9 352 0.0 0 3295 0 1
gene 1 9 353 0.0 0 3296 0 1
gene 1 9 354 0.0 0 3297 0 1
gene 1 9 355 0.0 0 3298 0 1
gene 1 9 356 0.0 0 3299 0 1
gene 1 9 357 0.0 0 3300 0 1
gene 1 9 358 0.0 0 3301 0 1
gene 1 9 359 0.0 0 3302 0 1
gene 1 9 360 0.0 0 3303 0 1
gene 1 9 361 0.0 0 3304 0 1
gene 1 9 362 0.0 0 3305 0 1
gene 1 9 363 0.0 0 3306 0 1
gene 1 9 364 0.0 0 3307 0 1
gene 1 9 365 0.0 0 3308 0 1
gene 1 9 366 0.0 0 3309 0 1
gene 1 9 367 0.0 0 3310 0 1
gene 1 9 368 0.0 0 3311 0 1
gene 1 9 369 0.0 0 3312 0 1
gene 1 9 370 0.0 0 3313 0 1
gene 1 9 371 0.0 0 3314 0 1
gene 1 9 372 0.0 0 3315 0 1
gene 1 9 373 0.0 0 3316 0 1
gene 1 9 374 0.0 0 3317 0 1
gene 1 9 375 0.0 0 3318 0 1
gene 1 9 376 0.0 0 3319 0 1
gene 1 9 377 0.0 0 3320 0 1
gene 1 9 378 0.0 0 3321 0 1
gene 1 9 379 0.0 0 3322 0 1
gene 1 9 380 0.0 0 3323 0 1
gene 1 9 381 0.0 0 3324 0 1
gene 1 9 382 0.0 0 3325 0 1
gene 1 9 383 0.0 0 3326 0 1
gene 1 9 384 0.0 0 3327 0 1
gene 1 9 385 0.0 0 3328 0 1
gene 1 9 386 0.0 0 3329 0 1
gene 1 9 387 0.0 0 3330 0 1
gene 1 9 388 0.0 0 3331 0 1
gene 1 9 389 0.0 0 3332 0 1
gene 1 9 390 0.0 0 3333 0 1
gene 1 9 391 0.0 0 3334 0 1
gene 1 9 392 0.0 0 3335 0 1
gene 1 9 393 0.0 0 3336 0 1
gene 1 9 394 0.0 0 3337 0 1
gene 1 9 395 0.0 0 3338 0 1
gene 1 9 396 0.0 0 3339 0 1
gene 1 10 26 0.0 0 3340 0 1
gene 1 10 27 0.0 0 3341 0 1
gene 1 10 28 0.0 0 3342 0 1
gene 1 10 29 0.0 0 3343 0 1
gene 1 10 30 0.0 0 3344 0 1
gene 1 10 31 0.0 0 3345 0 1
gene 1 10 32 0.0 0 3346 0 1
gene 1 10 33 0.0 0 3347 0 1
gene 1 10 34 0.0 0 3348 0 1
gene 1 10 35 0.0 0 3349 0 1
gene 1 10 36 0.0 0 3350 0 1
gene 1 10 37 0.0 0 3351 0 1
gene 1 10 38 0.0 0 3352 0 1
gene 1 10 39 0.0 0 3353 0 1
gene 1 10 40 0.0 0 3354 0 1
gene 1 10 41 0.0 0 3355 0 1
gene 1 10 42 0.0 0 3356 0 1
gene 1 10 43 0.0 0 3357 0 1
gene 1 10 44 0.0 0 3358 0 1
gene 1 10 45 0.0 0 3359 0 1
gene 1 10 46 0.0 0 3360 0 1
gene 1 10 47 0.0 0 3361 0 1
gene 1 10 48 0.0 0 3362 0 1
gene 1 10 49 0.0 0 3363 0 1
gene 1 10 50 0.0 0 3364 0 1
gene 1 10 51 0.0 0 3365 0 1
gene 1 10 52 0.0 0 3366 0 1
gene 1 10 53 0.0 0 3367 0 1
gene 1 10 54 0.0 0 3368 0 1
gene 1 10 55 0.0 0 3369 0 1
gene 1 10 56 0.0 0 3370 0 1
gene 1 10 57 0.0 0 3371 0 1
gene 1 10 58 0.0 0 3372 0 1
gene 1 10 59 0.0 0 3373 0 1
gene 1 10 60 0.0 0 3374 0 1
gene 1 10 61 0.0 0 3375 0 1
gene 1 10 62 0.0 0 3376 0 1
gene 1 10 63 0.0 0 3377 0 1
gene 1 10 64 0.0 0 3378 0 1
gene 1 10 65 0.0 0 3379 0 1
gene 1 10 66 0.0 0 3380 0 1
gene 1 10 67 0.0 0 3381 0 1
gene 1 10 68 0.0 0 3382 0 1
gene 1 10 69 0.0 0 3383 0 1
gene 1 10 70 0.0 0 3384 0 1
gene 1 10 71 0.0 0 3385 0 1
gene 1 10 72 0.0 0 3386 0 1
gene 1 10 73 0.0 0 3387 0 1
gene 1 10 74 0.0 0 3388 0 1
gene 1 10 75 0.0 0 3389 0 1
gene 1 10 76 0.0 0 3390 0 1
gene 1 10 77 0.0 0 3391 0 1
gene 1 10 78 0.0 0 3392 0 1
gene 1 10 79 0.0 0 3393 0 1
gene 1 10 80 0.0 0 3394 0 1
gene 1 10 81 0.0 0 3395 0 1
gene 1 10 82 0.0 0 3396 0 1
gene 1 10 83 0.0 0 3397 0 1
gene 1 10 84 0.0 0 3398 0 1
gene 1 10 85 0.0 0 3399 0 1
gene 1 10 86 0.0 0 3400 0 1
gene 1 10 87 0.0 0 3401 0 1
gene 1 10 88 0.0 0 3402 0 1
gene 1 10 89 0.0 0 3403 0 1
gene 1 10 90 0.0 0 3404 0 1
gene 1 10 91 0.0 0 3405 0 1
gene 1 10 92 0.0 0 3406 0 1
gene 1 10 93 0.0 0 3407 0 1
gene 1 10 94 0.0 0 3408 0 1
gene 1 10 95 0.0 0 3409 0 1
gene 1 10 96 0.0 0 3410 0 1
gene 1 10 97 0.0 0 3411 0 1
gene 1 10 98 0.0 0 3412 0 1
gene 1 10 99 0.0 0 3413 0 1
gene 1 10 100 0.0 0 3414 0 1
gene 1 10 101 0.0 0 3415 0 1
gene 1 10 102 0.0 0 3416 0 1
gene 1 10 103 0.0 0 3417 0 1
gene 1 10 104 0.0 0 3418 0 1
gene 1 10 105 0.0 0 3419 0 1
gene 1 10 106 0.0 0 3420 0 1
gene 1 10 107 0.0 0 3421 0 1
gene 1 10 108 0.0 0 3422 0 1
gene 1 10 109 0.0 0 3423 0 1
gene 1 10 110 0.0 0 3424 0 1
