/* Organism #76 Fitness: -64671.652168 Time: 0 */
genomestart 76
trait 1 0.730021 0.000000 0.939005 0.000000 0.000000 0.000000 0.000000 0.000000 
node 1 1 1 1
node 2 1 1 1
node 3 1 1 1
node 4 1 1 1
node 5 1 1 1
node 6 1 1 1
node 7 1 1 1
node 8 1 1 1
node 9 1 1 1
node 10 1 1 1
node 11 1 1 1
node 12 1 1 1
node 13 1 1 1
node 14 1 1 1
node 15 1 1 1
node 16 1 1 1
node 17 1 1 1
node 18 1 1 1
node 19 1 1 1
node 20 1 1 1
node 21 1 1 1
node 22 1 1 1
node 23 1 1 1
node 24 1 1 1
node 25 1 1 3
node 26 1 0 2
node 27 1 0 2
gene 1 1 26 -1.2965 0 1 -1.2965 1
gene 1 1 27 -4.9624 0 2 -4.9624 1
gene 1 2 26 -1.39787 0 3 -1.39787 1
gene 1 2 27 0.61845 0 4 0.61845 1
gene 1 3 26 -0.222161 0 5 -0.222161 1
gene 1 3 27 -0.40893 0 6 -0.40893 1
gene 1 4 26 -1.86349 0 7 -1.86349 1
gene 1 4 27 0.685785 0 8 0.685785 1
gene 1 5 26 -0.153151 0 9 -0.153151 1
gene 1 5 27 0.101912 0 10 0.101912 1
gene 1 6 26 1.35987 0 11 1.35987 1
gene 1 6 27 2.15916 0 12 2.15916 1
gene 1 7 26 3.76361 0 13 3.76361 1
gene 1 7 27 -3.13713 0 14 -3.13713 1
gene 1 8 26 -1.394 0 15 -1.394 1
gene 1 8 27 -0.168143 0 16 -0.168143 1
gene 1 9 26 -0.666842 0 17 -0.666842 1
gene 1 9 27 1.42762 0 18 1.42762 1
gene 1 10 26 0.899953 0 19 0.899953 1
gene 1 10 27 -1.29457 0 20 -1.29457 1
gene 1 11 26 -0.0887942 0 21 -0.0887942 1
gene 1 11 27 -2.5962 0 22 -2.5962 1
gene 1 12 26 -2.40784 0 23 -2.40784 1
gene 1 12 27 -0.707322 0 24 -0.707322 1
gene 1 13 26 -1.28309 0 25 -1.28309 1
gene 1 13 27 3.17532 0 26 3.17532 1
gene 1 14 26 1.07311 0 27 1.07311 1
gene 1 14 27 0.415199 0 28 0.415199 1
gene 1 15 26 -0.968221 0 29 -0.968221 1
gene 1 15 27 -0.189092 0 30 -0.189092 1
gene 1 16 26 -0.275248 0 31 -0.275248 1
gene 1 16 27 -2.97532 0 32 -2.97532 1
gene 1 17 26 -2.67545 0 33 -2.67545 1
gene 1 17 27 -3.25234 0 34 -3.25234 1
gene 1 18 26 0.668876 0 35 0.668876 1
gene 1 18 27 0.203964 0 36 0.203964 1
gene 1 19 26 1.61114 0 37 1.61114 1
gene 1 19 27 -1.77259 0 38 -1.77259 1
gene 1 20 26 2.01492 0 39 2.01492 1
gene 1 20 27 0.822267 0 40 0.822267 1
gene 1 21 26 0.286258 0 41 0.286258 1
gene 1 21 27 -0.433547 0 42 -0.433547 1
gene 1 22 26 -0.445235 0 43 -0.445235 1
gene 1 22 27 -1.00828 0 44 -1.00828 1
gene 1 23 26 -0.829774 0 45 -0.829774 1
gene 1 23 27 -1.28207 0 46 -1.28207 1
gene 1 24 26 0.500658 0 47 0.500658 1
gene 1 24 27 1.49488 0 48 1.49488 1
gene 1 25 26 -1.22248 0 49 -1.22248 1
gene 1 25 27 0.370408 0 50 0.370408 1
genomeend 76


