/* Organism #4 Fitness: -68336.007281 Time: 0 */
genomestart 4
trait 1 0.100000 0.000000 0.958089 0.000000 0.000000 0.000000 0.000000 0.000000 
node 1 1 1 1
node 2 1 1 1
node 3 1 1 1
node 4 1 1 1
node 5 1 1 1
node 6 1 1 1
node 7 1 1 1
node 8 1 1 1
node 9 1 1 1
node 10 1 1 1
node 11 1 1 1
node 12 1 1 1
node 13 1 1 1
node 14 1 1 1
node 15 1 1 1
node 16 1 1 1
node 17 1 1 1
node 18 1 1 1
node 19 1 1 1
node 20 1 1 1
node 21 1 1 1
node 22 1 1 1
node 23 1 1 1
node 24 1 1 1
node 25 1 1 3
node 26 1 0 2
node 27 1 0 2
gene 1 1 26 -1.85874 0 1 -1.85874 1
gene 1 1 27 0.651305 0 2 0.651305 1
gene 1 2 26 -1.22845 0 3 -1.22845 1
gene 1 2 27 0.350864 0 4 0.350864 1
gene 1 3 26 -0.55819 0 5 -0.55819 1
gene 1 3 27 1.84295 0 6 1.84295 1
gene 1 4 26 -0.919371 0 7 -0.919371 1
gene 1 4 27 1.0411 0 8 1.0411 1
gene 1 5 26 0.418951 0 9 0.418951 1
gene 1 5 27 0.775115 0 10 0.775115 1
gene 1 6 26 1.0331 0 11 1.0331 1
gene 1 6 27 -0.686616 0 12 -0.686616 1
gene 1 7 26 -0.625649 0 13 -0.625649 1
gene 1 7 27 1.77832 0 14 1.77832 1
gene 1 8 26 -1.06992 0 15 -1.06992 1
gene 1 8 27 -2.3274 0 16 -2.3274 1
gene 1 9 26 1.38736 0 17 1.38736 1
gene 1 9 27 -0.324698 0 18 -0.324698 1
gene 1 10 26 0.397382 0 19 0.397382 1
gene 1 10 27 -0.0354446 0 20 -0.0354446 1
gene 1 11 26 -2.39207 0 21 -2.39207 1
gene 1 11 27 -0.050792 0 22 -0.050792 1
gene 1 12 26 -2.03535 0 23 -2.03535 1
gene 1 12 27 -0.911634 0 24 -0.911634 1
gene 1 13 26 0.325179 0 25 0.325179 1
gene 1 13 27 0.0717262 0 26 0.0717262 1
gene 1 14 26 -2.90679 0 27 -2.90679 1
gene 1 14 27 0.709744 0 28 0.709744 1
gene 1 15 26 0.99578 0 29 0.99578 1
gene 1 15 27 -0.315996 0 30 -0.315996 1
gene 1 16 26 0.142012 0 31 0.142012 1
gene 1 16 27 0.120881 0 32 0.120881 1
gene 1 17 26 -1.97118 0 33 -1.97118 1
gene 1 17 27 0.017253 0 34 0.017253 1
gene 1 18 26 0.806074 0 35 0.806074 1
gene 1 18 27 1.01063 0 36 1.01063 1
gene 1 19 26 -0.940253 0 37 -0.940253 1
gene 1 19 27 0.659116 0 38 0.659116 1
gene 1 20 26 -0.310082 0 39 -0.310082 1
gene 1 20 27 1.32254 0 40 1.32254 1
gene 1 21 26 2.78888 0 41 2.78888 1
gene 1 21 27 0.171572 0 42 0.171572 1
gene 1 22 26 -0.100572 0 43 -0.100572 1
gene 1 22 27 -3.23935 0 44 -3.23935 1
gene 1 23 26 -1.15041 0 45 -1.15041 1
gene 1 23 27 -0.793196 0 46 -0.793196 1
gene 1 24 26 -0.580033 0 47 -0.580033 1
gene 1 24 27 0.343505 0 48 0.343505 1
gene 1 25 26 -1.33918 0 49 -1.33918 1
gene 1 25 27 -0.495758 0 50 -0.495758 1
genomeend 4


