/* Organism #0 Fitness: 3038.050000 Time: 0 */
genomestart 0
trait 1 0.100000 0.845746 0.000000 0.000000 0.000000 0.000000 0.073395 0.000000 
node 1 1 1 1
node 2 1 1 1
node 3 1 1 1
node 4 1 1 1
node 5 1 1 1
node 6 1 1 1
node 7 1 1 1
node 8 1 1 1
node 9 1 1 1
node 10 1 1 1
node 11 1 1 1
node 12 1 1 1
node 13 1 1 1
node 14 1 1 1
node 15 1 1 1
node 16 1 1 1
node 17 1 1 1
node 18 1 1 1
node 19 1 1 1
node 20 1 1 1
node 21 1 1 1
node 22 1 1 1
node 23 1 1 1
node 24 1 1 1
node 25 1 1 3
node 26 1 0 2
node 27 1 0 2
gene 1 1 26 0.824599 0 1 0.824599 1
gene 1 1 27 0.0600812 0 2 0.0600812 1
gene 1 2 26 -1.59545 0 3 -1.59545 1
gene 1 2 27 2.1301 0 4 2.1301 1
gene 1 3 26 -1.34808 0 5 -1.34808 1
gene 1 3 27 4.18867 0 6 4.18867 1
gene 1 4 26 0.289717 0 7 0.289717 1
gene 1 4 27 5 0 8 5 1
gene 1 5 26 0.794116 0 9 0.794116 1
gene 1 5 27 1.06378 0 10 1.06378 1
gene 1 6 26 0.947597 0 11 0.947597 1
gene 1 6 27 0.472152 0 12 0.472152 1
gene 1 7 26 3.50938 0 13 3.50938 1
gene 1 7 27 2.16486 0 14 2.16486 1
gene 1 8 26 -0.081214 0 15 -0.081214 1
gene 1 8 27 -1.36214 0 16 -1.36214 1
gene 1 9 26 -1.3883 0 17 -1.3883 1
gene 1 9 27 -0.0798977 0 18 -0.0798977 1
gene 1 10 26 0.844489 0 19 0.844489 1
gene 1 10 27 0.116363 0 20 0.116363 1
gene 1 11 26 -2.14147 0 21 -2.14147 1
gene 1 11 27 -3.81089 0 22 -3.81089 1
gene 1 12 26 1.38135 0 23 1.38135 1
gene 1 12 27 0.310108 0 24 0.310108 1
gene 1 13 26 0.168419 0 25 0.168419 1
gene 1 13 27 -0.128317 0 26 -0.128317 1
gene 1 14 26 0.998937 0 27 0.998937 1
gene 1 14 27 2.58563 0 28 2.58563 1
gene 1 15 26 -0.462088 0 29 -0.462088 1
gene 1 15 27 -0.877402 0 30 -0.877402 1
gene 1 16 26 -1.31732 0 31 -1.31732 1
gene 1 16 27 0.796587 0 32 0.796587 1
gene 1 17 26 -0.214306 0 33 -0.214306 1
gene 1 17 27 0.334031 0 34 0.334031 1
gene 1 18 26 -0.697713 0 35 -0.697713 1
gene 1 18 27 -2.73607 0 36 -2.73607 1
gene 1 19 26 -0.270083 0 37 -0.270083 1
gene 1 19 27 -0.079618 0 38 -0.079618 1
gene 1 20 26 -0.243404 0 39 -0.243404 1
gene 1 20 27 -0.352713 0 40 -0.352713 1
gene 1 21 26 -1.81826 0 41 -1.81826 1
gene 1 21 27 -0.00709514 0 42 -0.00709514 1
gene 1 22 26 -0.105971 0 43 -0.105971 1
gene 1 22 27 -1.0338 0 44 -1.0338 1
gene 1 23 26 -0.523283 0 45 -0.523283 1
gene 1 23 27 -2.08974 0 46 -2.08974 1
gene 1 24 26 -0.333126 0 47 -0.333126 1
gene 1 24 27 -0.0194214 0 48 -0.0194214 1
gene 1 25 26 -0.57203 0 49 -0.57203 1
gene 1 25 27 -0.300398 0 50 -0.300398 1
genomeend 0


