/* Organism #0 Fitness: -8289.746162 Time: 0 */
genomestart 0
trait 1 1.000000 0.775613 0.000000 0.000000 0.000000 0.000000 0.000000 0.000000 
node 1 1 1 1
node 2 1 1 1
node 3 1 1 1
node 4 1 1 1
node 5 1 1 1
node 6 1 1 1
node 7 1 1 1
node 8 1 1 1
node 9 1 1 1
node 10 1 1 1
node 11 1 1 1
node 12 1 1 1
node 13 1 1 1
node 14 1 1 1
node 15 1 1 1
node 16 1 1 1
node 17 1 1 1
node 18 1 1 1
node 19 1 1 1
node 20 1 1 1
node 21 1 1 1
node 22 1 1 1
node 23 1 1 1
node 24 1 1 1
node 25 1 1 3
node 26 1 0 2
node 27 1 0 2
gene 1 1 26 -1.69037 0 1 -1.69037 1
gene 1 1 27 -2.57676 0 2 -2.57676 1
gene 1 2 26 0.634147 0 3 0.634147 1
gene 1 2 27 -0.75437 0 4 -0.75437 1
gene 1 3 26 3.22399 0 5 3.22399 1
gene 1 3 27 -0.645267 0 6 -0.645267 1
gene 1 4 26 1.39248 0 7 1.39248 1
gene 1 4 27 2.1405 0 8 2.1405 1
gene 1 5 26 -1.38176 0 9 -1.38176 1
gene 1 5 27 -1.54757 0 10 -1.54757 1
gene 1 6 26 0.962235 0 11 0.962235 1
gene 1 6 27 1.86263 0 12 1.86263 1
gene 1 7 26 1.2934 0 13 1.2934 1
gene 1 7 27 -0.0185214 0 14 -0.0185214 1
gene 1 8 26 -0.0094968 0 15 -0.0094968 1
gene 1 8 27 -0.632485 0 16 -0.632485 1
gene 1 9 26 -0.179709 0 17 -0.179709 1
gene 1 9 27 3.1363 0 18 3.1363 1
gene 1 10 26 -0.058382 0 19 -0.058382 1
gene 1 10 27 3.02562 0 20 3.02562 1
gene 1 11 26 -0.951436 0 21 -0.951436 1
gene 1 11 27 0.155238 0 22 0.155238 1
gene 1 12 26 -1.11686 0 23 -1.11686 1
gene 1 12 27 -0.256409 0 24 -0.256409 1
gene 1 13 26 -2.21647 0 25 -2.21647 1
gene 1 13 27 0.237627 0 26 0.237627 1
gene 1 14 26 0.960793 0 27 0.960793 1
gene 1 14 27 0.493497 0 28 0.493497 1
gene 1 15 26 2.61555 0 29 2.61555 1
gene 1 15 27 1.84069 0 30 1.84069 1
gene 1 16 26 1.67468 0 31 1.67468 1
gene 1 16 27 0.55326 0 32 0.55326 1
gene 1 17 26 -1.13155 0 33 -1.13155 1
gene 1 17 27 4.37931 0 34 4.37931 1
gene 1 18 26 0.00735553 0 35 0.00735553 1
gene 1 18 27 -0.226724 0 36 -0.226724 1
gene 1 19 26 -0.111443 0 37 -0.111443 1
gene 1 19 27 -0.934208 0 38 -0.934208 1
gene 1 20 26 -0.559225 0 39 -0.559225 1
gene 1 20 27 -2.78024 0 40 -2.78024 1
gene 1 21 26 0.141454 0 41 0.141454 1
gene 1 21 27 0.127031 0 42 0.127031 1
gene 1 22 26 0.0228858 0 43 0.0228858 1
gene 1 22 27 -0.14689 0 44 -0.14689 1
gene 1 23 26 -0.063033 0 45 -0.063033 1
gene 1 23 27 -0.038747 0 46 -0.038747 1
gene 1 24 26 0.729681 0 47 0.729681 1
gene 1 24 27 0.247413 0 48 0.247413 1
gene 1 25 26 0.929387 0 49 0.929387 1
gene 1 25 27 0.661884 0 50 0.661884 1
genomeend 0


