/* Organism #53 Fitness: -2493.678368 Time: 0 */
genomestart 53
trait 1 0.100000 0.000000 0.000000 0.000000 0.000000 0.000000 0.000000 0.000000 
node 1 1 1 1
node 2 1 1 1
node 3 1 1 1
node 4 1 1 1
node 5 1 1 1
node 6 1 1 1
node 7 1 1 1
node 8 1 1 1
node 9 1 1 1
node 10 1 1 1
node 11 1 1 1
node 12 1 1 1
node 13 1 1 1
node 14 1 1 1
node 15 1 1 1
node 16 1 1 1
node 17 1 1 1
node 18 1 1 1
node 19 1 1 1
node 20 1 1 1
node 21 1 1 1
node 22 1 1 1
node 23 1 1 1
node 24 1 1 1
node 25 1 1 3
node 26 1 0 2
node 27 1 0 2
gene 1 1 26 2.45731 0 1 2.45731 1
gene 1 1 27 0.207869 0 2 0.207869 1
gene 1 2 26 1.11927 0 3 1.11927 1
gene 1 2 27 -1.24891 0 4 -1.24891 1
gene 1 3 26 1.46866 0 5 1.46866 1
gene 1 3 27 0.703596 0 6 0.703596 1
gene 1 4 26 2.82316 0 7 2.82316 1
gene 1 4 27 -2.30548 0 8 -2.30548 1
gene 1 5 26 2.03559 0 9 2.03559 1
gene 1 5 27 0.8997 0 10 0.8997 1
gene 1 6 26 -1.99704 0 11 -1.99704 1
gene 1 6 27 -0.654341 0 12 -0.654341 1
gene 1 7 26 0.775865 0 13 0.775865 1
gene 1 7 27 -2.77153 0 14 -2.77153 1
gene 1 8 26 -0.0680714 0 15 -0.0680714 1
gene 1 8 27 -0.535724 0 16 -0.535724 1
gene 1 9 26 0.713056 0 17 0.713056 1
gene 1 9 27 0.159388 0 18 0.159388 1
gene 1 10 26 -4.9136 0 19 -4.9136 1
gene 1 10 27 0.568045 0 20 0.568045 1
gene 1 11 26 1.00669 0 21 1.00669 1
gene 1 11 27 -2.0235 0 22 -2.0235 1
gene 1 12 26 -1.38629 0 23 -1.38629 1
gene 1 12 27 0.493915 0 24 0.493915 1
gene 1 13 26 -1.86028 0 25 -1.86028 1
gene 1 13 27 2.12331 0 26 2.12331 1
gene 1 14 26 -1.72639 0 27 -1.72639 1
gene 1 14 27 -2.72311 0 28 -2.72311 1
gene 1 15 26 -1.45156 0 29 -1.45156 1
gene 1 15 27 -0.710773 0 30 -0.710773 1
gene 1 16 26 1.26951 0 31 1.26951 1
gene 1 16 27 0.306602 0 32 0.306602 1
gene 1 17 26 -2.26018 0 33 -2.26018 1
gene 1 17 27 1.40902 0 34 1.40902 1
gene 1 18 26 -2.92315 0 35 -2.92315 1
gene 1 18 27 2.40408 0 36 2.40408 1
gene 1 19 26 0.916658 0 37 0.916658 1
gene 1 19 27 -0.622135 0 38 -0.622135 1
gene 1 20 26 -1.77146 0 39 -1.77146 1
gene 1 20 27 -1.42809 0 40 -1.42809 1
gene 1 21 26 -1.27197 0 41 -1.27197 1
gene 1 21 27 3.37843 0 42 3.37843 1
gene 1 22 26 0.108375 0 43 0.108375 1
gene 1 22 27 0.0603907 0 44 0.0603907 1
gene 1 23 26 -1.24001 0 45 -1.24001 1
gene 1 23 27 2.62803 0 46 2.62803 1
gene 1 24 26 0.0391285 0 47 0.0391285 1
gene 1 24 27 0.83434 0 48 0.83434 1
gene 1 25 26 1.12922 0 49 1.12922 1
gene 1 25 27 0.723884 0 50 0.723884 1
genomeend 53


