/* Organism #48 Fitness: 28917.401674 Time: 0 */
genomestart 48
trait 1 0.000000 0.398191 0.485651 0.671331 0.000000 1.000000 1.000000 0.671785 
node 1 1 1 1
node 2 1 1 1
node 3 1 1 1
node 4 1 1 1
node 5 1 1 1
node 6 1 1 1
node 7 1 1 1
node 8 1 1 1
node 9 1 1 1
node 10 1 1 1
node 11 1 1 1
node 12 1 1 1
node 13 1 1 1
node 14 1 1 1
node 15 1 1 1
node 16 1 1 1
node 17 1 1 1
node 18 1 1 1
node 19 1 1 1
node 20 1 1 1
node 21 1 1 1
node 22 1 1 1
node 23 1 1 1
node 24 1 1 1
node 25 1 1 3
node 26 1 0 2
node 27 1 0 2
gene 1 1 26 -1.89965 0 1 -1.89965 1
gene 1 1 27 0.188146 0 2 0.188146 1
gene 1 2 26 0.366423 0 3 0.366423 1
gene 1 2 27 -0.633516 0 4 -0.633516 1
gene 1 3 26 -2.04396 0 5 -2.04396 1
gene 1 3 27 0.598654 0 6 0.598654 1
gene 1 4 26 0.149635 0 7 0.149635 1
gene 1 4 27 -0.649314 0 8 -0.649314 1
gene 1 5 26 1.51376 0 9 1.51376 1
gene 1 5 27 0.152206 0 10 0.152206 1
gene 1 6 26 -1.05085 0 11 -1.05085 1
gene 1 6 27 0.523678 0 12 0.523678 1
gene 1 7 26 0.652269 0 13 0.652269 1
gene 1 7 27 -1.90344 0 14 -1.90344 1
gene 1 8 26 1.05796 0 15 1.05796 1
gene 1 8 27 -3.03224 0 16 -3.03224 1
gene 1 9 26 -0.210152 0 17 -0.210152 1
gene 1 9 27 -0.736163 0 18 -0.736163 1
gene 1 10 26 -2.51738 0 19 -2.51738 1
gene 1 10 27 -1.71389 0 20 -1.71389 1
gene 1 11 26 -1.34408 0 21 -1.34408 1
gene 1 11 27 2.03053 0 22 2.03053 1
gene 1 12 26 0.896813 0 23 0.896813 1
gene 1 12 27 2.34898 0 24 2.34898 1
gene 1 13 26 3.20857 0 25 3.20857 1
gene 1 13 27 -0.882332 0 26 -0.882332 1
gene 1 14 26 -0.71979 0 27 -0.71979 1
gene 1 14 27 -0.0191185 0 28 -0.0191185 1
gene 1 15 26 0.985711 0 29 0.985711 1
gene 1 15 27 0.581664 0 30 0.581664 1
gene 1 16 26 -3.59874 0 31 -3.59874 1
gene 1 16 27 -2.00141 0 32 -2.00141 1
gene 1 17 26 1.27998 0 33 1.27998 1
gene 1 17 27 -4.09065 0 34 -4.09065 1
gene 1 18 26 -0.253756 0 35 -0.253756 1
gene 1 18 27 0.227422 0 36 0.227422 1
gene 1 19 26 0.236577 0 37 0.236577 1
gene 1 19 27 2.24611 0 38 2.24611 1
gene 1 20 26 0.561737 0 39 0.561737 1
gene 1 20 27 1.54606 0 40 1.54606 1
gene 1 21 26 -0.0164819 0 41 -0.0164819 1
gene 1 21 27 -1.48476 0 42 -1.48476 1
gene 1 22 26 -0.0944152 0 43 -0.0944152 1
gene 1 22 27 -2.79393 0 44 -2.79393 1
gene 1 23 26 -0.115299 0 45 -0.115299 1
gene 1 23 27 -0.795478 0 46 -0.795478 1
gene 1 24 26 0.0885163 0 47 0.0885163 1
gene 1 24 27 -1.22854 0 48 -1.22854 1
gene 1 25 26 -0.00630454 0 49 -0.00630454 1
gene 1 25 27 -0.14472 0 50 -0.14472 1
genomeend 48


