/* Organism #0 Fitness: 28526.410330 Time: 0 */
genomestart 0
trait 1 0.100000 0.000000 0.000000 0.000000 0.000000 0.000000 0.000000 0.000000 
node 1 1 1 1
node 2 1 1 1
node 3 1 1 1
node 4 1 1 1
node 5 1 1 1
node 6 1 1 1
node 7 1 1 1
node 8 1 1 1
node 9 1 1 1
node 10 1 1 1
node 11 1 1 1
node 12 1 1 1
node 13 1 1 1
node 14 1 1 1
node 15 1 1 1
node 16 1 1 1
node 17 1 1 1
node 18 1 1 1
node 19 1 1 1
node 20 1 1 1
node 21 1 1 1
node 22 1 1 1
node 23 1 1 1
node 24 1 1 1
node 25 1 1 3
node 26 1 0 2
node 27 1 0 2
gene 1 1 26 -0.451334 0 1 -0.451334 1
gene 1 1 27 0.790832 0 2 0.790832 1
gene 1 2 26 -1.19795 0 3 -1.19795 1
gene 1 2 27 -1.79533 0 4 -1.79533 1
gene 1 3 26 -0.0599366 0 5 -0.0599366 1
gene 1 3 27 0.738928 0 6 0.738928 1
gene 1 4 26 -0.516554 0 7 -0.516554 1
gene 1 4 27 2.88405 0 8 2.88405 1
gene 1 5 26 0.906763 0 9 0.906763 1
gene 1 5 27 2.82886 0 10 2.82886 1
gene 1 6 26 1.32536 0 11 1.32536 1
gene 1 6 27 3.2651 0 12 3.2651 1
gene 1 7 26 2.76878 0 13 2.76878 1
gene 1 7 27 2.9067 0 14 2.9067 1
gene 1 8 26 1.56752 0 15 1.56752 1
gene 1 8 27 -0.480513 0 16 -0.480513 1
gene 1 9 26 -1.23508 0 17 -1.23508 1
gene 1 9 27 -2.50941 0 18 -2.50941 1
gene 1 10 26 -1.69355 0 19 -1.69355 1
gene 1 10 27 -0.0679714 0 20 -0.0679714 1
gene 1 11 26 0.934705 0 21 0.934705 1
gene 1 11 27 0.609357 0 22 0.609357 1
gene 1 12 26 -1.34597 0 23 -1.34597 1
gene 1 12 27 1.47891 0 24 1.47891 1
gene 1 13 26 -0.609665 0 25 -0.609665 1
gene 1 13 27 3.28421 0 26 3.28421 1
gene 1 14 26 0.799861 0 27 0.799861 1
gene 1 14 27 -0.49466 0 28 -0.49466 1
gene 1 15 26 -3.46256 0 29 -3.46256 1
gene 1 15 27 -1.44285 0 30 -1.44285 1
gene 1 16 26 -2.03288 0 31 -2.03288 1
gene 1 16 27 -1.71708 0 32 -1.71708 1
gene 1 17 26 -0.885963 0 33 -0.885963 1
gene 1 17 27 -0.44092 0 34 -0.44092 1
gene 1 18 26 -2.59483 0 35 -2.59483 1
gene 1 18 27 -1.3768 0 36 -1.3768 1
gene 1 19 26 -2.82788 0 37 -2.82788 1
gene 1 19 27 0.520166 0 38 0.520166 1
gene 1 20 26 0.77604 0 39 0.77604 1
gene 1 20 27 -1.51816 0 40 -1.51816 1
gene 1 21 26 0.661118 0 41 0.661118 1
gene 1 21 27 0.0262739 0 42 0.0262739 1
gene 1 22 26 -0.720409 0 43 -0.720409 1
gene 1 22 27 -0.111076 0 44 -0.111076 1
gene 1 23 26 -0.170027 0 45 -0.170027 1
gene 1 23 27 -0.0389717 0 46 -0.0389717 1
gene 1 24 26 -0.98051 0 47 -0.98051 1
gene 1 24 27 -0.12171 0 48 -0.12171 1
gene 1 25 26 0.0329299 0 49 0.0329299 1
gene 1 25 27 1.89058 0 50 1.89058 1
genomeend 0


