/* Organism #53 Fitness: 29712.537129 Time: 0 */
genomestart 53
trait 1 0.000000 0.449912 0.641269 0.252733 0.725057 1.000000 0.000000 0.650525 
node 1 1 1 1
node 2 1 1 1
node 3 1 1 1
node 4 1 1 1
node 5 1 1 1
node 6 1 1 1
node 7 1 1 1
node 8 1 1 1
node 9 1 1 1
node 10 1 1 1
node 11 1 1 1
node 12 1 1 1
node 13 1 1 1
node 14 1 1 1
node 15 1 1 1
node 16 1 1 1
node 17 1 1 1
node 18 1 1 1
node 19 1 1 1
node 20 1 1 1
node 21 1 1 1
node 22 1 1 1
node 23 1 1 1
node 24 1 1 1
node 25 1 1 3
node 26 1 0 2
node 27 1 0 2
gene 1 1 26 -2.82182 0 1 -2.82182 1
gene 1 1 27 -3.36204 0 2 -3.36204 1
gene 1 2 26 -2.30974 0 3 -2.30974 1
gene 1 2 27 -2.64144 0 4 -2.64144 1
gene 1 3 26 0.484638 0 5 0.484638 1
gene 1 3 27 0.777982 0 6 0.777982 1
gene 1 4 26 3.51622 0 7 3.51622 1
gene 1 4 27 -0.107291 0 8 -0.107291 1
gene 1 5 26 -0.053968 0 9 -0.053968 1
gene 1 5 27 0.726991 0 10 0.726991 1
gene 1 6 26 -2.62155 0 11 -2.62155 1
gene 1 6 27 0.111965 0 12 0.111965 1
gene 1 7 26 -1.14724 0 13 -1.14724 1
gene 1 7 27 2.22958 0 14 2.22958 1
gene 1 8 26 -0.586761 0 15 -0.586761 1
gene 1 8 27 0.590106 0 16 0.590106 1
gene 1 9 26 3.95745 0 17 3.95745 1
gene 1 9 27 -3.64942 0 18 -3.64942 1
gene 1 10 26 2.20508 0 19 2.20508 1
gene 1 10 27 -1.50768 0 20 -1.50768 1
gene 1 11 26 -2.14735 0 21 -2.14735 1
gene 1 11 27 -3.90126 0 22 -3.90126 1
gene 1 12 26 1.77639 0 23 1.77639 1
gene 1 12 27 1.91783 0 24 1.91783 1
gene 1 13 26 -0.601077 0 25 -0.601077 1
gene 1 13 27 4.38944 0 26 4.38944 1
gene 1 14 26 2.788 0 27 2.788 1
gene 1 14 27 2.45053 0 28 2.45053 1
gene 1 15 26 -0.930886 0 29 -0.930886 1
gene 1 15 27 0.492818 0 30 0.492818 1
gene 1 16 26 -1.14637 0 31 -1.14637 1
gene 1 16 27 -2.98349 0 32 -2.98349 1
gene 1 17 26 2.94192 0 33 2.94192 1
gene 1 17 27 -0.54829 0 34 -0.54829 1
gene 1 18 26 2.25201 0 35 2.25201 1
gene 1 18 27 -1.58673 0 36 -1.58673 1
gene 1 19 26 2.56059 0 37 2.56059 1
gene 1 19 27 1.98438 0 38 1.98438 1
gene 1 20 26 -0.0752855 0 39 -0.0752855 1
gene 1 20 27 -1.42425 0 40 -1.42425 1
gene 1 21 26 1.22789 0 41 1.22789 1
gene 1 21 27 0.281364 0 42 0.281364 1
gene 1 22 26 0.969964 0 43 0.969964 1
gene 1 22 27 -0.15065 0 44 -0.15065 1
gene 1 23 26 3.47273 0 45 3.47273 1
gene 1 23 27 -0.0377397 0 46 -0.0377397 1
gene 1 24 26 0.570013 0 47 0.570013 1
gene 1 24 27 -0.00677949 0 48 -0.00677949 1
gene 1 25 26 0.060191 0 49 0.060191 1
gene 1 25 27 1.24938 0 50 1.24938 1
genomeend 53


