/* Organism #70 Fitness: -47890.848117 Time: 0 */
genomestart 70
trait 1 0.100000 0.000000 0.000000 0.464658 0.433268 0.000000 0.406924 0.038897 
node 1 1 1 1
node 2 1 1 1
node 3 1 1 1
node 4 1 1 1
node 5 1 1 1
node 6 1 1 1
node 7 1 1 1
node 8 1 1 1
node 9 1 1 1
node 10 1 1 1
node 11 1 1 1
node 12 1 1 1
node 13 1 1 1
node 14 1 1 1
node 15 1 1 1
node 16 1 1 1
node 17 1 1 1
node 18 1 1 1
node 19 1 1 1
node 20 1 1 1
node 21 1 1 1
node 22 1 1 1
node 23 1 1 1
node 24 1 1 1
node 25 1 1 3
node 26 1 0 2
node 27 1 0 2
gene 1 1 26 1.85677 0 1 1.85677 1
gene 1 1 27 -2.07047 0 2 -2.07047 1
gene 1 2 26 0.510929 0 3 0.510929 1
gene 1 2 27 0.767216 0 4 0.767216 1
gene 1 3 26 1.9572 0 5 1.9572 1
gene 1 3 27 1.70197 0 6 1.70197 1
gene 1 4 26 0.0243623 0 7 0.0243623 1
gene 1 4 27 0.821203 0 8 0.821203 1
gene 1 5 26 4.24489 0 9 4.24489 1
gene 1 5 27 0.767062 0 10 0.767062 1
gene 1 6 26 0.123596 0 11 0.123596 1
gene 1 6 27 -0.288998 0 12 -0.288998 1
gene 1 7 26 2.01889 0 13 2.01889 1
gene 1 7 27 -3.40405 0 14 -3.40405 1
gene 1 8 26 -0.150638 0 15 -0.150638 1
gene 1 8 27 -0.151308 0 16 -0.151308 1
gene 1 9 26 -2.9486 0 17 -2.9486 1
gene 1 9 27 2.74069 0 18 2.74069 1
gene 1 10 26 0.612732 0 19 0.612732 1
gene 1 10 27 -1.15889 0 20 -1.15889 1
gene 1 11 26 1.83619 0 21 1.83619 1
gene 1 11 27 -2.22224 0 22 -2.22224 1
gene 1 12 26 -1.32929 0 23 -1.32929 1
gene 1 12 27 0.238729 0 24 0.238729 1
gene 1 13 26 -0.492244 0 25 -0.492244 1
gene 1 13 27 -2.08624 0 26 -2.08624 1
gene 1 14 26 1.29976 0 27 1.29976 1
gene 1 14 27 1.44758 0 28 1.44758 1
gene 1 15 26 0.0344506 0 29 0.0344506 1
gene 1 15 27 -2.7332 0 30 -2.7332 1
gene 1 16 26 0.24611 0 31 0.24611 1
gene 1 16 27 -1.30479 0 32 -1.30479 1
gene 1 17 26 -2.44426 0 33 -2.44426 1
gene 1 17 27 -0.597159 0 34 -0.597159 1
gene 1 18 26 1.71175 0 35 1.71175 1
gene 1 18 27 0.0429584 0 36 0.0429584 1
gene 1 19 26 0.963631 0 37 0.963631 1
gene 1 19 27 2.28933 0 38 2.28933 1
gene 1 20 26 -3.36844 0 39 -3.36844 1
gene 1 20 27 0.909433 0 40 0.909433 1
gene 1 21 26 0.696247 0 41 0.696247 1
gene 1 21 27 -0.663818 0 42 -0.663818 1
gene 1 22 26 -0.995705 0 43 -0.995705 1
gene 1 22 27 -1.31836 0 44 -1.31836 1
gene 1 23 26 -1.45615 0 45 -1.45615 1
gene 1 23 27 -1.60849 0 46 -1.60849 1
gene 1 24 26 -0.975358 0 47 -0.975358 1
gene 1 24 27 1.38137 0 48 1.38137 1
gene 1 25 26 -1.21558 0 49 -1.21558 1
gene 1 25 27 1.20489 0 50 1.20489 1
genomeend 70


