/* Organism #1 Fitness: -44773.633362 Time: 0 */
genomestart 1
trait 1 0.684535 0.487866 0.023812 0.000000 0.000000 0.000000 0.000000 0.000000 
node 1 1 1 1
node 2 1 1 1
node 3 1 1 1
node 4 1 1 1
node 5 1 1 1
node 6 1 1 1
node 7 1 1 1
node 8 1 1 1
node 9 1 1 1
node 10 1 1 1
node 11 1 1 1
node 12 1 1 1
node 13 1 1 1
node 14 1 1 1
node 15 1 1 1
node 16 1 1 1
node 17 1 1 1
node 18 1 1 1
node 19 1 1 1
node 20 1 1 1
node 21 1 1 1
node 22 1 1 1
node 23 1 1 1
node 24 1 1 1
node 25 1 1 3
node 26 1 0 2
node 27 1 0 2
gene 1 1 26 -0.276335 0 1 -0.276335 1
gene 1 1 27 -0.207134 0 2 -0.207134 1
gene 1 2 26 -1.27477 0 3 -1.27477 1
gene 1 2 27 -2.09686 0 4 -2.09686 1
gene 1 3 26 0.708456 0 5 0.708456 1
gene 1 3 27 0.517693 0 6 0.517693 1
gene 1 4 26 -1.99778 0 7 -1.99778 1
gene 1 4 27 0.0701085 0 8 0.0701085 1
gene 1 5 26 -0.525299 0 9 -0.525299 1
gene 1 5 27 -0.162142 0 10 -0.162142 1
gene 1 6 26 -0.639768 0 11 -0.639768 1
gene 1 6 27 0.916611 0 12 0.916611 1
gene 1 7 26 1.45129 0 13 1.45129 1
gene 1 7 27 -1.17719 0 14 -1.17719 1
gene 1 8 26 0.468037 0 15 0.468037 1
gene 1 8 27 0.0874664 0 16 0.0874664 1
gene 1 9 26 -1.00092 0 17 -1.00092 1
gene 1 9 27 0.0980886 0 18 0.0980886 1
gene 1 10 26 -0.527504 0 19 -0.527504 1
gene 1 10 27 0.520465 0 20 0.520465 1
gene 1 11 26 -1.96639 0 21 -1.96639 1
gene 1 11 27 0.680072 0 22 0.680072 1
gene 1 12 26 -1.1224 0 23 -1.1224 1
gene 1 12 27 -1.53764 0 24 -1.53764 1
gene 1 13 26 0.712803 0 25 0.712803 1
gene 1 13 27 1.85424 0 26 1.85424 1
gene 1 14 26 0.185997 0 27 0.185997 1
gene 1 14 27 -0.141299 0 28 -0.141299 1
gene 1 15 26 2.3771 0 29 2.3771 1
gene 1 15 27 -0.961401 0 30 -0.961401 1
gene 1 16 26 1.84587 0 31 1.84587 1
gene 1 16 27 -0.0740578 0 32 -0.0740578 1
gene 1 17 26 0.429127 0 33 0.429127 1
gene 1 17 27 0.388878 0 34 0.388878 1
gene 1 18 26 -0.216948 0 35 -0.216948 1
gene 1 18 27 0.886898 0 36 0.886898 1
gene 1 19 26 -0.808433 0 37 -0.808433 1
gene 1 19 27 -1.19285 0 38 -1.19285 1
gene 1 20 26 1.1256 0 39 1.1256 1
gene 1 20 27 -0.161644 0 40 -0.161644 1
gene 1 21 26 0.063478 0 41 0.063478 1
gene 1 21 27 1.37521 0 42 1.37521 1
gene 1 22 26 -0.0453322 0 43 -0.0453322 1
gene 1 22 27 -0.195892 0 44 -0.195892 1
gene 1 23 26 0.945958 0 45 0.945958 1
gene 1 23 27 -0.947894 0 46 -0.947894 1
gene 1 24 26 1.00478 0 47 1.00478 1
gene 1 24 27 0.274027 0 48 0.274027 1
gene 1 25 26 0.633917 0 49 0.633917 1
gene 1 25 27 1.13076 0 50 1.13076 1
genomeend 1


