/* Organism #0 Fitness: 14859.570298 Time: 0 */
genomestart 0
trait 1 0.898695 0.000000 0.126691 1.000000 0.575177 0.000000 0.000000 0.000000 
node 1 1 1 1
node 2 1 1 1
node 3 1 1 1
node 4 1 1 1
node 5 1 1 1
node 6 1 1 1
node 7 1 1 1
node 8 1 1 1
node 9 1 1 1
node 10 1 1 1
node 11 1 1 1
node 12 1 1 1
node 13 1 1 1
node 14 1 1 1
node 15 1 1 1
node 16 1 1 1
node 17 1 1 1
node 18 1 1 1
node 19 1 1 1
node 20 1 1 1
node 21 1 1 1
node 22 1 1 1
node 23 1 1 1
node 24 1 1 1
node 25 1 1 3
node 26 1 0 2
node 27 1 0 2
gene 1 1 26 -0.891253 0 1 -0.891253 1
gene 1 1 27 -0.453466 0 2 -0.453466 1
gene 1 2 26 0.955611 0 3 0.955611 1
gene 1 2 27 1.26298 0 4 1.26298 1
gene 1 3 26 0.644675 0 5 0.644675 1
gene 1 3 27 -0.49494 0 6 -0.49494 1
gene 1 4 26 0.0513985 0 7 0.0513985 1
gene 1 4 27 -1.34364 0 8 -1.34364 1
gene 1 5 26 -0.187817 0 9 -0.187817 1
gene 1 5 27 -0.743987 0 10 -0.743987 1
gene 1 6 26 4.08039 0 11 4.08039 1
gene 1 6 27 -2.81816 0 12 -2.81816 1
gene 1 7 26 0.958403 0 13 0.958403 1
gene 1 7 27 1.74165 0 14 1.74165 1
gene 1 8 26 -0.920037 0 15 -0.920037 1
gene 1 8 27 0.431609 0 16 0.431609 1
gene 1 9 26 1.34116 0 17 1.34116 1
gene 1 9 27 2.01421 0 18 2.01421 1
gene 1 10 26 0.477619 0 19 0.477619 1
gene 1 10 27 -2.58061 0 20 -2.58061 1
gene 1 11 26 1.97919 0 21 1.97919 1
gene 1 11 27 1.81254 0 22 1.81254 1
gene 1 12 26 -0.257531 0 23 -0.257531 1
gene 1 12 27 -0.684571 0 24 -0.684571 1
gene 1 13 26 -2.2423 0 25 -2.2423 1
gene 1 13 27 -2.81414 0 26 -2.81414 1
gene 1 14 26 -0.332796 0 27 -0.332796 1
gene 1 14 27 -2.342 0 28 -2.342 1
gene 1 15 26 -1.58473 0 29 -1.58473 1
gene 1 15 27 0.214068 0 30 0.214068 1
gene 1 16 26 0.933145 0 31 0.933145 1
gene 1 16 27 -0.730527 0 32 -0.730527 1
gene 1 17 26 3.2754 0 33 3.2754 1
gene 1 17 27 0.307555 0 34 0.307555 1
gene 1 18 26 -0.125223 0 35 -0.125223 1
gene 1 18 27 0.802144 0 36 0.802144 1
gene 1 19 26 -1.06638 0 37 -1.06638 1
gene 1 19 27 -1.56044 0 38 -1.56044 1
gene 1 20 26 0.684096 0 39 0.684096 1
gene 1 20 27 0.625717 0 40 0.625717 1
gene 1 21 26 0.0735783 0 41 0.0735783 1
gene 1 21 27 0.0367087 0 42 0.0367087 1
gene 1 22 26 -2.2031 0 43 -2.2031 1
gene 1 22 27 -2.94392 0 44 -2.94392 1
gene 1 23 26 -0.167199 0 45 -0.167199 1
gene 1 23 27 0.0611012 0 46 0.0611012 1
gene 1 24 26 2.13367 0 47 2.13367 1
gene 1 24 27 1.45167 0 48 1.45167 1
gene 1 25 26 -2.98386 0 49 -2.98386 1
gene 1 25 27 -1.70468 0 50 -1.70468 1
genomeend 0


