/* Organism #23 Fitness: 312.013333 Time: 0 */
genomestart 23
trait 1 0.491056 0.454087 0.000000 0.000000 0.454775 0.000000 0.000000 0.000000 
node 1 1 1 1
node 2 1 1 1
node 3 1 1 1
node 4 1 1 1
node 5 1 1 1
node 6 1 1 1
node 7 1 1 1
node 8 1 1 1
node 9 1 1 1
node 10 1 1 1
node 11 1 1 1
node 12 1 1 1
node 13 1 1 1
node 14 1 1 1
node 15 1 1 1
node 16 1 1 1
node 17 1 1 1
node 18 1 1 1
node 19 1 1 1
node 20 1 1 1
node 21 1 1 1
node 22 1 1 1
node 23 1 1 1
node 24 1 1 1
node 25 1 1 3
node 26 1 0 2
node 27 1 0 2
gene 1 1 26 1.04773 0 1 1.04773 1
gene 1 1 27 0.274751 0 2 0.274751 1
gene 1 2 26 -0.322481 0 3 -0.322481 1
gene 1 2 27 -1.05426 0 4 -1.05426 1
gene 1 3 26 0.565209 0 5 0.565209 1
gene 1 3 27 -0.313943 0 6 -0.313943 1
gene 1 4 26 0.889442 0 7 0.889442 1
gene 1 4 27 -3.2575 0 8 -3.2575 1
gene 1 5 26 0.0864648 0 9 0.0864648 1
gene 1 5 27 -0.107174 0 10 -0.107174 1
gene 1 6 26 -1.1948 0 11 -1.1948 1
gene 1 6 27 1.28081 0 12 1.28081 1
gene 1 7 26 0.618251 0 13 0.618251 1
gene 1 7 27 0.747925 0 14 0.747925 1
gene 1 8 26 -0.598315 0 15 -0.598315 1
gene 1 8 27 -0.358087 0 16 -0.358087 1
gene 1 9 26 0.100779 0 17 0.100779 1
gene 1 9 27 -1.76968 0 18 -1.76968 1
gene 1 10 26 -0.457825 0 19 -0.457825 1
gene 1 10 27 -0.0257396 0 20 -0.0257396 1
gene 1 11 26 0.928037 0 21 0.928037 1
gene 1 11 27 0.11564 0 22 0.11564 1
gene 1 12 26 -4.31607 0 23 -4.31607 1
gene 1 12 27 2.25488 0 24 2.25488 1
gene 1 13 26 -1.53783 0 25 -1.53783 1
gene 1 13 27 -0.422108 0 26 -0.422108 1
gene 1 14 26 -0.521222 0 27 -0.521222 1
gene 1 14 27 -0.803113 0 28 -0.803113 1
gene 1 15 26 0.63065 0 29 0.63065 1
gene 1 15 27 -0.497595 0 30 -0.497595 1
gene 1 16 26 -2.29805 0 31 -2.29805 1
gene 1 16 27 0.732391 0 32 0.732391 1
gene 1 17 26 -0.0146116 0 33 -0.0146116 1
gene 1 17 27 -0.0118878 0 34 -0.0118878 1
gene 1 18 26 -1.95661 0 35 -1.95661 1
gene 1 18 27 -0.228473 0 36 -0.228473 1
gene 1 19 26 1.2475 0 37 1.2475 1
gene 1 19 27 -0.831578 0 38 -0.831578 1
gene 1 20 26 2.63564 0 39 2.63564 1
gene 1 20 27 -0.765859 0 40 -0.765859 1
gene 1 21 26 0.209242 0 41 0.209242 1
gene 1 21 27 0.242049 0 42 0.242049 1
gene 1 22 26 -0.108353 0 43 -0.108353 1
gene 1 22 27 -1.39192 0 44 -1.39192 1
gene 1 23 26 1.14901 0 45 1.14901 1
gene 1 23 27 0.286801 0 46 0.286801 1
gene 1 24 26 0.781039 0 47 0.781039 1
gene 1 24 27 2.42757 0 48 2.42757 1
gene 1 25 26 0.0437783 0 49 0.0437783 1
gene 1 25 27 -0.270039 0 50 -0.270039 1
genomeend 23


