/* Organism #98 Fitness: 312.080000 Time: 0 */
genomestart 98
trait 1 0.000000 0.637613 0.000000 0.000000 0.000000 0.000000 0.000000 0.964348 
node 1 1 1 1
node 2 1 1 1
node 3 1 1 1
node 4 1 1 1
node 5 1 1 1
node 6 1 1 1
node 7 1 1 1
node 8 1 1 1
node 9 1 1 1
node 10 1 1 1
node 11 1 1 1
node 12 1 1 1
node 13 1 1 1
node 14 1 1 1
node 15 1 1 1
node 16 1 1 1
node 17 1 1 1
node 18 1 1 1
node 19 1 1 1
node 20 1 1 1
node 21 1 1 1
node 22 1 1 1
node 23 1 1 1
node 24 1 1 1
node 25 1 1 3
node 26 1 0 2
node 27 1 0 2
gene 1 1 26 0.758996 0 1 0.758996 1
gene 1 1 27 -3.33851 0 2 -3.33851 1
gene 1 2 26 2.45921 0 3 2.45921 1
gene 1 2 27 -2.23694 0 4 -2.23694 1
gene 1 3 26 -2.2169 0 5 -2.2169 1
gene 1 3 27 -1.70661 0 6 -1.70661 1
gene 1 4 26 2.00926 0 7 2.00926 1
gene 1 4 27 0.448371 0 8 0.448371 1
gene 1 5 26 -1.441 0 9 -1.441 1
gene 1 5 27 1.86738 0 10 1.86738 1
gene 1 6 26 1.249 0 11 1.249 1
gene 1 6 27 -1.95258 0 12 -1.95258 1
gene 1 7 26 0.330313 0 13 0.330313 1
gene 1 7 27 2.15465 0 14 2.15465 1
gene 1 8 26 2.94263 0 15 2.94263 1
gene 1 8 27 -0.961293 0 16 -0.961293 1
gene 1 9 26 -0.452898 0 17 -0.452898 1
gene 1 9 27 -2.35293 0 18 -2.35293 1
gene 1 10 26 0.564008 0 19 0.564008 1
gene 1 10 27 1.96791 0 20 1.96791 1
gene 1 11 26 -0.779697 0 21 -0.779697 1
gene 1 11 27 1.52053 0 22 1.52053 1
gene 1 12 26 1.37418 0 23 1.37418 1
gene 1 12 27 1.84233 0 24 1.84233 1
gene 1 13 26 -1.31745 0 25 -1.31745 1
gene 1 13 27 -0.0210773 0 26 -0.0210773 1
gene 1 14 26 -0.688192 0 27 -0.688192 1
gene 1 14 27 -0.374996 0 28 -0.374996 1
gene 1 15 26 -1.04341 0 29 -1.04341 1
gene 1 15 27 -0.395676 0 30 -0.395676 1
gene 1 16 26 -1.75036 0 31 -1.75036 1
gene 1 16 27 0.159274 0 32 0.159274 1
gene 1 17 26 -1.14036 0 33 -1.14036 1
gene 1 17 27 -0.682571 0 34 -0.682571 1
gene 1 18 26 -0.939733 0 35 -0.939733 1
gene 1 18 27 0.176903 0 36 0.176903 1
gene 1 19 26 -2.83734 0 37 -2.83734 1
gene 1 19 27 0.102518 0 38 0.102518 1
gene 1 20 26 -0.569993 0 39 -0.569993 1
gene 1 20 27 0.0423461 0 40 0.0423461 1
gene 1 21 26 -0.690352 0 41 -0.690352 1
gene 1 21 27 -1.99126 0 42 -1.99126 1
gene 1 22 26 -0.615872 0 43 -0.615872 1
gene 1 22 27 0.0673715 0 44 0.0673715 1
gene 1 23 26 -0.420756 0 45 -0.420756 1
gene 1 23 27 -1.58808 0 46 -1.58808 1
gene 1 24 26 2.28735 0 47 2.28735 1
gene 1 24 27 2.78213 0 48 2.78213 1
gene 1 25 26 -0.561209 0 49 -0.561209 1
gene 1 25 27 -0.474229 0 50 -0.474229 1
genomeend 98


