/* Organism #3 Fitness: -10235.498240 Time: 0 */
genomestart 3
trait 1 0.100000 0.000000 0.000000 0.000000 0.000000 0.000000 0.000000 0.000000 
node 1 1 1 1
node 2 1 1 1
node 3 1 1 1
node 4 1 1 1
node 5 1 1 1
node 6 1 1 1
node 7 1 1 1
node 8 1 1 1
node 9 1 1 1
node 10 1 1 1
node 11 1 1 1
node 12 1 1 1
node 13 1 1 1
node 14 1 1 1
node 15 1 1 1
node 16 1 1 1
node 17 1 1 1
node 18 1 1 1
node 19 1 1 1
node 20 1 1 1
node 21 1 1 1
node 22 1 1 1
node 23 1 1 1
node 24 1 1 1
node 25 1 1 3
node 26 1 0 2
node 27 1 0 2
gene 1 1 26 0.545072 0 1 0.545072 1
gene 1 1 27 0.258281 0 2 0.258281 1
gene 1 2 26 3.07061 0 3 3.07061 1
gene 1 2 27 0.881589 0 4 0.881589 1
gene 1 3 26 -1.10851 0 5 -1.10851 1
gene 1 3 27 0.90767 0 6 0.90767 1
gene 1 4 26 0.284072 0 7 0.284072 1
gene 1 4 27 2.38166 0 8 2.38166 1
gene 1 5 26 -4.21515 0 9 -4.21515 1
gene 1 5 27 -0.73339 0 10 -0.73339 1
gene 1 6 26 -2.44491 0 11 -2.44491 1
gene 1 6 27 1.69838 0 12 1.69838 1
gene 1 7 26 0.357226 0 13 0.357226 1
gene 1 7 27 -0.995115 0 14 -0.995115 1
gene 1 8 26 -0.333428 0 15 -0.333428 1
gene 1 8 27 2.18919 0 16 2.18919 1
gene 1 9 26 2.85963 0 17 2.85963 1
gene 1 9 27 -0.558837 0 18 -0.558837 1
gene 1 10 26 -1.31844 0 19 -1.31844 1
gene 1 10 27 2.03668 0 20 2.03668 1
gene 1 11 26 3.66747 0 21 3.66747 1
gene 1 11 27 -0.155973 0 22 -0.155973 1
gene 1 12 26 -0.882095 0 23 -0.882095 1
gene 1 12 27 -1.75126 0 24 -1.75126 1
gene 1 13 26 -1.95579 0 25 -1.95579 1
gene 1 13 27 1.81875 0 26 1.81875 1
gene 1 14 26 -2.3874 0 27 -2.3874 1
gene 1 14 27 3.55423 0 28 3.55423 1
gene 1 15 26 -0.293943 0 29 -0.293943 1
gene 1 15 27 -1.82003 0 30 -1.82003 1
gene 1 16 26 1.78232 0 31 1.78232 1
gene 1 16 27 2.77261 0 32 2.77261 1
gene 1 17 26 -0.5421 0 33 -0.5421 1
gene 1 17 27 2.10019 0 34 2.10019 1
gene 1 18 26 1.57737 0 35 1.57737 1
gene 1 18 27 -0.880117 0 36 -0.880117 1
gene 1 19 26 -0.0774712 0 37 -0.0774712 1
gene 1 19 27 -2.27417 0 38 -2.27417 1
gene 1 20 26 -0.922219 0 39 -0.922219 1
gene 1 20 27 -0.313615 0 40 -0.313615 1
gene 1 21 26 0.743391 0 41 0.743391 1
gene 1 21 27 -0.263884 0 42 -0.263884 1
gene 1 22 26 -0.380974 0 43 -0.380974 1
gene 1 22 27 -0.0279476 0 44 -0.0279476 1
gene 1 23 26 -0.135148 0 45 -0.135148 1
gene 1 23 27 -0.57633 0 46 -0.57633 1
gene 1 24 26 0.0382905 0 47 0.0382905 1
gene 1 24 27 -0.689812 0 48 -0.689812 1
gene 1 25 26 -0.331669 0 49 -0.331669 1
gene 1 25 27 0.73724 0 50 0.73724 1
genomeend 3


