/* Organism #50 Fitness: -8662.760000 Time: 0 */
genomestart 50
trait 1 0.000000 0.481598 0.842277 0.608148 0.274063 1.000000 0.000000 0.131402 
node 1 1 1 1
node 2 1 1 1
node 3 1 1 1
node 4 1 1 1
node 5 1 1 1
node 6 1 1 1
node 7 1 1 1
node 8 1 1 1
node 9 1 1 1
node 10 1 1 1
node 11 1 1 1
node 12 1 1 1
node 13 1 1 1
node 14 1 1 1
node 15 1 1 1
node 16 1 1 1
node 17 1 1 1
node 18 1 1 1
node 19 1 1 1
node 20 1 1 1
node 21 1 1 1
node 22 1 1 1
node 23 1 1 1
node 24 1 1 1
node 25 1 1 3
node 26 1 0 2
node 27 1 0 2
gene 1 1 26 -1.66495 0 1 -1.66495 1
gene 1 1 27 -1.15684 0 2 -1.15684 1
gene 1 2 26 0.185229 0 3 0.185229 1
gene 1 2 27 -1.40134 0 4 -1.40134 1
gene 1 3 26 -0.243404 0 5 -0.243404 1
gene 1 3 27 0.544292 0 6 0.544292 1
gene 1 4 26 0.360196 0 7 0.360196 1
gene 1 4 27 0.581106 0 8 0.581106 1
gene 1 5 26 2.60978 0 9 2.60978 1
gene 1 5 27 -0.749478 0 10 -0.749478 1
gene 1 6 26 -1.46478 0 11 -1.46478 1
gene 1 6 27 -2.28174 0 12 -2.28174 1
gene 1 7 26 2.88148 0 13 2.88148 1
gene 1 7 27 0.102026 0 14 0.102026 1
gene 1 8 26 0.146181 0 15 0.146181 1
gene 1 8 27 -1.10792 0 16 -1.10792 1
gene 1 9 26 -0.6877 0 17 -0.6877 1
gene 1 9 27 2.06099 0 18 2.06099 1
gene 1 10 26 -0.531902 0 19 -0.531902 1
gene 1 10 27 2.19835 0 20 2.19835 1
gene 1 11 26 1.60278 0 21 1.60278 1
gene 1 11 27 -1.94749 0 22 -1.94749 1
gene 1 12 26 -1.86503 0 23 -1.86503 1
gene 1 12 27 -3.9808 0 24 -3.9808 1
gene 1 13 26 -2.90777 0 25 -2.90777 1
gene 1 13 27 0.247552 0 26 0.247552 1
gene 1 14 26 1.81008 0 27 1.81008 1
gene 1 14 27 2.68212 0 28 2.68212 1
gene 1 15 26 -1.61097 0 29 -1.61097 1
gene 1 15 27 4.803 0 30 4.803 1
gene 1 16 26 1.43884 0 31 1.43884 1
gene 1 16 27 0.264333 0 32 0.264333 1
gene 1 17 26 -3.62055 0 33 -3.62055 1
gene 1 17 27 -1.37463 0 34 -1.37463 1
gene 1 18 26 -4.04703 0 35 -4.04703 1
gene 1 18 27 -1.55666 0 36 -1.55666 1
gene 1 19 26 1.1851 0 37 1.1851 1
gene 1 19 27 2.00582 0 38 2.00582 1
gene 1 20 26 -2.69282 0 39 -2.69282 1
gene 1 20 27 0.512405 0 40 0.512405 1
gene 1 21 26 -1.11366 0 41 -1.11366 1
gene 1 21 27 -0.147697 0 42 -0.147697 1
gene 1 22 26 -2.30042 0 43 -2.30042 1
gene 1 22 27 0.0186208 0 44 0.0186208 1
gene 1 23 26 -0.806311 0 45 -0.806311 1
gene 1 23 27 -0.492395 0 46 -0.492395 1
gene 1 24 26 -0.0925654 0 47 -0.0925654 1
gene 1 24 27 0.221135 0 48 0.221135 1
gene 1 25 26 0.767085 0 49 0.767085 1
gene 1 25 27 0.585275 0 50 0.585275 1
genomeend 50


