/* Organism #0 Fitness: -7485.304366 Time: 0 */
genomestart 0
trait 1 0.100000 0.000000 0.000000 0.000000 0.000000 0.000000 0.000000 0.000000 
node 1 1 1 1
node 2 1 1 1
node 3 1 1 1
node 4 1 1 1
node 5 1 1 1
node 6 1 1 1
node 7 1 1 1
node 8 1 1 1
node 9 1 1 1
node 10 1 1 1
node 11 1 1 1
node 12 1 1 1
node 13 1 1 1
node 14 1 1 1
node 15 1 1 1
node 16 1 1 1
node 17 1 1 1
node 18 1 1 1
node 19 1 1 1
node 20 1 1 1
node 21 1 1 1
node 22 1 1 1
node 23 1 1 1
node 24 1 1 1
node 25 1 1 3
node 26 1 0 2
node 27 1 0 2
gene 1 1 26 1.12146 0 1 1.12146 1
gene 1 1 27 -2.19826 0 2 -2.19826 1
gene 1 2 26 2.48692 0 3 2.48692 1
gene 1 2 27 -3.51735 0 4 -3.51735 1
gene 1 3 26 1.96867 0 5 1.96867 1
gene 1 3 27 -0.0741997 0 6 -0.0741997 1
gene 1 4 26 1.21265 0 7 1.21265 1
gene 1 4 27 -0.477942 0 8 -0.477942 1
gene 1 5 26 -0.305493 0 9 -0.305493 1
gene 1 5 27 -1.00713 0 10 -1.00713 1
gene 1 6 26 3.05739 0 11 3.05739 1
gene 1 6 27 0.406538 0 12 0.406538 1
gene 1 7 26 0.452671 0 13 0.452671 1
gene 1 7 27 0.506812 0 14 0.506812 1
gene 1 8 26 -1.11589 0 15 -1.11589 1
gene 1 8 27 3.09861 0 16 3.09861 1
gene 1 9 26 1.53188 0 17 1.53188 1
gene 1 9 27 1.91159 0 18 1.91159 1
gene 1 10 26 -1.29773 0 19 -1.29773 1
gene 1 10 27 3.31069 0 20 3.31069 1
gene 1 11 26 -1.90955 0 21 -1.90955 1
gene 1 11 27 0.771246 0 22 0.771246 1
gene 1 12 26 -0.31456 0 23 -0.31456 1
gene 1 12 27 -2.61385 0 24 -2.61385 1
gene 1 13 26 0.496635 0 25 0.496635 1
gene 1 13 27 -2.36193 0 26 -2.36193 1
gene 1 14 26 0.346449 0 27 0.346449 1
gene 1 14 27 -2.2652 0 28 -2.2652 1
gene 1 15 26 1.53735 0 29 1.53735 1
gene 1 15 27 0.597304 0 30 0.597304 1
gene 1 16 26 0.272219 0 31 0.272219 1
gene 1 16 27 -2.86362 0 32 -2.86362 1
gene 1 17 26 -0.554238 0 33 -0.554238 1
gene 1 17 27 1.21348 0 34 1.21348 1
gene 1 18 26 1.07202 0 35 1.07202 1
gene 1 18 27 1.16031 0 36 1.16031 1
gene 1 19 26 3.24906 0 37 3.24906 1
gene 1 19 27 -0.115341 0 38 -0.115341 1
gene 1 20 26 2.49784 0 39 2.49784 1
gene 1 20 27 -1.87363 0 40 -1.87363 1
gene 1 21 26 1.11979 0 41 1.11979 1
gene 1 21 27 0.174281 0 42 0.174281 1
gene 1 22 26 0.639492 0 43 0.639492 1
gene 1 22 27 -0.127026 0 44 -0.127026 1
gene 1 23 26 0.610617 0 45 0.610617 1
gene 1 23 27 0.0418178 0 46 0.0418178 1
gene 1 24 26 3.70697 0 47 3.70697 1
gene 1 24 27 0.0466166 0 48 0.0466166 1
gene 1 25 26 0.140358 0 49 0.140358 1
gene 1 25 27 -0.685175 0 50 -0.685175 1
genomeend 0


