/* Organism #0 Fitness: 4975.804785 Time: 0 */
genomestart 0
trait 1 0.100000 0.000000 0.000000 0.000000 0.000000 0.000000 0.000000 0.000000 
node 1 1 1 1
node 2 1 1 1
node 3 1 1 1
node 4 1 1 1
node 5 1 1 1
node 6 1 1 1
node 7 1 1 1
node 8 1 1 1
node 9 1 1 1
node 10 1 1 1
node 11 1 1 1
node 12 1 1 1
node 13 1 1 1
node 14 1 1 1
node 15 1 1 1
node 16 1 1 1
node 17 1 1 1
node 18 1 1 1
node 19 1 1 1
node 20 1 1 1
node 21 1 1 1
node 22 1 1 1
node 23 1 1 1
node 24 1 1 1
node 25 1 1 3
node 26 1 0 2
node 27 1 0 2
gene 1 1 26 -0.937765 0 1 -0.937765 1
gene 1 1 27 1.06365 0 2 1.06365 1
gene 1 2 26 1.06098 0 3 1.06098 1
gene 1 2 27 0.885393 0 4 0.885393 1
gene 1 3 26 0.705302 0 5 0.705302 1
gene 1 3 27 -0.869824 0 6 -0.869824 1
gene 1 4 26 -0.188511 0 7 -0.188511 1
gene 1 4 27 0.496301 0 8 0.496301 1
gene 1 5 26 2.29636 0 9 2.29636 1
gene 1 5 27 -0.00880756 0 10 -0.00880756 1
gene 1 6 26 2.76395 0 11 2.76395 1
gene 1 6 27 2.2004 0 12 2.2004 1
gene 1 7 26 -1.17004 0 13 -1.17004 1
gene 1 7 27 1.63615 0 14 1.63615 1
gene 1 8 26 -1.16353 0 15 -1.16353 1
gene 1 8 27 1.14132 0 16 1.14132 1
gene 1 9 26 0.360065 0 17 0.360065 1
gene 1 9 27 -0.832758 0 18 -0.832758 1
gene 1 10 26 -0.8122 0 19 -0.8122 1
gene 1 10 27 -0.0227256 0 20 -0.0227256 1
gene 1 11 26 -0.295761 0 21 -0.295761 1
gene 1 11 27 1.07405 0 22 1.07405 1
gene 1 12 26 1.48925 0 23 1.48925 1
gene 1 12 27 -0.532534 0 24 -0.532534 1
gene 1 13 26 -2.17414 0 25 -2.17414 1
gene 1 13 27 -2.39735 0 26 -2.39735 1
gene 1 14 26 -0.832836 0 27 -0.832836 1
gene 1 14 27 -0.563382 0 28 -0.563382 1
gene 1 15 26 0.439814 0 29 0.439814 1
gene 1 15 27 0.0375099 0 30 0.0375099 1
gene 1 16 26 1.89548 0 31 1.89548 1
gene 1 16 27 1.39099 0 32 1.39099 1
gene 1 17 26 -1.43675 0 33 -1.43675 1
gene 1 17 27 -4.04694 0 34 -4.04694 1
gene 1 18 26 0.0530148 0 35 0.0530148 1
gene 1 18 27 -4.73165 0 36 -4.73165 1
gene 1 19 26 2.42893 0 37 2.42893 1
gene 1 19 27 0.130753 0 38 0.130753 1
gene 1 20 26 0.120837 0 39 0.120837 1
gene 1 20 27 2.89486 0 40 2.89486 1
gene 1 21 26 -0.735507 0 41 -0.735507 1
gene 1 21 27 -0.234605 0 42 -0.234605 1
gene 1 22 26 -0.0650365 0 43 -0.0650365 1
gene 1 22 27 1.53798 0 44 1.53798 1
gene 1 23 26 0.612214 0 45 0.612214 1
gene 1 23 27 2.1969 0 46 2.1969 1
gene 1 24 26 -2.73342 0 47 -2.73342 1
gene 1 24 27 -0.821577 0 48 -0.821577 1
gene 1 25 26 0.0080754 0 49 0.0080754 1
gene 1 25 27 -0.0909126 0 50 -0.0909126 1
genomeend 0


