/* Organism #1 Fitness: 169427.890736 Time: 0 */
genomestart 1
trait 1 0.100000 0.000000 0.000000 0.000000 0.000000 0.000000 0.000000 0.000000 
node 1 1 1 1
node 2 1 1 1
node 3 1 1 1
node 4 1 1 1
node 5 1 1 1
node 6 1 1 1
node 7 1 1 1
node 8 1 1 1
node 9 1 1 1
node 10 1 1 1
node 11 1 1 1
node 12 1 1 1
node 13 1 1 1
node 14 1 1 1
node 15 1 1 1
node 16 1 1 1
node 17 1 1 1
node 18 1 1 1
node 19 1 1 1
node 20 1 1 1
node 21 1 1 1
node 22 1 1 1
node 23 1 1 1
node 24 1 1 1
node 25 1 1 3
node 26 1 0 2
node 27 1 0 2
gene 1 1 26 0.841234 0 1 0.841234 1
gene 1 1 27 1.79913 0 2 1.79913 1
gene 1 2 26 1.87224 0 3 1.87224 1
gene 1 2 27 0.19891 0 4 0.19891 1
gene 1 3 26 2.74484 0 5 2.74484 1
gene 1 3 27 -1.44695 0 6 -1.44695 1
gene 1 4 26 1.05695 0 7 1.05695 1
gene 1 4 27 0.42973 0 8 0.42973 1
gene 1 5 26 0.102587 0 9 0.102587 1
gene 1 5 27 0.556055 0 10 0.556055 1
gene 1 6 26 -2.16356 0 11 -2.16356 1
gene 1 6 27 -0.971974 0 12 -0.971974 1
gene 1 7 26 -3.16339 0 13 -3.16339 1
gene 1 7 27 1.76495 0 14 1.76495 1
gene 1 8 26 1.17266 0 15 1.17266 1
gene 1 8 27 -2.54232 0 16 -2.54232 1
gene 1 9 26 -0.407299 0 17 -0.407299 1
gene 1 9 27 2.27433 0 18 2.27433 1
gene 1 10 26 -0.277336 0 19 -0.277336 1
gene 1 10 27 2.35728 0 20 2.35728 1
gene 1 11 26 -3.04183 0 21 -3.04183 1
gene 1 11 27 0.917385 0 22 0.917385 1
gene 1 12 26 -1.83666 0 23 -1.83666 1
gene 1 12 27 -0.25095 0 24 -0.25095 1
gene 1 13 26 1.17665 0 25 1.17665 1
gene 1 13 27 0.28979 0 26 0.28979 1
gene 1 14 26 -0.295264 0 27 -0.295264 1
gene 1 14 27 0.634999 0 28 0.634999 1
gene 1 15 26 -2.40394 0 29 -2.40394 1
gene 1 15 27 -1.20264 0 30 -1.20264 1
gene 1 16 26 -0.983509 0 31 -0.983509 1
gene 1 16 27 -0.470432 0 32 -0.470432 1
gene 1 17 26 -0.920393 0 33 -0.920393 1
gene 1 17 27 0.382321 0 34 0.382321 1
gene 1 18 26 0.236736 0 35 0.236736 1
gene 1 18 27 -0.760494 0 36 -0.760494 1
gene 1 19 26 -1.85262 0 37 -1.85262 1
gene 1 19 27 0.789967 0 38 0.789967 1
gene 1 20 26 1.62233 0 39 1.62233 1
gene 1 20 27 1.23644 0 40 1.23644 1
gene 1 21 26 -0.988817 0 41 -0.988817 1
gene 1 21 27 -3.19215 0 42 -3.19215 1
gene 1 22 26 -1.21669 0 43 -1.21669 1
gene 1 22 27 0.137031 0 44 0.137031 1
gene 1 23 26 0.239483 0 45 0.239483 1
gene 1 23 27 -1.46243 0 46 -1.46243 1
gene 1 24 26 -0.617281 0 47 -0.617281 1
gene 1 24 27 -1.29792 0 48 -1.29792 1
gene 1 25 26 -0.192908 0 49 -0.192908 1
gene 1 25 27 -1.46483 0 50 -1.46483 1
genomeend 1


