/* Organism #4 Fitness: 4318.782406 Time: 0 */
genomestart 4
trait 1 0.100000 0.000000 0.000000 0.000000 0.000000 0.000000 0.000000 0.000000 
node 1 1 1 1
node 2 1 1 1
node 3 1 1 1
node 4 1 1 1
node 5 1 1 1
node 6 1 1 1
node 7 1 1 1
node 8 1 1 1
node 9 1 1 1
node 10 1 1 1
node 11 1 1 1
node 12 1 1 1
node 13 1 1 1
node 14 1 1 1
node 15 1 1 1
node 16 1 1 1
node 17 1 1 1
node 18 1 1 1
node 19 1 1 1
node 20 1 1 1
node 21 1 1 1
node 22 1 1 1
node 23 1 1 1
node 24 1 1 1
node 25 1 1 3
node 26 1 0 2
node 27 1 0 2
gene 1 1 26 -0.479775 0 1 -0.479775 1
gene 1 1 27 -0.134042 0 2 -0.134042 1
gene 1 2 26 -2.14571 0 3 -2.14571 1
gene 1 2 27 2.83608 0 4 2.83608 1
gene 1 3 26 2.50675 0 5 2.50675 1
gene 1 3 27 -0.75924 0 6 -0.75924 1
gene 1 4 26 1.47149 0 7 1.47149 1
gene 1 4 27 0.267334 0 8 0.267334 1
gene 1 5 26 -0.199479 0 9 -0.199479 1
gene 1 5 27 -1.9026 0 10 -1.9026 1
gene 1 6 26 -2.00612 0 11 -2.00612 1
gene 1 6 27 -0.0547695 0 12 -0.0547695 1
gene 1 7 26 2.80576 0 13 2.80576 1
gene 1 7 27 0.347532 0 14 0.347532 1
gene 1 8 26 -1.27552 0 15 -1.27552 1
gene 1 8 27 0.81836 0 16 0.81836 1
gene 1 9 26 1.32332 0 17 1.32332 1
gene 1 9 27 -1.13749 0 18 -1.13749 1
gene 1 10 26 -0.632169 0 19 -0.632169 1
gene 1 10 27 1.35961 0 20 1.35961 1
gene 1 11 26 0.874227 0 21 0.874227 1
gene 1 11 27 0.536549 0 22 0.536549 1
gene 1 12 26 -0.628746 0 23 -0.628746 1
gene 1 12 27 1.48109 0 24 1.48109 1
gene 1 13 26 -1.40081 0 25 -1.40081 1
gene 1 13 27 -1.08803 0 26 -1.08803 1
gene 1 14 26 0.835745 0 27 0.835745 1
gene 1 14 27 0.0957632 0 28 0.0957632 1
gene 1 15 26 0.629766 0 29 0.629766 1
gene 1 15 27 -0.12338 0 30 -0.12338 1
gene 1 16 26 2.72827 0 31 2.72827 1
gene 1 16 27 0.355953 0 32 0.355953 1
gene 1 17 26 -0.58681 0 33 -0.58681 1
gene 1 17 27 0.298823 0 34 0.298823 1
gene 1 18 26 0.417895 0 35 0.417895 1
gene 1 18 27 0.913427 0 36 0.913427 1
gene 1 19 26 -0.68269 0 37 -0.68269 1
gene 1 19 27 -0.117014 0 38 -0.117014 1
gene 1 20 26 -1.47816 0 39 -1.47816 1
gene 1 20 27 -0.338228 0 40 -0.338228 1
gene 1 21 26 -0.909495 0 41 -0.909495 1
gene 1 21 27 -0.90654 0 42 -0.90654 1
gene 1 22 26 -2.21075 0 43 -2.21075 1
gene 1 22 27 0.695242 0 44 0.695242 1
gene 1 23 26 1.74809 0 45 1.74809 1
gene 1 23 27 -0.634197 0 46 -0.634197 1
gene 1 24 26 -2.40842 0 47 -2.40842 1
gene 1 24 27 -1.76689 0 48 -1.76689 1
gene 1 25 26 1.40342 0 49 1.40342 1
gene 1 25 27 0.0824238 0 50 0.0824238 1
genomeend 4


