/* Organism #95 Fitness: 4901.063907 Time: 0 */
genomestart 95
trait 1 0.000000 0.044556 0.000000 0.000000 0.000000 0.534183 0.000000 0.000000 
node 1 1 1 1
node 2 1 1 1
node 3 1 1 1
node 4 1 1 1
node 5 1 1 1
node 6 1 1 1
node 7 1 1 1
node 8 1 1 1
node 9 1 1 1
node 10 1 1 1
node 11 1 1 1
node 12 1 1 1
node 13 1 1 1
node 14 1 1 1
node 15 1 1 1
node 16 1 1 1
node 17 1 1 1
node 18 1 1 1
node 19 1 1 1
node 20 1 1 1
node 21 1 1 1
node 22 1 1 1
node 23 1 1 1
node 24 1 1 1
node 25 1 1 3
node 26 1 0 2
node 27 1 0 2
gene 1 1 26 -3.54858 0 1 -3.54858 1
gene 1 1 27 -1.34754 0 2 -1.34754 1
gene 1 2 26 4.25005 0 3 4.25005 1
gene 1 2 27 -4.03223 0 4 -4.03223 1
gene 1 3 26 -1.69765 0 5 -1.69765 1
gene 1 3 27 0.442009 0 6 0.442009 1
gene 1 4 26 4.03398 0 7 4.03398 1
gene 1 4 27 0.185477 0 8 0.185477 1
gene 1 5 26 2.38269 0 9 2.38269 1
gene 1 5 27 -1.00763 0 10 -1.00763 1
gene 1 6 26 -0.334952 0 11 -0.334952 1
gene 1 6 27 -0.448231 0 12 -0.448231 1
gene 1 7 26 -1.07654 0 13 -1.07654 1
gene 1 7 27 -0.174491 0 14 -0.174491 1
gene 1 8 26 0.732635 0 15 0.732635 1
gene 1 8 27 0.254632 0 16 0.254632 1
gene 1 9 26 2.45258 0 17 2.45258 1
gene 1 9 27 2.49934 0 18 2.49934 1
gene 1 10 26 0.247955 0 19 0.247955 1
gene 1 10 27 -2.94452 0 20 -2.94452 1
gene 1 11 26 0.0322966 0 21 0.0322966 1
gene 1 11 27 1.23871 0 22 1.23871 1
gene 1 12 26 -0.755847 0 23 -0.755847 1
gene 1 12 27 -0.77737 0 24 -0.77737 1
gene 1 13 26 0.61623 0 25 0.61623 1
gene 1 13 27 2.01074 0 26 2.01074 1
gene 1 14 26 -1.5905 0 27 -1.5905 1
gene 1 14 27 0.561975 0 28 0.561975 1
gene 1 15 26 2.97446 0 29 2.97446 1
gene 1 15 27 2.22417 0 30 2.22417 1
gene 1 16 26 1.78851 0 31 1.78851 1
gene 1 16 27 -4.47194 0 32 -4.47194 1
gene 1 17 26 0.41501 0 33 0.41501 1
gene 1 17 27 0.581892 0 34 0.581892 1
gene 1 18 26 0.939698 0 35 0.939698 1
gene 1 18 27 -1.28399 0 36 -1.28399 1
gene 1 19 26 2.34793 0 37 2.34793 1
gene 1 19 27 -1.36229 0 38 -1.36229 1
gene 1 20 26 0.810674 0 39 0.810674 1
gene 1 20 27 -2.4321 0 40 -2.4321 1
gene 1 21 26 -2.60062 0 41 -2.60062 1
gene 1 21 27 -0.739043 0 42 -0.739043 1
gene 1 22 26 0.619153 0 43 0.619153 1
gene 1 22 27 3.62667 0 44 3.62667 1
gene 1 23 26 1.96408 0 45 1.96408 1
gene 1 23 27 0.816886 0 46 0.816886 1
gene 1 24 26 -1.83318 0 47 -1.83318 1
gene 1 24 27 -2.25473 0 48 -2.25473 1
gene 1 25 26 -2.04851 0 49 -2.04851 1
gene 1 25 27 -0.0702083 0 50 -0.0702083 1
genomeend 95


