/* Organism #23 Fitness: -2615.280354 Time: 0 */
genomestart 23
trait 1 0.373437 0.000000 0.754699 0.000000 0.946428 0.000000 0.000000 0.098445 
node 1 1 1 1
node 2 1 1 1
node 3 1 1 1
node 4 1 1 1
node 5 1 1 1
node 6 1 1 1
node 7 1 1 1
node 8 1 1 1
node 9 1 1 1
node 10 1 1 1
node 11 1 1 1
node 12 1 1 1
node 13 1 1 1
node 14 1 1 1
node 15 1 1 1
node 16 1 1 1
node 17 1 1 1
node 18 1 1 1
node 19 1 1 1
node 20 1 1 1
node 21 1 1 1
node 22 1 1 1
node 23 1 1 1
node 24 1 1 1
node 25 1 1 3
node 26 1 0 2
node 27 1 0 2
gene 1 1 26 0.231592 0 1 0.231592 1
gene 1 1 27 1.95326 0 2 1.95326 1
gene 1 2 26 -1.46966 0 3 -1.46966 1
gene 1 2 27 0.145111 0 4 0.145111 1
gene 1 3 26 -0.790382 0 5 -0.790382 1
gene 1 3 27 2.29827 0 6 2.29827 1
gene 1 4 26 3.01838 0 7 3.01838 1
gene 1 4 27 0.211499 0 8 0.211499 1
gene 1 5 26 -4.49111 0 9 -4.49111 1
gene 1 5 27 3.32687 0 10 3.32687 1
gene 1 6 26 -0.876125 0 11 -0.876125 1
gene 1 6 27 0.427401 0 12 0.427401 1
gene 1 7 26 0.604754 0 13 0.604754 1
gene 1 7 27 1.25386 0 14 1.25386 1
gene 1 8 26 0.307351 0 15 0.307351 1
gene 1 8 27 -0.740606 0 16 -0.740606 1
gene 1 9 26 0.113876 0 17 0.113876 1
gene 1 9 27 1.60047 0 18 1.60047 1
gene 1 10 26 1.41018 0 19 1.41018 1
gene 1 10 27 -0.102107 0 20 -0.102107 1
gene 1 11 26 1.92022 0 21 1.92022 1
gene 1 11 27 2.0254 0 22 2.0254 1
gene 1 12 26 -1.64693 0 23 -1.64693 1
gene 1 12 27 1.40866 0 24 1.40866 1
gene 1 13 26 0.696597 0 25 0.696597 1
gene 1 13 27 -0.527275 0 26 -0.527275 1
gene 1 14 26 -1.57335 0 27 -1.57335 1
gene 1 14 27 -0.555954 0 28 -0.555954 1
gene 1 15 26 -0.807525 0 29 -0.807525 1
gene 1 15 27 -0.669424 0 30 -0.669424 1
gene 1 16 26 0.730277 0 31 0.730277 1
gene 1 16 27 1.53575 0 32 1.53575 1
gene 1 17 26 0.0568597 0 33 0.0568597 1
gene 1 17 27 0.955436 0 34 0.955436 1
gene 1 18 26 -3.07274 0 35 -3.07274 1
gene 1 18 27 3.10833 0 36 3.10833 1
gene 1 19 26 -2.32645 0 37 -2.32645 1
gene 1 19 27 1.13373 0 38 1.13373 1
gene 1 20 26 -1.73117 0 39 -1.73117 1
gene 1 20 27 -0.223172 0 40 -0.223172 1
gene 1 21 26 -0.742321 0 41 -0.742321 1
gene 1 21 27 -0.0105509 0 42 -0.0105509 1
gene 1 22 26 -0.296977 0 43 -0.296977 1
gene 1 22 27 1.76335 0 44 1.76335 1
gene 1 23 26 -0.281134 0 45 -0.281134 1
gene 1 23 27 1.12058 0 46 1.12058 1
gene 1 24 26 -2.31552 0 47 -2.31552 1
gene 1 24 27 0.500053 0 48 0.500053 1
gene 1 25 26 -1.83613 0 49 -1.83613 1
gene 1 25 27 2.32797 0 50 2.32797 1
genomeend 23


