/* Organism #3 Fitness: -2523.764069 Time: 0 */
genomestart 3
trait 1 0.100000 0.000000 1.000000 0.218115 0.954326 1.000000 0.363936 0.000000 
node 1 1 1 1
node 2 1 1 1
node 3 1 1 1
node 4 1 1 1
node 5 1 1 1
node 6 1 1 1
node 7 1 1 1
node 8 1 1 1
node 9 1 1 1
node 10 1 1 1
node 11 1 1 1
node 12 1 1 1
node 13 1 1 1
node 14 1 1 1
node 15 1 1 1
node 16 1 1 1
node 17 1 1 1
node 18 1 1 1
node 19 1 1 1
node 20 1 1 1
node 21 1 1 1
node 22 1 1 1
node 23 1 1 1
node 24 1 1 1
node 25 1 1 3
node 26 1 0 2
node 27 1 0 2
gene 1 1 26 -0.211788 0 1 -0.211788 1
gene 1 1 27 -1.55145 0 2 -1.55145 1
gene 1 2 26 -0.312317 0 3 -0.312317 1
gene 1 2 27 -1.27766 0 4 -1.27766 1
gene 1 3 26 1.20125 0 5 1.20125 1
gene 1 3 27 -2.01698 0 6 -2.01698 1
gene 1 4 26 -1.27197 0 7 -1.27197 1
gene 1 4 27 0.402831 0 8 0.402831 1
gene 1 5 26 -2.32588 0 9 -2.32588 1
gene 1 5 27 2.56904 0 10 2.56904 1
gene 1 6 26 2.05908 0 11 2.05908 1
gene 1 6 27 3.11545 0 12 3.11545 1
gene 1 7 26 -0.0242951 0 13 -0.0242951 1
gene 1 7 27 -2.70953 0 14 -2.70953 1
gene 1 8 26 -2.72667 0 15 -2.72667 1
gene 1 8 27 0.874703 0 16 0.874703 1
gene 1 9 26 -2.49464 0 17 -2.49464 1
gene 1 9 27 -3.05152 0 18 -3.05152 1
gene 1 10 26 1.56922 0 19 1.56922 1
gene 1 10 27 5 0 20 5 1
gene 1 11 26 -0.207867 0 21 -0.207867 1
gene 1 11 27 0.797993 0 22 0.797993 1
gene 1 12 26 -2.22927 0 23 -2.22927 1
gene 1 12 27 -0.0972481 0 24 -0.0972481 1
gene 1 13 26 2.42706 0 25 2.42706 1
gene 1 13 27 1.88625 0 26 1.88625 1
gene 1 14 26 1.01474 0 27 1.01474 1
gene 1 14 27 0.367191 0 28 0.367191 1
gene 1 15 26 -1.75242 0 29 -1.75242 1
gene 1 15 27 1.76508 0 30 1.76508 1
gene 1 16 26 -0.487903 0 31 -0.487903 1
gene 1 16 27 2.78295 0 32 2.78295 1
gene 1 17 26 3.17974 0 33 3.17974 1
gene 1 17 27 -3.19804 0 34 -3.19804 1
gene 1 18 26 -0.50975 0 35 -0.50975 1
gene 1 18 27 0.183407 0 36 0.183407 1
gene 1 19 26 -2.1213 0 37 -2.1213 1
gene 1 19 27 -1.40285 0 38 -1.40285 1
gene 1 20 26 -0.587858 0 39 -0.587858 1
gene 1 20 27 -1.58758 0 40 -1.58758 1
gene 1 21 26 3.45145 0 41 3.45145 1
gene 1 21 27 -2.25549 0 42 -2.25549 1
gene 1 22 26 2.32677 0 43 2.32677 1
gene 1 22 27 -1.98007 0 44 -1.98007 1
gene 1 23 26 0.882391 0 45 0.882391 1
gene 1 23 27 -0.507544 0 46 -0.507544 1
gene 1 24 26 3.24429 0 47 3.24429 1
gene 1 24 27 -1.35164 0 48 -1.35164 1
gene 1 25 26 1.62955 0 49 1.62955 1
gene 1 25 27 0.521107 0 50 0.521107 1
genomeend 3


