/* Organism #16 Fitness: -2570.522889 Time: 0 */
genomestart 16
trait 1 0.100000 0.153443 0.000000 0.000000 0.000000 0.000000 0.211447 0.000000 
node 1 1 1 1
node 2 1 1 1
node 3 1 1 1
node 4 1 1 1
node 5 1 1 1
node 6 1 1 1
node 7 1 1 1
node 8 1 1 1
node 9 1 1 1
node 10 1 1 1
node 11 1 1 1
node 12 1 1 1
node 13 1 1 1
node 14 1 1 1
node 15 1 1 1
node 16 1 1 1
node 17 1 1 1
node 18 1 1 1
node 19 1 1 1
node 20 1 1 1
node 21 1 1 1
node 22 1 1 1
node 23 1 1 1
node 24 1 1 1
node 25 1 1 3
node 26 1 0 2
node 27 1 0 2
gene 1 1 26 0.291674 0 1 0.291674 1
gene 1 1 27 1.04985 0 2 1.04985 1
gene 1 2 26 -0.688368 0 3 -0.688368 1
gene 1 2 27 -0.535318 0 4 -0.535318 1
gene 1 3 26 0.670708 0 5 0.670708 1
gene 1 3 27 -1.33626 0 6 -1.33626 1
gene 1 4 26 -2.6671 0 7 -2.6671 1
gene 1 4 27 -1.35908 0 8 -1.35908 1
gene 1 5 26 0.645104 0 9 0.645104 1
gene 1 5 27 0.231064 0 10 0.231064 1
gene 1 6 26 0.364886 0 11 0.364886 1
gene 1 6 27 1.90094 0 12 1.90094 1
gene 1 7 26 0.595134 0 13 0.595134 1
gene 1 7 27 0.0726465 0 14 0.0726465 1
gene 1 8 26 0.266452 0 15 0.266452 1
gene 1 8 27 -1.17869 0 16 -1.17869 1
gene 1 9 26 1.44661 0 17 1.44661 1
gene 1 9 27 0.535837 0 18 0.535837 1
gene 1 10 26 -1.73395 0 19 -1.73395 1
gene 1 10 27 3.06902 0 20 3.06902 1
gene 1 11 26 -1.19235 0 21 -1.19235 1
gene 1 11 27 1.25159 0 22 1.25159 1
gene 1 12 26 -0.552588 0 23 -0.552588 1
gene 1 12 27 0.746604 0 24 0.746604 1
gene 1 13 26 -0.502242 0 25 -0.502242 1
gene 1 13 27 -0.218433 0 26 -0.218433 1
gene 1 14 26 -0.06895 0 27 -0.06895 1
gene 1 14 27 1.62955 0 28 1.62955 1
gene 1 15 26 1.58353 0 29 1.58353 1
gene 1 15 27 -1.00222 0 30 -1.00222 1
gene 1 16 26 0.289601 0 31 0.289601 1
gene 1 16 27 0.556989 0 32 0.556989 1
gene 1 17 26 -3.13027 0 33 -3.13027 1
gene 1 17 27 0.844757 0 34 0.844757 1
gene 1 18 26 -1.23771 0 35 -1.23771 1
gene 1 18 27 1.73025 0 36 1.73025 1
gene 1 19 26 -1.67427 0 37 -1.67427 1
gene 1 19 27 1.16531 0 38 1.16531 1
gene 1 20 26 0.529844 0 39 0.529844 1
gene 1 20 27 -1.11813 0 40 -1.11813 1
gene 1 21 26 -2.10525 0 41 -2.10525 1
gene 1 21 27 0.779292 0 42 0.779292 1
gene 1 22 26 -0.831244 0 43 -0.831244 1
gene 1 22 27 0.774049 0 44 0.774049 1
gene 1 23 26 -0.0660677 0 45 -0.0660677 1
gene 1 23 27 1.04907 0 46 1.04907 1
gene 1 24 26 -1.8087 0 47 -1.8087 1
gene 1 24 27 0.967028 0 48 0.967028 1
gene 1 25 26 -0.596367 0 49 -0.596367 1
gene 1 25 27 0.320683 0 50 0.320683 1
genomeend 16


