/* Organism #56 Quality: 1.000000 Time: 0 Id: 0 */
/* 0.000140598 -0.999588 -0.908014 -0.924687 1.53647 -0.993107 1.74669 -0.974384 1.11857 -0.820511 -0.667746 -0.875202 2.03154 -0.78049  */
genomestart 56
trait 1 0.1 0 0 0 0 0 0 0 
node 1 1 1 1
node 2 1 1 1
node 3 1 1 1
node 4 1 1 1
node 5 1 1 1
node 6 1 1 1
node 7 1 1 1
node 8 1 1 1
node 9 1 1 1
node 10 1 1 1
node 11 1 1 1
node 12 1 1 1
node 13 1 1 1
node 14 1 1 1
node 15 1 1 1
node 16 1 1 1
node 17 1 1 1
node 18 1 1 1
node 19 1 1 1
node 20 1 1 1
node 21 1 1 1
node 22 1 1 1
node 23 1 1 1
node 24 1 1 1
node 25 1 1 3
node 26 1 0 2
node 27 1 0 2
gene 1 1 26 -0.527659 0 1 -0.527659 1
gene 1 1 27 -0.0219592 0 2 -0.0219592 1
gene 1 2 26 0.246381 0 3 0.246381 1
gene 1 2 27 -0.263043 0 4 -0.263043 1
gene 1 3 26 0.79628 0 5 0.79628 1
gene 1 3 27 0.508523 0 6 0.508523 1
gene 1 4 26 0.29298 0 7 0.29298 1
gene 1 4 27 -0.520894 0 8 -0.520894 1
gene 1 5 26 -0.210123 0 9 -0.210123 1
gene 1 5 27 0.894836 0 10 0.894836 1
gene 1 6 26 0.469771 0 11 0.469771 1
gene 1 6 27 0.442906 0 12 0.442906 1
gene 1 7 26 -0.14446 0 13 -0.14446 1
gene 1 7 27 -0.514199 0 14 -0.514199 1
gene 1 8 26 -0.0457626 0 15 -0.0457626 1
gene 1 8 27 -0.259861 0 16 -0.259861 1
gene 1 9 26 -0.172283 0 17 -0.172283 1
gene 1 9 27 0.0271761 0 18 0.0271761 1
gene 1 10 26 -0.224251 0 19 -0.224251 1
gene 1 10 27 -0.870241 0 20 -0.870241 1
gene 1 11 26 -0.657301 0 21 -0.657301 1
gene 1 11 27 0.857523 0 22 0.857523 1
gene 1 12 26 -0.118251 0 23 -0.118251 1
gene 1 12 27 -0.65676 0 24 -0.65676 1
gene 1 13 26 0.955173 0 25 0.955173 1
gene 1 13 27 0.580312 0 26 0.580312 1
gene 1 14 26 -0.593896 0 27 -0.593896 1
gene 1 14 27 -0.501543 0 28 -0.501543 1
gene 1 15 26 0.412464 0 29 0.412464 1
gene 1 15 27 -0.534994 0 30 -0.534994 1
gene 1 16 26 0.230516 0 31 0.230516 1
gene 1 16 27 -0.0266891 0 32 -0.0266891 1
gene 1 17 26 -0.945472 0 33 -0.945472 1
gene 1 17 27 -0.233246 0 34 -0.233246 1
gene 1 18 26 0.153053 0 35 0.153053 1
gene 1 18 27 -0.501175 0 36 -0.501175 1
gene 1 19 26 0.786133 0 37 0.786133 1
gene 1 19 27 0.300909 0 38 0.300909 1
gene 1 20 26 -0.566396 0 39 -0.566396 1
gene 1 20 27 0.792718 0 40 0.792718 1
gene 1 21 26 -0.87471 0 41 -0.87471 1
gene 1 21 27 -0.424803 0 42 -0.424803 1
gene 1 22 26 0.152005 0 43 0.152005 1
gene 1 22 27 0.457926 0 44 0.457926 1
gene 1 23 26 -0.625866 0 45 -0.625866 1
gene 1 23 27 0.330723 0 46 0.330723 1
gene 1 24 26 0.0621118 0 47 0.0621118 1
gene 1 24 27 -0.213873 0 48 -0.213873 1
gene 1 25 26 0.984951 0 49 0.984951 1
gene 1 25 27 -0.771473 0 50 -0.771473 1
genomeend 56


/* Organism #126 Quality: 1.000000 Time: 0 Id: 1 */
/* 0.00040134 -0.999684 0.919544 -0.936696 1.50992 -0.991785 1.71674 -0.969985 0.932792 -0.751608 -0.667386 -0.875222 1.53109 -0.902243  */
genomestart 126
trait 1 0.1 0 0 0 0 0 0 0 
node 1 1 1 1
node 2 1 1 1
node 3 1 1 1
node 4 1 1 1
node 5 1 1 1
node 6 1 1 1
node 7 1 1 1
node 8 1 1 1
node 9 1 1 1
node 10 1 1 1
node 11 1 1 1
node 12 1 1 1
node 13 1 1 1
node 14 1 1 1
node 15 1 1 1
node 16 1 1 1
node 17 1 1 1
node 18 1 1 1
node 19 1 1 1
node 20 1 1 1
node 21 1 1 1
node 22 1 1 1
node 23 1 1 1
node 24 1 1 1
node 25 1 1 3
node 26 1 0 2
node 27 1 0 2
gene 1 1 26 0.0176299 0 1 0.0176299 1
gene 1 1 27 -0.896468 0 2 -0.896468 1
gene 1 2 26 0.448197 0 3 0.448197 1
gene 1 2 27 -0.259685 0 4 -0.259685 1
gene 1 3 26 0.0404771 0 5 0.0404771 1
gene 1 3 27 0.384755 0 6 0.384755 1
gene 1 4 26 0.807963 0 7 0.807963 1
gene 1 4 27 -0.706617 0 8 -0.706617 1
gene 1 5 26 -0.787079 0 9 -0.787079 1
gene 1 5 27 0.613474 0 10 0.613474 1
gene 1 6 26 0.942048 0 11 0.942048 1
gene 1 6 27 -0.450463 0 12 -0.450463 1
gene 1 7 26 0.0556962 0 13 0.0556962 1
gene 1 7 27 0.465921 0 14 0.465921 1
gene 1 8 26 -0.691931 0 15 -0.691931 1
gene 1 8 27 0.729639 0 16 0.729639 1
gene 1 9 26 0.495414 0 17 0.495414 1
gene 1 9 27 -0.513183 0 18 -0.513183 1
gene 1 10 26 0.499583 0 19 0.499583 1
gene 1 10 27 -0.748905 0 20 -0.748905 1
gene 1 11 26 -0.199125 0 21 -0.199125 1
gene 1 11 27 0.922907 0 22 0.922907 1
gene 1 12 26 -0.0766622 0 23 -0.0766622 1
gene 1 12 27 0.581971 0 24 0.581971 1
gene 1 13 26 -0.329179 0 25 -0.329179 1
gene 1 13 27 -0.514219 0 26 -0.514219 1
gene 1 14 26 0.795645 0 27 0.795645 1
gene 1 14 27 -0.31808 0 28 -0.31808 1
gene 1 15 26 -0.734084 0 29 -0.734084 1
gene 1 15 27 0.272023 0 30 0.272023 1
gene 1 16 26 0.0222507 0 31 0.0222507 1
gene 1 16 27 0.00239759 0 32 0.00239759 1
gene 1 17 26 -0.108931 0 33 -0.108931 1
gene 1 17 27 0.790049 0 34 0.790049 1
gene 1 18 26 0.305436 0 35 0.305436 1
gene 1 18 27 0.695569 0 36 0.695569 1
gene 1 19 26 -0.345203 0 37 -0.345203 1
gene 1 19 27 -0.0623011 0 38 -0.0623011 1
gene 1 20 26 -0.55348 0 39 -0.55348 1
gene 1 20 27 -0.605819 0 40 -0.605819 1
gene 1 21 26 0.832791 0 41 0.832791 1
gene 1 21 27 0.19057 0 42 0.19057 1
gene 1 22 26 0.535961 0 43 0.535961 1
gene 1 22 27 0.0872417 0 44 0.0872417 1
gene 1 23 26 0.0461297 0 45 0.0461297 1
gene 1 23 27 0.434941 0 46 0.434941 1
gene 1 24 26 -0.243279 0 47 -0.243279 1
gene 1 24 27 -0.471473 0 48 -0.471473 1
gene 1 25 26 -0.435946 0 49 -0.435946 1
gene 1 25 27 0.559795 0 50 0.559795 1
genomeend 126


/* Organism #295 Quality: 1.000000 Time: 0 Id: 2 */
/* -4.16363e-05 -0.999839 -0.994178 -0.93505 1.77112 -0.997705 1.69599 -0.9909 1.20052 -0.92858 1.50172 0.207903 0.957294 -0.792754  */
genomestart 295
trait 1 0.1 0 0 0 0 0 0 0 
node 1 1 1 1
node 2 1 1 1
node 3 1 1 1
node 4 1 1 1
node 5 1 1 1
node 6 1 1 1
node 7 1 1 1
node 8 1 1 1
node 9 1 1 1
node 10 1 1 1
node 11 1 1 1
node 12 1 1 1
node 13 1 1 1
node 14 1 1 1
node 15 1 1 1
node 16 1 1 1
node 17 1 1 1
node 18 1 1 1
node 19 1 1 1
node 20 1 1 1
node 21 1 1 1
node 22 1 1 1
node 23 1 1 1
node 24 1 1 1
node 25 1 1 3
node 26 1 0 2
node 27 1 0 2
gene 1 1 26 0.0316143 0 1 0.0316143 1
gene 1 1 27 -0.127705 0 2 -0.127705 1
gene 1 2 26 -0.102766 0 3 -0.102766 1
gene 1 2 27 -0.449617 0 4 -0.449617 1
gene 1 3 26 -0.220383 0 5 -0.220383 1
gene 1 3 27 0.00455393 0 6 0.00455393 1
gene 1 4 26 -0.416932 0 7 -0.416932 1
gene 1 4 27 -0.965207 0 8 -0.965207 1
gene 1 5 26 -0.0726448 0 9 -0.0726448 1
gene 1 5 27 -0.0205992 0 10 -0.0205992 1
gene 1 6 26 0.540513 0 11 0.540513 1
gene 1 6 27 0.684596 0 12 0.684596 1
gene 1 7 26 -0.908948 0 13 -0.908948 1
gene 1 7 27 0.307924 0 14 0.307924 1
gene 1 8 26 -0.0875985 0 15 -0.0875985 1
gene 1 8 27 -0.160984 0 16 -0.160984 1
gene 1 9 26 0.213418 0 17 0.213418 1
gene 1 9 27 -0.957474 0 18 -0.957474 1
gene 1 10 26 0.171083 0 19 0.171083 1
gene 1 10 27 0.340649 0 20 0.340649 1
gene 1 11 26 -0.26165 0 21 -0.26165 1
gene 1 11 27 -0.312985 0 22 -0.312985 1
gene 1 12 26 0.315449 0 23 0.315449 1
gene 1 12 27 -0.754867 0 24 -0.754867 1
gene 1 13 26 0.359708 0 25 0.359708 1
gene 1 13 27 -0.704763 0 26 -0.704763 1
gene 1 14 26 0.0946075 0 27 0.0946075 1
gene 1 14 27 0.67585 0 28 0.67585 1
gene 1 15 26 0.489526 0 29 0.489526 1
gene 1 15 27 -0.252964 0 30 -0.252964 1
gene 1 16 26 -0.0445304 0 31 -0.0445304 1
gene 1 16 27 -0.895841 0 32 -0.895841 1
gene 1 17 26 0.934601 0 33 0.934601 1
gene 1 17 27 -0.263575 0 34 -0.263575 1
gene 1 18 26 0.332382 0 35 0.332382 1
gene 1 18 27 -0.361404 0 36 -0.361404 1
gene 1 19 26 -0.355195 0 37 -0.355195 1
gene 1 19 27 -0.730687 0 38 -0.730687 1
gene 1 20 26 -0.453086 0 39 -0.453086 1
gene 1 20 27 -0.595038 0 40 -0.595038 1
gene 1 21 26 0.177141 0 41 0.177141 1
gene 1 21 27 -0.79158 0 42 -0.79158 1
gene 1 22 26 0.97608 0 43 0.97608 1
gene 1 22 27 0.967938 0 44 0.967938 1
gene 1 23 26 0.882979 0 45 0.882979 1
gene 1 23 27 -0.174256 0 46 -0.174256 1
gene 1 24 26 0.454548 0 47 0.454548 1
gene 1 24 27 -0.159269 0 48 -0.159269 1
gene 1 25 26 0.868042 0 49 0.868042 1
gene 1 25 27 -0.89347 0 50 -0.89347 1
genomeend 295


/* Organism #876 Quality: 1.000000 Time: 0 Id: 3 */
/* -0.00425836 -0.999045 -0.534207 -0.905553 1.77861 -0.976526 1.72908 -0.90115 1.61317 -0.287752 -0.667869 -0.875557 0.724925 -0.71753  */
genomestart 876
trait 1 0.1 0 0 0 0 0 0 0 
node 1 1 1 1
node 2 1 1 1
node 3 1 1 1
node 4 1 1 1
node 5 1 1 1
node 6 1 1 1
node 7 1 1 1
node 8 1 1 1
node 9 1 1 1
node 10 1 1 1
node 11 1 1 1
node 12 1 1 1
node 13 1 1 1
node 14 1 1 1
node 15 1 1 1
node 16 1 1 1
node 17 1 1 1
node 18 1 1 1
node 19 1 1 1
node 20 1 1 1
node 21 1 1 1
node 22 1 1 1
node 23 1 1 1
node 24 1 1 1
node 25 1 1 3
node 26 1 0 2
node 27 1 0 2
gene 1 1 26 0.467831 0 1 0.467831 1
gene 1 1 27 0.358851 0 2 0.358851 1
gene 1 2 26 -0.540714 0 3 -0.540714 1
gene 1 2 27 -0.981799 0 4 -0.981799 1
gene 1 3 26 -0.0641842 0 5 -0.0641842 1
gene 1 3 27 -0.18919 0 6 -0.18919 1
gene 1 4 26 0.725408 0 7 0.725408 1
gene 1 4 27 0.926462 0 8 0.926462 1
gene 1 5 26 0.868179 0 9 0.868179 1
gene 1 5 27 -0.110556 0 10 -0.110556 1
gene 1 6 26 0.899497 0 11 0.899497 1
gene 1 6 27 0.67415 0 12 0.67415 1
gene 1 7 26 -0.689306 0 13 -0.689306 1
gene 1 7 27 0.791306 0 14 0.791306 1
gene 1 8 26 -0.913835 0 15 -0.913835 1
gene 1 8 27 -0.923537 0 16 -0.923537 1
gene 1 9 26 0.410253 0 17 0.410253 1
gene 1 9 27 -0.892941 0 18 -0.892941 1
gene 1 10 26 0.546124 0 19 0.546124 1
gene 1 10 27 0.77247 0 20 0.77247 1
gene 1 11 26 0.85276 0 21 0.85276 1
gene 1 11 27 -0.445646 0 22 -0.445646 1
gene 1 12 26 0.0455499 0 23 0.0455499 1
gene 1 12 27 0.524327 0 24 0.524327 1
gene 1 13 26 0.27637 0 25 0.27637 1
gene 1 13 27 0.0121155 0 26 0.0121155 1
gene 1 14 26 0.221775 0 27 0.221775 1
gene 1 14 27 -0.270011 0 28 -0.270011 1
gene 1 15 26 -0.767309 0 29 -0.767309 1
gene 1 15 27 0.836566 0 30 0.836566 1
gene 1 16 26 0.843338 0 31 0.843338 1
gene 1 16 27 0.0628101 0 32 0.0628101 1
gene 1 17 26 0.0424917 0 33 0.0424917 1
gene 1 17 27 0.204558 0 34 0.204558 1
gene 1 18 26 0.830491 0 35 0.830491 1
gene 1 18 27 0.198924 0 36 0.198924 1
gene 1 19 26 -0.938687 0 37 -0.938687 1
gene 1 19 27 -0.261419 0 38 -0.261419 1
gene 1 20 26 0.0166777 0 39 0.0166777 1
gene 1 20 27 -0.897965 0 40 -0.897965 1
gene 1 21 26 0.420628 0 41 0.420628 1
gene 1 21 27 0.468915 0 42 0.468915 1
gene 1 22 26 0.596346 0 43 0.596346 1
gene 1 22 27 0.553484 0 44 0.553484 1
gene 1 23 26 0.800242 0 45 0.800242 1
gene 1 23 27 0.0447995 0 46 0.0447995 1
gene 1 24 26 -0.150154 0 47 -0.150154 1
gene 1 24 27 0.897171 0 48 0.897171 1
gene 1 25 26 0.0633609 0 49 0.0633609 1
gene 1 25 27 -0.781261 0 50 -0.781261 1
genomeend 876


/* Organism #417 Quality: 0.999808 Time: 0 Id: 4 */
/* 0.0017367 -0.998552 -0.53451 -0.894798 1.70424 -0.76864 1.42491 -0.485966 -1.40124 1.02632 0.800063 0.0773732 1.09205 -0.554426  */
genomestart 417
trait 1 0.1 0 0 0 0 0 0 0 
node 1 1 1 1
node 2 1 1 1
node 3 1 1 1
node 4 1 1 1
node 5 1 1 1
node 6 1 1 1
node 7 1 1 1
node 8 1 1 1
node 9 1 1 1
node 10 1 1 1
node 11 1 1 1
node 12 1 1 1
node 13 1 1 1
node 14 1 1 1
node 15 1 1 1
node 16 1 1 1
node 17 1 1 1
node 18 1 1 1
node 19 1 1 1
node 20 1 1 1
node 21 1 1 1
node 22 1 1 1
node 23 1 1 1
node 24 1 1 1
node 25 1 1 3
node 26 1 0 2
node 27 1 0 2
gene 1 1 26 -0.640222 0 1 -0.640222 1
gene 1 1 27 -0.714265 0 2 -0.714265 1
gene 1 2 26 0.12368 0 3 0.12368 1
gene 1 2 27 -0.650262 0 4 -0.650262 1
gene 1 3 26 0.0313901 0 5 0.0313901 1
gene 1 3 27 0.0793039 0 6 0.0793039 1
gene 1 4 26 0.590976 0 7 0.590976 1
gene 1 4 27 0.942062 0 8 0.942062 1
gene 1 5 26 0.295153 0 9 0.295153 1
gene 1 5 27 -0.0843563 0 10 -0.0843563 1
gene 1 6 26 0.685689 0 11 0.685689 1
gene 1 6 27 0.0250122 0 12 0.0250122 1
gene 1 7 26 0.375375 0 13 0.375375 1
gene 1 7 27 0.119097 0 14 0.119097 1
gene 1 8 26 -0.351804 0 15 -0.351804 1
gene 1 8 27 -0.813268 0 16 -0.813268 1
gene 1 9 26 0.146037 0 17 0.146037 1
gene 1 9 27 -0.323554 0 18 -0.323554 1
gene 1 10 26 0.214835 0 19 0.214835 1
gene 1 10 27 -0.0732867 0 20 -0.0732867 1
gene 1 11 26 0.16011 0 21 0.16011 1
gene 1 11 27 0.0867233 0 22 0.0867233 1
gene 1 12 26 0.270793 0 23 0.270793 1
gene 1 12 27 0.530085 0 24 0.530085 1
gene 1 13 26 0.310766 0 25 0.310766 1
gene 1 13 27 -0.677671 0 26 -0.677671 1
gene 1 14 26 -0.156054 0 27 -0.156054 1
gene 1 14 27 -0.141376 0 28 -0.141376 1
gene 1 15 26 0.27686 0 29 0.27686 1
gene 1 15 27 -0.241293 0 30 -0.241293 1
gene 1 16 26 0.422457 0 31 0.422457 1
gene 1 16 27 -0.236817 0 32 -0.236817 1
gene 1 17 26 0.222418 0 33 0.222418 1
gene 1 17 27 -0.202288 0 34 -0.202288 1
gene 1 18 26 0.235935 0 35 0.235935 1
gene 1 18 27 0.676739 0 36 0.676739 1
gene 1 19 26 0.4916 0 37 0.4916 1
gene 1 19 27 0.437533 0 38 0.437533 1
gene 1 20 26 -0.530713 0 39 -0.530713 1
gene 1 20 27 -0.260513 0 40 -0.260513 1
gene 1 21 26 -0.199457 0 41 -0.199457 1
gene 1 21 27 0.337934 0 42 0.337934 1
gene 1 22 26 -0.178699 0 43 -0.178699 1
gene 1 22 27 -0.846231 0 44 -0.846231 1
gene 1 23 26 -0.0802319 0 45 -0.0802319 1
gene 1 23 27 -0.837472 0 46 -0.837472 1
gene 1 24 26 -0.0489907 0 47 -0.0489907 1
gene 1 24 27 0.310212 0 48 0.310212 1
gene 1 25 26 0.0406147 0 49 0.0406147 1
gene 1 25 27 -0.278992 0 50 -0.278992 1
genomeend 417


/* Organism #544 Quality: 1.000000 Time: 0 Id: 5 */
/* 3.06953e-05 -0.999769 0.930003 -0.933162 1.77318 -0.993771 1.65815 -0.973168 0.449395 -0.767858 -0.666982 -0.875298 2.01279 -0.797428  */
genomestart 544
trait 1 0.1 0 0 0 0 0 0 0 
node 1 1 1 1
node 2 1 1 1
node 3 1 1 1
node 4 1 1 1
node 5 1 1 1
node 6 1 1 1
node 7 1 1 1
node 8 1 1 1
node 9 1 1 1
node 10 1 1 1
node 11 1 1 1
node 12 1 1 1
node 13 1 1 1
node 14 1 1 1
node 15 1 1 1
node 16 1 1 1
node 17 1 1 1
node 18 1 1 1
node 19 1 1 1
node 20 1 1 1
node 21 1 1 1
node 22 1 1 1
node 23 1 1 1
node 24 1 1 1
node 25 1 1 3
node 26 1 0 2
node 27 1 0 2
gene 1 1 26 -0.339422 0 1 -0.339422 1
gene 1 1 27 0.249511 0 2 0.249511 1
gene 1 2 26 0.80683 0 3 0.80683 1
gene 1 2 27 -0.761978 0 4 -0.761978 1
gene 1 3 26 -0.688479 0 5 -0.688479 1
gene 1 3 27 0.458081 0 6 0.458081 1
gene 1 4 26 0.101606 0 7 0.101606 1
gene 1 4 27 0.967993 0 8 0.967993 1
gene 1 5 26 -0.0962655 0 9 -0.0962655 1
gene 1 5 27 0.891283 0 10 0.891283 1
gene 1 6 26 0.0494867 0 11 0.0494867 1
gene 1 6 27 0.455458 0 12 0.455458 1
gene 1 7 26 -0.703339 0 13 -0.703339 1
gene 1 7 27 -0.915459 0 14 -0.915459 1
gene 1 8 26 -0.702808 0 15 -0.702808 1
gene 1 8 27 0.0897994 0 16 0.0897994 1
gene 1 9 26 0.328407 0 17 0.328407 1
gene 1 9 27 0.739018 0 18 0.739018 1
gene 1 10 26 -0.855172 0 19 -0.855172 1
gene 1 10 27 -0.784701 0 20 -0.784701 1
gene 1 11 26 -0.936016 0 21 -0.936016 1
gene 1 11 27 -0.789895 0 22 -0.789895 1
gene 1 12 26 -0.510584 0 23 -0.510584 1
gene 1 12 27 0.554245 0 24 0.554245 1
gene 1 13 26 -0.430338 0 25 -0.430338 1
gene 1 13 27 0.0587387 0 26 0.0587387 1
gene 1 14 26 -0.698727 0 27 -0.698727 1
gene 1 14 27 -0.653128 0 28 -0.653128 1
gene 1 15 26 -0.391583 0 29 -0.391583 1
gene 1 15 27 0.626779 0 30 0.626779 1
gene 1 16 26 0.755534 0 31 0.755534 1
gene 1 16 27 -0.443653 0 32 -0.443653 1
gene 1 17 26 0.808669 0 33 0.808669 1
gene 1 17 27 -0.361382 0 34 -0.361382 1
gene 1 18 26 -0.206097 0 35 -0.206097 1
gene 1 18 27 -0.49914 0 36 -0.49914 1
gene 1 19 26 -0.385231 0 37 -0.385231 1
gene 1 19 27 0.550628 0 38 0.550628 1
gene 1 20 26 -0.046924 0 39 -0.046924 1
gene 1 20 27 0.478565 0 40 0.478565 1
gene 1 21 26 -0.014853 0 41 -0.014853 1
gene 1 21 27 -0.506163 0 42 -0.506163 1
gene 1 22 26 0.713686 0 43 0.713686 1
gene 1 22 27 -0.619833 0 44 -0.619833 1
gene 1 23 26 -0.01538 0 45 -0.01538 1
gene 1 23 27 -0.761971 0 46 -0.761971 1
gene 1 24 26 -0.969725 0 47 -0.969725 1
gene 1 24 27 -0.315782 0 48 -0.315782 1
gene 1 25 26 -0.774229 0 49 -0.774229 1
gene 1 25 27 0.773214 0 50 0.773214 1
genomeend 544


/* Organism #637 Quality: 1.000000 Time: 0 Id: 6 */
/* -5.5911e-05 -0.999802 -0.993331 -0.934105 1.78403 -0.99753 1.67765 -0.989787 0.641389 -0.905792 -0.667308 -0.875583 1.53005 -0.901314  */
genomestart 637
trait 1 0.1 0 0 0 0 0 0 0 
node 1 1 1 1
node 2 1 1 1
node 3 1 1 1
node 4 1 1 1
node 5 1 1 1
node 6 1 1 1
node 7 1 1 1
node 8 1 1 1
node 9 1 1 1
node 10 1 1 1
node 11 1 1 1
node 12 1 1 1
node 13 1 1 1
node 14 1 1 1
node 15 1 1 1
node 16 1 1 1
node 17 1 1 1
node 18 1 1 1
node 19 1 1 1
node 20 1 1 1
node 21 1 1 1
node 22 1 1 1
node 23 1 1 1
node 24 1 1 1
node 25 1 1 3
node 26 1 0 2
node 27 1 0 2
gene 1 1 26 -0.172992 0 1 -0.172992 1
gene 1 1 27 1.23626 0 2 1.23626 1
gene 1 2 26 -2.10061 0 3 -2.10061 1
gene 1 2 27 1.9052 0 4 1.9052 1
gene 1 3 26 0.839463 0 5 0.839463 1
gene 1 3 27 -2.65545 0 6 -2.65545 1
gene 1 4 26 0.714077 0 7 0.714077 1
gene 1 4 27 0.671168 0 8 0.671168 1
gene 1 5 26 1.22296 0 9 1.22296 1
gene 1 5 27 1.85404 0 10 1.85404 1
gene 1 6 26 0.447389 0 11 0.447389 1
gene 1 6 27 0.0598573 0 12 0.0598573 1
gene 1 7 26 0.711387 0 13 0.711387 1
gene 1 7 27 -1.87185 0 14 -1.87185 1
gene 1 8 26 -0.744955 0 15 -0.744955 1
gene 1 8 27 -0.875019 0 16 -0.875019 1
gene 1 9 26 -1.22885 0 17 -1.22885 1
gene 1 9 27 -1.34758 0 18 -1.34758 1
gene 1 10 26 -1.54821 0 19 -1.54821 1
gene 1 10 27 1.04323 0 20 1.04323 1
gene 1 11 26 2.00001 0 21 2.00001 1
gene 1 11 27 -2.29424 0 22 -2.29424 1
gene 1 12 26 -1.08579 0 23 -1.08579 1
gene 1 12 27 1.89364 0 24 1.89364 1
gene 1 13 26 -0.679467 0 25 -0.679467 1
gene 1 13 27 -0.672382 0 26 -0.672382 1
gene 1 14 26 0.0675522 0 27 0.0675522 1
gene 1 14 27 0.913409 0 28 0.913409 1
gene 1 15 26 -0.950445 0 29 -0.950445 1
gene 1 15 27 -2.77153 0 30 -2.77153 1
gene 1 16 26 0.939777 0 31 0.939777 1
gene 1 16 27 0.0774096 0 32 0.0774096 1
gene 1 17 26 0.176571 0 33 0.176571 1
gene 1 17 27 -2.19949 0 34 -2.19949 1
gene 1 18 26 2.39387 0 35 2.39387 1
gene 1 18 27 -0.799768 0 36 -0.799768 1
gene 1 19 26 2.18461 0 37 2.18461 1
gene 1 19 27 -0.843165 0 38 -0.843165 1
gene 1 20 26 0.909468 0 39 0.909468 1
gene 1 20 27 -1.9312 0 40 -1.9312 1
gene 1 21 26 0.924738 0 41 0.924738 1
gene 1 21 27 -1.40436 0 42 -1.40436 1
gene 1 22 26 -0.283985 0 43 -0.283985 1
gene 1 22 27 3.02571 0 44 3.02571 1
gene 1 23 26 0.857579 0 45 0.857579 1
gene 1 23 27 -1.67095 0 46 -1.67095 1
gene 1 24 26 -1.31028 0 47 -1.31028 1
gene 1 24 27 -0.187799 0 48 -0.187799 1
gene 1 25 26 -0.41562 0 49 -0.41562 1
gene 1 25 27 -2.29877 0 50 -2.29877 1
genomeend 637


/* Organism #639 Quality: 1.000000 Time: 0 Id: 7 */
/* 0.00190452 -0.998945 -0.808508 -0.883271 1.53779 -0.976309 1.7889 -0.89513 1.64344 -0.0684006 -0.666827 -0.874737 1.98528 -0.790732  */
genomestart 639
trait 1 0.1 0 0 0 0 0 0 0 
node 1 1 1 1
node 2 1 1 1
node 3 1 1 1
node 4 1 1 1
node 5 1 1 1
node 6 1 1 1
node 7 1 1 1
node 8 1 1 1
node 9 1 1 1
node 10 1 1 1
node 11 1 1 1
node 12 1 1 1
node 13 1 1 1
node 14 1 1 1
node 15 1 1 1
node 16 1 1 1
node 17 1 1 1
node 18 1 1 1
node 19 1 1 1
node 20 1 1 1
node 21 1 1 1
node 22 1 1 1
node 23 1 1 1
node 24 1 1 1
node 25 1 1 3
node 26 1 0 2
node 27 1 0 2
gene 1 1 26 -0.945907 0 1 -0.945907 1
gene 1 1 27 -0.673855 0 2 -0.673855 1
gene 1 2 26 -0.188966 0 3 -0.188966 1
gene 1 2 27 -1.13012 0 4 -1.13012 1
gene 1 3 26 -0.549857 0 5 -0.549857 1
gene 1 3 27 -0.877558 0 6 -0.877558 1
gene 1 4 26 1.91809 0 7 1.91809 1
gene 1 4 27 0.65347 0 8 0.65347 1
gene 1 5 26 -1.52573 0 9 -1.52573 1
gene 1 5 27 -1.10042 0 10 -1.10042 1
gene 1 6 26 1.28439 0 11 1.28439 1
gene 1 6 27 -1.82114 0 12 -1.82114 1
gene 1 7 26 0.778439 0 13 0.778439 1
gene 1 7 27 -2.00404 0 14 -2.00404 1
gene 1 8 26 -0.0121258 0 15 -0.0121258 1
gene 1 8 27 -2.43753 0 16 -2.43753 1
gene 1 9 26 -1.80737 0 17 -1.80737 1
gene 1 9 27 0.610229 0 18 0.610229 1
gene 1 10 26 -0.57743 0 19 -0.57743 1
gene 1 10 27 1.09308 0 20 1.09308 1
gene 1 11 26 -1.72543 0 21 -1.72543 1
gene 1 11 27 1.52051 0 22 1.52051 1
gene 1 12 26 -1.8143 0 23 -1.8143 1
gene 1 12 27 -2.52694 0 24 -2.52694 1
gene 1 13 26 3.00254 0 25 3.00254 1
gene 1 13 27 2.61431 0 26 2.61431 1
gene 1 14 26 -2.36749 0 27 -2.36749 1
gene 1 14 27 -2.32932 0 28 -2.32932 1
gene 1 15 26 1.03828 0 29 1.03828 1
gene 1 15 27 0.22273 0 30 0.22273 1
gene 1 16 26 2.60893 0 31 2.60893 1
gene 1 16 27 2.26141 0 32 2.26141 1
gene 1 17 26 3.07605 0 33 3.07605 1
gene 1 17 27 0.287557 0 34 0.287557 1
gene 1 18 26 -0.768547 0 35 -0.768547 1
gene 1 18 27 -1.48108 0 36 -1.48108 1
gene 1 19 26 2.30728 0 37 2.30728 1
gene 1 19 27 -0.481484 0 38 -0.481484 1
gene 1 20 26 1.13736 0 39 1.13736 1
gene 1 20 27 1.08682 0 40 1.08682 1
gene 1 21 26 -0.211008 0 41 -0.211008 1
gene 1 21 27 0.790863 0 42 0.790863 1
gene 1 22 26 2.13871 0 43 2.13871 1
gene 1 22 27 0.855532 0 44 0.855532 1
gene 1 23 26 -1.3847 0 45 -1.3847 1
gene 1 23 27 0.487916 0 46 0.487916 1
gene 1 24 26 2.42038 0 47 2.42038 1
gene 1 24 27 -1.66533 0 48 -1.66533 1
gene 1 25 26 1.29306 0 49 1.29306 1
gene 1 25 27 -0.0547587 0 50 -0.0547587 1
genomeend 639


/* Organism #136 Quality: 1.000000 Time: 0 Id: 8 */
/* -0.000875058 -0.999011 0.907822 -0.886171 1.80295 -0.899471 1.60864 -0.844283 0.447672 -0.357629 1.4738 0.257663 1.5307 -0.901193  */
genomestart 136
trait 1 0.1 0 0 0 0 0 0 0 
node 1 1 1 1
node 2 1 1 1
node 3 1 1 1
node 4 1 1 1
node 5 1 1 1
node 6 1 1 1
node 7 1 1 1
node 8 1 1 1
node 9 1 1 1
node 10 1 1 1
node 11 1 1 1
node 12 1 1 1
node 13 1 1 1
node 14 1 1 1
node 15 1 1 1
node 16 1 1 1
node 17 1 1 1
node 18 1 1 1
node 19 1 1 1
node 20 1 1 1
node 21 1 1 1
node 22 1 1 1
node 23 1 1 1
node 24 1 1 1
node 25 1 1 3
node 26 1 0 2
node 27 1 0 2
gene 1 1 26 -2.41519 0 1 -2.41519 1
gene 1 1 27 -0.671076 0 2 -0.671076 1
gene 1 2 26 -0.961135 0 3 -0.961135 1
gene 1 2 27 -1.86562 0 4 -1.86562 1
gene 1 3 26 -0.115595 0 5 -0.115595 1
gene 1 3 27 2.31442 0 6 2.31442 1
gene 1 4 26 -2.05259 0 7 -2.05259 1
gene 1 4 27 0.467174 0 8 0.467174 1
gene 1 5 26 1.42929 0 9 1.42929 1
gene 1 5 27 1.60855 0 10 1.60855 1
gene 1 6 26 -0.205233 0 11 -0.205233 1
gene 1 6 27 1.37555 0 12 1.37555 1
gene 1 7 26 0.291765 0 13 0.291765 1
gene 1 7 27 -1.25527 0 14 -1.25527 1
gene 1 8 26 -0.206264 0 15 -0.206264 1
gene 1 8 27 -0.412694 0 16 -0.412694 1
gene 1 9 26 -1.19983 0 17 -1.19983 1
gene 1 9 27 1.08934 0 18 1.08934 1
gene 1 10 26 -2.13766 0 19 -2.13766 1
gene 1 10 27 1.78199 0 20 1.78199 1
gene 1 11 26 -0.495098 0 21 -0.495098 1
gene 1 11 27 -2.28164 0 22 -2.28164 1
gene 1 12 26 -1.42912 0 23 -1.42912 1
gene 1 12 27 1.58545 0 24 1.58545 1
gene 1 13 26 0.594048 0 25 0.594048 1
gene 1 13 27 -0.0502521 0 26 -0.0502521 1
gene 1 14 26 -2.14778 0 27 -2.14778 1
gene 1 14 27 -0.286723 0 28 -0.286723 1
gene 1 15 26 -1.4859 0 29 -1.4859 1
gene 1 15 27 -0.0859146 0 30 -0.0859146 1
gene 1 16 26 -1.28164 0 31 -1.28164 1
gene 1 16 27 -2.69283 0 32 -2.69283 1
gene 1 17 26 -1.7874 0 33 -1.7874 1
gene 1 17 27 -2.46211 0 34 -2.46211 1
gene 1 18 26 -0.116206 0 35 -0.116206 1
gene 1 18 27 1.6851 0 36 1.6851 1
gene 1 19 26 3.00241 0 37 3.00241 1
gene 1 19 27 1.33492 0 38 1.33492 1
gene 1 20 26 0.0740072 0 39 0.0740072 1
gene 1 20 27 0.472819 0 40 0.472819 1
gene 1 21 26 2.00601 0 41 2.00601 1
gene 1 21 27 -0.995901 0 42 -0.995901 1
gene 1 22 26 -2.11032 0 43 -2.11032 1
gene 1 22 27 0.0167781 0 44 0.0167781 1
gene 1 23 26 1.34846 0 45 1.34846 1
gene 1 23 27 -0.611485 0 46 -0.611485 1
gene 1 24 26 0.512213 0 47 0.512213 0
gene 1 24 27 0.297711 0 48 0.297711 1
gene 1 25 26 -2.00567 0 49 -2.00567 1
gene 1 25 27 0.96862 0 50 0.96862 1
genomeend 136


/* Organism #501 Quality: 1.000000 Time: 0 Id: 9 */
/* 0.000536897 -0.999448 0.945213 -0.917861 1.72129 -0.997524 1.46481 -0.973956 0.875583 -0.721912 -0.667533 -0.87458 0.691956 -0.817739  */
genomestart 501
trait 1 0.1 0 0 0 0 0 0 0 
node 1 1 1 1
node 2 1 1 1
node 3 1 1 1
node 4 1 1 1
node 5 1 1 1
node 6 1 1 1
node 7 1 1 1
node 8 1 1 1
node 9 1 1 1
node 10 1 1 1
node 11 1 1 1
node 12 1 1 1
node 13 1 1 1
node 14 1 1 1
node 15 1 1 1
node 16 1 1 1
node 17 1 1 1
node 18 1 1 1
node 19 1 1 1
node 20 1 1 1
node 21 1 1 1
node 22 1 1 1
node 23 1 1 1
node 24 1 1 1
node 25 1 1 3
node 26 1 0 2
node 27 1 0 2
gene 1 1 26 -1.15992 0 1 -1.15992 1
gene 1 1 27 0.441911 0 2 0.441911 1
gene 1 2 26 -1.9737 0 3 -1.9737 1
gene 1 2 27 -0.936662 0 4 -0.936662 1
gene 1 3 26 -0.201232 0 5 -0.201232 1
gene 1 3 27 -2.19944 0 6 -2.19944 1
gene 1 4 26 0.142088 0 7 0.142088 1
gene 1 4 27 -0.832436 0 8 -0.832436 1
gene 1 5 26 2.08159 0 9 2.08159 1
gene 1 5 27 0.409833 0 10 0.409833 1
gene 1 6 26 -0.495693 0 11 -0.495693 1
gene 1 6 27 -0.0112284 0 12 -0.0112284 1
gene 1 7 26 -0.457162 0 13 -0.457162 1
gene 1 7 27 1.91805 0 14 1.91805 1
gene 1 8 26 -0.894547 0 15 -0.894547 1
gene 1 8 27 3.02003 0 16 3.02003 1
gene 1 9 26 -0.394848 0 17 -0.394848 1
gene 1 9 27 -2.19105 0 18 -2.19105 1
gene 1 10 26 -1.33479 0 19 -1.33479 1
gene 1 10 27 1.38109 0 20 1.38109 1
gene 1 11 26 -1.51659 0 21 -1.51659 1
gene 1 11 27 -2.49565 0 22 -2.49565 1
gene 1 12 26 0.811985 0 23 0.811985 1
gene 1 12 27 -1.76375 0 24 -1.76375 1
gene 1 13 26 0.601566 0 25 0.601566 1
gene 1 13 27 1.27578 0 26 1.27578 1
gene 1 14 26 -1.46226 0 27 -1.46226 1
gene 1 14 27 -1.09858 0 28 -1.09858 1
gene 1 15 26 2.28949 0 29 2.28949 1
gene 1 15 27 -3.6377 0 30 -3.6377 1
gene 1 16 26 -0.0294805 0 31 -0.0294805 1
gene 1 16 27 -1.35929 0 32 -1.35929 1
gene 1 17 26 -0.561307 0 33 -0.561307 1
gene 1 17 27 1.51757 0 34 1.51757 1
gene 1 18 26 0.0947494 0 35 0.0947494 1
gene 1 18 27 1.68332 0 36 1.68332 1
gene 1 19 26 -2.43871 0 37 -2.43871 1
gene 1 19 27 0.465669 0 38 0.465669 1
gene 1 20 26 1.08517 0 39 1.08517 1
gene 1 20 27 1.04684 0 40 1.04684 1
gene 1 21 26 -1.25124 0 41 -1.25124 1
gene 1 21 27 -0.474324 0 42 -0.474324 1
gene 1 22 26 -0.129715 0 43 -0.129715 1
gene 1 22 27 2.9871 0 44 2.9871 1
gene 1 23 26 -0.965288 0 45 -0.965288 1
gene 1 23 27 1.31792 0 46 1.31792 1
gene 1 24 26 0.164303 0 47 0.164303 1
gene 1 24 27 -2.2772 0 48 -2.2772 1
gene 1 25 26 -0.474028 0 49 -0.474028 1
gene 1 25 27 2.46727 0 50 2.46727 1
genomeend 501


/* Organism #393 Quality: 1.000000 Time: 0 Id: 10 */
/* 0.00245303 -0.99886 -0.753617 -0.877213 1.81928 -0.959981 2.00565 -0.803355 2.88572 0.497646 -0.667554 -0.875387 2.07287 -0.713392  */
genomestart 393
trait 1 0.1 0 0 0 0 0 0 0 
node 1 1 1 1
node 2 1 1 1
node 3 1 1 1
node 4 1 1 1
node 5 1 1 1
node 6 1 1 1
node 7 1 1 1
node 8 1 1 1
node 9 1 1 1
node 10 1 1 1
node 11 1 1 1
node 12 1 1 1
node 13 1 1 1
node 14 1 1 1
node 15 1 1 1
node 16 1 1 1
node 17 1 1 1
node 18 1 1 1
node 19 1 1 1
node 20 1 1 1
node 21 1 1 1
node 22 1 1 1
node 23 1 1 1
node 24 1 1 1
node 25 1 1 3
node 26 1 0 2
node 27 1 0 2
node 53 1 0 0
gene 1 1 26 1.32717 0 1 1.32717 1
gene 1 1 27 -0.735744 0 2 -0.735744 1
gene 1 2 26 -0.996228 0 3 -0.996228 1
gene 1 2 27 -3.28215 0 4 -3.28215 1
gene 1 3 26 2.14045 0 5 2.14045 1
gene 1 3 27 3.47098 0 6 3.47098 1
gene 1 4 26 2.94745 0 7 2.94745 0
gene 1 4 27 2.36518 0 8 2.36518 1
gene 1 5 26 1.12961 0 9 1.12961 1
gene 1 5 27 2.00055 0 10 2.00055 1
gene 1 6 26 2.48735 0 11 2.48735 1
gene 1 6 27 2.65312 0 12 2.65312 1
gene 1 7 26 0.727741 0 13 0.727741 1
gene 1 7 27 -1.70702 0 14 -1.70702 1
gene 1 8 26 -1.71815 0 15 -1.71815 1
gene 1 8 27 -3.65754 0 16 -3.65754 1
gene 1 9 26 -2.06813 0 17 -2.06813 1
gene 1 9 27 0.686424 0 18 0.686424 1
gene 1 10 26 -0.594944 0 19 -0.594944 1
gene 1 10 27 2.05589 0 20 2.05589 1
gene 1 11 26 0.414373 0 21 0.414373 1
gene 1 11 27 2.33014 0 22 2.33014 1
gene 1 12 26 1.75673 0 23 1.75673 1
gene 1 12 27 0.903577 0 24 0.903577 1
gene 1 13 26 -0.193514 0 25 -0.193514 1
gene 1 13 27 -1.18123 0 26 -1.18123 1
gene 1 14 26 -0.33846 0 27 -0.33846 1
gene 1 14 27 0.858298 0 28 0.858298 1
gene 1 15 26 3.91047 0 29 3.91047 1
gene 1 15 27 3.34032 0 30 3.34032 1
gene 1 16 26 0.804846 0 31 0.804846 1
gene 1 16 27 3.03659 0 32 3.03659 1
gene 1 17 26 0.0113394 0 33 0.0113394 1
gene 1 17 27 1.09061 0 34 1.09061 1
gene 1 18 26 -1.86186 0 35 -1.86186 1
gene 1 18 27 -1.21655 0 36 -1.21655 1
gene 1 19 26 3.2637 0 37 3.2637 1
gene 1 19 27 0.708059 0 38 0.708059 1
gene 1 20 26 -1.2244 0 39 -1.2244 1
gene 1 20 27 0.61628 0 40 0.61628 1
gene 1 21 26 -3.10911 0 41 -3.10911 1
gene 1 21 27 2.90764 0 42 2.90764 1
gene 1 22 26 0.647089 0 43 0.647089 1
gene 1 22 27 1.36196 0 44 1.36196 1
gene 1 23 26 1.47149 0 45 1.47149 1
gene 1 23 27 -0.379201 0 46 -0.379201 1
gene 1 24 26 0.671874 0 47 0.671874 1
gene 1 24 27 -1.38831 0 48 -1.38831 1
gene 1 25 26 2.29552 0 49 2.29552 1
gene 1 25 27 -1.05072 0 50 -1.05072 1
gene 1 4 53 2.47135 0 105 2.47135 1
gene 1 53 26 3.76471 0 106 3.76471 1
genomeend 393


/* Organism #618 Quality: 1.000000 Time: 0 Id: 11 */
/* -5.28422e-07 -0.999842 -0.998985 -0.934811 1.54428 -0.997548 1.90437 -0.991928 0.984102 -0.937089 1.47609 0.229008 1.98139 -0.803784  */
genomestart 618
trait 1 0.1 0 0 0 0 0 0 0 
node 1 1 1 1
node 2 1 1 1
node 3 1 1 1
node 4 1 1 1
node 5 1 1 1
node 6 1 1 1
node 7 1 1 1
node 8 1 1 1
node 9 1 1 1
node 10 1 1 1
node 11 1 1 1
node 12 1 1 1
node 13 1 1 1
node 14 1 1 1
node 15 1 1 1
node 16 1 1 1
node 17 1 1 1
node 18 1 1 1
node 19 1 1 1
node 20 1 1 1
node 21 1 1 1
node 22 1 1 1
node 23 1 1 1
node 24 1 1 1
node 25 1 1 3
node 26 1 0 2
node 27 1 0 2
node 61 1 0 0
gene 1 1 26 1.43755 0 1 1.43755 1
gene 1 1 27 -0.919424 0 2 -0.919424 1
gene 1 2 26 -0.302523 0 3 -0.302523 1
gene 1 2 27 1.55489 0 4 1.55489 1
gene 1 3 26 -0.961806 0 5 -0.961806 1
gene 1 3 27 0.323891 0 6 0.323891 1
gene 1 4 26 -1.73489 0 7 -1.73489 1
gene 1 4 27 1.28754 0 8 1.28754 1
gene 1 5 26 2.46584 0 9 2.46584 1
gene 1 5 27 4.51496 0 10 4.51496 1
gene 1 6 26 0.0869926 0 11 0.0869926 1
gene 1 6 27 2.24812 0 12 2.24812 1
gene 1 7 26 -1.96188 0 13 -1.96188 1
gene 1 7 27 0.224325 0 14 0.224325 1
gene 1 8 26 1.43794 0 15 1.43794 1
gene 1 8 27 2.24717 0 16 2.24717 1
gene 1 9 26 0.0186786 0 17 0.0186786 1
gene 1 9 27 -1.3435 0 18 -1.3435 1
gene 1 10 26 0.249635 0 19 0.249635 1
gene 1 10 27 0.812635 0 20 0.812635 1
gene 1 11 26 -1.87198 0 21 -1.87198 1
gene 1 11 27 -0.729879 0 22 -0.729879 1
gene 1 12 26 1.02383 0 23 1.02383 1
gene 1 12 27 -1.91402 0 24 -1.91402 1
gene 1 13 26 0.571584 0 25 0.571584 1
gene 1 13 27 -0.948414 0 26 -0.948414 1
gene 1 14 26 -0.317125 0 27 -0.317125 1
gene 1 14 27 0.281861 0 28 0.281861 1
gene 1 15 26 -2.63813 0 29 -2.63813 1
gene 1 15 27 -2.31377 0 30 -2.31377 1
gene 1 16 26 4.51043 0 31 4.51043 1
gene 1 16 27 -0.323949 0 32 -0.323949 1
gene 1 17 26 3.59078 0 33 3.59078 1
gene 1 17 27 -2.11213 0 34 -2.11213 1
gene 1 18 26 2.17933 0 35 2.17933 1
gene 1 18 27 -0.824645 0 36 -0.824645 1
gene 1 19 26 4.28442 0 37 4.28442 1
gene 1 19 27 0.171049 0 38 0.171049 1
gene 1 20 26 1.52851 0 39 1.52851 1
gene 1 20 27 -3.66757 0 40 -3.66757 1
gene 1 21 26 -0.389354 0 41 -0.389354 1
gene 1 21 27 2.08818 0 42 2.08818 1
gene 1 22 26 -0.660024 0 43 -0.660024 0
gene 1 22 27 1.28168 0 44 1.28168 1
gene 1 23 26 -1.51886 0 45 -1.51886 1
gene 1 23 27 -0.926004 0 46 -0.926004 1
gene 1 24 26 1.05648 0 47 1.05648 1
gene 1 24 27 -0.564886 0 48 -0.564886 1
gene 1 25 26 2.86712 0 49 2.86712 1
gene 1 25 27 -4.37098 0 50 -4.37098 1
gene 1 22 61 2.18569 0 121 2.18569 1
gene 1 61 26 -1.97837 0 122 -1.97837 1
genomeend 618


/* Organism #262 Quality: 1.000000 Time: 0 Id: 12 */
/* 0.00621109 -0.998658 -0.212843 -0.893928 1.80339 -0.930937 1.95518 -0.621264 2.45602 0.768809 -0.667978 -0.874301 1.06714 -0.577635  */
genomestart 262
trait 1 0.1 0 0 0 0 0 0 0 
node 1 1 1 1
node 2 1 1 1
node 3 1 1 1
node 4 1 1 1
node 5 1 1 1
node 6 1 1 1
node 7 1 1 1
node 8 1 1 1
node 9 1 1 1
node 10 1 1 1
node 11 1 1 1
node 12 1 1 1
node 13 1 1 1
node 14 1 1 1
node 15 1 1 1
node 16 1 1 1
node 17 1 1 1
node 18 1 1 1
node 19 1 1 1
node 20 1 1 1
node 21 1 1 1
node 22 1 1 1
node 23 1 1 1
node 24 1 1 1
node 25 1 1 3
node 26 1 0 2
node 27 1 0 2
node 52 1 0 0
node 78 1 0 0
gene 1 1 26 1.49033 0 1 1.49033 1
gene 1 1 27 -3.06247 0 2 -3.06247 1
gene 1 2 26 -2.46031 0 3 -2.46031 1
gene 1 2 27 -1.01144 0 4 -1.01144 1
gene 1 3 26 1.19244 0 5 1.19244 1
gene 1 3 27 -0.742857 0 6 -0.742857 1
gene 1 4 26 1.89369 0 7 1.89369 1
gene 1 4 27 0.629964 0 8 0.629964 1
gene 1 5 26 -1.06908 0 9 -1.06908 1
gene 1 5 27 0.868132 0 10 0.868132 1
gene 1 6 26 -0.61441 0 11 -0.61441 1
gene 1 6 27 -0.867105 0 12 -0.867105 1
gene 1 7 26 -0.384726 0 13 -0.384726 1
gene 1 7 27 -0.015295 0 14 -0.015295 1
gene 1 8 26 -1.49289 0 15 -1.49289 1
gene 1 8 27 -1.08662 0 16 -1.08662 1
gene 1 9 26 -0.971856 0 17 -0.971856 1
gene 1 9 27 -0.49639 0 18 -0.49639 1
gene 1 10 26 -0.843882 0 19 -0.843882 1
gene 1 10 27 1.70711 0 20 1.70711 1
gene 1 11 26 1.65717 0 21 1.65717 1
gene 1 11 27 -1.41375 0 22 -1.41375 1
gene 1 12 26 0.0597171 0 23 0.0597171 1
gene 1 12 27 -1.65988 0 24 -1.65988 1
gene 1 13 26 -0.926554 0 25 -0.926554 1
gene 1 13 27 1.11954 0 26 1.11954 1
gene 1 14 26 -1.4104 0 27 -1.4104 1
gene 1 14 27 0.465059 0 28 0.465059 1
gene 1 15 26 -1.16538 0 29 -1.16538 1
gene 1 15 27 0.0873686 0 30 0.0873686 1
gene 1 16 26 1.36432 0 31 1.36432 0
gene 1 16 27 0.61291 0 32 0.61291 1
gene 1 17 26 1.17271 0 33 1.17271 1
gene 1 17 27 -0.0626452 0 34 -0.0626452 1
gene 1 18 26 0.534008 0 35 0.534008 0
gene 1 18 27 0.456172 0 36 0.456172 1
gene 1 19 26 -1.18335 0 37 -1.18335 1
gene 1 19 27 0.520132 0 38 0.520132 1
gene 1 20 26 0.663644 0 39 0.663644 1
gene 1 20 27 0.44371 0 40 0.44371 1
gene 1 21 26 -2.86497 0 41 -2.86497 1
gene 1 21 27 -0.524341 0 42 -0.524341 1
gene 1 22 26 0.341855 0 43 0.341855 1
gene 1 22 27 0.515989 0 44 0.515989 1
gene 1 23 26 -0.025604 0 45 -0.025604 1
gene 1 23 27 1.83354 0 46 1.83354 1
gene 1 24 26 -0.549339 0 47 -0.549339 1
gene 1 24 27 -0.190874 0 48 -0.190874 1
gene 1 25 26 2.01283 0 49 2.01283 1
gene 1 25 27 -0.156844 0 50 -0.156844 1
gene 1 16 52 2.99323 0 103 2.99323 1
gene 1 52 26 -0.644787 0 104 -0.644787 1
gene 1 18 78 2.09399 0 170 2.09399 1
gene 1 78 26 -0.955951 0 171 -0.955951 1
gene 1 14 52 -0.965297 0 332 -0.965297 1
genomeend 262


/* Organism #109 Quality: 1.000000 Time: 0 Id: 13 */
/* -0.0017079 -0.998818 -0.239611 -0.727889 1.76499 -0.96545 1.69226 -0.847544 0.847733 -0.107247 -0.667194 -0.875059 1.63032 -0.67228  */
genomestart 109
trait 1 0.1 0 0 0.117584 0.159203 0 0 0.175507 
node 1 1 1 1
node 2 1 1 1
node 3 1 1 1
node 4 1 1 1
node 5 1 1 1
node 6 1 1 1
node 7 1 1 1
node 8 1 1 1
node 9 1 1 1
node 10 1 1 1
node 11 1 1 1
node 12 1 1 1
node 13 1 1 1
node 14 1 1 1
node 15 1 1 1
node 16 1 1 1
node 17 1 1 1
node 18 1 1 1
node 19 1 1 1
node 20 1 1 1
node 21 1 1 1
node 22 1 1 1
node 23 1 1 1
node 24 1 1 1
node 25 1 1 3
node 26 1 0 2
node 27 1 0 2
node 50 1 0 0
gene 1 1 26 -0.563855 0 1 -0.563855 1
gene 1 1 27 0.422907 0 2 0.422907 0
gene 1 2 26 -1.09114 0 3 -1.09114 1
gene 1 2 27 0.25959 0 4 0.25959 1
gene 1 3 26 -0.736926 0 5 -0.736926 1
gene 1 3 27 1.43852 0 6 1.43852 1
gene 1 4 26 3.06 0 7 3.06 1
gene 1 4 27 1.62761 0 8 1.62761 1
gene 1 5 26 -1.32156 0 9 -1.32156 1
gene 1 5 27 2.65753 0 10 2.65753 1
gene 1 6 26 1.63262 0 11 1.63262 1
gene 1 6 27 0.334085 0 12 0.334085 1
gene 1 7 26 -2.7767 0 13 -2.7767 1
gene 1 7 27 1.92225 0 14 1.92225 1
gene 1 8 26 -0.968767 0 15 -0.968767 1
gene 1 8 27 -1.77266 0 16 -1.77266 1
gene 1 9 26 -0.045022 0 17 -0.045022 1
gene 1 9 27 -0.0292988 0 18 -0.0292988 1
gene 1 10 26 1.25002 0 19 1.25002 1
gene 1 10 27 0.488178 0 20 0.488178 1
gene 1 11 26 -1.35263 0 21 -1.35263 1
gene 1 11 27 -0.0165462 0 22 -0.0165462 1
gene 1 12 26 2.03846 0 23 2.03846 1
gene 1 12 27 -0.80793 0 24 -0.80793 1
gene 1 13 26 -2.54591 0 25 -2.54591 1
gene 1 13 27 -1.70633 0 26 -1.70633 1
gene 1 14 26 -0.425514 0 27 -0.425514 1
gene 1 14 27 0.367576 0 28 0.367576 1
gene 1 15 26 3.38405 0 29 3.38405 1
gene 1 15 27 -0.0366301 0 30 -0.0366301 1
gene 1 16 26 2.28587 0 31 2.28587 1
gene 1 16 27 1.49144 0 32 1.49144 1
gene 1 17 26 1.82125 0 33 1.82125 1
gene 1 17 27 -0.863333 0 34 -0.863333 1
gene 1 18 26 1.67836 0 35 1.67836 1
gene 1 18 27 -0.462341 0 36 -0.462341 1
gene 1 19 26 -4.6648 0 37 -4.6648 1
gene 1 19 27 1.30561 0 38 1.30561 1
gene 1 20 26 -0.274941 0 39 -0.274941 1
gene 1 20 27 0.242357 0 40 0.242357 1
gene 1 21 26 -1.36969 0 41 -1.36969 1
gene 1 21 27 -0.628098 0 42 -0.628098 1
gene 1 22 26 -0.939957 0 43 -0.939957 1
gene 1 22 27 2.15269 0 44 2.15269 1
gene 1 23 26 0.977606 0 45 0.977606 1
gene 1 23 27 0.56928 0 46 0.56928 1
gene 1 24 26 2.14837 0 47 2.14837 1
gene 1 24 27 -1.23789 0 48 -1.23789 0
gene 1 25 26 0.702277 0 49 0.702277 1
gene 1 25 27 -1.32556 0 50 -1.32556 1
gene 1 1 50 1.49577 0 98 1.49577 1
gene 1 50 27 1.56207 0 99 1.56207 1
genomeend 109


/* Organism #161 Quality: 1.000000 Time: 0 Id: 14 */
/* 3.30956e-06 -0.999831 -0.998598 -0.934608 1.76612 -0.998003 1.7155 -0.991812 0.957736 -0.922915 -0.666149 -0.874246 0.968193 -0.803812  */
genomestart 161
trait 1 0.1 0 0 0 0 0 0 0 
node 1 1 1 1
node 2 1 1 1
node 3 1 1 1
node 4 1 1 1
node 5 1 1 1
node 6 1 1 1
node 7 1 1 1
node 8 1 1 1
node 9 1 1 1
node 10 1 1 1
node 11 1 1 1
node 12 1 1 1
node 13 1 1 1
node 14 1 1 1
node 15 1 1 1
node 16 1 1 1
node 17 1 1 1
node 18 1 1 1
node 19 1 1 1
node 20 1 1 1
node 21 1 1 1
node 22 1 1 1
node 23 1 1 1
node 24 1 1 1
node 25 1 1 3
node 26 1 0 2
node 27 1 0 2
node 53 1 0 0
node 143 1 0 0
gene 1 1 26 0.958902 0 1 0.958902 1
gene 1 1 27 -0.0869334 0 2 -0.0869334 1
gene 1 2 26 2.95813 0 3 2.95813 1
gene 1 2 27 -1.98033 0 4 -1.98033 1
gene 1 3 26 0.315607 0 5 0.315607 1
gene 1 3 27 -1.12197 0 6 -1.12197 1
gene 1 4 26 0.83529 0 7 0.83529 0
gene 1 4 27 1.73405 0 8 1.73405 1
gene 1 5 26 0.286213 0 9 0.286213 1
gene 1 5 27 1.38496 0 10 1.38496 1
gene 1 6 26 3.49438 0 11 3.49438 1
gene 1 6 27 1.69369 0 12 1.69369 1
gene 1 7 26 0.695731 0 13 0.695731 1
gene 1 7 27 1.1748 0 14 1.1748 1
gene 1 8 26 -5 0 15 -5 1
gene 1 8 27 -0.490013 0 16 -0.490013 1
gene 1 9 26 -3.97772 0 17 -3.97772 1
gene 1 9 27 -4.98297 0 18 -4.98297 1
gene 1 10 26 -1.41921 0 19 -1.41921 1
gene 1 10 27 4.46775 0 20 4.46775 1
gene 1 11 26 -0.416315 0 21 -0.416315 1
gene 1 11 27 -3.26247 0 22 -3.26247 1
gene 1 12 26 1.99303 0 23 1.99303 1
gene 1 12 27 2.02886 0 24 2.02886 1
gene 1 13 26 1.15379 0 25 1.15379 1
gene 1 13 27 -0.944096 0 26 -0.944096 0
gene 1 14 26 1.43871 0 27 1.43871 1
gene 1 14 27 2.73235 0 28 2.73235 1
gene 1 15 26 -2.36973 0 29 -2.36973 1
gene 1 15 27 -2.40257 0 30 -2.40257 0
gene 1 16 26 5 0 31 5 1
gene 1 16 27 -0.0697741 0 32 -0.0697741 1
gene 1 17 26 1.06492 0 33 1.06492 1
gene 1 17 27 -1.87901 0 34 -1.87901 1
gene 1 18 26 1.95682 0 35 1.95682 1
gene 1 18 27 3.61663 0 36 3.61663 1
gene 1 19 26 3.31258 0 37 3.31258 1
gene 1 19 27 1.05128 0 38 1.05128 1
gene 1 20 26 0.0276621 0 39 0.0276621 1
gene 1 20 27 3.55257 0 40 3.55257 1
gene 1 21 26 3.05507 0 41 3.05507 1
gene 1 21 27 -0.0851665 0 42 -0.0851665 1
gene 1 22 26 -0.331551 0 43 -0.331551 1
gene 1 22 27 0.819947 0 44 0.819947 1
gene 1 23 26 -1.87336 0 45 -1.87336 1
gene 1 23 27 -2.91076 0 46 -2.91076 1
gene 1 24 26 -0.336018 0 47 -0.336018 1
gene 1 24 27 -1.30049 0 48 -1.30049 1
gene 1 25 26 1.17911 0 49 1.17911 1
gene 1 25 27 -4.77274 0 50 -4.77274 1
gene 1 4 53 1.65357 0 105 1.65357 1
gene 1 53 26 1.37186 0 106 1.37186 1
gene 1 8 53 -0.611542 0 341 -0.611542 1
gene 1 13 143 -1.56711 0 415 -1.56711 1
gene 1 143 27 -2.38789 0 416 -2.38789 1
genomeend 161


/* Organism #485 Quality: 1.000000 Time: 0 Id: 15 */
/* 0.00277289 -0.998318 -0.721849 -0.826531 1.48115 -0.970786 1.65396 -0.890109 0.823129 -0.237139 -0.668637 -0.874889 1.53025 -0.901061  */
genomestart 485
trait 1 0.1 0 0 0 0 0 0 0 
node 1 1 1 1
node 2 1 1 1
node 3 1 1 1
node 4 1 1 1
node 5 1 1 1
node 6 1 1 1
node 7 1 1 1
node 8 1 1 1
node 9 1 1 1
node 10 1 1 1
node 11 1 1 1
node 12 1 1 1
node 13 1 1 1
node 14 1 1 1
node 15 1 1 1
node 16 1 1 1
node 17 1 1 1
node 18 1 1 1
node 19 1 1 1
node 20 1 1 1
node 21 1 1 1
node 22 1 1 1
node 23 1 1 1
node 24 1 1 1
node 25 1 1 3
node 26 1 0 2
node 27 1 0 2
node 53 1 0 0
node 79 1 0 0
node 168 1 0 0
gene 1 1 26 0.0486687 0 1 0.0486687 1
gene 1 1 27 -5 0 2 -5 1
gene 1 2 26 1.05476 0 3 1.05476 1
gene 1 2 27 -3.58342 0 4 -3.58342 1
gene 1 3 26 1.15033 0 5 1.15033 1
gene 1 3 27 -2.1567 0 6 -2.1567 1
gene 1 4 26 3.58932 0 7 3.58932 1
gene 1 4 27 2.20987 0 8 2.20987 1
gene 1 5 26 1.83579 0 9 1.83579 1
gene 1 5 27 0.165482 0 10 0.165482 1
gene 1 6 26 0.85755 0 11 0.85755 1
gene 1 6 27 5 0 12 5 1
gene 1 7 26 -3.95989 0 13 -3.95989 1
gene 1 7 27 2.15423 0 14 2.15423 1
gene 1 8 26 -1.11113 0 15 -1.11113 1
gene 1 8 27 -4.54812 0 16 -4.54812 1
gene 1 9 26 1.75548 0 17 1.75548 1
gene 1 9 27 4.58324 0 18 4.58324 0
gene 1 10 26 1.03628 0 19 1.03628 1
gene 1 10 27 5 0 20 5 1
gene 1 11 26 -5 0 21 -5 1
gene 1 11 27 2.78164 0 22 2.78164 1
gene 1 12 26 -2.14183 0 23 -2.14183 1
gene 1 12 27 -1.18432 0 24 -1.18432 1
gene 1 13 26 2.24349 0 25 2.24349 1
gene 1 13 27 -3.50211 0 26 -3.50211 1
gene 1 14 26 0.637492 0 27 0.637492 1
gene 1 14 27 -0.153366 0 28 -0.153366 1
gene 1 15 26 0.551668 0 29 0.551668 1
gene 1 15 27 3.18513 0 30 3.18513 0
gene 1 16 26 -0.176675 0 31 -0.176675 1
gene 1 16 27 -1.83981 0 32 -1.83981 1
gene 1 17 26 2.34796 0 33 2.34796 1
gene 1 17 27 2.78587 0 34 2.78587 1
gene 1 18 26 1.21015 0 35 1.21015 1
gene 1 18 27 2.34772 0 36 2.34772 1
gene 1 19 26 1.29237 0 37 1.29237 1
gene 1 19 27 -2.133 0 38 -2.133 1
gene 1 20 26 3.15973 0 39 3.15973 1
gene 1 20 27 -5 0 40 -5 1
gene 1 21 26 1.00366 0 41 1.00366 1
gene 1 21 27 0.525745 0 42 0.525745 1
gene 1 22 26 3.22976 0 43 3.22976 1
gene 1 22 27 -0.299061 0 44 -0.299061 1
gene 1 23 26 -0.105253 0 45 -0.105253 1
gene 1 23 27 0.99062 0 46 0.99062 1
gene 1 24 26 4.55452 0 47 4.55452 1
gene 1 24 27 0.0149575 0 48 0.0149575 1
gene 1 25 26 0.210818 0 49 0.210818 1
gene 1 25 27 0.96173 0 50 0.96173 1
gene 1 4 53 0.898996 0 105 0.898996 1
gene 1 53 26 2.57684 0 106 2.57684 1
gene 1 8 79 -0.0331665 0 176 -0.0331665 1
gene 1 79 27 -0.944702 0 177 -0.944702 1
gene 1 9 168 3.2419 0 511 3.2419 1
gene 1 168 27 -2.54797 0 512 -2.54797 1
genomeend 485


/* Organism #797 Quality: 1.000000 Time: 0 Id: 16 */
/* -0.00116266 -0.998931 0.88299 -0.879461 1.74663 -0.987155 1.63859 -0.933886 1.24227 -0.415388 -0.669263 -0.875334 1.53002 -0.901759  */
genomestart 797
trait 1 0.1 0 0 0 0 0 0 0 
node 1 1 1 1
node 2 1 1 1
node 3 1 1 1
node 4 1 1 1
node 5 1 1 1
node 6 1 1 1
node 7 1 1 1
node 8 1 1 1
node 9 1 1 1
node 10 1 1 1
node 11 1 1 1
node 12 1 1 1
node 13 1 1 1
node 14 1 1 1
node 15 1 1 1
node 16 1 1 1
node 17 1 1 1
node 18 1 1 1
node 19 1 1 1
node 20 1 1 1
node 21 1 1 1
node 22 1 1 1
node 23 1 1 1
node 24 1 1 1
node 25 1 1 3
node 26 1 0 2
node 27 1 0 2
node 49 1 0 0
node 74 1 0 0
node 191 1 0 0
gene 1 1 26 -0.906497 0 1 -0.906497 1
gene 1 1 27 -0.625977 0 2 -0.625977 1
gene 1 2 26 -1.22096 0 3 -1.22096 1
gene 1 2 27 -2.33818 0 4 -2.33818 1
gene 1 3 26 1.29586 0 5 1.29586 1
gene 1 3 27 1.28877 0 6 1.28877 0
gene 1 4 26 -1.6045 0 7 -1.6045 0
gene 1 4 27 1.95105 0 8 1.95105 1
gene 1 5 26 -2.84471 0 9 -2.84471 1
gene 1 5 27 1.64231 0 10 1.64231 1
gene 1 6 26 -0.441224 0 11 -0.441224 1
gene 1 6 27 1.35605 0 12 1.35605 1
gene 1 7 26 -0.82131 0 13 -0.82131 1
gene 1 7 27 -1.14018 0 14 -1.14018 1
gene 1 8 26 0.829851 0 15 0.829851 1
gene 1 8 27 -1.22614 0 16 -1.22614 1
gene 1 9 26 -0.346253 0 17 -0.346253 1
gene 1 9 27 0.830526 0 18 0.830526 1
gene 1 10 26 -2.87088 0 19 -2.87088 1
gene 1 10 27 1.93829 0 20 1.93829 1
gene 1 11 26 0.0899231 0 21 0.0899231 1
gene 1 11 27 -1.71596 0 22 -1.71596 1
gene 1 12 26 3.11379 0 23 3.11379 1
gene 1 12 27 2.84303 0 24 2.84303 1
gene 1 13 26 2.04111 0 25 2.04111 1
gene 1 13 27 -1.18948 0 26 -1.18948 1
gene 1 14 26 -0.094139 0 27 -0.094139 1
gene 1 14 27 1.20301 0 28 1.20301 1
gene 1 15 26 -0.165187 0 29 -0.165187 0
gene 1 15 27 -2.26029 0 30 -2.26029 1
gene 1 16 26 -1.90191 0 31 -1.90191 1
gene 1 16 27 -2.48567 0 32 -2.48567 1
gene 1 17 26 -0.0608794 0 33 -0.0608794 1
gene 1 17 27 -2.20454 0 34 -2.20454 1
gene 1 18 26 -0.989996 0 35 -0.989996 1
gene 1 18 27 -0.373681 0 36 -0.373681 1
gene 1 19 26 -0.239212 0 37 -0.239212 1
gene 1 19 27 -2.32138 0 38 -2.32138 1
gene 1 20 26 -2.56009 0 39 -2.56009 1
gene 1 20 27 0.619868 0 40 0.619868 1
gene 1 21 26 -5 0 41 -5 1
gene 1 21 27 -1.80542 0 42 -1.80542 1
gene 1 22 26 -3.35482 0 43 -3.35482 1
gene 1 22 27 0.299011 0 44 0.299011 1
gene 1 23 26 -1.40084 0 45 -1.40084 1
gene 1 23 27 -0.0428555 0 46 -0.0428555 1
gene 1 24 26 -0.937507 0 47 -0.937507 1
gene 1 24 27 0.597222 0 48 0.597222 1
gene 1 25 26 -3.05717 0 49 -3.05717 1
gene 1 25 27 1.82094 0 50 1.82094 1
gene 1 15 49 -2.3066 0 96 -2.3066 1
gene 1 49 26 -2.23622 0 97 -2.23622 1
gene 1 3 74 0.961756 0 154 0.961756 1
gene 1 74 27 1.80165 0 155 1.80165 1
gene 1 4 191 1 0 588 1 1
gene 1 191 26 -2.1858 0 589 -2.1858 1
genomeend 797


/* Organism #927 Quality: 1.000000 Time: 0 Id: 17 */
/* -4.99853e-05 -0.999478 -0.00212863 -0.599963 1.48956 -0.991721 1.65615 -0.971133 0.86839 -0.774944 -0.669178 -0.875367 1.5302 -0.90148  */
genomestart 927
trait 1 0.1 0 0 0 0 0 0 0 
node 1 1 1 1
node 2 1 1 1
node 3 1 1 1
node 4 1 1 1
node 5 1 1 1
node 6 1 1 1
node 7 1 1 1
node 8 1 1 1
node 9 1 1 1
node 10 1 1 1
node 11 1 1 1
node 12 1 1 1
node 13 1 1 1
node 14 1 1 1
node 15 1 1 1
node 16 1 1 1
node 17 1 1 1
node 18 1 1 1
node 19 1 1 1
node 20 1 1 1
node 21 1 1 1
node 22 1 1 1
node 23 1 1 1
node 24 1 1 1
node 25 1 1 3
node 26 1 0 2
node 27 1 0 2
node 53 1 0 0
node 93 1 0 0
node 218 1 0 0
gene 1 1 26 2.17095 0 1 2.17095 1
gene 1 1 27 -2.13475 0 2 -2.13475 1
gene 1 2 26 -0.0466159 0 3 -0.0466159 1
gene 1 2 27 -0.985411 0 4 -0.985411 1
gene 1 3 26 3.47384 0 5 3.47384 1
gene 1 3 27 -3.10618 0 6 -3.10618 1
gene 1 4 26 0.801497 0 7 0.801497 0
gene 1 4 27 4.61728 0 8 4.61728 1
gene 1 5 26 1.26243 0 9 1.26243 1
gene 1 5 27 -1.19785 0 10 -1.19785 1
gene 1 6 26 0.435777 0 11 0.435777 1
gene 1 6 27 4.12621 0 12 4.12621 1
gene 1 7 26 0.45273 0 13 0.45273 1
gene 1 7 27 0.711882 0 14 0.711882 1
gene 1 8 26 -2.08786 0 15 -2.08786 1
gene 1 8 27 -1.52988 0 16 -1.52988 1
gene 1 9 26 -0.902636 0 17 -0.902636 0
gene 1 9 27 0.121555 0 18 0.121555 1
gene 1 10 26 0.723945 0 19 0.723945 1
gene 1 10 27 3.72337 0 20 3.72337 1
gene 1 11 26 -4.15101 0 21 -4.15101 1
gene 1 11 27 3.9551 0 22 3.9551 1
gene 1 12 26 -3.47037 0 23 -3.47037 1
gene 1 12 27 1.45056 0 24 1.45056 0
gene 1 13 26 -0.621532 0 25 -0.621532 1
gene 1 13 27 0.355617 0 26 0.355617 1
gene 1 14 26 -0.378249 0 27 -0.378249 1
gene 1 14 27 -0.422672 0 28 -0.422672 1
gene 1 15 26 0.552035 0 29 0.552035 1
gene 1 15 27 -2.29236 0 30 -2.29236 1
gene 1 16 26 -1.00952 0 31 -1.00952 1
gene 1 16 27 2.94608 0 32 2.94608 1
gene 1 17 26 0.0359515 0 33 0.0359515 1
gene 1 17 27 1.04327 0 34 1.04327 1
gene 1 18 26 0.532468 0 35 0.532468 1
gene 1 18 27 -1.97324 0 36 -1.97324 1
gene 1 19 26 1.70905 0 37 1.70905 1
gene 1 19 27 -0.696438 0 38 -0.696438 1
gene 1 20 26 4.87571 0 39 4.87571 1
gene 1 20 27 -3.60263 0 40 -3.60263 1
gene 1 21 26 -0.178027 0 41 -0.178027 1
gene 1 21 27 0.353273 0 42 0.353273 1
gene 1 22 26 0.290389 0 43 0.290389 0
gene 1 22 27 0.462725 0 44 0.462725 1
gene 1 23 26 -1.23659 0 45 -1.23659 1
gene 1 23 27 0.418415 0 46 0.418415 1
gene 1 24 26 -0.260103 0 47 -0.260103 1
gene 1 24 27 -0.232938 0 48 -0.232938 1
gene 1 25 26 -1.4496 0 49 -1.4496 1
gene 1 25 27 1.04699 0 50 1.04699 1
gene 1 4 53 0.274646 0 105 0.274646 1
gene 1 53 26 -0.851501 0 106 -0.851501 1
gene 1 12 93 1.53782 0 242 1.53782 1
gene 1 93 27 0.169469 0 243 0.169469 1
gene 1 22 218 1 0 686 0 1
gene 1 218 26 0.290389 0 687 0 1
genomeend 927


/* Organism #929 Quality: 1.000000 Time: 0 Id: 18 */
/* -9.85389e-06 -0.999491 -0.111963 -0.615988 1.4992 -0.993825 1.67537 -0.976138 1.19934 -0.744316 -0.6692 -0.875414 2.0734 -0.799583  */
genomestart 929
trait 1 0.1 0 0 0 0 0 0 0 
node 1 1 1 1
node 2 1 1 1
node 3 1 1 1
node 4 1 1 1
node 5 1 1 1
node 6 1 1 1
node 7 1 1 1
node 8 1 1 1
node 9 1 1 1
node 10 1 1 1
node 11 1 1 1
node 12 1 1 1
node 13 1 1 1
node 14 1 1 1
node 15 1 1 1
node 16 1 1 1
node 17 1 1 1
node 18 1 1 1
node 19 1 1 1
node 20 1 1 1
node 21 1 1 1
node 22 1 1 1
node 23 1 1 1
node 24 1 1 1
node 25 1 1 3
node 26 1 0 2
node 27 1 0 2
node 53 1 0 0
node 93 1 0 0
node 218 1 0 0
gene 1 1 26 2.17095 0 1 2.17095 1
gene 1 1 27 -2.13475 0 2 -2.13475 1
gene 1 2 26 -0.0466159 0 3 -0.0466159 1
gene 1 2 27 -0.985411 0 4 -0.985411 1
gene 1 3 26 3.47384 0 5 3.47384 1
gene 1 3 27 -3.10618 0 6 -3.10618 1
gene 1 4 26 0.801497 0 7 0.801497 0
gene 1 4 27 4.61728 0 8 4.61728 1
gene 1 5 26 1.26243 0 9 1.26243 1
gene 1 5 27 -1.19785 0 10 -1.19785 1
gene 1 6 26 0.435777 0 11 0.435777 1
gene 1 6 27 4.12621 0 12 4.12621 1
gene 1 7 26 0.45273 0 13 0.45273 1
gene 1 7 27 0.711882 0 14 0.711882 1
gene 1 8 26 -2.08786 0 15 -2.08786 1
gene 1 8 27 -1.52988 0 16 -1.52988 1
gene 1 9 26 -0.902636 0 17 -0.902636 0
gene 1 9 27 0.121555 0 18 0.121555 1
gene 1 10 26 0.723945 0 19 0.723945 1
gene 1 10 27 3.72337 0 20 3.72337 1
gene 1 11 26 -4.15101 0 21 -4.15101 1
gene 1 11 27 3.9551 0 22 3.9551 1
gene 1 12 26 -3.47037 0 23 -3.47037 1
gene 1 12 27 1.45056 0 24 1.45056 0
gene 1 13 26 -0.621532 0 25 -0.621532 1
gene 1 13 27 0.355617 0 26 0.355617 1
gene 1 14 26 -0.378249 0 27 -0.378249 1
gene 1 14 27 -0.422672 0 28 -0.422672 1
gene 1 15 26 0.552035 0 29 0.552035 1
gene 1 15 27 -2.29236 0 30 -2.29236 1
gene 1 16 26 -1.00952 0 31 -1.00952 1
gene 1 16 27 2.94608 0 32 2.94608 1
gene 1 17 26 0.0359515 0 33 0.0359515 1
gene 1 17 27 1.04327 0 34 1.04327 1
gene 1 18 26 0.532468 0 35 0.532468 1
gene 1 18 27 -1.97324 0 36 -1.97324 1
gene 1 19 26 1.70905 0 37 1.70905 1
gene 1 19 27 -0.696438 0 38 -0.696438 1
gene 1 20 26 4.87571 0 39 4.87571 1
gene 1 20 27 -3.60263 0 40 -3.60263 1
gene 1 21 26 -0.178027 0 41 -0.178027 1
gene 1 21 27 0.353273 0 42 0.353273 1
gene 1 22 26 0.290389 0 43 0.290389 0
gene 1 22 27 0.462725 0 44 0.462725 1
gene 1 23 26 -1.23659 0 45 -1.23659 1
gene 1 23 27 0.418415 0 46 0.418415 1
gene 1 24 26 -0.260103 0 47 -0.260103 1
gene 1 24 27 -0.232938 0 48 -0.232938 1
gene 1 25 26 -1.4496 0 49 -1.4496 1
gene 1 25 27 1.04699 0 50 1.04699 1
gene 1 4 53 0.274646 0 105 0.274646 1
gene 1 53 26 -0.851501 0 106 -0.851501 1
gene 1 12 93 1.53782 0 242 1.53782 1
gene 1 93 27 0.169469 0 243 0.169469 1
gene 1 22 218 1 0 686 0 1
gene 1 218 26 0.290389 0 687 0 1
genomeend 929


/* Organism #211 Quality: 1.000000 Time: 0 Id: 19 */
/* 0.00016919 -0.998682 -0.867896 -0.863399 1.76087 -0.983272 1.69001 -0.927437 0.263274 -0.459431 -0.66746 -0.87481 0.912024 -0.758161  */
genomestart 211
trait 1 0.1 0.296305 0.0726609 0 0.608615 0 0 0 
node 1 1 1 1
node 2 1 1 1
node 3 1 1 1
node 4 1 1 1
node 5 1 1 1
node 6 1 1 1
node 7 1 1 1
node 8 1 1 1
node 9 1 1 1
node 10 1 1 1
node 11 1 1 1
node 12 1 1 1
node 13 1 1 1
node 14 1 1 1
node 15 1 1 1
node 16 1 1 1
node 17 1 1 1
node 18 1 1 1
node 19 1 1 1
node 20 1 1 1
node 21 1 1 1
node 22 1 1 1
node 23 1 1 1
node 24 1 1 1
node 25 1 1 3
node 26 1 0 2
node 27 1 0 2
node 63 1 0 0
node 89 1 0 0
gene 1 1 26 1.36235 0 1 1.36235 1
gene 1 1 27 -5 0 2 -5 1
gene 1 2 26 -2.03633 0 3 -2.03633 1
gene 1 2 27 5 0 4 5 0
gene 1 3 26 2.27405 0 5 2.27405 1
gene 1 3 27 -2.42426 0 6 -2.42426 1
gene 1 4 26 1.47668 0 7 1.47668 1
gene 1 4 27 -2.43247 0 8 -2.43247 1
gene 1 5 26 2.74658 0 9 2.74658 1
gene 1 5 27 1.41214 0 10 1.41214 1
gene 1 6 26 1.52543 0 11 1.52543 1
gene 1 6 27 4.58157 0 12 4.58157 1
gene 1 7 26 -0.681391 0 13 -0.681391 0
gene 1 7 27 -1.59686 0 14 -1.59686 1
gene 1 8 26 0.00818262 0 15 0.00818262 1
gene 1 8 27 -3.19505 0 16 -3.19505 1
gene 1 9 26 0.278024 0 17 0.278024 1
gene 1 9 27 -3.58832 0 18 -3.58832 1
gene 1 10 26 -0.517876 0 19 -0.517876 1
gene 1 10 27 5 0 20 5 1
gene 1 11 26 0.901928 0 21 0.901928 1
gene 1 11 27 -5 0 22 -5 1
gene 1 12 26 1.56979 0 23 1.56979 1
gene 1 12 27 -0.109732 0 24 -0.109732 1
gene 1 13 26 5 0 25 5 1
gene 1 13 27 3.78766 0 26 3.78766 1
gene 1 14 26 -2.60737 0 27 -2.60737 1
gene 1 14 27 1.22557 0 28 1.22557 1
gene 1 15 26 -4.9309 0 29 -4.9309 1
gene 1 15 27 1.36402 0 30 1.36402 1
gene 1 16 26 -2.64251 0 31 -2.64251 1
gene 1 16 27 -4.00685 0 32 -4.00685 0
gene 1 17 26 0.102407 0 33 0.102407 1
gene 1 17 27 -3.2208 0 34 -3.2208 1
gene 1 18 26 3.6647 0 35 3.6647 1
gene 1 18 27 2.1916 0 36 2.1916 1
gene 1 19 26 -5 0 37 -5 1
gene 1 19 27 2.80193 0 38 2.80193 1
gene 1 20 26 -3.06706 0 39 -3.06706 1
gene 1 20 27 -2.8097 0 40 -2.8097 1
gene 1 21 26 -1.98576 0 41 -1.98576 0
gene 1 21 27 1.191 0 42 1.191 1
gene 1 22 26 -2.7268 0 43 -2.7268 1
gene 1 22 27 -0.70152 0 44 -0.70152 1
gene 1 23 26 -0.271395 0 45 -0.271395 1
gene 1 23 27 4.33596 0 46 4.33596 1
gene 1 24 26 -1.36246 0 47 -1.36246 1
gene 1 24 27 -3.5475 0 48 -3.5475 1
gene 1 25 26 5 0 49 5 1
gene 1 25 27 -1.51538 0 50 -1.51538 1
gene 1 7 63 -1.78638 0 125 -1.78638 1
gene 1 63 26 -1.40382 0 126 -1.40382 1
gene 1 21 89 0.611611 0 225 0.611611 1
gene 1 89 26 -0.676964 0 226 -0.676964 1
genomeend 211


/* Organism #221 Quality: 1.000000 Time: 0 Id: 20 */
/* 0.000502184 -0.998911 0.864649 -0.865676 1.75186 -0.979489 1.65095 -0.907756 0.0252146 -0.342343 -0.66741 -0.874769 1.04769 -0.756149  */
genomestart 221
trait 1 0.1 0.170261 0.145322 0 0.241065 0 0 0 
node 1 1 1 1
node 2 1 1 1
node 3 1 1 1
node 4 1 1 1
node 5 1 1 1
node 6 1 1 1
node 7 1 1 1
node 8 1 1 1
node 9 1 1 1
node 10 1 1 1
node 11 1 1 1
node 12 1 1 1
node 13 1 1 1
node 14 1 1 1
node 15 1 1 1
node 16 1 1 1
node 17 1 1 1
node 18 1 1 1
node 19 1 1 1
node 20 1 1 1
node 21 1 1 1
node 22 1 1 1
node 23 1 1 1
node 24 1 1 1
node 25 1 1 3
node 26 1 0 2
node 27 1 0 2
node 63 1 0 0
node 89 1 0 0
gene 1 1 26 -0.357429 0 1 -0.357429 1
gene 1 1 27 -1.41011 0 2 -1.41011 1
gene 1 2 26 -0.685003 0 3 -0.685003 1
gene 1 2 27 0.0165483 0 4 0.0165483 0
gene 1 3 26 -1.05352 0 5 -1.05352 1
gene 1 3 27 -3.21313 0 6 -3.21313 1
gene 1 4 26 3.54535 0 7 3.54535 1
gene 1 4 27 2.09718 0 8 2.09718 1
gene 1 5 26 -1.49362 0 9 -1.49362 1
gene 1 5 27 2.41436 0 10 2.41436 1
gene 1 6 26 -0.955243 0 11 -0.955243 1
gene 1 6 27 5 0 12 5 1
gene 1 7 26 0.776318 0 13 0.776318 0
gene 1 7 27 -0.710873 0 14 -0.710873 1
gene 1 8 26 -3.14077 0 15 -3.14077 1
gene 1 8 27 -0.531714 0 16 -0.531714 1
gene 1 9 26 1.55484 0 17 1.55484 1
gene 1 9 27 -0.856563 0 18 -0.856563 1
gene 1 10 26 -0.226331 0 19 -0.226331 1
gene 1 10 27 -0.395997 0 20 -0.395997 1
gene 1 11 26 2.45808 0 21 2.45808 1
gene 1 11 27 -4.24879 0 22 -4.24879 1
gene 1 12 26 0.967907 0 23 0.967907 1
gene 1 12 27 -2.5872 0 24 -2.5872 1
gene 1 13 26 2.27653 0 25 2.27653 1
gene 1 13 27 -2.29961 0 26 -2.29961 1
gene 1 14 26 -0.273566 0 27 -0.273566 1
gene 1 14 27 2.85709 0 28 2.85709 1
gene 1 15 26 -0.238779 0 29 -0.238779 1
gene 1 15 27 4.61065 0 30 4.61065 1
gene 1 16 26 -2.29668 0 31 -2.29668 1
gene 1 16 27 -4.4665 0 32 -4.4665 0
gene 1 17 26 2.57885 0 33 2.57885 1
gene 1 17 27 0.414714 0 34 0.414714 1
gene 1 18 26 5 0 35 5 1
gene 1 18 27 -0.715335 0 36 -0.715335 1
gene 1 19 26 -2.80978 0 37 -2.80978 1
gene 1 19 27 1.65679 0 38 1.65679 1
gene 1 20 26 -0.586155 0 39 -0.586155 1
gene 1 20 27 2.3248 0 40 2.3248 1
gene 1 21 26 -0.469406 0 41 -0.469406 0
gene 1 21 27 -2.30287 0 42 -2.30287 1
gene 1 22 26 1.17319 0 43 1.17319 1
gene 1 22 27 -1.73712 0 44 -1.73712 1
gene 1 23 26 -1.81939 0 45 -1.81939 1
gene 1 23 27 -1.37985 0 46 -1.37985 1
gene 1 24 26 -2.74467 0 47 -2.74467 1
gene 1 24 27 -2.30428 0 48 -2.30428 1
gene 1 25 26 -2.0871 0 49 -2.0871 1
gene 1 25 27 0.295478 0 50 0.295478 1
gene 1 7 63 -2.21806 0 125 -2.21806 1
gene 1 63 26 -0.82415 0 126 -0.82415 1
gene 1 21 89 -0.515337 0 225 -0.515337 1
gene 1 89 26 -0.334201 0 226 -0.334201 1
gene 1 3 89 0.728332 0 681 0.728332 1
gene 1 21 63 0.47544 0 846 0.47544 1
genomeend 221


/* Organism #372 Quality: 1.000000 Time: 0 Id: 21 */
/* 3.70407e-05 -0.999721 -0.994792 -0.930788 1.52656 -0.993704 1.7457 -0.980436 0.289017 -0.790323 1.4418 0.189365 1.15597 -0.646363  */
genomestart 372
trait 1 0.1 0 0 0 0 0 0 0 
node 1 1 1 1
node 2 1 1 1
node 3 1 1 1
node 4 1 1 1
node 5 1 1 1
node 6 1 1 1
node 7 1 1 1
node 8 1 1 1
node 9 1 1 1
node 10 1 1 1
node 11 1 1 1
node 12 1 1 1
node 13 1 1 1
node 14 1 1 1
node 15 1 1 1
node 16 1 1 1
node 17 1 1 1
node 18 1 1 1
node 19 1 1 1
node 20 1 1 1
node 21 1 1 1
node 22 1 1 1
node 23 1 1 1
node 24 1 1 1
node 25 1 1 3
node 26 1 0 2
node 27 1 0 2
node 63 1 0 0
node 264 1 0 0
gene 1 1 26 -0.31197 0 1 -0.31197 1
gene 1 1 27 -5 0 2 -5 1
gene 1 2 26 -3.95838 0 3 -3.95838 1
gene 1 2 27 -2.09128 0 4 -2.09128 1
gene 1 3 26 1.34273 0 5 1.34273 1
gene 1 3 27 0.400347 0 6 0.400347 1
gene 1 4 26 -0.650051 0 7 -0.650051 1
gene 1 4 27 -0.643309 0 8 -0.643309 1
gene 1 5 26 0.630186 0 9 0.630186 1
gene 1 5 27 5 0 10 5 1
gene 1 6 26 -4.08442 0 11 -4.08442 1
gene 1 6 27 1.27406 0 12 1.27406 1
gene 1 7 26 -0.433182 0 13 -0.433182 0
gene 1 7 27 -0.635864 0 14 -0.635864 1
gene 1 8 26 -2.77573 0 15 -2.77573 1
gene 1 8 27 -2.42394 0 16 -2.42394 1
gene 1 9 26 -1.25971 0 17 -1.25971 1
gene 1 9 27 -3.53792 0 18 -3.53792 1
gene 1 10 26 3.62266 0 19 3.62266 1
gene 1 10 27 2.49812 0 20 2.49812 1
gene 1 11 26 -2.37154 0 21 -2.37154 1
gene 1 11 27 3.24528 0 22 3.24528 1
gene 1 12 26 0.128433 0 23 0.128433 1
gene 1 12 27 -1.66308 0 24 -1.66308 1
gene 1 13 26 2.85929 0 25 2.85929 1
gene 1 13 27 -2.27499 0 26 -2.27499 1
gene 1 14 26 -1.6029 0 27 -1.6029 1
gene 1 14 27 -2.34939 0 28 -2.34939 1
gene 1 15 26 2.07608 0 29 2.07608 1
gene 1 15 27 -0.991392 0 30 -0.991392 1
gene 1 16 26 0.631984 0 31 0.631984 1
gene 1 16 27 -2.17382 0 32 -2.17382 0
gene 1 17 26 5 0 33 5 1
gene 1 17 27 -0.759091 0 34 -0.759091 1
gene 1 18 26 1.55173 0 35 1.55173 1
gene 1 18 27 -1.17189 0 36 -1.17189 1
gene 1 19 26 -3.48824 0 37 -3.48824 1
gene 1 19 27 -4.68547 0 38 -4.68547 1
gene 1 20 26 1.10141 0 39 1.10141 1
gene 1 20 27 -3.88647 0 40 -3.88647 1
gene 1 21 26 4.30718 0 41 4.30718 1
gene 1 21 27 -1.23017 0 42 -1.23017 1
gene 1 22 26 -0.849358 0 43 -0.849358 1
gene 1 22 27 0.57608 0 44 0.57608 0
gene 1 23 26 3.7285 0 45 3.7285 1
gene 1 23 27 0.00408282 0 46 0.00408282 1
gene 1 24 26 -1.16336 0 47 -1.16336 1
gene 1 24 27 5 0 48 5 1
gene 1 25 26 1.78819 0 49 1.78819 1
gene 1 25 27 -1.03734 0 50 -1.03734 1
gene 1 7 63 1.56208 0 125 1.56208 1
gene 1 63 26 1.42399 0 126 1.42399 1
gene 1 15 63 1.17514 0 356 1.17514 1
gene 1 24 63 -0.998247 0 488 -0.998247 1
gene 1 22 264 1 0 858 0 1
gene 1 264 27 0.57608 0 859 0 1
genomeend 372


/* Organism #29 Quality: 1.000000 Time: 0 Id: 22 */
/* -0.000422183 -0.998121 0.695778 -0.812833 1.77048 -0.970665 1.76329 -0.852396 1.66952 -0.195228 -0.666839 -0.875518 1.87157 -0.688187  */
genomestart 29
trait 1 0.1 0 0 0 0 0 0 0 
node 1 1 1 1
node 2 1 1 1
node 3 1 1 1
node 4 1 1 1
node 5 1 1 1
node 6 1 1 1
node 7 1 1 1
node 8 1 1 1
node 9 1 1 1
node 10 1 1 1
node 11 1 1 1
node 12 1 1 1
node 13 1 1 1
node 14 1 1 1
node 15 1 1 1
node 16 1 1 1
node 17 1 1 1
node 18 1 1 1
node 19 1 1 1
node 20 1 1 1
node 21 1 1 1
node 22 1 1 1
node 23 1 1 1
node 24 1 1 1
node 25 1 1 3
node 26 1 0 2
node 27 1 0 2
node 31 1 0 0
node 104 1 0 0
node 277 1 0 0
gene 1 1 26 -0.75971 0 1 -0.75971 1
gene 1 1 27 -5 0 2 -5 1
gene 1 2 26 -3.03687 0 3 -3.03687 1
gene 1 2 27 -0.0501643 0 4 -0.0501643 1
gene 1 3 26 -0.521064 0 5 -0.521064 1
gene 1 3 27 5 0 6 5 1
gene 1 4 26 -2.69195 0 7 -2.69195 1
gene 1 4 27 4.94647 0 8 4.94647 1
gene 1 5 26 -2.0215 0 9 -2.0215 0
gene 1 5 27 4.20269 0 10 4.20269 1
gene 1 6 26 -1.76103 0 11 -1.76103 1
gene 1 6 27 0.537415 0 12 0.537415 1
gene 1 7 26 1.2137 0 13 1.2137 1
gene 1 7 27 2.52485 0 14 2.52485 1
gene 1 8 26 -4.38037 0 15 -4.38037 1
gene 1 8 27 -0.00122804 0 16 -0.00122804 1
gene 1 9 26 2.41011 0 17 2.41011 1
gene 1 9 27 1.76535 0 18 1.76535 1
gene 1 10 26 -1.47382 0 19 -1.47382 1
gene 1 10 27 -2.76683 0 20 -2.76683 1
gene 1 11 26 -5 0 21 -5 1
gene 1 11 27 -0.249229 0 22 -0.249229 1
gene 1 12 26 1.66581 0 23 1.66581 1
gene 1 12 27 5 0 24 5 1
gene 1 13 26 0.0910508 0 25 0.0910508 1
gene 1 13 27 -2.63959 0 26 -2.63959 1
gene 1 14 26 0.569575 0 27 0.569575 1
gene 1 14 27 -0.0769434 0 28 -0.0769434 1
gene 1 15 26 -0.325591 0 29 -0.325591 0
gene 1 15 27 4.16094 0 30 4.16094 1
gene 1 16 26 1.98758 0 31 1.98758 1
gene 1 16 27 0.352227 0 32 0.352227 1
gene 1 17 26 0.903511 0 33 0.903511 1
gene 1 17 27 3.16417 0 34 3.16417 1
gene 1 18 26 -4.0202 0 35 -4.0202 1
gene 1 18 27 -5 0 36 -5 1
gene 1 19 26 1.46498 0 37 1.46498 1
gene 1 19 27 1.38339 0 38 1.38339 1
gene 1 20 26 5 0 39 5 1
gene 1 20 27 -0.66819 0 40 -0.66819 1
gene 1 21 26 -2.21329 0 41 -2.21329 0
gene 1 21 27 -1.4387 0 42 -1.4387 1
gene 1 22 26 -2.21117 0 43 -2.21117 1
gene 1 22 27 1.59593 0 44 1.59593 1
gene 1 23 26 0.448041 0 45 0.448041 1
gene 1 23 27 3.46192 0 46 3.46192 1
gene 1 24 26 -0.83147 0 47 -0.83147 1
gene 1 24 27 1.88416 0 48 1.88416 1
gene 1 25 26 -3.28957 0 49 -3.28957 1
gene 1 25 27 0.602734 0 50 0.602734 1
gene 1 5 31 2.37902 0 59 2.37902 1
gene 1 31 26 -2.15472 0 60 -2.15472 1
gene 1 8 31 -0.985614 0 175 -0.985614 1
gene 1 21 104 -0.27154 0 280 -0.27154 1
gene 1 104 26 0.558821 0 281 0.558821 1
gene 1 104 31 -1.06944 0 491 -1.06944 1
gene 1 15 277 1.61578 0 912 1.61578 1
gene 1 277 26 0.841325 0 913 0.841325 1
genomeend 29


/* Organism #189 Quality: 1.000000 Time: 0 Id: 23 */
/* -0.000498726 -0.999179 0.894777 -0.892028 1.74225 -0.984813 1.60801 -0.912133 0.0747724 -0.233102 -0.666809 -0.875262 2.07923 -0.797737  */
genomestart 189
trait 1 0.075 0.163895 0.238195 0 0 0.114559 0 0.0135386 
node 1 1 1 1
node 2 1 1 1
node 3 1 1 1
node 4 1 1 1
node 5 1 1 1
node 6 1 1 1
node 7 1 1 1
node 8 1 1 1
node 9 1 1 1
node 10 1 1 1
node 11 1 1 1
node 12 1 1 1
node 13 1 1 1
node 14 1 1 1
node 15 1 1 1
node 16 1 1 1
node 17 1 1 1
node 18 1 1 1
node 19 1 1 1
node 20 1 1 1
node 21 1 1 1
node 22 1 1 1
node 23 1 1 1
node 24 1 1 1
node 25 1 1 3
node 26 1 0 2
node 27 1 0 2
node 36 1 0 0
gene 1 1 26 -3.18141 0 1 -3.18141 1
gene 1 1 27 -5 0 2 -5 1
gene 1 2 26 0.590555 0 3 0.590555 1
gene 1 2 27 -1.8587 0 4 -1.8587 1
gene 1 3 26 0.281198 0 5 0.281198 1
gene 1 3 27 3.5719 0 6 3.5719 1
gene 1 4 26 0.231984 0 7 0.231984 1
gene 1 4 27 -0.0541895 0 8 -0.0541895 1
gene 1 5 26 3.30523 0 9 3.30523 1
gene 1 5 27 2.02835 0 10 2.02835 1
gene 1 6 26 2.51967 0 11 2.51967 1
gene 1 6 27 3.94381 0 12 3.94381 1
gene 1 7 26 3.5585 0 13 3.5585 1
gene 1 7 27 -2.83822 0 14 -2.83822 1
gene 1 8 26 -3.33663 0 15 -3.33663 1
gene 1 8 27 -0.45915 0 16 -0.45915 1
gene 1 9 26 -1.56391 0 17 -1.56391 1
gene 1 9 27 2.55273 0 18 2.55273 1
gene 1 10 26 2.75848 0 19 2.75848 1
gene 1 10 27 -2.20894 0 20 -2.20894 1
gene 1 11 26 -2.33039 0 21 -2.33039 1
gene 1 11 27 1.24101 0 22 1.24101 1
gene 1 12 26 1.1026 0 23 1.1026 1
gene 1 12 27 1.84493 0 24 1.84493 1
gene 1 13 26 -0.0106247 0 25 -0.0106247 1
gene 1 13 27 1.12091 0 26 1.12091 1
gene 1 14 26 -2.20382 0 27 -2.20382 1
gene 1 14 27 -1.41594 0 28 -1.41594 1
gene 1 15 26 -1.6501 0 29 -1.6501 1
gene 1 15 27 -0.888229 0 30 -0.888229 1
gene 1 16 26 3.79291 0 31 3.79291 1
gene 1 16 27 1.08923 0 32 1.08923 1
gene 1 17 26 -3.61553 0 33 -3.61553 1
gene 1 17 27 1.09417 0 34 1.09417 1
gene 1 18 26 1.65425 0 35 1.65425 1
gene 1 18 27 -0.281444 0 36 -0.281444 1
gene 1 19 26 -3.43878 0 37 -3.43878 1
gene 1 19 27 1.17049 0 38 1.17049 1
gene 1 20 26 -0.448347 0 39 -0.448347 1
gene 1 20 27 -1.14973 0 40 -1.14973 1
gene 1 21 26 -1.40069 0 41 -1.40069 1
gene 1 21 27 -0.115851 0 42 -0.115851 1
gene 1 22 26 2.77564 0 43 2.77564 1
gene 1 22 27 3.46123 0 44 3.46123 1
gene 1 23 26 -1.59055 0 45 -1.59055 1
gene 1 23 27 -1.07159 0 46 -1.07159 1
gene 1 24 26 -2.4132 0 47 -2.4132 1
gene 1 24 27 -0.608619 0 48 -0.608619 1
gene 1 25 26 1.21847 0 49 1.21847 1
gene 1 25 27 0.263048 0 50 0.263048 1
gene 1 1 36 -0.885952 0 69 -0.885952 1
gene 1 36 26 -1.02567 0 70 -1.02567 1
genomeend 189


/* Organism #475 Quality: 1.000000 Time: 0 Id: 24 */
/* 0.000159691 -0.998203 0.717002 -0.826139 1.77472 -0.969903 1.75809 -0.852613 2.04964 0.194195 -0.666818 -0.875335 0.937219 -0.741426  */
genomestart 475
trait 1 0 0.340522 0.902658 0 0.48213 0 0.212932 0.0614007 
node 1 1 1 1
node 2 1 1 1
node 3 1 1 1
node 4 1 1 1
node 5 1 1 1
node 6 1 1 1
node 7 1 1 1
node 8 1 1 1
node 9 1 1 1
node 10 1 1 1
node 11 1 1 1
node 12 1 1 1
node 13 1 1 1
node 14 1 1 1
node 15 1 1 1
node 16 1 1 1
node 17 1 1 1
node 18 1 1 1
node 19 1 1 1
node 20 1 1 1
node 21 1 1 1
node 22 1 1 1
node 23 1 1 1
node 24 1 1 1
node 25 1 1 3
node 26 1 0 2
node 27 1 0 2
node 63 1 0 0
node 150 1 0 0
gene 1 1 26 -0.239766 0 1 -0.239766 1
gene 1 1 27 -5 0 2 -5 1
gene 1 2 26 -4.0537 0 3 -4.0537 1
gene 1 2 27 1.31205 0 4 1.31205 0
gene 1 3 26 -3.86725 0 5 -3.86725 1
gene 1 3 27 0.512432 0 6 0.512432 1
gene 1 4 26 3.91897 0 7 3.91897 1
gene 1 4 27 0.75432 0 8 0.75432 1
gene 1 5 26 4.24813 0 9 4.24813 1
gene 1 5 27 1.66009 0 10 1.66009 1
gene 1 6 26 2.51387 0 11 2.51387 1
gene 1 6 27 1.26354 0 12 1.26354 1
gene 1 7 26 2.79142 0 13 2.79142 0
gene 1 7 27 5 0 14 5 1
gene 1 8 26 -0.0678578 0 15 -0.0678578 1
gene 1 8 27 0.86638 0 16 0.86638 1
gene 1 9 26 4.97949 0 17 4.97949 1
gene 1 9 27 -2.00037 0 18 -2.00037 1
gene 1 10 26 -2.99547 0 19 -2.99547 1
gene 1 10 27 2.41001 0 20 2.41001 1
gene 1 11 26 -1.38124 0 21 -1.38124 1
gene 1 11 27 1.47171 0 22 1.47171 1
gene 1 12 26 1.81611 0 23 1.81611 1
gene 1 12 27 -0.701688 0 24 -0.701688 1
gene 1 13 26 3.49392 0 25 3.49392 1
gene 1 13 27 -1.96249 0 26 -1.96249 1
gene 1 14 26 -1.24863 0 27 -1.24863 1
gene 1 14 27 -5 0 28 -5 1
gene 1 15 26 -1.85835 0 29 -1.85835 1
gene 1 15 27 1.42657 0 30 1.42657 1
gene 1 16 26 3.78797 0 31 3.78797 1
gene 1 16 27 1.84497 0 32 1.84497 0
gene 1 17 26 5 0 33 5 1
gene 1 17 27 -0.991537 0 34 -0.991537 1
gene 1 18 26 -3.11826 0 35 -3.11826 1
gene 1 18 27 -3.59555 0 36 -3.59555 1
gene 1 19 26 -1.48598 0 37 -1.48598 1
gene 1 19 27 0.23088 0 38 0.23088 1
gene 1 20 26 -1.55657 0 39 -1.55657 0
gene 1 20 27 2.48925 0 40 2.48925 1
gene 1 21 26 1.41364 0 41 1.41364 1
gene 1 21 27 -5 0 42 -5 1
gene 1 22 26 -3.90978 0 43 -3.90978 1
gene 1 22 27 0.453629 0 44 0.453629 1
gene 1 23 26 1.54776 0 45 1.54776 1
gene 1 23 27 0.462955 0 46 0.462955 1
gene 1 24 26 -5 0 47 -5 1
gene 1 24 27 2.95889 0 48 2.95889 1
gene 1 25 26 -3.41212 0 49 -3.41212 1
gene 1 25 27 1.88695 0 50 1.88695 1
gene 1 7 63 0.614566 0 125 0.614566 1
gene 1 63 26 -2.27313 0 126 -2.27313 1
gene 1 20 150 2.38045 0 443 2.38045 1
gene 1 150 26 3.71241 0 444 3.71241 1
genomeend 475


/* Organism #519 Quality: 1.000000 Time: 0 Id: 25 */
/* -0.000228136 -0.998603 -0.678273 -0.777609 1.48253 -0.974573 1.61778 -0.903096 0.270936 -0.319393 -0.666633 -0.875193 2.09714 -0.751245  */
genomestart 519
trait 1 0.1 0 0 0 0 0 0 0 
node 1 1 1 1
node 2 1 1 1
node 3 1 1 1
node 4 1 1 1
node 5 1 1 1
node 6 1 1 1
node 7 1 1 1
node 8 1 1 1
node 9 1 1 1
node 10 1 1 1
node 11 1 1 1
node 12 1 1 1
node 13 1 1 1
node 14 1 1 1
node 15 1 1 1
node 16 1 1 1
node 17 1 1 1
node 18 1 1 1
node 19 1 1 1
node 20 1 1 1
node 21 1 1 1
node 22 1 1 1
node 23 1 1 1
node 24 1 1 1
node 25 1 1 3
node 26 1 0 2
node 27 1 0 2
node 31 1 0 0
node 162 1 0 0
gene 1 1 26 3.86192 0 1 3.86192 1
gene 1 1 27 -3.54216 0 2 -3.54216 1
gene 1 2 26 -5 0 3 -5 1
gene 1 2 27 -1.03534 0 4 -1.03534 1
gene 1 3 26 3.26692 0 5 3.26692 1
gene 1 3 27 0.956046 0 6 0.956046 1
gene 1 4 26 5 0 7 5 1
gene 1 4 27 5 0 8 5 1
gene 1 5 26 -1.87345 0 9 -1.87345 0
gene 1 5 27 1.42001 0 10 1.42001 1
gene 1 6 26 -1.16853 0 11 -1.16853 1
gene 1 6 27 1.00118 0 12 1.00118 1
gene 1 7 26 1.08018 0 13 1.08018 1
gene 1 7 27 -5 0 14 -5 1
gene 1 8 26 -3.87108 0 15 -3.87108 1
gene 1 8 27 2.94672e-05 0 16 2.94672e-05 1
gene 1 9 26 -2.01438 0 17 -2.01438 1
gene 1 9 27 0.874143 0 18 0.874143 1
gene 1 10 26 -0.681337 0 19 -0.681337 1
gene 1 10 27 -2.18792 0 20 -2.18792 1
gene 1 11 26 5 0 21 5 1
gene 1 11 27 -4.11145 0 22 -4.11145 1
gene 1 12 26 -0.902563 0 23 -0.902563 1
gene 1 12 27 -0.867827 0 24 -0.867827 1
gene 1 13 26 3.3628 0 25 3.3628 1
gene 1 13 27 -4.76426 0 26 -4.76426 1
gene 1 14 26 -1.42139 0 27 -1.42139 1
gene 1 14 27 0.480077 0 28 0.480077 1
gene 1 15 26 0.802249 0 29 0.802249 1
gene 1 15 27 3.2469 0 30 3.2469 1
gene 1 16 26 2.88204 0 31 2.88204 1
gene 1 16 27 0.412006 0 32 0.412006 1
gene 1 17 26 1.74051 0 33 1.74051 1
gene 1 17 27 -0.869324 0 34 -0.869324 1
gene 1 18 26 0.94337 0 35 0.94337 1
gene 1 18 27 -2.11372 0 36 -2.11372 1
gene 1 19 26 -3.00616 0 37 -3.00616 1
gene 1 19 27 2.76767 0 38 2.76767 1
gene 1 20 26 0.109068 0 39 0.109068 1
gene 1 20 27 -4.84588 0 40 -4.84588 1
gene 1 21 26 2.08495 0 41 2.08495 1
gene 1 21 27 -5 0 42 -5 1
gene 1 22 26 1.6943 0 43 1.6943 1
gene 1 22 27 0.588635 0 44 0.588635 0
gene 1 23 26 5 0 45 5 1
gene 1 23 27 -3.59863 0 46 -3.59863 1
gene 1 24 26 0.966837 0 47 0.966837 1
gene 1 24 27 0.00432829 0 48 0.00432829 1
gene 1 25 26 3.2527 0 49 3.2527 1
gene 1 25 27 -0.888985 0 50 -0.888985 1
gene 1 5 31 0.811907 0 59 0.811907 1
gene 1 31 26 -4.50126 0 60 -4.50126 1
gene 1 8 31 3.87407 0 175 3.87407 1
gene 1 22 162 -3.44669 0 489 -3.44669 1
gene 1 162 27 1.67698 0 490 1.67698 1
genomeend 519


/* Organism #374 Quality: 1.000000 Time: 0 Id: 26 */
/* -0.000658068 -0.999077 0.933115 -0.890545 1.7596 -0.953288 1.3978 -0.661607 0.190137 0.0564004 1.47371 0.36475 1.20966 -0.540523  */
genomestart 374
trait 1 0.05 0 0 0 0 0 0 0.206031 
node 1 1 1 1
node 2 1 1 1
node 3 1 1 1
node 4 1 1 1
node 5 1 1 1
node 6 1 1 1
node 7 1 1 1
node 8 1 1 1
node 9 1 1 1
node 10 1 1 1
node 11 1 1 1
node 12 1 1 1
node 13 1 1 1
node 14 1 1 1
node 15 1 1 1
node 16 1 1 1
node 17 1 1 1
node 18 1 1 1
node 19 1 1 1
node 20 1 1 1
node 21 1 1 1
node 22 1 1 1
node 23 1 1 1
node 24 1 1 1
node 25 1 1 3
node 26 1 0 2
node 27 1 0 2
node 50 1 0 0
node 91 1 0 0
gene 1 1 26 1.45481 0 1 1.45481 1
gene 1 1 27 -2.07019 0 2 -2.07019 1
gene 1 2 26 1.41707 0 3 1.41707 1
gene 1 2 27 -2.28542 0 4 -2.28542 1
gene 1 3 26 3.73932 0 5 3.73932 1
gene 1 3 27 5 0 6 5 1
gene 1 4 26 -1.07348 0 7 -1.07348 1
gene 1 4 27 3.33971 0 8 3.33971 1
gene 1 5 26 -3.9274 0 9 -3.9274 1
gene 1 5 27 3.56363 0 10 3.56363 1
gene 1 6 26 -2.60888 0 11 -2.60888 1
gene 1 6 27 5 0 12 5 1
gene 1 7 26 -1.36674 0 13 -1.36674 1
gene 1 7 27 2.36918 0 14 2.36918 1
gene 1 8 26 0.322638 0 15 0.322638 1
gene 1 8 27 0.0970399 0 16 0.0970399 1
gene 1 9 26 -2.2331 0 17 -2.2331 1
gene 1 9 27 5 0 18 5 1
gene 1 10 26 -2.18428 0 19 -2.18428 1
gene 1 10 27 -1.477 0 20 -1.477 1
gene 1 11 26 -5 0 21 -5 1
gene 1 11 27 1.68153 0 22 1.68153 1
gene 1 12 26 0.732959 0 23 0.732959 1
gene 1 12 27 2.38662 0 24 2.38662 1
gene 1 13 26 1.76835 0 25 1.76835 1
gene 1 13 27 0.695855 0 26 0.695855 1
gene 1 14 26 2.36578 0 27 2.36578 1
gene 1 14 27 -1.64411 0 28 -1.64411 1
gene 1 15 26 -1.7738 0 29 -1.7738 1
gene 1 15 27 1.30919 0 30 1.30919 1
gene 1 16 26 0.922634 0 31 0.922634 1
gene 1 16 27 -0.0909725 0 32 -0.0909725 1
gene 1 17 26 2.24827 0 33 2.24827 1
gene 1 17 27 1.71669 0 34 1.71669 1
gene 1 18 26 -5 0 35 -5 0
gene 1 18 27 3.3824 0 36 3.3824 1
gene 1 19 26 -0.782512 0 37 -0.782512 1
gene 1 19 27 -0.271733 0 38 -0.271733 1
gene 1 20 26 0.938085 0 39 0.938085 1
gene 1 20 27 4.17288 0 40 4.17288 1
gene 1 21 26 0.311173 0 41 0.311173 1
gene 1 21 27 -3.2647 0 42 -3.2647 1
gene 1 22 26 -1.06383 0 43 -1.06383 1
gene 1 22 27 -4.95729 0 44 -4.95729 0
gene 1 23 26 4.95686 0 45 4.95686 1
gene 1 23 27 -0.60612 0 46 -0.60612 1
gene 1 24 26 -2.92171 0 47 -2.92171 1
gene 1 24 27 -2.15286 0 48 -2.15286 0
gene 1 25 26 -4.88662 0 49 -4.88662 1
gene 1 25 27 -1.71404 0 50 -1.71404 1
gene 1 1 50 2.33963 0 98 2.33963 1
gene 1 50 27 -0.358791 0 99 -0.358791 1
gene 1 18 91 1.77017 0 237 1.77017 1
gene 1 91 26 -4.28353 0 238 -4.28353 1
gene 1 25 50 -4.24944 0 542 -4.24944 1
genomeend 374


/* Organism #11 Quality: 1.000000 Time: 0 Id: 27 */
/* -0.00510352 -0.998218 0.479618 -0.820455 1.85814 -0.914139 2.19317 -0.599956 2.90247 0.583351 -0.667137 -0.875783 1.3469 -0.614092  */
genomestart 11
trait 1 0.116181 0.0264205 0.465008 0.353722 1 0.128411 0.183879 0.203417 
node 1 1 1 1
node 2 1 1 1
node 3 1 1 1
node 4 1 1 1
node 5 1 1 1
node 6 1 1 1
node 7 1 1 1
node 8 1 1 1
node 9 1 1 1
node 10 1 1 1
node 11 1 1 1
node 12 1 1 1
node 13 1 1 1
node 14 1 1 1
node 15 1 1 1
node 16 1 1 1
node 17 1 1 1
node 18 1 1 1
node 19 1 1 1
node 20 1 1 1
node 21 1 1 1
node 22 1 1 1
node 23 1 1 1
node 24 1 1 1
node 25 1 1 3
node 26 1 0 2
node 27 1 0 2
node 47 1 0 0
gene 1 1 26 -0.807195 0 1 -0.807195 1
gene 1 1 27 -0.257865 0 2 -0.257865 1
gene 1 2 26 -4.20419 0 3 -4.20419 1
gene 1 2 27 4.83583 0 4 4.83583 1
gene 1 3 26 0.983309 0 5 0.983309 1
gene 1 3 27 -0.335466 0 6 -0.335466 1
gene 1 4 26 2.03469 0 7 2.03469 1
gene 1 4 27 2.43236 0 8 2.43236 1
gene 1 5 26 5 0 9 5 1
gene 1 5 27 3.82071 0 10 3.82071 1
gene 1 6 26 0.374551 0 11 0.374551 1
gene 1 6 27 4.75084 0 12 4.75084 1
gene 1 7 26 1.99486 0 13 1.99486 1
gene 1 7 27 -0.189753 0 14 -0.189753 1
gene 1 8 26 -1.08735 0 15 -1.08735 1
gene 1 8 27 0.67745 0 16 0.67745 1
gene 1 9 26 4.84449 0 17 4.84449 1
gene 1 9 27 -0.939993 0 18 -0.939993 1
gene 1 10 26 -3.08339 0 19 -3.08339 1
gene 1 10 27 -4.11706 0 20 -4.11706 1
gene 1 11 26 4.13486 0 21 4.13486 1
gene 1 11 27 -1.04638 0 22 -1.04638 1
gene 1 12 26 0.852737 0 23 0.852737 1
gene 1 12 27 -0.00659506 0 24 -0.00659506 1
gene 1 13 26 -3.3328 0 25 -3.3328 1
gene 1 13 27 3.60341 0 26 3.60341 1
gene 1 14 26 -1.34866 0 27 -1.34866 1
gene 1 14 27 2.26487 0 28 2.26487 1
gene 1 15 26 -2.00684 0 29 -2.00684 1
gene 1 15 27 1.54682 0 30 1.54682 1
gene 1 16 26 4.53498 0 31 4.53498 1
gene 1 16 27 0.308634 0 32 0.308634 1
gene 1 17 26 -0.715758 0 33 -0.715758 1
gene 1 17 27 1.91391 0 34 1.91391 1
gene 1 18 26 -1.62121 0 35 -1.62121 1
gene 1 18 27 1.05039 0 36 1.05039 1
gene 1 19 26 -5 0 37 -5 1
gene 1 19 27 1.13087 0 38 1.13087 1
gene 1 20 26 -1.50128 0 39 -1.50128 1
gene 1 20 27 -1.91295 0 40 -1.91295 1
gene 1 21 26 -3.5328 0 41 -3.5328 1
gene 1 21 27 -1.68912 0 42 -1.68912 1
gene 1 22 26 -3.63623 0 43 -3.63623 1
gene 1 22 27 0.837271 0 44 0.837271 1
gene 1 23 26 4.22394 0 45 4.22394 1
gene 1 23 27 4.32694 0 46 4.32694 1
gene 1 24 26 4.7551 0 47 4.7551 1
gene 1 24 27 -2.34762 0 48 -2.34762 1
gene 1 25 26 -0.4019 0 49 -0.4019 1
gene 1 25 27 -0.555551 0 50 -0.555551 1
gene 1 3 47 3.41718 0 91 3.41718 1
gene 1 47 27 -1.6301 0 92 -1.6301 1
gene 1 2 47 1.32304 0 140 1.32304 1
genomeend 11


/* Organism #867 Quality: 1.000000 Time: 0 Id: 28 */
/* 0.000386885 -0.999251 0.95376 -0.903908 1.79423 -0.971775 1.78251 -0.883015 1.45706 -0.439308 1.47412 0.268493 1.53048 -0.902234  */
genomestart 867
trait 1 0.1 0 0 0.176375 0.238805 0 0 0.26326 
node 1 1 1 1
node 2 1 1 1
node 3 1 1 1
node 4 1 1 1
node 5 1 1 1
node 6 1 1 1
node 7 1 1 1
node 8 1 1 1
node 9 1 1 1
node 10 1 1 1
node 11 1 1 1
node 12 1 1 1
node 13 1 1 1
node 14 1 1 1
node 15 1 1 1
node 16 1 1 1
node 17 1 1 1
node 18 1 1 1
node 19 1 1 1
node 20 1 1 1
node 21 1 1 1
node 22 1 1 1
node 23 1 1 1
node 24 1 1 1
node 25 1 1 3
node 26 1 0 2
node 27 1 0 2
node 50 1 0 0
gene 1 1 26 -4.97929 0 1 -4.97929 1
gene 1 1 27 2.20493 0 2 2.20493 0
gene 1 2 26 0.383239 0 3 0.383239 1
gene 1 2 27 4.01008 0 4 4.01008 1
gene 1 3 26 -0.442735 0 5 -0.442735 1
gene 1 3 27 0.948314 0 6 0.948314 1
gene 1 4 26 3.59151 0 7 3.59151 1
gene 1 4 27 0.472927 0 8 0.472927 1
gene 1 5 26 2.51679 0 9 2.51679 1
gene 1 5 27 3.42382 0 10 3.42382 1
gene 1 6 26 2.71582 0 11 2.71582 1
gene 1 6 27 -1.04432 0 12 -1.04432 1
gene 1 7 26 -3.11235 0 13 -3.11235 1
gene 1 7 27 0.0314865 0 14 0.0314865 1
gene 1 8 26 -0.631163 0 15 -0.631163 1
gene 1 8 27 -1.37575 0 16 -1.37575 1
gene 1 9 26 -3.87506 0 17 -3.87506 1
gene 1 9 27 2.33357 0 18 2.33357 1
gene 1 10 26 -3.75194 0 19 -3.75194 1
gene 1 10 27 -5 0 20 -5 1
gene 1 11 26 0.52571 0 21 0.52571 1
gene 1 11 27 -0.0525201 0 22 -0.0525201 1
gene 1 12 26 -2.81515 0 23 -2.81515 0
gene 1 12 27 -1.97059 0 24 -1.97059 1
gene 1 13 26 -3.89991 0 25 -3.89991 1
gene 1 13 27 0.655763 0 26 0.655763 1
gene 1 14 26 -5 0 27 -5 1
gene 1 14 27 -0.135685 0 28 -0.135685 1
gene 1 15 26 4.51823 0 29 4.51823 1
gene 1 15 27 -5 0 30 -5 1
gene 1 16 26 -2.54653 0 31 -2.54653 1
gene 1 16 27 5 0 32 5 1
gene 1 17 26 2.76684 0 33 2.76684 1
gene 1 17 27 -0.135973 0 34 -0.135973 0
gene 1 18 26 3.68561 0 35 3.68561 1
gene 1 18 27 -0.354563 0 36 -0.354563 1
gene 1 19 26 -1.60293 0 37 -1.60293 1
gene 1 19 27 -0.723875 0 38 -0.723875 1
gene 1 20 26 0.686922 0 39 0.686922 1
gene 1 20 27 0.501124 0 40 0.501124 1
gene 1 21 26 -3.51623 0 41 -3.51623 1
gene 1 21 27 -4.21376 0 42 -4.21376 1
gene 1 22 26 -4.91053 0 43 -4.91053 1
gene 1 22 27 4.90462 0 44 4.90462 1
gene 1 23 26 1.84815 0 45 1.84815 1
gene 1 23 27 1.76923 0 46 1.76923 1
gene 1 24 26 2.42749 0 47 2.42749 1
gene 1 24 27 1.94379 0 48 1.94379 0
gene 1 25 26 -2.31108 0 49 -2.31108 1
gene 1 25 27 1.67854 0 50 1.67854 1
gene 1 1 50 2.9723 0 98 2.9723 1
gene 1 50 27 2.19041 0 99 2.19041 1
gene 1 20 50 1.10653 0 986 1.10653 1
genomeend 867


/* Organism #397 Quality: 1.000000 Time: 0 Id: 29 */
/* -0.00149579 -0.998831 -0.849425 -0.871424 1.72801 -0.964528 1.52094 -0.818004 -0.132081 0.067718 -0.667447 -0.8751 1.53013 -0.902143  */
genomestart 397
trait 1 0.155325 0.120505 0.138704 0.0798812 0 0.838625 0 0.75 
node 1 1 1 1
node 2 1 1 1
node 3 1 1 1
node 4 1 1 1
node 5 1 1 1
node 6 1 1 1
node 7 1 1 1
node 8 1 1 1
node 9 1 1 1
node 10 1 1 1
node 11 1 1 1
node 12 1 1 1
node 13 1 1 1
node 14 1 1 1
node 15 1 1 1
node 16 1 1 1
node 17 1 1 1
node 18 1 1 1
node 19 1 1 1
node 20 1 1 1
node 21 1 1 1
node 22 1 1 1
node 23 1 1 1
node 24 1 1 1
node 25 1 1 3
node 26 1 0 2
node 27 1 0 2
node 51 1 0 0
gene 1 1 26 -2.02724 0 1 -2.02724 1
gene 1 1 27 3.21003 0 2 3.21003 1
gene 1 2 26 -5 0 3 -5 1
gene 1 2 27 1.07751 0 4 1.07751 1
gene 1 3 26 0.551824 0 5 0.551824 1
gene 1 3 27 1.42283 0 6 1.42283 1
gene 1 4 26 1.83294 0 7 1.83294 1
gene 1 4 27 -1.57843 0 8 -1.57843 1
gene 1 5 26 2.40474 0 9 2.40474 1
gene 1 5 27 1.94812 0 10 1.94812 1
gene 1 6 26 5 0 11 5 1
gene 1 6 27 -0.343605 0 12 -0.343605 1
gene 1 7 26 0.829917 0 13 0.829917 1
gene 1 7 27 -2.16109 0 14 -2.16109 1
gene 1 8 26 2.02277 0 15 2.02277 1
gene 1 8 27 -1.82366 0 16 -1.82366 1
gene 1 9 26 1.0557 0 17 1.0557 1
gene 1 9 27 -1.25414 0 18 -1.25414 1
gene 1 10 26 -1.98428 0 19 -1.98428 1
gene 1 10 27 -1.51411 0 20 -1.51411 1
gene 1 11 26 2.3325 0 21 2.3325 1
gene 1 11 27 -1.81706 0 22 -1.81706 1
gene 1 12 26 0.990517 0 23 0.990517 1
gene 1 12 27 -2.06575 0 24 -2.06575 1
gene 1 13 26 -2.88797 0 25 -2.88797 1
gene 1 13 27 -5 0 26 -5 1
gene 1 14 26 -1.63111 0 27 -1.63111 1
gene 1 14 27 -1.42208 0 28 -1.42208 1
gene 1 15 26 0.388691 0 29 0.388691 1
gene 1 15 27 0.992805 0 30 0.992805 0
gene 1 16 26 -0.158527 0 31 -0.158527 1
gene 1 16 27 -2.77992 0 32 -2.77992 0
gene 1 17 26 -2.09196 0 33 -2.09196 1
gene 1 17 27 -3.60178 0 34 -3.60178 1
gene 1 18 26 0.816227 0 35 0.816227 1
gene 1 18 27 -5 0 36 -5 1
gene 1 19 26 -0.622589 0 37 -0.622589 1
gene 1 19 27 -4.71077 0 38 -4.71077 1
gene 1 20 26 3.61617 0 39 3.61617 1
gene 1 20 27 2.01873 0 40 2.01873 1
gene 1 21 26 -0.925062 0 41 -0.925062 1
gene 1 21 27 -5 0 42 -5 1
gene 1 22 26 -1.55318 0 43 -1.55318 1
gene 1 22 27 0.23268 0 44 0.23268 1
gene 1 23 26 2.51981 0 45 2.51981 1
gene 1 23 27 -4.7253 0 46 -4.7253 1
gene 1 24 26 0.0396082 0 47 0.0396082 1
gene 1 24 27 -1.6801 0 48 -1.6801 1
gene 1 25 26 1.02531 0 49 1.02531 1
gene 1 25 27 -2.45876 0 50 -2.45876 1
gene 1 15 51 -0.0648501 0 101 -0.0648501 1
gene 1 51 27 0.466808 0 102 0.466808 1
gene 1 6 51 4.37665 0 263 4.37665 1
genomeend 397


/* Organism #727 Quality: 1.000000 Time: 0 Id: 30 */
/* 0.0028363 -0.99829 0.703735 -0.818422 1.54376 -0.956386 1.86492 -0.827962 2.29864 0.276174 -0.667377 -0.875502 1.53028 -0.90138  */
genomestart 727
trait 1 0.234812 0.0704547 0.252268 0.207099 0.245003 0.0172475 0.253126 0.187834 
node 1 1 1 1
node 2 1 1 1
node 3 1 1 1
node 4 1 1 1
node 5 1 1 1
node 6 1 1 1
node 7 1 1 1
node 8 1 1 1
node 9 1 1 1
node 10 1 1 1
node 11 1 1 1
node 12 1 1 1
node 13 1 1 1
node 14 1 1 1
node 15 1 1 1
node 16 1 1 1
node 17 1 1 1
node 18 1 1 1
node 19 1 1 1
node 20 1 1 1
node 21 1 1 1
node 22 1 1 1
node 23 1 1 1
node 24 1 1 1
node 25 1 1 3
node 26 1 0 2
node 27 1 0 2
node 47 1 0 0
node 256 1 0 0
gene 1 1 26 -3.10454 0 1 -3.10454 1
gene 1 1 27 0.235229 0 2 0.235229 1
gene 1 2 26 0.131204 0 3 0.131204 1
gene 1 2 27 -3.76075 0 4 -3.76075 1
gene 1 3 26 -0.753362 0 5 -0.753362 1
gene 1 3 27 -2.4119 0 6 -2.4119 0
gene 1 4 26 2.87712 0 7 2.87712 1
gene 1 4 27 4.93409 0 8 4.93409 1
gene 1 5 26 1.27205 0 9 1.27205 1
gene 1 5 27 5 0 10 5 1
gene 1 6 26 3.51132 0 11 3.51132 1
gene 1 6 27 -3.92246 0 12 -3.92246 1
gene 1 7 26 -2.36768 0 13 -2.36768 1
gene 1 7 27 -3.21861 0 14 -3.21861 1
gene 1 8 26 -2.79029 0 15 -2.79029 1
gene 1 8 27 -3.01481 0 16 -3.01481 1
gene 1 9 26 -2.32937 0 17 -2.32937 1
gene 1 9 27 -2.58031 0 18 -2.58031 1
gene 1 10 26 -4.17162 0 19 -4.17162 1
gene 1 10 27 -1.41197 0 20 -1.41197 1
gene 1 11 26 4.63937 0 21 4.63937 1
gene 1 11 27 -0.167691 0 22 -0.167691 1
gene 1 12 26 1.79156 0 23 1.79156 1
gene 1 12 27 5 0 24 5 1
gene 1 13 26 -2.09767 0 25 -2.09767 1
gene 1 13 27 2.56579 0 26 2.56579 1
gene 1 14 26 -4.60264 0 27 -4.60264 1
gene 1 14 27 0.54929 0 28 0.54929 1
gene 1 15 26 1.009 0 29 1.009 1
gene 1 15 27 -4.14065 0 30 -4.14065 1
gene 1 16 26 -2.22942 0 31 -2.22942 1
gene 1 16 27 -2.99586 0 32 -2.99586 1
gene 1 17 26 -5 0 33 -5 1
gene 1 17 27 2.22814 0 34 2.22814 1
gene 1 18 26 -0.204255 0 35 -0.204255 1
gene 1 18 27 -0.293148 0 36 -0.293148 1
gene 1 19 26 2.08921 0 37 2.08921 1
gene 1 19 27 0.524081 0 38 0.524081 1
gene 1 20 26 -3.24077 0 39 -3.24077 1
gene 1 20 27 2.1453 0 40 2.1453 1
gene 1 21 26 -5 0 41 -5 1
gene 1 21 27 1.37617 0 42 1.37617 1
gene 1 22 26 -3.53303 0 43 -3.53303 1
gene 1 22 27 -3.5097 0 44 -3.5097 1
gene 1 23 26 0.696852 0 45 0.696852 1
gene 1 23 27 -1.54545 0 46 -1.54545 1
gene 1 24 26 -0.289997 0 47 -0.289997 0
gene 1 24 27 -0.488067 0 48 -0.488067 1
gene 1 25 26 -1.22948 0 49 -1.22948 1
gene 1 25 27 0.415041 0 50 0.415041 1
gene 1 3 47 -0.250591 0 91 -0.250591 1
gene 1 47 27 1.21281 0 92 1.21281 1
gene 1 2 47 -0.706463 0 140 -0.706463 1
gene 1 7 256 0.93067 0 832 0.93067 1
gene 1 256 26 5 0 833 5 1
gene 1 19 47 -0.42757 0 1207 -0.42757 1
genomeend 727


/* Organism #596 Quality: 1.000000 Time: 0 Id: 31 */
/* -0.000194614 -0.999508 -0.979469 -0.920396 1.76975 -0.974304 1.5761 -0.90345 0.168884 -0.525958 1.37132 0.0650234 1.5306 -0.902485  */
genomestart 596
trait 1 0 0.296305 0.0726609 0 0.556477 0 0 0 
node 1 1 1 1
node 2 1 1 1
node 3 1 1 1
node 4 1 1 1
node 5 1 1 1
node 6 1 1 1
node 7 1 1 1
node 8 1 1 1
node 9 1 1 1
node 10 1 1 1
node 11 1 1 1
node 12 1 1 1
node 13 1 1 1
node 14 1 1 1
node 15 1 1 1
node 16 1 1 1
node 17 1 1 1
node 18 1 1 1
node 19 1 1 1
node 20 1 1 1
node 21 1 1 1
node 22 1 1 1
node 23 1 1 1
node 24 1 1 1
node 25 1 1 3
node 26 1 0 2
node 27 1 0 2
node 63 1 0 0
node 89 1 0 0
node 301 1 0 0
gene 1 1 26 0.195401 0 1 0.195401 1
gene 1 1 27 -1.11677 0 2 -1.11677 1
gene 1 2 26 -4.02503 0 3 -4.02503 1
gene 1 2 27 -0.69539 0 4 -0.69539 0
gene 1 3 26 0.532109 0 5 0.532109 0
gene 1 3 27 -3.16447 0 6 -3.16447 1
gene 1 4 26 4.96401 0 7 4.96401 1
gene 1 4 27 -0.492155 0 8 -0.492155 1
gene 1 5 26 3.88216 0 9 3.88216 1
gene 1 5 27 -0.483213 0 10 -0.483213 1
gene 1 6 26 0.646895 0 11 0.646895 1
gene 1 6 27 -1.31545 0 12 -1.31545 1
gene 1 7 26 -2.34433 0 13 -2.34433 1
gene 1 7 27 2.73532 0 14 2.73532 1
gene 1 8 26 -4.56911 0 15 -4.56911 1
gene 1 8 27 -2.29314 0 16 -2.29314 1
gene 1 9 26 -2.70256 0 17 -2.70256 1
gene 1 9 27 -4.243 0 18 -4.243 1
gene 1 10 26 -1.80387 0 19 -1.80387 1
gene 1 10 27 0.326276 0 20 0.326276 1
gene 1 11 26 0.428935 0 21 0.428935 1
gene 1 11 27 -3.77134 0 22 -3.77134 1
gene 1 12 26 -0.774681 0 23 -0.774681 1
gene 1 12 27 2.59481 0 24 2.59481 1
gene 1 13 26 1.97237 0 25 1.97237 1
gene 1 13 27 -3.69119 0 26 -3.69119 1
gene 1 14 26 1.89938 0 27 1.89938 1
gene 1 14 27 -1.69102 0 28 -1.69102 1
gene 1 15 26 0.682029 0 29 0.682029 1
gene 1 15 27 -0.776915 0 30 -0.776915 1
gene 1 16 26 -2.74792 0 31 -2.74792 1
gene 1 16 27 -1.00997 0 32 -1.00997 0
gene 1 17 26 0.457264 0 33 0.457264 1
gene 1 17 27 -3.64482 0 34 -3.64482 1
gene 1 18 26 2.19369 0 35 2.19369 1
gene 1 18 27 -0.890715 0 36 -0.890715 1
gene 1 19 26 1.43132 0 37 1.43132 1
gene 1 19 27 -2.59314 0 38 -2.59314 1
gene 1 20 26 -0.505194 0 39 -0.505194 1
gene 1 20 27 0.789446 0 40 0.789446 1
gene 1 21 26 -3.09333 0 41 -3.09333 0
gene 1 21 27 2.71413 0 42 2.71413 1
gene 1 22 26 -1.62243 0 43 -1.62243 1
gene 1 22 27 1.11653 0 44 1.11653 1
gene 1 23 26 0.536253 0 45 0.536253 1
gene 1 23 27 -4.68261 0 46 -4.68261 1
gene 1 24 26 -1.44104 0 47 -1.44104 1
gene 1 24 27 0.812476 0 48 0.812476 1
gene 1 25 26 3.05827 0 49 3.05827 1
gene 1 25 27 -2.38353 0 50 -2.38353 1
gene 1 7 63 5 0 125 5 1
gene 1 63 26 -1.46592 0 126 -1.46592 1
gene 1 21 89 -0.718818 0 225 -0.718818 1
gene 1 89 26 -1.04526 0 226 -1.04526 1
gene 1 10 63 3.70132 0 847 3.70132 1
gene 1 3 301 0.0581184 0 998 0.0581184 1
gene 1 301 26 1.17625 0 999 1.17625 1
genomeend 596


/* Organism #631 Quality: 1.000000 Time: 0 Id: 32 */
/* -0.00176173 -0.998547 -0.821674 -0.844792 1.51752 -0.974664 1.71141 -0.910736 1.2306 -0.278012 -0.667596 -0.875564 2.2351 -0.742381  */
genomestart 631
trait 1 0 0.296305 0.0726609 0 0.556477 0 0 0 
node 1 1 1 1
node 2 1 1 1
node 3 1 1 1
node 4 1 1 1
node 5 1 1 1
node 6 1 1 1
node 7 1 1 1
node 8 1 1 1
node 9 1 1 1
node 10 1 1 1
node 11 1 1 1
node 12 1 1 1
node 13 1 1 1
node 14 1 1 1
node 15 1 1 1
node 16 1 1 1
node 17 1 1 1
node 18 1 1 1
node 19 1 1 1
node 20 1 1 1
node 21 1 1 1
node 22 1 1 1
node 23 1 1 1
node 24 1 1 1
node 25 1 1 3
node 26 1 0 2
node 27 1 0 2
node 63 1 0 0
node 89 1 0 0
node 301 1 0 0
gene 1 1 26 -2.05368 0 1 -2.05368 1
gene 1 1 27 -5 0 2 -5 1
gene 1 2 26 -3.95182 0 3 -3.95182 1
gene 1 2 27 0.466923 0 4 0.466923 0
gene 1 3 26 4.20167 0 5 4.20167 0
gene 1 3 27 -2.44819 0 6 -2.44819 1
gene 1 4 26 5 0 7 5 1
gene 1 4 27 -3.30659 0 8 -3.30659 1
gene 1 5 26 4.31961 0 9 4.31961 1
gene 1 5 27 -2.05954 0 10 -2.05954 1
gene 1 6 26 5 0 11 5 1
gene 1 6 27 -2.72053 0 12 -2.72053 1
gene 1 7 26 -1.98752 0 13 -1.98752 1
gene 1 7 27 4.68928 0 14 4.68928 1
gene 1 8 26 0.000274562 0 15 0.000274562 1
gene 1 8 27 -5 0 16 -5 1
gene 1 9 26 -1.12416 0 17 -1.12416 1
gene 1 9 27 -2.92287 0 18 -2.92287 1
gene 1 10 26 -0.548757 0 19 -0.548757 1
gene 1 10 27 2.40981 0 20 2.40981 1
gene 1 11 26 1.3507 0 21 1.3507 1
gene 1 11 27 -4.03093 0 22 -4.03093 1
gene 1 12 26 3.56233 0 23 3.56233 1
gene 1 12 27 3.1109 0 24 3.1109 1
gene 1 13 26 5 0 25 5 1
gene 1 13 27 -5 0 26 -5 1
gene 1 14 26 3.41243 0 27 3.41243 1
gene 1 14 27 -2.06332 0 28 -2.06332 1
gene 1 15 26 -0.816227 0 29 -0.816227 1
gene 1 15 27 -0.656574 0 30 -0.656574 1
gene 1 16 26 -0.324908 0 31 -0.324908 1
gene 1 16 27 1.97355 0 32 1.97355 0
gene 1 17 26 4.24415 0 33 4.24415 1
gene 1 17 27 -4.45085 0 34 -4.45085 1
gene 1 18 26 0.171917 0 35 0.171917 1
gene 1 18 27 1.02888 0 36 1.02888 1
gene 1 19 26 5 0 37 5 1
gene 1 19 27 -3.7558 0 38 -3.7558 1
gene 1 20 26 -2.80782 0 39 -2.80782 1
gene 1 20 27 1.35439 0 40 1.35439 1
gene 1 21 26 -3.89211 0 41 -3.89211 0
gene 1 21 27 -0.581207 0 42 -0.581207 1
gene 1 22 26 -2.2779 0 43 -2.2779 1
gene 1 22 27 1.20539 0 44 1.20539 1
gene 1 23 26 -2.99836 0 45 -2.99836 1
gene 1 23 27 -3.87871 0 46 -3.87871 1
gene 1 24 26 -1.96214 0 47 -1.96214 1
gene 1 24 27 -0.0595049 0 48 -0.0595049 1
gene 1 25 26 1.18779 0 49 1.18779 1
gene 1 25 27 -0.533735 0 50 -0.533735 1
gene 1 7 63 0.607158 0 125 0.607158 1
gene 1 63 26 -5 0 126 -5 1
gene 1 21 89 -0.68373 0 225 -0.68373 1
gene 1 89 26 -0.280952 0 226 -0.280952 1
gene 1 10 63 0.0560179 0 847 0.0560179 1
gene 1 3 301 1.89768 0 998 1.89768 1
gene 1 301 26 -0.876901 0 999 -0.876901 1
genomeend 631


/* Organism #837 Quality: 0.999985 Time: 0 Id: 33 */
/* 0.00016869 -0.997532 -0.202747 -0.751611 1.71211 -0.951184 1.40397 -0.702519 -0.897129 0.443856 -0.667871 -0.87507 1.53054 -0.901523  */
genomestart 837
trait 1 0 0.296305 0.0726609 0 0.556477 0 0 0 
node 1 1 1 1
node 2 1 1 1
node 3 1 1 1
node 4 1 1 1
node 5 1 1 1
node 6 1 1 1
node 7 1 1 1
node 8 1 1 1
node 9 1 1 1
node 10 1 1 1
node 11 1 1 1
node 12 1 1 1
node 13 1 1 1
node 14 1 1 1
node 15 1 1 1
node 16 1 1 1
node 17 1 1 1
node 18 1 1 1
node 19 1 1 1
node 20 1 1 1
node 21 1 1 1
node 22 1 1 1
node 23 1 1 1
node 24 1 1 1
node 25 1 1 3
node 26 1 0 2
node 27 1 0 2
node 63 1 0 0
node 89 1 0 0
node 301 1 0 0
node 448 1 0 0
gene 1 1 26 -0.822685 0 1 -0.822685 1
gene 1 1 27 -1.84561 0 2 -1.84561 1
gene 1 2 26 -5 0 3 -5 1
gene 1 2 27 1.98673 0 4 1.98673 0
gene 1 3 26 -2.18497 0 5 -2.18497 0
gene 1 3 27 -0.491229 0 6 -0.491229 1
gene 1 4 26 3.61608 0 7 3.61608 1
gene 1 4 27 -0.508788 0 8 -0.508788 1
gene 1 5 26 3.36837 0 9 3.36837 1
gene 1 5 27 -1.93258 0 10 -1.93258 1
gene 1 6 26 4.37312 0 11 4.37312 1
gene 1 6 27 0.846933 0 12 0.846933 1
gene 1 7 26 0.200098 0 13 0.200098 1
gene 1 7 27 -0.772415 0 14 -0.772415 1
gene 1 8 26 0.586648 0 15 0.586648 1
gene 1 8 27 -5 0 16 -5 1
gene 1 9 26 -0.431568 0 17 -0.431568 1
gene 1 9 27 1.40054 0 18 1.40054 1
gene 1 10 26 1.7074 0 19 1.7074 1
gene 1 10 27 2.38457 0 20 2.38457 1
gene 1 11 26 1.2894 0 21 1.2894 1
gene 1 11 27 -0.713767 0 22 -0.713767 1
gene 1 12 26 -1.82536 0 23 -1.82536 1
gene 1 12 27 -0.824881 0 24 -0.824881 1
gene 1 13 26 -1.41165 0 25 -1.41165 1
gene 1 13 27 -4.88727 0 26 -4.88727 1
gene 1 14 26 2.93385 0 27 2.93385 1
gene 1 14 27 1.12556 0 28 1.12556 1
gene 1 15 26 -0.511923 0 29 -0.511923 0
gene 1 15 27 0.6117 0 30 0.6117 1
gene 1 16 26 3.66858 0 31 3.66858 1
gene 1 16 27 1.58005 0 32 1.58005 0
gene 1 17 26 -1.93824 0 33 -1.93824 1
gene 1 17 27 -4.08742 0 34 -4.08742 1
gene 1 18 26 2.33396 0 35 2.33396 1
gene 1 18 27 -0.0217007 0 36 -0.0217007 1
gene 1 19 26 1.51639 0 37 1.51639 1
gene 1 19 27 -1.50535 0 38 -1.50535 1
gene 1 20 26 -1.45008 0 39 -1.45008 1
gene 1 20 27 0.805942 0 40 0.805942 1
gene 1 21 26 0.171347 0 41 0.171347 0
gene 1 21 27 -1.27789 0 42 -1.27789 1
gene 1 22 26 -0.527593 0 43 -0.527593 1
gene 1 22 27 1.12873 0 44 1.12873 1
gene 1 23 26 -0.467354 0 45 -0.467354 1
gene 1 23 27 -5 0 46 -5 1
gene 1 24 26 -1.54292 0 47 -1.54292 1
gene 1 24 27 5 0 48 5 1
gene 1 25 26 2.8179 0 49 2.8179 1
gene 1 25 27 1.93706 0 50 1.93706 1
gene 1 7 63 4.48296 0 125 4.48296 1
gene 1 63 26 -3.56757 0 126 -3.56757 1
gene 1 21 89 -2.18195 0 225 -2.18195 1
gene 1 89 26 -1.23967 0 226 -1.23967 1
gene 1 10 63 5 0 847 5 1
gene 1 3 301 0.765351 0 998 0.765351 1
gene 1 301 26 0.593782 0 999 0.593782 1
gene 1 15 448 0.52811 0 1704 0.52811 1
gene 1 448 26 -0.704814 0 1705 -0.704814 1
genomeend 837


/* Organism #866 Quality: 0.999523 Time: 0 Id: 34 */
/* 0.000985306 -0.998409 -0.795769 -0.827182 1.73633 -0.937439 0.761949 0.0190879 0.066208 0.794552 2.46419 0.636298 2.70926 -0.0193551  */
genomestart 866
trait 1 0 0.296305 0.0726609 0 0.556477 0 0 0 
node 1 1 1 1
node 2 1 1 1
node 3 1 1 1
node 4 1 1 1
node 5 1 1 1
node 6 1 1 1
node 7 1 1 1
node 8 1 1 1
node 9 1 1 1
node 10 1 1 1
node 11 1 1 1
node 12 1 1 1
node 13 1 1 1
node 14 1 1 1
node 15 1 1 1
node 16 1 1 1
node 17 1 1 1
node 18 1 1 1
node 19 1 1 1
node 20 1 1 1
node 21 1 1 1
node 22 1 1 1
node 23 1 1 1
node 24 1 1 1
node 25 1 1 3
node 26 1 0 2
node 27 1 0 2
node 63 1 0 0
node 89 1 0 0
node 301 1 0 0
node 468 1 0 0
gene 1 1 26 1.15884 0 1 1.15884 1
gene 1 1 27 -3.89458 0 2 -3.89458 1
gene 1 2 26 -4.69007 0 3 -4.69007 1
gene 1 2 27 2.58154 0 4 2.58154 0
gene 1 3 26 5 0 5 5 0
gene 1 3 27 -1.64728 0 6 -1.64728 1
gene 1 4 26 4.28226 0 7 4.28226 1
gene 1 4 27 -1.44547 0 8 -1.44547 1
gene 1 5 26 5 0 9 5 1
gene 1 5 27 2.21901 0 10 2.21901 1
gene 1 6 26 1.0611 0 11 1.0611 1
gene 1 6 27 -1.59182 0 12 -1.59182 1
gene 1 7 26 0.258 0 13 0.258 1
gene 1 7 27 -1.92341 0 14 -1.92341 1
gene 1 8 26 -5 0 15 -5 1
gene 1 8 27 -5 0 16 -5 1
gene 1 9 26 0.743643 0 17 0.743643 1
gene 1 9 27 1.19044 0 18 1.19044 1
gene 1 10 26 2.51567 0 19 2.51567 1
gene 1 10 27 0.257772 0 20 0.257772 1
gene 1 11 26 -0.966895 0 21 -0.966895 1
gene 1 11 27 -2.85561 0 22 -2.85561 1
gene 1 12 26 -0.724799 0 23 -0.724799 1
gene 1 12 27 -0.62243 0 24 -0.62243 1
gene 1 13 26 -2.38808 0 25 -2.38808 1
gene 1 13 27 -1.16959 0 26 -1.16959 1
gene 1 14 26 2.44585 0 27 2.44585 1
gene 1 14 27 0.46308 0 28 0.46308 1
gene 1 15 26 -2.98533 0 29 -2.98533 1
gene 1 15 27 1.33828 0 30 1.33828 1
gene 1 16 26 -2.69625 0 31 -2.69625 1
gene 1 16 27 -0.494744 0 32 -0.494744 1
gene 1 17 26 -0.157607 0 33 -0.157607 1
gene 1 17 27 -1.16281 0 34 -1.16281 1
gene 1 18 26 1.3271 0 35 1.3271 1
gene 1 18 27 3.68479 0 36 3.68479 1
gene 1 19 26 1.26925 0 37 1.26925 1
gene 1 19 27 -4.39304 0 38 -4.39304 1
gene 1 20 26 -1.63115 0 39 -1.63115 1
gene 1 20 27 -0.581786 0 40 -0.581786 1
gene 1 21 26 -1.66193 0 41 -1.66193 0
gene 1 21 27 3.57202 0 42 3.57202 1
gene 1 22 26 -5 0 43 -5 1
gene 1 22 27 1.29045 0 44 1.29045 1
gene 1 23 26 -0.811013 0 45 -0.811013 1
gene 1 23 27 -3.95105 0 46 -3.95105 1
gene 1 24 26 -4.4888 0 47 -4.4888 1
gene 1 24 27 0.416737 0 48 0.416737 1
gene 1 25 26 2.48764 0 49 2.48764 1
gene 1 25 27 0.369882 0 50 0.369882 1
gene 1 7 63 -1.68767 0 125 -1.68767 1
gene 1 63 26 0.48306 0 126 0.48306 1
gene 1 21 89 -0.586245 0 225 -0.586245 1
gene 1 89 26 -0.00281029 0 226 -0.00281029 1
gene 1 10 63 4.57288 0 847 4.57288 1
gene 1 3 301 5 0 998 5 0
gene 1 301 26 -0.608689 0 999 -0.608689 1
gene 1 17 301 0.31154 0 1692 0.31154 1
gene 1 3 468 1.20583 0 1774 1.20583 1
gene 1 468 301 -0.836575 0 1775 -0.836575 1
genomeend 866


/* Organism #651 Quality: 1.000000 Time: 0 Id: 35 */
/* 0.00165019 -0.998767 -0.831655 -0.865268 1.78146 -0.968816 1.78594 -0.846912 2.1896 0.104245 -0.668459 -0.872604 0.980787 -0.648308  */
genomestart 651
trait 1 0 0.296305 0.0726609 0 0.556477 0 0 0 
node 1 1 1 1
node 2 1 1 1
node 3 1 1 1
node 4 1 1 1
node 5 1 1 1
node 6 1 1 1
node 7 1 1 1
node 8 1 1 1
node 9 1 1 1
node 10 1 1 1
node 11 1 1 1
node 12 1 1 1
node 13 1 1 1
node 14 1 1 1
node 15 1 1 1
node 16 1 1 1
node 17 1 1 1
node 18 1 1 1
node 19 1 1 1
node 20 1 1 1
node 21 1 1 1
node 22 1 1 1
node 23 1 1 1
node 24 1 1 1
node 25 1 1 3
node 26 1 0 2
node 27 1 0 2
node 63 1 0 0
node 89 1 0 0
node 301 1 0 0
node 468 1 0 0
gene 1 1 26 1.15884 0 1 1.15884 1
gene 1 1 27 -3.89458 0 2 -3.89458 1
gene 1 2 26 -4.69007 0 3 -4.69007 1
gene 1 2 27 2.58154 0 4 2.58154 0
gene 1 3 26 5 0 5 5 0
gene 1 3 27 -1.64728 0 6 -1.64728 1
gene 1 4 26 4.28226 0 7 4.28226 1
gene 1 4 27 -1.44547 0 8 -1.44547 1
gene 1 5 26 5 0 9 5 1
gene 1 5 27 2.21901 0 10 2.21901 1
gene 1 6 26 1.0611 0 11 1.0611 1
gene 1 6 27 -1.59182 0 12 -1.59182 1
gene 1 7 26 0.258 0 13 0.258 1
gene 1 7 27 -1.92341 0 14 -1.92341 1
gene 1 8 26 -5 0 15 -5 1
gene 1 8 27 -5 0 16 -5 1
gene 1 9 26 0.743643 0 17 0.743643 1
gene 1 9 27 1.19044 0 18 1.19044 1
gene 1 10 26 2.51567 0 19 2.51567 1
gene 1 10 27 0.257772 0 20 0.257772 1
gene 1 11 26 -0.966895 0 21 -0.966895 1
gene 1 11 27 -2.85561 0 22 -2.85561 1
gene 1 12 26 -0.724799 0 23 -0.724799 1
gene 1 12 27 -0.62243 0 24 -0.62243 1
gene 1 13 26 -2.38808 0 25 -2.38808 1
gene 1 13 27 -1.16959 0 26 -1.16959 1
gene 1 14 26 2.44585 0 27 2.44585 1
gene 1 14 27 0.46308 0 28 0.46308 1
gene 1 15 26 -2.98533 0 29 -2.98533 1
gene 1 15 27 1.33828 0 30 1.33828 1
gene 1 16 26 -2.69625 0 31 -2.69625 1
gene 1 16 27 -0.494744 0 32 -0.494744 1
gene 1 17 26 -0.157607 0 33 -0.157607 1
gene 1 17 27 -1.16281 0 34 -1.16281 1
gene 1 18 26 1.3271 0 35 1.3271 1
gene 1 18 27 3.68479 0 36 3.68479 1
gene 1 19 26 1.26925 0 37 1.26925 1
gene 1 19 27 -4.39304 0 38 -4.39304 1
gene 1 20 26 -1.63115 0 39 -1.63115 1
gene 1 20 27 -0.581786 0 40 -0.581786 1
gene 1 21 26 -1.66193 0 41 -1.66193 0
gene 1 21 27 3.57202 0 42 3.57202 1
gene 1 22 26 -5 0 43 -5 1
gene 1 22 27 1.29045 0 44 1.29045 1
gene 1 23 26 -0.811013 0 45 -0.811013 1
gene 1 23 27 -3.95105 0 46 -3.95105 1
gene 1 24 26 -4.4888 0 47 -4.4888 1
gene 1 24 27 0.416737 0 48 0.416737 1
gene 1 25 26 2.48764 0 49 2.48764 1
gene 1 25 27 0.369882 0 50 0.369882 1
gene 1 7 63 -1.68767 0 125 -1.68767 1
gene 1 63 26 0.48306 0 126 0.48306 1
gene 1 21 89 -0.586245 0 225 -0.586245 1
gene 1 89 26 -0.00281029 0 226 -0.00281029 1
gene 1 10 63 4.57288 0 847 4.57288 1
gene 1 3 301 5 0 998 5 0
gene 1 301 26 -0.608689 0 999 -0.608689 1
gene 1 17 301 0.31154 0 1692 0.31154 1
gene 1 3 468 1.20583 0 1774 1.20583 1
gene 1 468 301 -0.836575 0 1775 -0.836575 1
genomeend 651


/* Organism #941 Quality: 1.000000 Time: 0 Id: 36 */
/* 0.00389003 -0.9982 0.596872 -0.822594 1.78011 -0.959071 1.80238 -0.797575 1.35553 0.00127039 -0.667912 -0.874622 1.02648 -0.685635  */
genomestart 941
trait 1 0 0.296305 0.220434 0 0.556477 0.186856 0 0 
node 1 1 1 1
node 2 1 1 1
node 3 1 1 1
node 4 1 1 1
node 5 1 1 1
node 6 1 1 1
node 7 1 1 1
node 8 1 1 1
node 9 1 1 1
node 10 1 1 1
node 11 1 1 1
node 12 1 1 1
node 13 1 1 1
node 14 1 1 1
node 15 1 1 1
node 16 1 1 1
node 17 1 1 1
node 18 1 1 1
node 19 1 1 1
node 20 1 1 1
node 21 1 1 1
node 22 1 1 1
node 23 1 1 1
node 24 1 1 1
node 25 1 1 3
node 26 1 0 2
node 27 1 0 2
node 63 1 0 0
node 89 1 0 0
node 301 1 0 0
node 448 1 0 0
node 514 1 0 0
gene 1 1 26 -4.16453 0 1 -4.16453 1
gene 1 1 27 0.566043 0 2 0.566043 1
gene 1 2 26 -5 0 3 -5 1
gene 1 2 27 -2.01783 0 4 -2.01783 0
gene 1 3 26 3.26749 0 5 3.26749 0
gene 1 3 27 1.21431 0 6 1.21431 1
gene 1 4 26 -0.977537 0 7 -0.977537 1
gene 1 4 27 0.325681 0 8 0.325681 1
gene 1 5 26 3.73674 0 9 3.73674 1
gene 1 5 27 -0.415455 0 10 -0.415455 1
gene 1 6 26 5 0 11 5 1
gene 1 6 27 -2.00111 0 12 -2.00111 1
gene 1 7 26 -1.16699 0 13 -1.16699 1
gene 1 7 27 -0.727977 0 14 -0.727977 1
gene 1 8 26 -3.41735 0 15 -3.41735 1
gene 1 8 27 -0.965751 0 16 -0.965751 1
gene 1 9 26 -1.37451 0 17 -1.37451 1
gene 1 9 27 1.76299 0 18 1.76299 1
gene 1 10 26 4.90387 0 19 4.90387 1
gene 1 10 27 -0.838893 0 20 -0.838893 1
gene 1 11 26 1.34362 0 21 1.34362 1
gene 1 11 27 -3.92072 0 22 -3.92072 1
gene 1 12 26 -1.21493 0 23 -1.21493 1
gene 1 12 27 -0.669649 0 24 -0.669649 1
gene 1 13 26 0.727976 0 25 0.727976 1
gene 1 13 27 -5 0 26 -5 1
gene 1 14 26 2.86993 0 27 2.86993 1
gene 1 14 27 -0.655712 0 28 -0.655712 1
gene 1 15 26 -3.2477 0 29 -3.2477 0
gene 1 15 27 -0.747577 0 30 -0.747577 1
gene 1 16 26 -2.20275 0 31 -2.20275 1
gene 1 16 27 1.046 0 32 1.046 0
gene 1 17 26 -1.50364 0 33 -1.50364 1
gene 1 17 27 -3.21293 0 34 -3.21293 1
gene 1 18 26 0.189585 0 35 0.189585 1
gene 1 18 27 0.739661 0 36 0.739661 1
gene 1 19 26 3.64468 0 37 3.64468 1
gene 1 19 27 1.92132 0 38 1.92132 1
gene 1 20 26 1.18871 0 39 1.18871 1
gene 1 20 27 -0.639654 0 40 -0.639654 1
gene 1 21 26 -1.40401 0 41 -1.40401 0
gene 1 21 27 -3.56739 0 42 -3.56739 1
gene 1 22 26 -1.20659 0 43 -1.20659 1
gene 1 22 27 2.02637 0 44 2.02637 1
gene 1 23 26 1.41015 0 45 1.41015 1
gene 1 23 27 -4.41015 0 46 -4.41015 1
gene 1 24 26 -0.531219 0 47 -0.531219 1
gene 1 24 27 0.0853807 0 48 0.0853807 1
gene 1 25 26 1.92766 0 49 1.92766 1
gene 1 25 27 3.0575 0 50 3.0575 1
gene 1 7 63 1.98789 0 125 1.98789 1
gene 1 63 26 -0.732774 0 126 -0.732774 1
gene 1 21 89 2.30929 0 225 2.30929 1
gene 1 89 26 -0.988596 0 226 -0.988596 1
gene 1 10 63 -1.89774 0 847 -1.89774 1
gene 1 3 301 1.68606 0 998 1.68606 1
gene 1 301 26 -0.438097 0 999 -0.438097 1
gene 1 15 448 5 0 1704 5 0
gene 1 448 26 -2.2221 0 1705 -2.2221 1
gene 1 12 63 -1.49345 0 1857 -1.49345 1
gene 1 15 514 2.06406 0 1962 2.06406 1
gene 1 514 448 3.92171 0 1963 3.92171 1
genomeend 941


/* Organism #190 Quality: 0.994382 Time: 0 Id: 37 */
/* -0.00454326 -0.997071 -0.544631 -0.706392 2.17104 -0.835072 0.445749 0.521819 -2.78395 1.52902 1.23154 0.897143 1.52974 -0.902183  */
genomestart 190
trait 1 0.481132 0.679382 0.0363304 0.503677 0.331514 0 0.173312 0.460747 
node 1 1 1 1
node 2 1 1 1
node 3 1 1 1
node 4 1 1 1
node 5 1 1 1
node 6 1 1 1
node 7 1 1 1
node 8 1 1 1
node 9 1 1 1
node 10 1 1 1
node 11 1 1 1
node 12 1 1 1
node 13 1 1 1
node 14 1 1 1
node 15 1 1 1
node 16 1 1 1
node 17 1 1 1
node 18 1 1 1
node 19 1 1 1
node 20 1 1 1
node 21 1 1 1
node 22 1 1 1
node 23 1 1 1
node 24 1 1 1
node 25 1 1 3
node 26 1 0 2
node 27 1 0 2
node 63 1 0 0
node 89 1 0 0
node 301 1 0 0
node 462 1 0 0
gene 1 1 26 0.389775 0 1 0.389775 1
gene 1 1 27 -1.96848 0 2 -1.96848 1
gene 1 2 26 -3.74114 0 3 -3.74114 1
gene 1 2 27 -0.512282 0 4 -0.512282 1
gene 1 3 26 5 0 5 5 1
gene 1 3 27 -1.04001 0 6 -1.04001 1
gene 1 4 26 4.15256 0 7 4.15256 1
gene 1 4 27 3.05114 0 8 3.05114 1
gene 1 5 26 4.5724 0 9 4.5724 1
gene 1 5 27 -0.188498 0 10 -0.188498 1
gene 1 6 26 3.51491 0 11 3.51491 1
gene 1 6 27 -2.79864 0 12 -2.79864 1
gene 1 7 26 -0.38322 0 13 -0.38322 1
gene 1 7 27 1.42124 0 14 1.42124 1
gene 1 8 26 -0.803499 0 15 -0.803499 1
gene 1 8 27 0.511449 0 16 0.511449 1
gene 1 9 26 -3.73546 0 17 -3.73546 1
gene 1 9 27 -4.62724 0 18 -4.62724 1
gene 1 10 26 -0.25255 0 19 -0.25255 1
gene 1 10 27 -0.428185 0 20 -0.428185 1
gene 1 11 26 -1.27883 0 21 -1.27883 1
gene 1 11 27 -0.782782 0 22 -0.782782 1
gene 1 12 26 1.22201 0 23 1.22201 1
gene 1 12 27 1.09093 0 24 1.09093 1
gene 1 13 26 1.17301 0 25 1.17301 1
gene 1 13 27 -2.12517 0 26 -2.12517 1
gene 1 14 26 3.06204 0 27 3.06204 1
gene 1 14 27 0.0654974 0 28 0.0654974 1
gene 1 15 26 -0.236494 0 29 -0.236494 1
gene 1 15 27 0.20403 0 30 0.20403 1
gene 1 16 26 -0.369457 0 31 -0.369457 1
gene 1 16 27 -1.65621 0 32 -1.65621 1
gene 1 17 26 1.23615 0 33 1.23615 1
gene 1 17 27 -3.8873 0 34 -3.8873 1
gene 1 18 26 -2.29945 0 35 -2.29945 1
gene 1 18 27 -0.783571 0 36 -0.783571 1
gene 1 19 26 -0.13523 0 37 -0.13523 1
gene 1 19 27 -1.99528 0 38 -1.99528 1
