/* Organism #37 Quality: 1.000000 Time: 0 Id: 0 */
/* -0.000259823 -0.999822 0.962053 -0.935793 1.73972 -0.997694 1.58737 -0.98893 0.751227 -0.885352 -0.667449 -0.874464 2.36382 -0.822953  */
genomestart 37
trait 1 0.1 0 0 0 0 0 0 0 
node 1 1 1 1
node 2 1 1 1
node 3 1 1 1
node 4 1 1 1
node 5 1 1 1
node 6 1 1 1
node 7 1 1 1
node 8 1 1 1
node 9 1 1 1
node 10 1 1 1
node 11 1 1 1
node 12 1 1 1
node 13 1 1 1
node 14 1 1 1
node 15 1 1 1
node 16 1 1 1
node 17 1 1 1
node 18 1 1 1
node 19 1 1 1
node 20 1 1 1
node 21 1 1 1
node 22 1 1 1
node 23 1 1 1
node 24 1 1 1
node 25 1 1 3
node 26 1 0 2
node 27 1 0 2
gene 1 1 26 0.288661 0 1 0.288661 1
gene 1 1 27 -0.919531 0 2 -0.919531 1
gene 1 2 26 -0.114986 0 3 -0.114986 1
gene 1 2 27 -0.912303 0 4 -0.912303 1
gene 1 3 26 0.0393474 0 5 0.0393474 1
gene 1 3 27 -0.900657 0 6 -0.900657 1
gene 1 4 26 0.646998 0 7 0.646998 1
gene 1 4 27 0.835688 0 8 0.835688 1
gene 1 5 26 0.619111 0 9 0.619111 1
gene 1 5 27 -0.481668 0 10 -0.481668 1
gene 1 6 26 -0.14292 0 11 -0.14292 1
gene 1 6 27 0.656686 0 12 0.656686 1
gene 1 7 26 -0.425257 0 13 -0.425257 1
gene 1 7 27 0.913947 0 14 0.913947 1
gene 1 8 26 0.0560141 0 15 0.0560141 1
gene 1 8 27 -0.320386 0 16 -0.320386 1
gene 1 9 26 -0.210977 0 17 -0.210977 1
gene 1 9 27 0.195922 0 18 0.195922 1
gene 1 10 26 0.895933 0 19 0.895933 1
gene 1 10 27 -0.945636 0 20 -0.945636 1
gene 1 11 26 0.299122 0 21 0.299122 1
gene 1 11 27 0.470365 0 22 0.470365 1
gene 1 12 26 0.558399 0 23 0.558399 1
gene 1 12 27 0.558694 0 24 0.558694 1
gene 1 13 26 -0.670513 0 25 -0.670513 1
gene 1 13 27 -0.309712 0 26 -0.309712 1
gene 1 14 26 -0.900635 0 27 -0.900635 1
gene 1 14 27 0.627686 0 28 0.627686 1
gene 1 15 26 0.199496 0 29 0.199496 1
gene 1 15 27 0.220613 0 30 0.220613 1
gene 1 16 26 0.0680249 0 31 0.0680249 1
gene 1 16 27 -0.600185 0 32 -0.600185 1
gene 1 17 26 -0.780916 0 33 -0.780916 1
gene 1 17 27 0.604966 0 34 0.604966 1
gene 1 18 26 -0.904334 0 35 -0.904334 1
gene 1 18 27 0.61213 0 36 0.61213 1
gene 1 19 26 -0.396895 0 37 -0.396895 1
gene 1 19 27 0.149576 0 38 0.149576 1
gene 1 20 26 -0.388547 0 39 -0.388547 1
gene 1 20 27 0.132804 0 40 0.132804 1
gene 1 21 26 0.748631 0 41 0.748631 1
gene 1 21 27 -0.872494 0 42 -0.872494 1
gene 1 22 26 0.408913 0 43 0.408913 1
gene 1 22 27 -0.975158 0 44 -0.975158 1
gene 1 23 26 -0.0418129 0 45 -0.0418129 1
gene 1 23 27 0.86392 0 46 0.86392 1
gene 1 24 26 -0.736771 0 47 -0.736771 1
gene 1 24 27 -0.38884 0 48 -0.38884 1
gene 1 25 26 -0.260213 0 49 -0.260213 1
gene 1 25 27 0.194536 0 50 0.194536 1
genomeend 37


/* Organism #85 Quality: 1.000000 Time: 0 Id: 1 */
/* 0.000523017 -0.999096 0.469531 -0.823298 1.51635 -0.982034 1.72733 -0.932898 0.917151 -0.591127 -0.667389 -0.8745 1.28233 -0.713959  */
genomestart 85
trait 1 0.1 0 0 0 0 0 0 0 
node 1 1 1 1
node 2 1 1 1
node 3 1 1 1
node 4 1 1 1
node 5 1 1 1
node 6 1 1 1
node 7 1 1 1
node 8 1 1 1
node 9 1 1 1
node 10 1 1 1
node 11 1 1 1
node 12 1 1 1
node 13 1 1 1
node 14 1 1 1
node 15 1 1 1
node 16 1 1 1
node 17 1 1 1
node 18 1 1 1
node 19 1 1 1
node 20 1 1 1
node 21 1 1 1
node 22 1 1 1
node 23 1 1 1
node 24 1 1 1
node 25 1 1 3
node 26 1 0 2
node 27 1 0 2
gene 1 1 26 -0.805776 0 1 -0.805776 1
gene 1 1 27 -0.343636 0 2 -0.343636 1
gene 1 2 26 -0.866929 0 3 -0.866929 1
gene 1 2 27 0.803286 0 4 0.803286 1
gene 1 3 26 -0.884857 0 5 -0.884857 1
gene 1 3 27 0.578101 0 6 0.578101 1
gene 1 4 26 -0.250633 0 7 -0.250633 1
gene 1 4 27 0.447831 0 8 0.447831 1
gene 1 5 26 0.286824 0 9 0.286824 1
gene 1 5 27 0.806343 0 10 0.806343 1
gene 1 6 26 -0.153103 0 11 -0.153103 1
gene 1 6 27 0.660643 0 12 0.660643 1
gene 1 7 26 -0.356627 0 13 -0.356627 1
gene 1 7 27 0.327 0 14 0.327 1
gene 1 8 26 -0.992143 0 15 -0.992143 1
gene 1 8 27 -0.490655 0 16 -0.490655 1
gene 1 9 26 0.935351 0 17 0.935351 1
gene 1 9 27 0.762924 0 18 0.762924 1
gene 1 10 26 0.0850965 0 19 0.0850965 1
gene 1 10 27 -0.985289 0 20 -0.985289 1
gene 1 11 26 0.910657 0 21 0.910657 1
gene 1 11 27 0.473665 0 22 0.473665 1
gene 1 12 26 0.232299 0 23 0.232299 1
gene 1 12 27 -0.297906 0 24 -0.297906 1
gene 1 13 26 -0.451135 0 25 -0.451135 1
gene 1 13 27 -0.759174 0 26 -0.759174 1
gene 1 14 26 -0.984397 0 27 -0.984397 1
gene 1 14 27 0.687299 0 28 0.687299 1
gene 1 15 26 -0.72447 0 29 -0.72447 1
gene 1 15 27 0.131091 0 30 0.131091 1
gene 1 16 26 -0.901939 0 31 -0.901939 1
gene 1 16 27 0.514532 0 32 0.514532 1
gene 1 17 26 0.456037 0 33 0.456037 1
gene 1 17 27 0.63957 0 34 0.63957 1
gene 1 18 26 0.843667 0 35 0.843667 1
gene 1 18 27 -0.511087 0 36 -0.511087 1
gene 1 19 26 -0.188249 0 37 -0.188249 1
gene 1 19 27 0.915614 0 38 0.915614 1
gene 1 20 26 -0.906247 0 39 -0.906247 1
gene 1 20 27 0.93967 0 40 0.93967 1
gene 1 21 26 0.31777 0 41 0.31777 1
gene 1 21 27 -0.961618 0 42 -0.961618 1
gene 1 22 26 -0.11866 0 43 -0.11866 1
gene 1 22 27 0.643191 0 44 0.643191 1
gene 1 23 26 -0.663217 0 45 -0.663217 1
gene 1 23 27 0.559742 0 46 0.559742 1
gene 1 24 26 0.396027 0 47 0.396027 1
gene 1 24 27 0.402445 0 48 0.402445 1
gene 1 25 26 -0.351731 0 49 -0.351731 1
gene 1 25 27 -0.393197 0 50 -0.393197 1
genomeend 85


/* Organism #237 Quality: 1.000000 Time: 0 Id: 2 */
/* 0.00161827 -0.999418 -0.834394 -0.922117 1.74122 -0.993469 1.5918 -0.966944 0.661769 -0.763214 -0.667126 -0.873989 2.1734 -0.786909  */
genomestart 237
trait 1 0.1 0 0 0 0 0 0 0 
node 1 1 1 1
node 2 1 1 1
node 3 1 1 1
node 4 1 1 1
node 5 1 1 1
node 6 1 1 1
node 7 1 1 1
node 8 1 1 1
node 9 1 1 1
node 10 1 1 1
node 11 1 1 1
node 12 1 1 1
node 13 1 1 1
node 14 1 1 1
node 15 1 1 1
node 16 1 1 1
node 17 1 1 1
node 18 1 1 1
node 19 1 1 1
node 20 1 1 1
node 21 1 1 1
node 22 1 1 1
node 23 1 1 1
node 24 1 1 1
node 25 1 1 3
node 26 1 0 2
node 27 1 0 2
gene 1 1 26 -0.843414 0 1 -0.843414 1
gene 1 1 27 -0.487379 0 2 -0.487379 1
gene 1 2 26 -0.292128 0 3 -0.292128 1
gene 1 2 27 0.3438 0 4 0.3438 1
gene 1 3 26 0.993311 0 5 0.993311 1
gene 1 3 27 -0.88075 0 6 -0.88075 1
gene 1 4 26 0.616491 0 7 0.616491 1
gene 1 4 27 0.997475 0 8 0.997475 1
gene 1 5 26 -0.12397 0 9 -0.12397 1
gene 1 5 27 0.527462 0 10 0.527462 1
gene 1 6 26 0.0199472 0 11 0.0199472 1
gene 1 6 27 -0.481929 0 12 -0.481929 1
gene 1 7 26 -0.737623 0 13 -0.737623 1
gene 1 7 27 0.47103 0 14 0.47103 1
gene 1 8 26 -0.710724 0 15 -0.710724 1
gene 1 8 27 -0.890285 0 16 -0.890285 1
gene 1 9 26 -0.534767 0 17 -0.534767 1
gene 1 9 27 0.294611 0 18 0.294611 1
gene 1 10 26 -0.983127 0 19 -0.983127 1
gene 1 10 27 -0.0548982 0 20 -0.0548982 1
gene 1 11 26 0.539711 0 21 0.539711 1
gene 1 11 27 0.861589 0 22 0.861589 1
gene 1 12 26 0.604787 0 23 0.604787 1
gene 1 12 27 0.580405 0 24 0.580405 1
gene 1 13 26 -0.436857 0 25 -0.436857 1
gene 1 13 27 -0.383936 0 26 -0.383936 1
gene 1 14 26 0.260505 0 27 0.260505 1
gene 1 14 27 0.0673412 0 28 0.0673412 1
gene 1 15 26 -0.360017 0 29 -0.360017 1
gene 1 15 27 0.373145 0 30 0.373145 1
gene 1 16 26 -0.8664 0 31 -0.8664 1
gene 1 16 27 -0.624879 0 32 -0.624879 1
gene 1 17 26 0.641093 0 33 0.641093 1
gene 1 17 27 -0.228062 0 34 -0.228062 1
gene 1 18 26 0.5579 0 35 0.5579 1
gene 1 18 27 -0.600657 0 36 -0.600657 1
gene 1 19 26 0.218608 0 37 0.218608 1
gene 1 19 27 -0.253813 0 38 -0.253813 1
gene 1 20 26 0.321311 0 39 0.321311 1
gene 1 20 27 0.552153 0 40 0.552153 1
gene 1 21 26 0.942086 0 41 0.942086 1
gene 1 21 27 -0.214973 0 42 -0.214973 1
gene 1 22 26 -0.801954 0 43 -0.801954 1
gene 1 22 27 -0.200718 0 44 -0.200718 1
gene 1 23 26 0.820685 0 45 0.820685 1
gene 1 23 27 -0.232712 0 46 -0.232712 1
gene 1 24 26 -0.837292 0 47 -0.837292 1
gene 1 24 27 -0.0882517 0 48 -0.0882517 1
gene 1 25 26 0.777081 0 49 0.777081 1
gene 1 25 27 -0.102605 0 50 -0.102605 1
genomeend 237


/* Organism #494 Quality: 1.000000 Time: 0 Id: 3 */
/* 0.000337963 -0.999709 0.964257 -0.932656 1.48289 -0.979339 1.62531 -0.961588 0.714708 -0.789882 1.47521 0.267368 1.11785 -0.771571  */
genomestart 494
trait 1 0.1 0 0 0 0 0 0 0 
node 1 1 1 1
node 2 1 1 1
node 3 1 1 1
node 4 1 1 1
node 5 1 1 1
node 6 1 1 1
node 7 1 1 1
node 8 1 1 1
node 9 1 1 1
node 10 1 1 1
node 11 1 1 1
node 12 1 1 1
node 13 1 1 1
node 14 1 1 1
node 15 1 1 1
node 16 1 1 1
node 17 1 1 1
node 18 1 1 1
node 19 1 1 1
node 20 1 1 1
node 21 1 1 1
node 22 1 1 1
node 23 1 1 1
node 24 1 1 1
node 25 1 1 3
node 26 1 0 2
node 27 1 0 2
gene 1 1 26 0.0411054 0 1 0.0411054 1
gene 1 1 27 -0.264536 0 2 -0.264536 1
gene 1 2 26 -0.741129 0 3 -0.741129 1
gene 1 2 27 -0.249052 0 4 -0.249052 1
gene 1 3 26 0.931765 0 5 0.931765 1
gene 1 3 27 0.293205 0 6 0.293205 1
gene 1 4 26 0.524148 0 7 0.524148 1
gene 1 4 27 0.752359 0 8 0.752359 1
gene 1 5 26 -0.00559511 0 9 -0.00559511 1
gene 1 5 27 0.219915 0 10 0.219915 1
gene 1 6 26 -0.645015 0 11 -0.645015 1
gene 1 6 27 -0.00651639 0 12 -0.00651639 1
gene 1 7 26 -0.670418 0 13 -0.670418 1
gene 1 7 27 -0.503655 0 14 -0.503655 1
gene 1 8 26 -0.400043 0 15 -0.400043 1
gene 1 8 27 -0.413114 0 16 -0.413114 1
gene 1 9 26 -0.831087 0 17 -0.831087 1
gene 1 9 27 0.42503 0 18 0.42503 1
gene 1 10 26 0.619258 0 19 0.619258 1
gene 1 10 27 0.576704 0 20 0.576704 1
gene 1 11 26 -0.0324207 0 21 -0.0324207 1
gene 1 11 27 0.235155 0 22 0.235155 1
gene 1 12 26 -0.150161 0 23 -0.150161 1
gene 1 12 27 0.255281 0 24 0.255281 1
gene 1 13 26 -0.282903 0 25 -0.282903 1
gene 1 13 27 0.1705 0 26 0.1705 1
gene 1 14 26 -0.302398 0 27 -0.302398 1
gene 1 14 27 -0.809422 0 28 -0.809422 1
gene 1 15 26 0.0578334 0 29 0.0578334 1
gene 1 15 27 0.735674 0 30 0.735674 1
gene 1 16 26 -0.354924 0 31 -0.354924 1
gene 1 16 27 0.899024 0 32 0.899024 1
gene 1 17 26 0.826438 0 33 0.826438 1
gene 1 17 27 0.758226 0 34 0.758226 1
gene 1 18 26 -0.998136 0 35 -0.998136 1
gene 1 18 27 0.996719 0 36 0.996719 1
gene 1 19 26 -0.204838 0 37 -0.204838 1
gene 1 19 27 0.587125 0 38 0.587125 1
gene 1 20 26 0.219389 0 39 0.219389 1
gene 1 20 27 0.510755 0 40 0.510755 1
gene 1 21 26 0.317602 0 41 0.317602 1
gene 1 21 27 -0.430209 0 42 -0.430209 1
gene 1 22 26 -0.858271 0 43 -0.858271 1
gene 1 22 27 0.592816 0 44 0.592816 1
gene 1 23 26 -0.552708 0 45 -0.552708 1
gene 1 23 27 0.373981 0 46 0.373981 1
gene 1 24 26 0.477278 0 47 0.477278 1
gene 1 24 27 0.0936425 0 48 0.0936425 1
gene 1 25 26 -0.59706 0 49 -0.59706 1
gene 1 25 27 0.749412 0 50 0.749412 1
genomeend 494


/* Organism #734 Quality: 1.000000 Time: 0 Id: 4 */
/* 0.000352839 -0.999756 -0.960163 -0.934553 1.47389 -0.989605 1.62974 -0.968952 0.793161 -0.795829 1.57977 0.376676 1.01861 -0.802695  */
genomestart 734
trait 1 0.1 0 0 0 0 0 0 0 
node 1 1 1 1
node 2 1 1 1
node 3 1 1 1
node 4 1 1 1
node 5 1 1 1
node 6 1 1 1
node 7 1 1 1
node 8 1 1 1
node 9 1 1 1
node 10 1 1 1
node 11 1 1 1
node 12 1 1 1
node 13 1 1 1
node 14 1 1 1
node 15 1 1 1
node 16 1 1 1
node 17 1 1 1
node 18 1 1 1
node 19 1 1 1
node 20 1 1 1
node 21 1 1 1
node 22 1 1 1
node 23 1 1 1
node 24 1 1 1
node 25 1 1 3
node 26 1 0 2
node 27 1 0 2
gene 1 1 26 0.510053 0 1 0.510053 1
gene 1 1 27 -0.161181 0 2 -0.161181 1
gene 1 2 26 -0.89636 0 3 -0.89636 1
gene 1 2 27 0.155596 0 4 0.155596 1
gene 1 3 26 0.583227 0 5 0.583227 1
gene 1 3 27 -0.896794 0 6 -0.896794 1
gene 1 4 26 -0.29467 0 7 -0.29467 1
gene 1 4 27 0.504676 0 8 0.504676 1
gene 1 5 26 -0.566072 0 9 -0.566072 1
gene 1 5 27 0.613586 0 10 0.613586 1
gene 1 6 26 -0.182468 0 11 -0.182468 1
gene 1 6 27 0.247369 0 12 0.247369 1
gene 1 7 26 0.167313 0 13 0.167313 1
gene 1 7 27 -0.467426 0 14 -0.467426 1
gene 1 8 26 -0.402201 0 15 -0.402201 1
gene 1 8 27 -0.561569 0 16 -0.561569 1
gene 1 9 26 0.967159 0 17 0.967159 1
gene 1 9 27 0.448839 0 18 0.448839 1
gene 1 10 26 0.171005 0 19 0.171005 1
gene 1 10 27 -0.729572 0 20 -0.729572 1
gene 1 11 26 0.78999 0 21 0.78999 1
gene 1 11 27 0.209277 0 22 0.209277 1
gene 1 12 26 0.304119 0 23 0.304119 1
gene 1 12 27 0.705511 0 24 0.705511 1
gene 1 13 26 0.768269 0 25 0.768269 1
gene 1 13 27 -0.111812 0 26 -0.111812 1
gene 1 14 26 0.643902 0 27 0.643902 1
gene 1 14 27 0.758296 0 28 0.758296 1
gene 1 15 26 0.540491 0 29 0.540491 1
gene 1 15 27 -0.408774 0 30 -0.408774 1
gene 1 16 26 -0.667803 0 31 -0.667803 1
gene 1 16 27 0.827629 0 32 0.827629 1
gene 1 17 26 0.0494336 0 33 0.0494336 1
gene 1 17 27 -0.229578 0 34 -0.229578 1
gene 1 18 26 -0.523658 0 35 -0.523658 1
gene 1 18 27 -0.514901 0 36 -0.514901 1
gene 1 19 26 -0.1001 0 37 -0.1001 1
gene 1 19 27 0.573926 0 38 0.573926 1
gene 1 20 26 0.441055 0 39 0.441055 1
gene 1 20 27 -0.267557 0 40 -0.267557 1
gene 1 21 26 0.667019 0 41 0.667019 1
gene 1 21 27 -0.00619405 0 42 -0.00619405 1
gene 1 22 26 0.653752 0 43 0.653752 1
gene 1 22 27 0.979594 0 44 0.979594 1
gene 1 23 26 0.144607 0 45 0.144607 1
gene 1 23 27 -0.932763 0 46 -0.932763 1
gene 1 24 26 0.272716 0 47 0.272716 1
gene 1 24 27 -0.766429 0 48 -0.766429 1
gene 1 25 26 0.971322 0 49 0.971322 1
gene 1 25 27 -0.884149 0 50 -0.884149 1
genomeend 734


/* Organism #18 Quality: 1.000000 Time: 0 Id: 5 */
/* 0.00232624 -0.998985 -0.766558 -0.888245 1.77807 -0.964078 1.73996 -0.814341 2.33697 0.340516 -0.668215 -0.874584 1.53119 -0.901276  */
genomestart 18
trait 1 0.517538 0 0.270334 0 0 0.530851 0 0 
node 1 1 1 1
node 2 1 1 1
node 3 1 1 1
node 4 1 1 1
node 5 1 1 1
node 6 1 1 1
node 7 1 1 1
node 8 1 1 1
node 9 1 1 1
node 10 1 1 1
node 11 1 1 1
node 12 1 1 1
node 13 1 1 1
node 14 1 1 1
node 15 1 1 1
node 16 1 1 1
node 17 1 1 1
node 18 1 1 1
node 19 1 1 1
node 20 1 1 1
node 21 1 1 1
node 22 1 1 1
node 23 1 1 1
node 24 1 1 1
node 25 1 1 3
node 26 1 0 2
node 27 1 0 2
gene 1 1 26 1.76131 0 1 1.76131 1
gene 1 1 27 -0.69802 0 2 -0.69802 1
gene 1 2 26 -0.678958 0 3 -0.678958 1
gene 1 2 27 -2.51307 0 4 -2.51307 1
gene 1 3 26 2.03012 0 5 2.03012 1
gene 1 3 27 0.47771 0 6 0.47771 1
gene 1 4 26 1.04967 0 7 1.04967 1
gene 1 4 27 -1.56821 0 8 -1.56821 1
gene 1 5 26 -0.754438 0 9 -0.754438 1
gene 1 5 27 1.00744 0 10 1.00744 1
gene 1 6 26 -1.13888 0 11 -1.13888 1
gene 1 6 27 -0.438894 0 12 -0.438894 1
gene 1 7 26 -1.95131 0 13 -1.95131 1
gene 1 7 27 -2.18327 0 14 -2.18327 1
gene 1 8 26 -1.17984 0 15 -1.17984 1
gene 1 8 27 0.176809 0 16 0.176809 1
gene 1 9 26 0.158593 0 17 0.158593 1
gene 1 9 27 -1.30321 0 18 -1.30321 1
gene 1 10 26 -1.88214 0 19 -1.88214 1
gene 1 10 27 0.0313679 0 20 0.0313679 1
gene 1 11 26 2.43818 0 21 2.43818 1
gene 1 11 27 -1.97737 0 22 -1.97737 1
gene 1 12 26 2.19028 0 23 2.19028 1
gene 1 12 27 1.61957 0 24 1.61957 1
gene 1 13 26 0.0286565 0 25 0.0286565 1
gene 1 13 27 -0.204387 0 26 -0.204387 1
gene 1 14 26 -2.47716 0 27 -2.47716 1
gene 1 14 27 -0.72452 0 28 -0.72452 1
gene 1 15 26 0.512188 0 29 0.512188 1
gene 1 15 27 -0.951728 0 30 -0.951728 1
gene 1 16 26 0.19011 0 31 0.19011 1
gene 1 16 27 0.11497 0 32 0.11497 1
gene 1 17 26 1.58349 0 33 1.58349 1
gene 1 17 27 1.19697 0 34 1.19697 1
gene 1 18 26 2.98406 0 35 2.98406 1
gene 1 18 27 -1.17651 0 36 -1.17651 1
gene 1 19 26 1.90986 0 37 1.90986 1
gene 1 19 27 -0.280947 0 38 -0.280947 1
gene 1 20 26 -1.18886 0 39 -1.18886 1
gene 1 20 27 -0.435758 0 40 -0.435758 1
gene 1 21 26 -1.10191 0 41 -1.10191 1
gene 1 21 27 -0.571199 0 42 -0.571199 1
gene 1 22 26 -0.161278 0 43 -0.161278 1
gene 1 22 27 0.160384 0 44 0.160384 1
gene 1 23 26 -0.379088 0 45 -0.379088 1
gene 1 23 27 -2.8555 0 46 -2.8555 1
gene 1 24 26 -0.0553187 0 47 -0.0553187 1
gene 1 24 27 -0.959535 0 48 -0.959535 1
gene 1 25 26 2.03074 0 49 2.03074 1
gene 1 25 27 -0.00933516 0 50 -0.00933516 1
genomeend 18


/* Organism #58 Quality: 1.000000 Time: 0 Id: 6 */
/* 0.00123529 -0.998798 -0.586555 -0.759352 1.77584 -0.975168 1.73853 -0.867164 1.83715 -0.194083 -0.668035 -0.875005 1.53088 -0.901757  */
genomestart 58
trait 1 0.1 0 0 0 0 0 0 0 
node 1 1 1 1
node 2 1 1 1
node 3 1 1 1
node 4 1 1 1
node 5 1 1 1
node 6 1 1 1
node 7 1 1 1
node 8 1 1 1
node 9 1 1 1
node 10 1 1 1
node 11 1 1 1
node 12 1 1 1
node 13 1 1 1
node 14 1 1 1
node 15 1 1 1
node 16 1 1 1
node 17 1 1 1
node 18 1 1 1
node 19 1 1 1
node 20 1 1 1
node 21 1 1 1
node 22 1 1 1
node 23 1 1 1
node 24 1 1 1
node 25 1 1 3
node 26 1 0 2
node 27 1 0 2
gene 1 1 26 -1.42026 0 1 -1.42026 1
gene 1 1 27 -1.82145 0 2 -1.82145 1
gene 1 2 26 0.0932972 0 3 0.0932972 1
gene 1 2 27 -1.18678 0 4 -1.18678 1
gene 1 3 26 -0.809092 0 5 -0.809092 1
gene 1 3 27 -0.980117 0 6 -0.980117 1
gene 1 4 26 -0.481886 0 7 -0.481886 1
gene 1 4 27 0.0104569 0 8 0.0104569 1
gene 1 5 26 0.877732 0 9 0.877732 1
gene 1 5 27 0.452034 0 10 0.452034 1
gene 1 6 26 -1.16237 0 11 -1.16237 1
gene 1 6 27 2.09253 0 12 2.09253 1
gene 1 7 26 1.52112 0 13 1.52112 1
gene 1 7 27 -1.22603 0 14 -1.22603 1
gene 1 8 26 -0.784744 0 15 -0.784744 1
gene 1 8 27 -0.595424 0 16 -0.595424 1
gene 1 9 26 -1.69299 0 17 -1.69299 1
gene 1 9 27 -2.42843 0 18 -2.42843 1
gene 1 10 26 -1.44473 0 19 -1.44473 1
gene 1 10 27 0.871231 0 20 0.871231 1
gene 1 11 26 -2.18275 0 21 -2.18275 1
gene 1 11 27 1.27407 0 22 1.27407 1
gene 1 12 26 3.29414 0 23 3.29414 1
gene 1 12 27 1.92262 0 24 1.92262 1
gene 1 13 26 -1.22071 0 25 -1.22071 1
gene 1 13 27 -2.77722 0 26 -2.77722 1
gene 1 14 26 -1.17983 0 27 -1.17983 1
gene 1 14 27 1.74923 0 28 1.74923 1
gene 1 15 26 0.445614 0 29 0.445614 1
gene 1 15 27 -1.8855 0 30 -1.8855 1
gene 1 16 26 0.338214 0 31 0.338214 1
gene 1 16 27 0.607514 0 32 0.607514 1
gene 1 17 26 1.40358 0 33 1.40358 1
gene 1 17 27 -1.49162 0 34 -1.49162 1
gene 1 18 26 -0.44622 0 35 -0.44622 1
gene 1 18 27 -1.83653 0 36 -1.83653 1
gene 1 19 26 0.849292 0 37 0.849292 1
gene 1 19 27 1.43719 0 38 1.43719 1
gene 1 20 26 -1.7174 0 39 -1.7174 1
gene 1 20 27 2.31763 0 40 2.31763 1
gene 1 21 26 -0.168642 0 41 -0.168642 1
gene 1 21 27 -0.338434 0 42 -0.338434 1
gene 1 22 26 -0.108895 0 43 -0.108895 1
gene 1 22 27 2.43873 0 44 2.43873 1
gene 1 23 26 0.693227 0 45 0.693227 1
gene 1 23 27 1.93777 0 46 1.93777 1
gene 1 24 26 -0.0722981 0 47 -0.0722981 1
gene 1 24 27 0.578162 0 48 0.578162 1
gene 1 25 26 0.539796 0 49 0.539796 1
gene 1 25 27 -0.620732 0 50 -0.620732 1
genomeend 58


/* Organism #109 Quality: 1.000000 Time: 0 Id: 7 */
/* -6.37797e-06 -0.99984 -0.998721 -0.934685 1.74462 -0.998195 1.59472 -0.992762 0.521612 -0.924818 -0.668716 -0.871405 1.53136 -0.902353  */
genomestart 109
trait 1 0.1 0 0 0 0 0 0 0 
node 1 1 1 1
node 2 1 1 1
node 3 1 1 1
node 4 1 1 1
node 5 1 1 1
node 6 1 1 1
node 7 1 1 1
node 8 1 1 1
node 9 1 1 1
node 10 1 1 1
node 11 1 1 1
node 12 1 1 1
node 13 1 1 1
node 14 1 1 1
node 15 1 1 1
node 16 1 1 1
node 17 1 1 1
node 18 1 1 1
node 19 1 1 1
node 20 1 1 1
node 21 1 1 1
node 22 1 1 1
node 23 1 1 1
node 24 1 1 1
node 25 1 1 3
node 26 1 0 2
node 27 1 0 2
gene 1 1 26 -3.80615 0 1 -3.80615 1
gene 1 1 27 0.34255 0 2 0.34255 1
gene 1 2 26 2.0897 0 3 2.0897 1
gene 1 2 27 -0.137486 0 4 -0.137486 1
gene 1 3 26 -1.2402 0 5 -1.2402 1
gene 1 3 27 -1.81673 0 6 -1.81673 1
gene 1 4 26 1.26397 0 7 1.26397 1
gene 1 4 27 -2.87862 0 8 -2.87862 1
gene 1 5 26 1.06865 0 9 1.06865 1
gene 1 5 27 1.07204 0 10 1.07204 1
gene 1 6 26 -1.29948 0 11 -1.29948 1
gene 1 6 27 1.49611 0 12 1.49611 1
gene 1 7 26 0.849711 0 13 0.849711 1
gene 1 7 27 -0.00954422 0 14 -0.00954422 1
gene 1 8 26 -0.890236 0 15 -0.890236 1
gene 1 8 27 0.417541 0 16 0.417541 1
gene 1 9 26 1.29624 0 17 1.29624 1
gene 1 9 27 -2.44913 0 18 -2.44913 1
gene 1 10 26 -3.26838 0 19 -3.26838 1
gene 1 10 27 0.324294 0 20 0.324294 1
gene 1 11 26 -1.11 0 21 -1.11 1
gene 1 11 27 2.19969 0 22 2.19969 1
gene 1 12 26 1.89955 0 23 1.89955 1
gene 1 12 27 -1.7764 0 24 -1.7764 1
gene 1 13 26 -0.0811657 0 25 -0.0811657 1
gene 1 13 27 -0.304536 0 26 -0.304536 1
gene 1 14 26 -0.301756 0 27 -0.301756 1
gene 1 14 27 2.82563 0 28 2.82563 1
gene 1 15 26 -1.49753 0 29 -1.49753 1
gene 1 15 27 -0.881496 0 30 -0.881496 1
gene 1 16 26 -0.967972 0 31 -0.967972 1
gene 1 16 27 -2.30471 0 32 -2.30471 1
gene 1 17 26 1.04 0 33 1.04 1
gene 1 17 27 0.515034 0 34 0.515034 1
gene 1 18 26 -1.95072 0 35 -1.95072 1
gene 1 18 27 2.3557 0 36 2.3557 1
gene 1 19 26 1.22245 0 37 1.22245 1
gene 1 19 27 -0.177956 0 38 -0.177956 1
gene 1 20 26 0.191481 0 39 0.191481 1
gene 1 20 27 -1.87163 0 40 -1.87163 1
gene 1 21 26 -1.64941 0 41 -1.64941 1
gene 1 21 27 -1.08137 0 42 -1.08137 1
gene 1 22 26 2.52764 0 43 2.52764 1
gene 1 22 27 0.127768 0 44 0.127768 1
gene 1 23 26 0.895704 0 45 0.895704 1
gene 1 23 27 -0.805388 0 46 -0.805388 1
gene 1 24 26 -0.679088 0 47 -0.679088 1
gene 1 24 27 1.02993 0 48 1.02993 1
gene 1 25 26 1.9337 0 49 1.9337 1
gene 1 25 27 -3.66087 0 50 -3.66087 1
genomeend 109


/* Organism #269 Quality: 1.000000 Time: 0 Id: 8 */
/* 0.00468725 -0.998019 -0.439894 -0.848924 1.74744 -0.947494 1.6317 -0.75117 0.469852 -0.0017462 -0.667379 -0.87533 1.53056 -0.902923  */
genomestart 269
trait 1 0.1 0.0606882 0 0.0226774 0 0 0.179069 0.133334 
node 1 1 1 1
node 2 1 1 1
node 3 1 1 1
node 4 1 1 1
node 5 1 1 1
node 6 1 1 1
node 7 1 1 1
node 8 1 1 1
node 9 1 1 1
node 10 1 1 1
node 11 1 1 1
node 12 1 1 1
node 13 1 1 1
node 14 1 1 1
node 15 1 1 1
node 16 1 1 1
node 17 1 1 1
node 18 1 1 1
node 19 1 1 1
node 20 1 1 1
node 21 1 1 1
node 22 1 1 1
node 23 1 1 1
node 24 1 1 1
node 25 1 1 3
node 26 1 0 2
node 27 1 0 2
gene 1 1 26 -4.17753 0 1 -4.17753 1
gene 1 1 27 -1.67929 0 2 -1.67929 1
gene 1 2 26 -0.769442 0 3 -0.769442 1
gene 1 2 27 -0.940532 0 4 -0.940532 1
gene 1 3 26 -0.523627 0 5 -0.523627 1
gene 1 3 27 -0.490569 0 6 -0.490569 1
gene 1 4 26 0.925295 0 7 0.925295 1
gene 1 4 27 2.98208 0 8 2.98208 1
gene 1 5 26 0.0905821 0 9 0.0905821 1
gene 1 5 27 2.1266 0 10 2.1266 1
gene 1 6 26 3.88545 0 11 3.88545 1
gene 1 6 27 1.17506 0 12 1.17506 1
gene 1 7 26 -2.23332 0 13 -2.23332 1
gene 1 7 27 1.77652 0 14 1.77652 1
gene 1 8 26 -4.71899 0 15 -4.71899 1
gene 1 8 27 -3.46102 0 16 -3.46102 1
gene 1 9 26 -2.97687 0 17 -2.97687 1
gene 1 9 27 -0.549083 0 18 -0.549083 1
gene 1 10 26 -0.65273 0 19 -0.65273 1
gene 1 10 27 -0.1689 0 20 -0.1689 1
gene 1 11 26 -0.608553 0 21 -0.608553 1
gene 1 11 27 1.66207 0 22 1.66207 1
gene 1 12 26 3.13929 0 23 3.13929 1
gene 1 12 27 -0.780408 0 24 -0.780408 1
gene 1 13 26 -2.11369 0 25 -2.11369 1
gene 1 13 27 0.0289574 0 26 0.0289574 1
gene 1 14 26 -0.404297 0 27 -0.404297 1
gene 1 14 27 0.956022 0 28 0.956022 1
gene 1 15 26 0.119042 0 29 0.119042 1
gene 1 15 27 -0.362839 0 30 -0.362839 1
gene 1 16 26 4.777 0 31 4.777 1
gene 1 16 27 -1.06688 0 32 -1.06688 1
gene 1 17 26 -2.54748 0 33 -2.54748 1
gene 1 17 27 -2.74896 0 34 -2.74896 1
gene 1 18 26 1.47113 0 35 1.47113 1
gene 1 18 27 0.199699 0 36 0.199699 1
gene 1 19 26 3.27882 0 37 3.27882 1
gene 1 19 27 1.23392 0 38 1.23392 1
gene 1 20 26 1.68931 0 39 1.68931 1
gene 1 20 27 -0.443353 0 40 -0.443353 1
gene 1 21 26 1.51994 0 41 1.51994 1
gene 1 21 27 -3.28309 0 42 -3.28309 1
gene 1 22 26 0.906854 0 43 0.906854 1
gene 1 22 27 0.770568 0 44 0.770568 1
gene 1 23 26 1.23134 0 45 1.23134 1
gene 1 23 27 -2.3159 0 46 -2.3159 1
gene 1 24 26 -1.34601 0 47 -1.34601 1
gene 1 24 27 0.792129 0 48 0.792129 1
gene 1 25 26 0.468516 0 49 0.468516 1
gene 1 25 27 0.711892 0 50 0.711892 1
genomeend 269


/* Organism #356 Quality: 1.000000 Time: 0 Id: 9 */
/* 0.00174295 -0.998414 0.690086 -0.814487 1.81685 -0.970275 1.96698 -0.858188 2.3059 0.0872857 -0.667258 -0.875185 2.09543 -0.694075  */
genomestart 356
trait 1 0.1 0 0 0 0 0 0 0 
node 1 1 1 1
node 2 1 1 1
node 3 1 1 1
node 4 1 1 1
node 5 1 1 1
node 6 1 1 1
node 7 1 1 1
node 8 1 1 1
node 9 1 1 1
node 10 1 1 1
node 11 1 1 1
node 12 1 1 1
node 13 1 1 1
node 14 1 1 1
node 15 1 1 1
node 16 1 1 1
node 17 1 1 1
node 18 1 1 1
node 19 1 1 1
node 20 1 1 1
node 21 1 1 1
node 22 1 1 1
node 23 1 1 1
node 24 1 1 1
node 25 1 1 3
node 26 1 0 2
node 27 1 0 2
gene 1 1 26 -2.88713 0 1 -2.88713 1
gene 1 1 27 1.84511 0 2 1.84511 1
gene 1 2 26 -2.30893 0 3 -2.30893 1
gene 1 2 27 -3.07091 0 4 -3.07091 1
gene 1 3 26 3.55376 0 5 3.55376 1
gene 1 3 27 -2.42295 0 6 -2.42295 1
gene 1 4 26 0.614182 0 7 0.614182 1
gene 1 4 27 2.51355 0 8 2.51355 1
gene 1 5 26 0.503624 0 9 0.503624 1
gene 1 5 27 2.44515 0 10 2.44515 1
gene 1 6 26 -0.255034 0 11 -0.255034 1
gene 1 6 27 1.84507 0 12 1.84507 1
gene 1 7 26 -0.65433 0 13 -0.65433 1
gene 1 7 27 0.861782 0 14 0.861782 1
gene 1 8 26 -5 0 15 -5 1
gene 1 8 27 1.78072 0 16 1.78072 1
gene 1 9 26 0.995234 0 17 0.995234 1
gene 1 9 27 -2.53842 0 18 -2.53842 1
gene 1 10 26 -0.0180209 0 19 -0.0180209 1
gene 1 10 27 -0.81262 0 20 -0.81262 1
gene 1 11 26 0.330351 0 21 0.330351 1
gene 1 11 27 -1.08851 0 22 -1.08851 1
gene 1 12 26 -0.35019 0 23 -0.35019 1
gene 1 12 27 -1.6274 0 24 -1.6274 1
gene 1 13 26 3.1054 0 25 3.1054 1
gene 1 13 27 -2.08426 0 26 -2.08426 1
gene 1 14 26 0.565706 0 27 0.565706 1
gene 1 14 27 0.849676 0 28 0.849676 1
gene 1 15 26 0.0592517 0 29 0.0592517 1
gene 1 15 27 0.917623 0 30 0.917623 1
gene 1 16 26 2.2548 0 31 2.2548 1
gene 1 16 27 -0.876468 0 32 -0.876468 1
gene 1 17 26 -2.56138 0 33 -2.56138 1
gene 1 17 27 -1.81292 0 34 -1.81292 1
gene 1 18 26 0.38877 0 35 0.38877 1
gene 1 18 27 -1.67969 0 36 -1.67969 1
gene 1 19 26 3.10303 0 37 3.10303 1
gene 1 19 27 1.80843 0 38 1.80843 1
gene 1 20 26 1.62464 0 39 1.62464 1
gene 1 20 27 -1.92378 0 40 -1.92378 1
gene 1 21 26 -2.73926 0 41 -2.73926 1
gene 1 21 27 2.77441 0 42 2.77441 1
gene 1 22 26 -3.91621 0 43 -3.91621 1
gene 1 22 27 -1.09104 0 44 -1.09104 1
gene 1 23 26 2.51636 0 45 2.51636 1
gene 1 23 27 0.280024 0 46 0.280024 1
gene 1 24 26 -1.56011 0 47 -1.56011 1
gene 1 24 27 1.57916 0 48 1.57916 1
gene 1 25 26 -1.44107 0 49 -1.44107 1
gene 1 25 27 2.50837 0 50 2.50837 1
genomeend 356


/* Organism #533 Quality: 0.999830 Time: 0 Id: 10 */
/* 0.00242679 -0.998071 -0.75308 -0.802624 1.8804 -0.767391 1.74618 -0.518697 -1.04617 0.898456 0.925174 0.057967 0.747817 -0.536243  */
genomestart 533
trait 1 0.1 0 0 0 0 0 0 0 
node 1 1 1 1
node 2 1 1 1
node 3 1 1 1
node 4 1 1 1
node 5 1 1 1
node 6 1 1 1
node 7 1 1 1
node 8 1 1 1
node 9 1 1 1
node 10 1 1 1
node 11 1 1 1
node 12 1 1 1
node 13 1 1 1
node 14 1 1 1
node 15 1 1 1
node 16 1 1 1
node 17 1 1 1
node 18 1 1 1
node 19 1 1 1
node 20 1 1 1
node 21 1 1 1
node 22 1 1 1
node 23 1 1 1
node 24 1 1 1
node 25 1 1 3
node 26 1 0 2
node 27 1 0 2
node 54 1 0 0
gene 1 1 26 0.0223774 0 1 0.0223774 1
gene 1 1 27 -1.70978 0 2 -1.70978 1
gene 1 2 26 -1.21781 0 3 -1.21781 1
gene 1 2 27 -2.21495 0 4 -2.21495 1
gene 1 3 26 0.00689008 0 5 0.00689008 1
gene 1 3 27 0.469187 0 6 0.469187 1
gene 1 4 26 -0.50827 0 7 -0.50827 0
gene 1 4 27 -1.25788 0 8 -1.25788 1
gene 1 5 26 -0.20738 0 9 -0.20738 1
gene 1 5 27 1.35902 0 10 1.35902 1
gene 1 6 26 -1.56149 0 11 -1.56149 1
gene 1 6 27 1.71488 0 12 1.71488 1
gene 1 7 26 0.784412 0 13 0.784412 1
gene 1 7 27 -0.92515 0 14 -0.92515 1
gene 1 8 26 -2.27741 0 15 -2.27741 1
gene 1 8 27 -1.50986 0 16 -1.50986 1
gene 1 9 26 2.3248 0 17 2.3248 0
gene 1 9 27 -1.38167 0 18 -1.38167 1
gene 1 10 26 2.13134 0 19 2.13134 1
gene 1 10 27 -0.432199 0 20 -0.432199 1
gene 1 11 26 1.21256 0 21 1.21256 1
gene 1 11 27 -1.66741 0 22 -1.66741 1
gene 1 12 26 1.20648 0 23 1.20648 1
gene 1 12 27 -0.410337 0 24 -0.410337 1
gene 1 13 26 -0.565961 0 25 -0.565961 1
gene 1 13 27 2.28984 0 26 2.28984 1
gene 1 14 26 2.29878 0 27 2.29878 1
gene 1 14 27 -1.47544 0 28 -1.47544 1
gene 1 15 26 2.21053 0 29 2.21053 1
gene 1 15 27 -2.44512 0 30 -2.44512 1
gene 1 16 26 1.3533 0 31 1.3533 1
gene 1 16 27 2.57386 0 32 2.57386 1
gene 1 17 26 0.927922 0 33 0.927922 1
gene 1 17 27 1.7303 0 34 1.7303 1
gene 1 18 26 -1.43142 0 35 -1.43142 1
gene 1 18 27 -0.0811275 0 36 -0.0811275 1
gene 1 19 26 -0.329263 0 37 -0.329263 1
gene 1 19 27 1.51649 0 38 1.51649 1
gene 1 20 26 0.941724 0 39 0.941724 1
gene 1 20 27 0.208991 0 40 0.208991 1
gene 1 21 26 2.15868 0 41 2.15868 1
gene 1 21 27 0.915611 0 42 0.915611 1
gene 1 22 26 0.203913 0 43 0.203913 1
gene 1 22 27 1.5629 0 44 1.5629 1
gene 1 23 26 0.0880878 0 45 0.0880878 1
gene 1 23 27 2.0475 0 46 2.0475 1
gene 1 24 26 2.47955 0 47 2.47955 1
gene 1 24 27 -0.942354 0 48 -0.942354 1
gene 1 25 26 2.45449 0 49 2.45449 1
gene 1 25 27 0.00453775 0 50 0.00453775 1
gene 1 26 27 -1.50475 0 51 -1.50475 1
gene 1 9 54 -0.877451 0 107 -0.877451 1
gene 1 54 26 -1.93653 0 108 -1.93653 1
genomeend 533


/* Organism #643 Quality: 1.000000 Time: 0 Id: 11 */
/* 1.1188e-05 -0.999801 -0.99609 -0.933585 1.53277 -0.997218 1.90078 -0.990327 1.04982 -0.913144 -0.665435 -0.870053 1.52979 -0.902164  */
genomestart 643
trait 1 0.1 0 0 0 0 0 0 0 
node 1 1 1 1
node 2 1 1 1
node 3 1 1 1
node 4 1 1 1
node 5 1 1 1
node 6 1 1 1
node 7 1 1 1
node 8 1 1 1
node 9 1 1 1
node 10 1 1 1
node 11 1 1 1
node 12 1 1 1
node 13 1 1 1
node 14 1 1 1
node 15 1 1 1
node 16 1 1 1
node 17 1 1 1
node 18 1 1 1
node 19 1 1 1
node 20 1 1 1
node 21 1 1 1
node 22 1 1 1
node 23 1 1 1
node 24 1 1 1
node 25 1 1 3
node 26 1 0 2
node 27 1 0 2
node 69 1 0 0
gene 1 1 26 -0.446346 0 1 -0.446346 1
gene 1 1 27 0.168056 0 2 0.168056 1
gene 1 2 26 -2.54292 0 3 -2.54292 1
gene 1 2 27 0.371482 0 4 0.371482 1
gene 1 3 26 0.618144 0 5 0.618144 1
gene 1 3 27 1.33736 0 6 1.33736 1
gene 1 4 26 0.312131 0 7 0.312131 1
gene 1 4 27 3.76964 0 8 3.76964 1
gene 1 5 26 1.39492 0 9 1.39492 1
gene 1 5 27 -0.865309 0 10 -0.865309 1
gene 1 6 26 1.70425 0 11 1.70425 1
gene 1 6 27 4.93343 0 12 4.93343 1
gene 1 7 26 -2.69426 0 13 -2.69426 1
gene 1 7 27 -0.818388 0 14 -0.818388 1
gene 1 8 26 0.496128 0 15 0.496128 1
gene 1 8 27 -4.40109 0 16 -4.40109 1
gene 1 9 26 1.29479 0 17 1.29479 1
gene 1 9 27 -1.92489 0 18 -1.92489 1
gene 1 10 26 2.01894 0 19 2.01894 1
gene 1 10 27 0.0026641 0 20 0.0026641 1
gene 1 11 26 -1.04306 0 21 -1.04306 1
gene 1 11 27 -1.67965 0 22 -1.67965 1
gene 1 12 26 -0.954824 0 23 -0.954824 1
gene 1 12 27 -0.871648 0 24 -0.871648 1
gene 1 13 26 -0.818139 0 25 -0.818139 1
gene 1 13 27 -0.160065 0 26 -0.160065 1
gene 1 14 26 -2.78246 0 27 -2.78246 1
gene 1 14 27 2.35773 0 28 2.35773 1
gene 1 15 26 -0.532601 0 29 -0.532601 0
gene 1 15 27 -3.952 0 30 -3.952 1
gene 1 16 26 1.08383 0 31 1.08383 1
gene 1 16 27 -0.237126 0 32 -0.237126 1
gene 1 17 26 1.76353 0 33 1.76353 1
gene 1 17 27 2.08006 0 34 2.08006 1
gene 1 18 26 2.074 0 35 2.074 1
gene 1 18 27 -3.69829 0 36 -3.69829 1
gene 1 19 26 2.50222 0 37 2.50222 1
gene 1 19 27 0.133279 0 38 0.133279 1
gene 1 20 26 2.75998 0 39 2.75998 1
gene 1 20 27 -0.867639 0 40 -0.867639 1
gene 1 21 26 -1.49196 0 41 -1.49196 1
gene 1 21 27 -1.66877 0 42 -1.66877 1
gene 1 22 26 0.343865 0 43 0.343865 1
gene 1 22 27 3.54904 0 44 3.54904 1
gene 1 23 26 -1.86878 0 45 -1.86878 1
gene 1 23 27 -0.794901 0 46 -0.794901 1
gene 1 24 26 2.58585 0 47 2.58585 1
gene 1 24 27 0.126394 0 48 0.126394 1
gene 1 25 26 -0.715716 0 49 -0.715716 1
gene 1 25 27 -0.374813 0 50 -0.374813 1
gene 1 26 27 -1.55886 0 51 -1.55886 1
gene 1 15 69 1.11521 0 137 1.11521 1
gene 1 69 26 0.609954 0 138 0.609954 1
genomeend 643


/* Organism #0 Quality: 1.000000 Time: 0 Id: 12 */
/* 2.40281e-05 -0.999834 -0.996386 -0.934745 1.78476 -0.996372 1.79682 -0.987002 0.988034 -0.931871 1.51158 0.259343 2.04987 -0.841705  */
genomestart 0
trait 1 0.075 0 0 0 0 0 0 0 
node 1 1 1 1
node 2 1 1 1
node 3 1 1 1
node 4 1 1 1
node 5 1 1 1
node 6 1 1 1
node 7 1 1 1
node 8 1 1 1
node 9 1 1 1
node 10 1 1 1
node 11 1 1 1
node 12 1 1 1
node 13 1 1 1
node 14 1 1 1
node 15 1 1 1
node 16 1 1 1
node 17 1 1 1
node 18 1 1 1
node 19 1 1 1
node 20 1 1 1
node 21 1 1 1
node 22 1 1 1
node 23 1 1 1
node 24 1 1 1
node 25 1 1 3
node 26 1 0 2
node 27 1 0 2
gene 1 1 26 -1.60555 0 1 -1.60555 1
gene 1 1 27 -0.355907 0 2 -0.355907 1
gene 1 2 26 -2.32781 0 3 -2.32781 1
gene 1 2 27 -0.757708 0 4 -0.757708 1
gene 1 3 26 0.680963 0 5 0.680963 1
gene 1 3 27 1.75304 0 6 1.75304 1
gene 1 4 26 0.455251 0 7 0.455251 1
gene 1 4 27 0.17825 0 8 0.17825 1
gene 1 5 26 3.26265 0 9 3.26265 1
gene 1 5 27 0.779102 0 10 0.779102 1
gene 1 6 26 0.982104 0 11 0.982104 1
gene 1 6 27 0.561184 0 12 0.561184 1
gene 1 7 26 -1.80349 0 13 -1.80349 1
gene 1 7 27 -2.39678 0 14 -2.39678 1
gene 1 8 26 1.36089 0 15 1.36089 1
gene 1 8 27 -1.67367 0 16 -1.67367 1
gene 1 9 26 -0.242976 0 17 -0.242976 1
gene 1 9 27 0.930976 0 18 0.930976 1
gene 1 10 26 3.28325 0 19 3.28325 1
gene 1 10 27 -0.503801 0 20 -0.503801 1
gene 1 11 26 2.80717 0 21 2.80717 1
gene 1 11 27 0.71809 0 22 0.71809 1
gene 1 12 26 -0.346849 0 23 -0.346849 1
gene 1 12 27 -1.02803 0 24 -1.02803 1
gene 1 13 26 3.58525 0 25 3.58525 1
gene 1 13 27 -2.36768 0 26 -2.36768 1
gene 1 14 26 -0.0230488 0 27 -0.0230488 1
gene 1 14 27 0.535892 0 28 0.535892 1
gene 1 15 26 0.665551 0 29 0.665551 1
gene 1 15 27 0.198199 0 30 0.198199 1
gene 1 16 26 -0.638414 0 31 -0.638414 1
gene 1 16 27 -0.353955 0 32 -0.353955 1
gene 1 17 26 3.87754 0 33 3.87754 1
gene 1 17 27 0.164613 0 34 0.164613 1
gene 1 18 26 0.800959 0 35 0.800959 1
gene 1 18 27 -0.769931 0 36 -0.769931 1
gene 1 19 26 -0.49392 0 37 -0.49392 1
gene 1 19 27 1.32079 0 38 1.32079 1
gene 1 20 26 -0.415208 0 39 -0.415208 1
gene 1 20 27 -0.209843 0 40 -0.209843 1
gene 1 21 26 -0.145175 0 41 -0.145175 1
gene 1 21 27 1.79892 0 42 1.79892 1
gene 1 22 26 2.02013 0 43 2.02013 1
gene 1 22 27 2.61666 0 44 2.61666 1
gene 1 23 26 1.09698 0 45 1.09698 1
gene 1 23 27 -1.0948 0 46 -1.0948 1
gene 1 24 26 -2.4741 0 47 -2.4741 1
gene 1 24 27 0.264797 0 48 0.264797 1
gene 1 25 26 0.73707 0 49 0.73707 1
gene 1 25 27 -1.87537 0 50 -1.87537 1
genomeend 0


/* Organism #21 Quality: 1.000000 Time: 0 Id: 13 */
/* -1.46662e-05 -0.999828 -0.997642 -0.934552 1.78483 -0.997987 1.79823 -0.991245 0.977264 -0.925537 -0.667017 -0.875568 1.00307 -0.83239  */
genomestart 21
trait 1 0.1 0 0 0 0.122496 0.0790089 0.0680187 0 
node 1 1 1 1
node 2 1 1 1
node 3 1 1 1
node 4 1 1 1
node 5 1 1 1
node 6 1 1 1
node 7 1 1 1
node 8 1 1 1
node 9 1 1 1
node 10 1 1 1
node 11 1 1 1
node 12 1 1 1
node 13 1 1 1
node 14 1 1 1
node 15 1 1 1
node 16 1 1 1
node 17 1 1 1
node 18 1 1 1
node 19 1 1 1
node 20 1 1 1
node 21 1 1 1
node 22 1 1 1
node 23 1 1 1
node 24 1 1 1
node 25 1 1 3
node 26 1 0 2
node 27 1 0 2
gene 1 1 26 -4.66256 0 1 -4.66256 1
gene 1 1 27 -1.83154 0 2 -1.83154 1
gene 1 2 26 -0.315087 0 3 -0.315087 1
gene 1 2 27 -1.99329 0 4 -1.99329 1
gene 1 3 26 -0.83255 0 5 -0.83255 1
gene 1 3 27 1.98596 0 6 1.98596 1
gene 1 4 26 0.762059 0 7 0.762059 1
gene 1 4 27 1.31297 0 8 1.31297 1
gene 1 5 26 1.08947 0 9 1.08947 1
gene 1 5 27 1.87904 0 10 1.87904 1
gene 1 6 26 -0.97711 0 11 -0.97711 1
gene 1 6 27 2.71452 0 12 2.71452 1
gene 1 7 26 -0.582285 0 13 -0.582285 1
gene 1 7 27 1.66024 0 14 1.66024 1
gene 1 8 26 -1.63333 0 15 -1.63333 1
gene 1 8 27 -1.49512 0 16 -1.49512 1
gene 1 9 26 0.0942941 0 17 0.0942941 1
gene 1 9 27 0.246556 0 18 0.246556 1
gene 1 10 26 2.78962 0 19 2.78962 1
gene 1 10 27 1.45073 0 20 1.45073 1
gene 1 11 26 0.777224 0 21 0.777224 1
gene 1 11 27 1.51248 0 22 1.51248 1
gene 1 12 26 2.40903 0 23 2.40903 1
gene 1 12 27 -2.58399 0 24 -2.58399 1
gene 1 13 26 1.17422 0 25 1.17422 1
gene 1 13 27 1.38237 0 26 1.38237 1
gene 1 14 26 1.2797 0 27 1.2797 1
gene 1 14 27 2.38618 0 28 2.38618 1
gene 1 15 26 1.09763 0 29 1.09763 1
gene 1 15 27 -0.678145 0 30 -0.678145 1
gene 1 16 26 -0.905672 0 31 -0.905672 1
gene 1 16 27 1.72933 0 32 1.72933 1
gene 1 17 26 1.83794 0 33 1.83794 1
gene 1 17 27 1.77324 0 34 1.77324 1
gene 1 18 26 -1.23672 0 35 -1.23672 1
gene 1 18 27 -0.221897 0 36 -0.221897 1
gene 1 19 26 3.63922 0 37 3.63922 1
gene 1 19 27 -1.55503 0 38 -1.55503 1
gene 1 20 26 -2.05263 0 39 -2.05263 1
gene 1 20 27 -1.52803 0 40 -1.52803 1
gene 1 21 26 -0.970106 0 41 -0.970106 1
gene 1 21 27 -1.06512 0 42 -1.06512 1
gene 1 22 26 4.14952 0 43 4.14952 1
gene 1 22 27 3.41591 0 44 3.41591 1
gene 1 23 26 1.44567 0 45 1.44567 1
gene 1 23 27 -0.95893 0 46 -0.95893 1
gene 1 24 26 0.747463 0 47 0.747463 1
gene 1 24 27 -1.98801 0 48 -1.98801 1
gene 1 25 26 2.1119 0 49 2.1119 1
gene 1 25 27 -3.2593 0 50 -3.2593 1
genomeend 21


/* Organism #382 Quality: 0.999252 Time: 0 Id: 14 */
/* 0.00108265 -0.997581 0.497685 -0.762819 1.67851 -0.8186 1.29696 -0.412272 -1.37429 1.02762 0.231057 -0.100138 1.60805 -0.664371  */
genomestart 382
trait 1 0.1 0 0 0 0 0 0 0 
node 1 1 1 1
node 2 1 1 1
node 3 1 1 1
node 4 1 1 1
node 5 1 1 1
node 6 1 1 1
node 7 1 1 1
node 8 1 1 1
node 9 1 1 1
node 10 1 1 1
node 11 1 1 1
node 12 1 1 1
node 13 1 1 1
node 14 1 1 1
node 15 1 1 1
node 16 1 1 1
node 17 1 1 1
node 18 1 1 1
node 19 1 1 1
node 20 1 1 1
node 21 1 1 1
node 22 1 1 1
node 23 1 1 1
node 24 1 1 1
node 25 1 1 3
node 26 1 0 2
node 27 1 0 2
node 69 1 0 0
gene 1 1 26 -3.49677 0 1 -3.49677 1
gene 1 1 27 0.393264 0 2 0.393264 1
gene 1 2 26 -1.59827 0 3 -1.59827 1
gene 1 2 27 -1.39036 0 4 -1.39036 1
gene 1 3 26 -0.987712 0 5 -0.987712 1
gene 1 3 27 1.12167 0 6 1.12167 1
gene 1 4 26 2.64655 0 7 2.64655 1
gene 1 4 27 1.75239 0 8 1.75239 1
gene 1 5 26 -2.46997 0 9 -2.46997 1
gene 1 5 27 0.449459 0 10 0.449459 1
gene 1 6 26 0.0161567 0 11 0.0161567 1
gene 1 6 27 1.33753 0 12 1.33753 1
gene 1 7 26 -4.06481 0 13 -4.06481 1
gene 1 7 27 1.35098 0 14 1.35098 1
gene 1 8 26 -1.23998 0 15 -1.23998 1
gene 1 8 27 -3.10407 0 16 -3.10407 1
gene 1 9 26 -3.16457 0 17 -3.16457 1
gene 1 9 27 0.869374 0 18 0.869374 1
gene 1 10 26 1.69477 0 19 1.69477 1
gene 1 10 27 -0.336333 0 20 -0.336333 1
gene 1 11 26 3.17749 0 21 3.17749 1
gene 1 11 27 -1.34322 0 22 -1.34322 1
gene 1 12 26 -1.76751 0 23 -1.76751 1
gene 1 12 27 0.85864 0 24 0.85864 1
gene 1 13 26 2.40562 0 25 2.40562 1
gene 1 13 27 1.99406 0 26 1.99406 1
gene 1 14 26 -2.8822 0 27 -2.8822 1
gene 1 14 27 3.82475 0 28 3.82475 1
gene 1 15 26 2.1218 0 29 2.1218 0
gene 1 15 27 2.06772 0 30 2.06772 1
gene 1 16 26 -2.14248 0 31 -2.14248 1
gene 1 16 27 1.79679 0 32 1.79679 1
gene 1 17 26 -0.590567 0 33 -0.590567 1
gene 1 17 27 0.00865805 0 34 0.00865805 1
gene 1 18 26 0.780209 0 35 0.780209 1
gene 1 18 27 0.496506 0 36 0.496506 1
gene 1 19 26 -1.56554 0 37 -1.56554 1
gene 1 19 27 0.978242 0 38 0.978242 1
gene 1 20 26 1.38308 0 39 1.38308 1
gene 1 20 27 -2.87472 0 40 -2.87472 1
gene 1 21 26 3.21452 0 41 3.21452 1
gene 1 21 27 -3.18479 0 42 -3.18479 1
gene 1 22 26 2.14728 0 43 2.14728 1
gene 1 22 27 3.43412 0 44 3.43412 1
gene 1 23 26 1.00837 0 45 1.00837 1
gene 1 23 27 -0.392632 0 46 -0.392632 1
gene 1 24 26 -1.23646 0 47 -1.23646 1
gene 1 24 27 1.66655 0 48 1.66655 1
gene 1 25 26 -1.30444 0 49 -1.30444 1
gene 1 25 27 0.351846 0 50 0.351846 1
gene 1 26 27 3.26278 0 51 3.26278 1
gene 1 15 69 0.373376 0 137 0.373376 1
gene 1 69 26 1.94375 0 138 1.94375 1
genomeend 382


/* Organism #115 Quality: 1.000000 Time: 0 Id: 15 */
/* 0.000866409 -0.999404 -0.912637 -0.917443 1.76093 -0.971236 1.65537 -0.866108 -0.0137403 0.0523548 -0.668121 -0.874635 2.10628 -0.730734  */
genomestart 115
trait 1 0.1 0.450077 0 0 0 0.0124115 0 0 
node 1 1 1 1
node 2 1 1 1
node 3 1 1 1
node 4 1 1 1
node 5 1 1 1
node 6 1 1 1
node 7 1 1 1
node 8 1 1 1
node 9 1 1 1
node 10 1 1 1
node 11 1 1 1
node 12 1 1 1
node 13 1 1 1
node 14 1 1 1
node 15 1 1 1
node 16 1 1 1
node 17 1 1 1
node 18 1 1 1
node 19 1 1 1
node 20 1 1 1
node 21 1 1 1
node 22 1 1 1
node 23 1 1 1
node 24 1 1 1
node 25 1 1 3
node 26 1 0 2
node 27 1 0 2
node 54 1 0 0
gene 1 1 26 -0.246477 0 1 -0.246477 1
gene 1 1 27 -2.21875 0 2 -2.21875 1
gene 1 2 26 -1.74694 0 3 -1.74694 1
gene 1 2 27 -1.42875 0 4 -1.42875 1
gene 1 3 26 -1.54996 0 5 -1.54996 1
gene 1 3 27 -0.288232 0 6 -0.288232 1
gene 1 4 26 -0.495648 0 7 -0.495648 0
gene 1 4 27 0.285112 0 8 0.285112 1
gene 1 5 26 1.07077 0 9 1.07077 1
gene 1 5 27 -0.0188344 0 10 -0.0188344 1
gene 1 6 26 -0.611217 0 11 -0.611217 1
gene 1 6 27 1.06587 0 12 1.06587 1
gene 1 7 26 2.7514 0 13 2.7514 1
gene 1 7 27 0.603111 0 14 0.603111 1
gene 1 8 26 -1.52033 0 15 -1.52033 1
gene 1 8 27 -1.10369 0 16 -1.10369 1
gene 1 9 26 1.34951 0 17 1.34951 0
gene 1 9 27 -3.25961 0 18 -3.25961 1
gene 1 10 26 0.342829 0 19 0.342829 1
gene 1 10 27 3.59407 0 20 3.59407 1
gene 1 11 26 -0.431326 0 21 -0.431326 1
gene 1 11 27 2.16189 0 22 2.16189 1
gene 1 12 26 -0.721763 0 23 -0.721763 1
gene 1 12 27 0.00181367 0 24 0.00181367 1
gene 1 13 26 3.09666 0 25 3.09666 1
gene 1 13 27 -0.805726 0 26 -0.805726 1
gene 1 14 26 -0.630517 0 27 -0.630517 1
gene 1 14 27 -0.681778 0 28 -0.681778 1
gene 1 15 26 0.779438 0 29 0.779438 1
gene 1 15 27 2.9851 0 30 2.9851 1
gene 1 16 26 -0.698965 0 31 -0.698965 1
gene 1 16 27 1.37499 0 32 1.37499 1
gene 1 17 26 1.64032 0 33 1.64032 1
gene 1 17 27 -0.059035 0 34 -0.059035 1
gene 1 18 26 2.64815 0 35 2.64815 1
gene 1 18 27 -0.596685 0 36 -0.596685 1
gene 1 19 26 -1.96976 0 37 -1.96976 1
gene 1 19 27 -0.242332 0 38 -0.242332 1
gene 1 20 26 1.3654 0 39 1.3654 1
gene 1 20 27 -3.06176 0 40 -3.06176 1
gene 1 21 26 0.427025 0 41 0.427025 1
gene 1 21 27 -2.80361 0 42 -2.80361 1
gene 1 22 26 1.98839 0 43 1.98839 1
gene 1 22 27 0.850148 0 44 0.850148 1
gene 1 23 26 1.16731 0 45 1.16731 1
gene 1 23 27 1.17394 0 46 1.17394 1
gene 1 24 26 -0.80822 0 47 -0.80822 1
gene 1 24 27 -1.71611 0 48 -1.71611 1
gene 1 25 26 3.17546 0 49 3.17546 1
gene 1 25 27 0.228177 0 50 0.228177 1
gene 1 26 27 -0.233377 0 51 -0.233377 1
gene 1 9 54 0.221795 0 107 0.221795 1
gene 1 54 26 3.51748 0 108 3.51748 1
gene 1 8 54 -0.333883 0 229 -0.333883 1
genomeend 115


/* Organism #381 Quality: 0.999770 Time: 0 Id: 16 */
/* -0.00456607 -0.99774 -0.376555 -0.837356 1.70852 -0.916468 1.21068 -0.424593 0.331367 0.387094 -0.667183 -0.875549 -0.285077 0.206197  */
genomestart 381
trait 1 0.1 0 0 0 0 0 0 0 
node 1 1 1 1
node 2 1 1 1
node 3 1 1 1
node 4 1 1 1
node 5 1 1 1
node 6 1 1 1
node 7 1 1 1
node 8 1 1 1
node 9 1 1 1
node 10 1 1 1
node 11 1 1 1
node 12 1 1 1
node 13 1 1 1
node 14 1 1 1
node 15 1 1 1
node 16 1 1 1
node 17 1 1 1
node 18 1 1 1
node 19 1 1 1
node 20 1 1 1
node 21 1 1 1
node 22 1 1 1
node 23 1 1 1
node 24 1 1 1
node 25 1 1 3
node 26 1 0 2
node 27 1 0 2
node 54 1 0 0
node 81 1 0 0
gene 1 1 26 -3.51535 0 1 -3.51535 1
gene 1 1 27 -3.24552 0 2 -3.24552 1
gene 1 2 26 -1.03586 0 3 -1.03586 1
gene 1 2 27 1.30287 0 4 1.30287 1
gene 1 3 26 -0.497741 0 5 -0.497741 1
gene 1 3 27 0.662967 0 6 0.662967 1
gene 1 4 26 0.077665 0 7 0.077665 0
gene 1 4 27 4.98406 0 8 4.98406 1
gene 1 5 26 2.90496 0 9 2.90496 1
gene 1 5 27 1.90082 0 10 1.90082 1
gene 1 6 26 2.43306 0 11 2.43306 1
gene 1 6 27 -0.577163 0 12 -0.577163 1
gene 1 7 26 0.475135 0 13 0.475135 1
gene 1 7 27 -0.377359 0 14 -0.377359 1
gene 1 8 26 -3.73152 0 15 -3.73152 1
gene 1 8 27 -3.08722 0 16 -3.08722 1
gene 1 9 26 -0.162595 0 17 -0.162595 0
gene 1 9 27 -0.668679 0 18 -0.668679 1
gene 1 10 26 -1.28445 0 19 -1.28445 1
gene 1 10 27 3.15679 0 20 3.15679 1
gene 1 11 26 -0.0907162 0 21 -0.0907162 1
gene 1 11 27 -0.623251 0 22 -0.623251 1
gene 1 12 26 1.71849 0 23 1.71849 1
gene 1 12 27 1.98895 0 24 1.98895 1
gene 1 13 26 1.43855 0 25 1.43855 1
gene 1 13 27 0.988805 0 26 0.988805 1
gene 1 14 26 -0.50986 0 27 -0.50986 1
gene 1 14 27 2.05097 0 28 2.05097 1
gene 1 15 26 -2.42855 0 29 -2.42855 1
gene 1 15 27 -2.33826 0 30 -2.33826 1
gene 1 16 26 -0.43038 0 31 -0.43038 0
gene 1 16 27 2.59833 0 32 2.59833 1
gene 1 17 26 -2.80241 0 33 -2.80241 1
gene 1 17 27 -1.621 0 34 -1.621 1
gene 1 18 26 -0.706873 0 35 -0.706873 1
gene 1 18 27 0.905869 0 36 0.905869 1
gene 1 19 26 1.22265 0 37 1.22265 1
gene 1 19 27 0.673221 0 38 0.673221 1
gene 1 20 26 0.620314 0 39 0.620314 1
gene 1 20 27 -2.07643 0 40 -2.07643 1
gene 1 21 26 -2.14093 0 41 -2.14093 1
gene 1 21 27 2.60472 0 42 2.60472 1
gene 1 22 26 1.6019 0 43 1.6019 1
gene 1 22 27 -1.93089 0 44 -1.93089 1
gene 1 23 26 1.49749 0 45 1.49749 1
gene 1 23 27 0.166126 0 46 0.166126 1
gene 1 24 26 5 0 47 5 1
gene 1 24 27 -1.60219 0 48 -1.60219 1
gene 1 25 26 1.34186 0 49 1.34186 1
gene 1 25 27 -1.53296 0 50 -1.53296 1
gene 1 26 27 1.39604 0 51 1.39604 1
gene 1 9 54 1.38669 0 107 1.38669 1
gene 1 54 26 -1.57576 0 108 -1.57576 1
gene 1 16 81 -0.130873 0 168 -0.130873 1
gene 1 81 26 -0.486655 0 169 -0.486655 1
gene 1 9 81 0.342572 0 326 0.342572 1
genomeend 381


/* Organism #569 Quality: 1.000000 Time: 0 Id: 17 */
/* 0.0023277 -0.998558 -0.761016 -0.845912 1.52605 -0.97497 1.76378 -0.912865 1.18566 -0.309088 -0.667758 -0.874739 1.19015 -0.777941  */
genomestart 569
trait 1 0.0830252 0 0 0.530856 0.00404132 0 0.37822 0 
node 1 1 1 1
node 2 1 1 1
node 3 1 1 1
node 4 1 1 1
node 5 1 1 1
node 6 1 1 1
node 7 1 1 1
node 8 1 1 1
node 9 1 1 1
node 10 1 1 1
node 11 1 1 1
node 12 1 1 1
node 13 1 1 1
node 14 1 1 1
node 15 1 1 1
node 16 1 1 1
node 17 1 1 1
node 18 1 1 1
node 19 1 1 1
node 20 1 1 1
node 21 1 1 1
node 22 1 1 1
node 23 1 1 1
node 24 1 1 1
node 25 1 1 3
node 26 1 0 2
node 27 1 0 2
node 69 1 0 0
gene 1 1 26 -0.0372491 0 1 -0.0372491 1
gene 1 1 27 -3.19929 0 2 -3.19929 1
gene 1 2 26 -5 0 3 -5 1
gene 1 2 27 -3.0143 0 4 -3.0143 1
gene 1 3 26 2.02763 0 5 2.02763 1
gene 1 3 27 -1.5044 0 6 -1.5044 1
gene 1 4 26 0.888482 0 7 0.888482 1
gene 1 4 27 5 0 8 5 1
gene 1 5 26 1.04951 0 9 1.04951 1
gene 1 5 27 3.15144 0 10 3.15144 1
gene 1 6 26 -1.04517 0 11 -1.04517 1
gene 1 6 27 0.971066 0 12 0.971066 1
gene 1 7 26 -2.77486 0 13 -2.77486 1
gene 1 7 27 3.33664 0 14 3.33664 1
gene 1 8 26 -0.412678 0 15 -0.412678 1
gene 1 8 27 -1.61393 0 16 -1.61393 1
gene 1 9 26 1.08624 0 17 1.08624 1
gene 1 9 27 -1.37245 0 18 -1.37245 1
gene 1 10 26 3.74547 0 19 3.74547 1
gene 1 10 27 -5 0 20 -5 1
gene 1 11 26 1.20861 0 21 1.20861 1
gene 1 11 27 2.40622 0 22 2.40622 1
gene 1 12 26 2.88348 0 23 2.88348 1
gene 1 12 27 -0.40936 0 24 -0.40936 1
gene 1 13 26 -3.68615 0 25 -3.68615 1
gene 1 13 27 -1.7783 0 26 -1.7783 1
gene 1 14 26 -1.70531 0 27 -1.70531 1
gene 1 14 27 0.303028 0 28 0.303028 1
gene 1 15 26 -2.08687 0 29 -2.08687 0
gene 1 15 27 -3.30539 0 30 -3.30539 1
gene 1 16 26 3.70869 0 31 3.70869 1
gene 1 16 27 -0.352655 0 32 -0.352655 1
gene 1 17 26 -0.385728 0 33 -0.385728 1
gene 1 17 27 2.45721 0 34 2.45721 1
gene 1 18 26 0.368853 0 35 0.368853 1
gene 1 18 27 0.625568 0 36 0.625568 1
gene 1 19 26 0.158956 0 37 0.158956 1
gene 1 19 27 -2.20644 0 38 -2.20644 1
gene 1 20 26 3.19822 0 39 3.19822 1
gene 1 20 27 -1.6244 0 40 -1.6244 1
gene 1 21 26 -2.69596 0 41 -2.69596 1
gene 1 21 27 -1.34387 0 42 -1.34387 1
gene 1 22 26 2.32655 0 43 2.32655 1
gene 1 22 27 -0.834629 0 44 -0.834629 1
gene 1 23 26 -0.0631098 0 45 -0.0631098 1
gene 1 23 27 -2.73167 0 46 -2.73167 1
gene 1 24 26 -2.59222 0 47 -2.59222 1
gene 1 24 27 0.029739 0 48 0.029739 1
gene 1 25 26 0.953323 0 49 0.953323 1
gene 1 25 27 1.87074 0 50 1.87074 1
gene 1 26 27 -2.18353 0 51 -2.18353 1
gene 1 15 69 -0.0718929 0 137 -0.0718929 1
gene 1 69 26 0.681519 0 138 0.681519 1
genomeend 569


/* Organism #558 Quality: 1.000000 Time: 0 Id: 18 */
/* -0.000539499 -0.999205 0.94243 -0.899205 1.44456 -0.944116 1.3565 -0.615597 -0.138669 -0.248278 1.57602 0.490367 1.52994 -0.900769  */
genomestart 558
trait 1 0.1 0 0 0 0 0 0 0 
node 1 1 1 1
node 2 1 1 1
node 3 1 1 1
node 4 1 1 1
node 5 1 1 1
node 6 1 1 1
node 7 1 1 1
node 8 1 1 1
node 9 1 1 1
node 10 1 1 1
node 11 1 1 1
node 12 1 1 1
node 13 1 1 1
node 14 1 1 1
node 15 1 1 1
node 16 1 1 1
node 17 1 1 1
node 18 1 1 1
node 19 1 1 1
node 20 1 1 1
node 21 1 1 1
node 22 1 1 1
node 23 1 1 1
node 24 1 1 1
node 25 1 1 3
node 26 1 0 2
node 27 1 0 2
node 54 1 0 0
node 93 1 0 0
node 169 1 0 0
gene 1 1 26 -5 0 1 -5 1
gene 1 1 27 3.63876 0 2 3.63876 1
gene 1 2 26 -0.517977 0 3 -0.517977 1
gene 1 2 27 -0.147914 0 4 -0.147914 1
gene 1 3 26 -0.119853 0 5 -0.119853 1
gene 1 3 27 -2.89456 0 6 -2.89456 1
gene 1 4 26 1.26007 0 7 1.26007 0
gene 1 4 27 3.73526 0 8 3.73526 1
gene 1 5 26 3.27511 0 9 3.27511 1
gene 1 5 27 4.72561 0 10 4.72561 1
gene 1 6 26 -2.6908 0 11 -2.6908 1
gene 1 6 27 1.68463 0 12 1.68463 1
gene 1 7 26 -0.454071 0 13 -0.454071 1
gene 1 7 27 -0.870538 0 14 -0.870538 1
gene 1 8 26 -2.39848 0 15 -2.39848 1
gene 1 8 27 0.818554 0 16 0.818554 1
gene 1 9 26 1.28873 0 17 1.28873 0
gene 1 9 27 3.06653 0 18 3.06653 1
gene 1 10 26 -1.91644 0 19 -1.91644 1
gene 1 10 27 2.34699 0 20 2.34699 1
gene 1 11 26 -3.74719 0 21 -3.74719 1
gene 1 11 27 2.17986 0 22 2.17986 1
gene 1 12 26 -1.80805 0 23 -1.80805 1
gene 1 12 27 -0.853312 0 24 -0.853312 1
gene 1 13 26 -3.8717 0 25 -3.8717 1
gene 1 13 27 2.42663 0 26 2.42663 1
gene 1 14 26 2.616 0 27 2.616 1
gene 1 14 27 0.690621 0 28 0.690621 1
gene 1 15 26 -2.83524 0 29 -2.83524 1
gene 1 15 27 0.869692 0 30 0.869692 1
gene 1 16 26 1.99077 0 31 1.99077 1
gene 1 16 27 -0.445525 0 32 -0.445525 1
gene 1 17 26 -4.14207 0 33 -4.14207 1
gene 1 17 27 3.63138 0 34 3.63138 1
gene 1 18 26 -5 0 35 -5 1
gene 1 18 27 -2.74907 0 36 -2.74907 1
gene 1 19 26 0.160286 0 37 0.160286 1
gene 1 19 27 2.51709 0 38 2.51709 1
gene 1 20 26 0.855384 0 39 0.855384 1
gene 1 20 27 -0.705267 0 40 -0.705267 1
gene 1 21 26 3.43877 0 41 3.43877 1
gene 1 21 27 0.0288263 0 42 0.0288263 1
gene 1 22 26 -0.373576 0 43 -0.373576 1
gene 1 22 27 2.56052 0 44 2.56052 1
gene 1 23 26 1.15524 0 45 1.15524 1
gene 1 23 27 1.6046 0 46 1.6046 1
gene 1 24 26 -0.616464 0 47 -0.616464 0
gene 1 24 27 -0.325119 0 48 -0.325119 1
gene 1 25 26 1.16598 0 49 1.16598 1
gene 1 25 27 -2.77898 0 50 -2.77898 1
gene 1 26 27 -2.10207 0 51 -2.10207 1
gene 1 9 54 0.797227 0 107 0.797227 1
gene 1 54 26 -0.814691 0 108 -0.814691 1
gene 1 1 93 2.57093 0 215 2.57093 1
gene 1 93 27 2.90938 0 216 2.90938 1
gene 1 24 169 5 0 472 5 1
gene 1 169 26 -0.497995 0 473 -0.497995 1
genomeend 558


/* Organism #559 Quality: 1.000000 Time: 0 Id: 19 */
/* -1.83124e-06 -0.999832 0.998647 -0.934564 1.75194 -0.997732 1.66284 -0.989731 0.609892 -0.941616 1.42368 0.417399 2.09129 -0.801063  */
genomestart 559
trait 1 0.1 0 0 0 0 0 0 0 
node 1 1 1 1
node 2 1 1 1
node 3 1 1 1
node 4 1 1 1
node 5 1 1 1
node 6 1 1 1
node 7 1 1 1
node 8 1 1 1
node 9 1 1 1
node 10 1 1 1
node 11 1 1 1
node 12 1 1 1
node 13 1 1 1
node 14 1 1 1
node 15 1 1 1
node 16 1 1 1
node 17 1 1 1
node 18 1 1 1
node 19 1 1 1
node 20 1 1 1
node 21 1 1 1
node 22 1 1 1
node 23 1 1 1
node 24 1 1 1
node 25 1 1 3
node 26 1 0 2
node 27 1 0 2
node 54 1 0 0
node 93 1 0 0
node 169 1 0 0
gene 1 1 26 -5 0 1 -5 1
gene 1 1 27 3.92895 0 2 3.92895 0
gene 1 2 26 4.91802 0 3 4.91802 1
gene 1 2 27 -0.570886 0 4 -0.570886 1
gene 1 3 26 2.53228 0 5 2.53228 1
gene 1 3 27 -4.61843 0 6 -4.61843 1
gene 1 4 26 0.681582 0 7 0.681582 0
gene 1 4 27 5 0 8 5 1
gene 1 5 26 4.22098 0 9 4.22098 1
gene 1 5 27 5 0 10 5 1
gene 1 6 26 -3.44844 0 11 -3.44844 1
gene 1 6 27 0.556494 0 12 0.556494 1
gene 1 7 26 0.227272 0 13 0.227272 1
gene 1 7 27 -2.81161 0 14 -2.81161 1
gene 1 8 26 1.73219 0 15 1.73219 1
gene 1 8 27 -5 0 16 -5 1
gene 1 9 26 -0.449528 0 17 -0.449528 0
gene 1 9 27 1.09721 0 18 1.09721 1
gene 1 10 26 -0.113371 0 19 -0.113371 1
gene 1 10 27 -0.688115 0 20 -0.688115 1
gene 1 11 26 -3.74719 0 21 -3.74719 1
gene 1 11 27 4.03687 0 22 4.03687 1
gene 1 12 26 -3.47618 0 23 -3.47618 1
gene 1 12 27 -2.08714 0 24 -2.08714 1
gene 1 13 26 -3.99953 0 25 -3.99953 1
gene 1 13 27 1.12485 0 26 1.12485 1
gene 1 14 26 -2.26633 0 27 -2.26633 1
gene 1 14 27 0.64107 0 28 0.64107 1
gene 1 15 26 1.09795 0 29 1.09795 1
gene 1 15 27 3.16937 0 30 3.16937 1
gene 1 16 26 1.18103 0 31 1.18103 1
gene 1 16 27 4.75167 0 32 4.75167 1
gene 1 17 26 -5 0 33 -5 1
gene 1 17 27 3.51103 0 34 3.51103 1
gene 1 18 26 -5 0 35 -5 1
gene 1 18 27 -0.591681 0 36 -0.591681 1
gene 1 19 26 -2.52622 0 37 -2.52622 1
gene 1 19 27 0.953658 0 38 0.953658 1
gene 1 20 26 -1.32843 0 39 -1.32843 1
gene 1 20 27 1.92633 0 40 1.92633 1
gene 1 21 26 -1.06386 0 41 -1.06386 1
gene 1 21 27 2.86127 0 42 2.86127 1
gene 1 22 26 -0.223016 0 43 -0.223016 1
gene 1 22 27 -1.41431 0 44 -1.41431 1
gene 1 23 26 4.41956 0 45 4.41956 1
gene 1 23 27 -0.45388 0 46 -0.45388 1
gene 1 24 26 0.123157 0 47 0.123157 0
gene 1 24 27 -2.16078 0 48 -2.16078 1
gene 1 25 26 -4.57272 0 49 -4.57272 1
gene 1 25 27 0.161153 0 50 0.161153 1
gene 1 26 27 -0.0259809 0 51 -0.0259809 1
gene 1 9 54 1.45021 0 107 1.45021 1
gene 1 54 26 0.181977 0 108 0.181977 1
gene 1 1 93 0.258661 0 215 0.258661 1
gene 1 93 27 2.23653 0 216 2.23653 1
gene 1 24 169 0.734852 0 472 0.734852 1
gene 1 169 26 -1.89028 0 473 -1.89028 1
genomeend 559


/* Organism #798 Quality: 1.000000 Time: 0 Id: 20 */
/* 0.000330278 -0.999409 -0.965937 -0.915035 1.49316 -0.978708 1.61846 -0.940945 0.340569 -0.614042 1.43162 0.370077 1.52959 -0.901051  */
genomestart 798
trait 1 0.075 0.00703245 0.0753465 0.126244 0.447625 0.142135 0.129302 0.0353794 
node 1 1 1 1
node 2 1 1 1
node 3 1 1 1
node 4 1 1 1
node 5 1 1 1
node 6 1 1 1
node 7 1 1 1
node 8 1 1 1
node 9 1 1 1
node 10 1 1 1
node 11 1 1 1
node 12 1 1 1
node 13 1 1 1
node 14 1 1 1
node 15 1 1 1
node 16 1 1 1
node 17 1 1 1
node 18 1 1 1
node 19 1 1 1
node 20 1 1 1
node 21 1 1 1
node 22 1 1 1
node 23 1 1 1
node 24 1 1 1
node 25 1 1 3
node 26 1 0 2
node 27 1 0 2
node 54 1 0 0
node 99 1 0 0
node 131 1 0 0
gene 1 1 26 -1.57791 0 1 -1.57791 1
gene 1 1 27 -2.42695 0 2 -2.42695 1
gene 1 2 26 -0.22575 0 3 -0.22575 1
gene 1 2 27 -3.07109 0 4 -3.07109 1
gene 1 3 26 -3.57942 0 5 -3.57942 0
gene 1 3 27 1.83904 0 6 1.83904 1
gene 1 4 26 0.197921 0 7 0.197921 0
gene 1 4 27 4.08863 0 8 4.08863 1
gene 1 5 26 2.55416 0 9 2.55416 1
gene 1 5 27 2.55481 0 10 2.55481 1
gene 1 6 26 -0.343751 0 11 -0.343751 1
gene 1 6 27 -2.34259 0 12 -2.34259 1
gene 1 7 26 0.296178 0 13 0.296178 1
gene 1 7 27 1.37168 0 14 1.37168 0
gene 1 8 26 -0.88667 0 15 -0.88667 1
gene 1 8 27 -4.90125 0 16 -4.90125 1
gene 1 9 26 -0.0874991 0 17 -0.0874991 1
gene 1 9 27 -2.02281 0 18 -2.02281 1
gene 1 10 26 0.0169297 0 19 0.0169297 0
gene 1 10 27 2.4041 0 20 2.4041 1
gene 1 11 26 0.892545 0 21 0.892545 1
gene 1 11 27 0.275213 0 22 0.275213 1
gene 1 12 26 -2.00693 0 23 -2.00693 1
gene 1 12 27 -1.69485 0 24 -1.69485 1
gene 1 13 26 0.485307 0 25 0.485307 1
gene 1 13 27 0.632124 0 26 0.632124 1
gene 1 14 26 -4.00818 0 27 -4.00818 1
gene 1 14 27 -1.47598 0 28 -1.47598 1
gene 1 15 26 1.88612 0 29 1.88612 1
gene 1 15 27 3.4688 0 30 3.4688 1
gene 1 16 26 -0.187365 0 31 -0.187365 1
gene 1 16 27 -3.37548 0 32 -3.37548 1
gene 1 17 26 -1.3959 0 33 -1.3959 1
gene 1 17 27 1.34919 0 34 1.34919 1
gene 1 18 26 1.99179 0 35 1.99179 1
gene 1 18 27 1.26437 0 36 1.26437 1
gene 1 19 26 2.24939 0 37 2.24939 1
gene 1 19 27 2.53863 0 38 2.53863 1
gene 1 20 26 0.051349 0 39 0.051349 1
gene 1 20 27 1.05332 0 40 1.05332 1
gene 1 21 26 -3.48356 0 41 -3.48356 1
gene 1 21 27 -1.3099 0 42 -1.3099 1
gene 1 22 26 -0.757277 0 43 -0.757277 1
gene 1 22 27 -2.7735 0 44 -2.7735 1
gene 1 23 26 -2.49081 0 45 -2.49081 1
gene 1 23 27 1.78239 0 46 1.78239 1
gene 1 24 26 0.0829516 0 47 0.0829516 1
gene 1 24 27 -0.679117 0 48 -0.679117 1
gene 1 25 26 3.28116 0 49 3.28116 1
gene 1 25 27 -5 0 50 -5 1
gene 1 26 27 0.545401 0 51 0.545401 1
gene 1 9 54 0.946681 0 107 0.946681 1
gene 1 54 26 4.36551 0 108 4.36551 1
gene 1 15 99 1.84614 0 233 1.84614 1
gene 1 99 27 1.11048 0 234 1.11048 1
gene 1 3 131 1.45932 0 341 1.45932 1
gene 1 131 26 -2.71916 0 342 -2.71916 1
gene 1 23 131 0.229485 0 568 0.229485 1
genomeend 798


/* Organism #861 Quality: 1.000000 Time: 0 Id: 21 */
/* 0.0025398 -0.998341 0.741161 -0.828403 1.78058 -0.968449 1.79261 -0.850847 1.6156 0.0445389 -0.667484 -0.874873 0.897091 -0.594608  */
genomestart 861
trait 1 0.509177 0.338051 0 0.366597 0.122638 0.434939 0.0913328 0 
node 1 1 1 1
node 2 1 1 1
node 3 1 1 1
node 4 1 1 1
node 5 1 1 1
node 6 1 1 1
node 7 1 1 1
node 8 1 1 1
node 9 1 1 1
node 10 1 1 1
node 11 1 1 1
node 12 1 1 1
node 13 1 1 1
node 14 1 1 1
node 15 1 1 1
node 16 1 1 1
node 17 1 1 1
node 18 1 1 1
node 19 1 1 1
node 20 1 1 1
node 21 1 1 1
node 22 1 1 1
node 23 1 1 1
node 24 1 1 1
node 25 1 1 3
node 26 1 0 2
node 27 1 0 2
node 54 1 0 0
node 206 1 0 0
gene 1 1 26 -2.21551 0 1 -2.21551 1
gene 1 1 27 -4.85123 0 2 -4.85123 1
gene 1 2 26 -5 0 3 -5 1
gene 1 2 27 1.16493 0 4 1.16493 0
gene 1 3 26 3.21988 0 5 3.21988 1
gene 1 3 27 -3.81498 0 6 -3.81498 1
gene 1 4 26 2.49327 0 7 2.49327 0
gene 1 4 27 5 0 8 5 1
gene 1 5 26 -2.90962 0 9 -2.90962 1
gene 1 5 27 2.49298 0 10 2.49298 1
gene 1 6 26 1.54275 0 11 1.54275 1
gene 1 6 27 0.590794 0 12 0.590794 1
gene 1 7 26 -1.99733 0 13 -1.99733 1
gene 1 7 27 -1.18883 0 14 -1.18883 1
gene 1 8 26 -3.36511 0 15 -3.36511 1
gene 1 8 27 0.618125 0 16 0.618125 1
gene 1 9 26 -0.339848 0 17 -0.339848 0
gene 1 9 27 0.917416 0 18 0.917416 1
gene 1 10 26 -5 0 19 -5 1
gene 1 10 27 5 0 20 5 0
gene 1 11 26 5 0 21 5 1
gene 1 11 27 5 0 22 5 1
gene 1 12 26 1.2203 0 23 1.2203 1
gene 1 12 27 2.64108 0 24 2.64108 1
gene 1 13 26 -5 0 25 -5 1
gene 1 13 27 3.62962 0 26 3.62962 1
gene 1 14 26 -1.38565 0 27 -1.38565 1
gene 1 14 27 -1.86254 0 28 -1.86254 1
gene 1 15 26 0.307356 0 29 0.307356 1
gene 1 15 27 -1.09815 0 30 -1.09815 1
gene 1 16 26 -0.161342 0 31 -0.161342 1
gene 1 16 27 -0.777898 0 32 -0.777898 1
gene 1 17 26 -2.52106 0 33 -2.52106 1
gene 1 17 27 -2.3524 0 34 -2.3524 1
gene 1 18 26 0.0700168 0 35 0.0700168 1
gene 1 18 27 -1.06808 0 36 -1.06808 1
gene 1 19 26 -0.274185 0 37 -0.274185 1
gene 1 19 27 4.38092 0 38 4.38092 1
gene 1 20 26 4.60962 0 39 4.60962 1
gene 1 20 27 -0.646797 0 40 -0.646797 1
gene 1 21 26 -2.32473 0 41 -2.32473 1
gene 1 21 27 0.866929 0 42 0.866929 1
gene 1 22 26 0.79249 0 43 0.79249 1
gene 1 22 27 -0.883269 0 44 -0.883269 1
gene 1 23 26 2.4808 0 45 2.4808 1
gene 1 23 27 2.06245 0 46 2.06245 1
gene 1 24 26 0.460514 0 47 0.460514 1
gene 1 24 27 -3.23628 0 48 -3.23628 1
gene 1 25 26 -2.10837 0 49 -2.10837 1
gene 1 25 27 1.64542 0 50 1.64542 1
gene 1 26 27 -0.326117 0 51 -0.326117 1
gene 1 9 54 0.481432 0 107 0.481432 1
gene 1 54 26 1.92526 0 108 1.92526 1
gene 1 23 54 0.486424 0 160 0.486424 1
gene 1 10 206 -0.970858 0 623 -0.970858 1
gene 1 206 27 2.02386 0 624 2.02386 1
genomeend 861


/* Organism #730 Quality: 1.000000 Time: 0 Id: 22 */
/* 0.00217254 -0.99885 0.456565 -0.72122 1.49427 -0.957351 1.68128 -0.83996 0.394265 -0.115111 -0.666854 -0.874678 1.05438 -0.639369  */
genomestart 730
trait 1 0.1 0 0 0 0 0 0 0 
node 1 1 1 1
node 2 1 1 1
node 3 1 1 1
node 4 1 1 1
node 5 1 1 1
node 6 1 1 1
node 7 1 1 1
node 8 1 1 1
node 9 1 1 1
node 10 1 1 1
node 11 1 1 1
node 12 1 1 1
node 13 1 1 1
node 14 1 1 1
node 15 1 1 1
node 16 1 1 1
node 17 1 1 1
node 18 1 1 1
node 19 1 1 1
node 20 1 1 1
node 21 1 1 1
node 22 1 1 1
node 23 1 1 1
node 24 1 1 1
node 25 1 1 3
node 26 1 0 2
node 27 1 0 2
node 54 1 0 0
node 76 1 0 0
gene 1 1 26 -1.86094 0 1 -1.86094 1
gene 1 1 27 -2.08501 0 2 -2.08501 1
gene 1 2 26 -1.00921 0 3 -1.00921 1
gene 1 2 27 -0.733791 0 4 -0.733791 1
gene 1 3 26 3.78117 0 5 3.78117 1
gene 1 3 27 -1.32516 0 6 -1.32516 1
gene 1 4 26 -0.0303731 0 7 -0.0303731 0
gene 1 4 27 2.51084 0 8 2.51084 1
gene 1 5 26 0.375515 0 9 0.375515 1
gene 1 5 27 -0.46786 0 10 -0.46786 1
gene 1 6 26 0.524916 0 11 0.524916 1
gene 1 6 27 0.981336 0 12 0.981336 1
gene 1 7 26 -4.20067 0 13 -4.20067 1
gene 1 7 27 -0.0241136 0 14 -0.0241136 1
gene 1 8 26 -3.03767 0 15 -3.03767 1
gene 1 8 27 -0.342985 0 16 -0.342985 1
gene 1 9 26 -2.18034 0 17 -2.18034 0
gene 1 9 27 -0.00643304 0 18 -0.00643304 1
gene 1 10 26 -2.58983 0 19 -2.58983 1
gene 1 10 27 4.6066 0 20 4.6066 1
gene 1 11 26 -2.10456 0 21 -2.10456 1
gene 1 11 27 0.110405 0 22 0.110405 1
gene 1 12 26 3.62021 0 23 3.62021 1
gene 1 12 27 0.644086 0 24 0.644086 1
gene 1 13 26 -2.68545 0 25 -2.68545 1
gene 1 13 27 -0.508132 0 26 -0.508132 1
gene 1 14 26 -2.23334 0 27 -2.23334 1
gene 1 14 27 1.28005 0 28 1.28005 1
gene 1 15 26 -0.655801 0 29 -0.655801 1
gene 1 15 27 1.56141 0 30 1.56141 1
gene 1 16 26 1.66871 0 31 1.66871 1
gene 1 16 27 -1.92226 0 32 -1.92226 1
gene 1 17 26 2.54485 0 33 2.54485 1
gene 1 17 27 -1.04331 0 34 -1.04331 1
gene 1 18 26 -0.422992 0 35 -0.422992 1
gene 1 18 27 -1.0858 0 36 -1.0858 1
gene 1 19 26 -2.16711 0 37 -2.16711 1
gene 1 19 27 0.784278 0 38 0.784278 1
gene 1 20 26 -2.05169 0 39 -2.05169 1
gene 1 20 27 2.98719 0 40 2.98719 1
gene 1 21 26 0.701175 0 41 0.701175 1
gene 1 21 27 0.736898 0 42 0.736898 1
gene 1 22 26 -0.0801421 0 43 -0.0801421 1
gene 1 22 27 1.01622 0 44 1.01622 1
gene 1 23 26 -0.806363 0 45 -0.806363 1
gene 1 23 27 -0.153657 0 46 -0.153657 1
gene 1 24 26 1.06633 0 47 1.06633 1
gene 1 24 27 1.51944 0 48 1.51944 1
gene 1 25 26 0.217878 0 49 0.217878 1
gene 1 25 27 0.663567 0 50 0.663567 1
gene 1 26 27 -0.313631 0 51 -0.313631 1
gene 1 9 54 -0.858731 0 107 -0.858731 1
gene 1 54 26 -0.0657451 0 108 -0.0657451 1
gene 1 24 76 -0.266862 0 153 -0.266862 1
gene 1 76 26 0.484011 0 154 0.484011 1
gene 1 22 54 -0.724431 0 228 -0.724431 1
gene 1 76 54 1.8216 0 512 1.8216 1
genomeend 730


/* Organism #286 Quality: 1.000000 Time: 0 Id: 23 */
/* -0.000685055 -0.999103 0.924896 -0.893554 1.80112 -0.959712 1.7308 -0.886212 0.371944 0.0150267 1.50113 0.251378 1.37643 -0.632668  */
genomestart 286
trait 1 0.119671 0.0618647 0.0272719 0 0.120582 0.0833297 0.105234 0.0315983 
node 1 1 1 1
node 2 1 1 1
node 3 1 1 1
node 4 1 1 1
node 5 1 1 1
node 6 1 1 1
node 7 1 1 1
node 8 1 1 1
node 9 1 1 1
node 10 1 1 1
node 11 1 1 1
node 12 1 1 1
node 13 1 1 1
node 14 1 1 1
node 15 1 1 1
node 16 1 1 1
node 17 1 1 1
node 18 1 1 1
node 19 1 1 1
node 20 1 1 1
node 21 1 1 1
node 22 1 1 1
node 23 1 1 1
node 24 1 1 1
node 25 1 1 3
node 26 1 0 2
node 27 1 0 2
node 145 1 0 0
node 166 1 0 0
gene 1 1 26 -0.921297 0 1 -0.921297 1
gene 1 1 27 -2.25525 0 2 -2.25525 1
gene 1 2 26 -3.2177 0 3 -3.2177 1
gene 1 2 27 -3.21405 0 4 -3.21405 1
gene 1 3 26 -0.720785 0 5 -0.720785 1
gene 1 3 27 -0.528728 0 6 -0.528728 1
gene 1 4 26 3.39497 0 7 3.39497 1
gene 1 4 27 1.90097 0 8 1.90097 1
gene 1 5 26 3.54611 0 9 3.54611 1
gene 1 5 27 3.24191 0 10 3.24191 1
gene 1 6 26 -0.411895 0 11 -0.411895 1
gene 1 6 27 0.983459 0 12 0.983459 1
gene 1 7 26 -1.37694 0 13 -1.37694 1
gene 1 7 27 -3.89845 0 14 -3.89845 1
gene 1 8 26 -1.93508 0 15 -1.93508 1
gene 1 8 27 1.64368 0 16 1.64368 1
gene 1 9 26 3.54141 0 17 3.54141 1
gene 1 9 27 2.23368 0 18 2.23368 1
gene 1 10 26 1.21914 0 19 1.21914 1
gene 1 10 27 0.842813 0 20 0.842813 1
gene 1 11 26 1.94096 0 21 1.94096 1
gene 1 11 27 2.99871 0 22 2.99871 1
gene 1 12 26 -3.98119 0 23 -3.98119 1
gene 1 12 27 0.259677 0 24 0.259677 1
gene 1 13 26 1.13593 0 25 1.13593 1
gene 1 13 27 1.17716 0 26 1.17716 1
gene 1 14 26 1.31547 0 27 1.31547 1
gene 1 14 27 0.803593 0 28 0.803593 1
gene 1 15 26 -0.73653 0 29 -0.73653 1
gene 1 15 27 -0.846916 0 30 -0.846916 1
gene 1 16 26 -1.59833 0 31 -1.59833 1
gene 1 16 27 2.44957 0 32 2.44957 0
gene 1 17 26 -0.526724 0 33 -0.526724 1
gene 1 17 27 4.12226 0 34 4.12226 1
gene 1 18 26 0.931571 0 35 0.931571 1
gene 1 18 27 -0.955311 0 36 -0.955311 1
gene 1 19 26 -0.548635 0 37 -0.548635 1
gene 1 19 27 0.115904 0 38 0.115904 1
gene 1 20 26 -1.64415 0 39 -1.64415 1
gene 1 20 27 2.94176 0 40 2.94176 1
gene 1 21 26 -2.65299 0 41 -2.65299 1
gene 1 21 27 0.908577 0 42 0.908577 1
gene 1 22 26 -1.88959 0 43 -1.88959 1
gene 1 22 27 1.14455 0 44 1.14455 1
gene 1 23 26 -0.368465 0 45 -0.368465 1
gene 1 23 27 4.46991 0 46 4.46991 1
gene 1 24 26 3.35454 0 47 3.35454 1
gene 1 24 27 0.121909 0 48 0.121909 1
gene 1 25 26 -3.00143 0 49 -3.00143 1
gene 1 25 27 -0.344867 0 50 -0.344867 1
gene 1 15 145 -0.339872 0 380 -0.339872 1
gene 1 145 27 -1.71692 0 381 -1.71692 1
gene 1 16 166 -0.129578 0 464 -0.129578 1
gene 1 166 27 -0.393324 0 465 -0.393324 1
genomeend 286


/* Organism #77 Quality: 0.999995 Time: 0 Id: 24 */
/* 0.00105444 -0.998883 0.893296 -0.875022 1.79623 -0.938422 1.61098 -0.851931 -0.667719 0.342805 1.21227 0.240485 2.25069 -0.569143  */
genomestart 77
trait 1 0.0875 0 0.00325592 0.0106491 0 0 0.0773532 0.0433045 
node 1 1 1 1
node 2 1 1 1
node 3 1 1 1
node 4 1 1 1
node 5 1 1 1
node 6 1 1 1
node 7 1 1 1
node 8 1 1 1
node 9 1 1 1
node 10 1 1 1
node 11 1 1 1
node 12 1 1 1
node 13 1 1 1
node 14 1 1 1
node 15 1 1 1
node 16 1 1 1
node 17 1 1 1
node 18 1 1 1
node 19 1 1 1
node 20 1 1 1
node 21 1 1 1
node 22 1 1 1
node 23 1 1 1
node 24 1 1 1
node 25 1 1 3
node 26 1 0 2
node 27 1 0 2
node 54 1 0 0
node 174 1 0 0
gene 1 1 26 -4.0637 0 1 -4.0637 1
gene 1 1 27 1.17673 0 2 1.17673 1
gene 1 2 26 -5 0 3 -5 1
gene 1 2 27 -1.60746 0 4 -1.60746 1
gene 1 3 26 -2.15744 0 5 -2.15744 1
gene 1 3 27 -1.37182 0 6 -1.37182 1
gene 1 4 26 -2.50768 0 7 -2.50768 1
gene 1 4 27 1.88265 0 8 1.88265 1
gene 1 5 26 0.526874 0 9 0.526874 1
gene 1 5 27 5 0 10 5 1
gene 1 6 26 -0.0829323 0 11 -0.0829323 1
gene 1 6 27 1.55651 0 12 1.55651 1
gene 1 7 26 -4.11208 0 13 -4.11208 1
gene 1 7 27 4.19324 0 14 4.19324 0
gene 1 8 26 -3.25278 0 15 -3.25278 1
gene 1 8 27 -0.522471 0 16 -0.522471 1
gene 1 9 26 -0.990505 0 17 -0.990505 0
gene 1 9 27 3.99818 0 18 3.99818 1
gene 1 10 26 0.396024 0 19 0.396024 1
gene 1 10 27 -4.4034 0 20 -4.4034 1
gene 1 11 26 4.22939 0 21 4.22939 0
gene 1 11 27 2.53454 0 22 2.53454 1
gene 1 12 26 -0.858553 0 23 -0.858553 1
gene 1 12 27 0.462633 0 24 0.462633 1
gene 1 13 26 3.41526 0 25 3.41526 1
gene 1 13 27 5 0 26 5 1
gene 1 14 26 -2.44052 0 27 -2.44052 1
gene 1 14 27 2.50887 0 28 2.50887 1
gene 1 15 26 1.02511 0 29 1.02511 1
gene 1 15 27 0.555445 0 30 0.555445 1
gene 1 16 26 0.976581 0 31 0.976581 1
gene 1 16 27 3.10088 0 32 3.10088 1
gene 1 17 26 -1.82781 0 33 -1.82781 1
gene 1 17 27 3.24347 0 34 3.24347 1
gene 1 18 26 1.73975 0 35 1.73975 1
gene 1 18 27 -0.704112 0 36 -0.704112 1
gene 1 19 26 -1.14539 0 37 -1.14539 1
gene 1 19 27 3.90469 0 38 3.90469 1
gene 1 20 26 0.69737 0 39 0.69737 1
gene 1 20 27 -2.02782 0 40 -2.02782 1
gene 1 21 26 1.55565 0 41 1.55565 1
gene 1 21 27 0.611181 0 42 0.611181 1
gene 1 22 26 4.05198 0 43 4.05198 1
gene 1 22 27 0.876513 0 44 0.876513 1
gene 1 23 26 -0.65428 0 45 -0.65428 1
gene 1 23 27 -3.22408 0 46 -3.22408 1
gene 1 24 26 -0.847034 0 47 -0.847034 1
gene 1 24 27 -2.45078 0 48 -2.45078 1
gene 1 25 26 -0.578004 0 49 -0.578004 1
gene 1 25 27 0.253334 0 50 0.253334 1
gene 1 26 27 1.42895 0 51 1.42895 1
gene 1 9 54 -4.8134 0 107 -4.8134 1
gene 1 54 26 0.0453089 0 108 0.0453089 1
gene 1 4 54 -0.231479 0 170 -0.231479 1
gene 1 54 27 -1.00649 0 214 -1.00649 1
gene 1 18 54 -2.05172 0 325 -2.05172 1
gene 1 15 54 1.85727 0 411 1.85727 1
gene 1 7 174 2.99477 0 495 2.99477 1
gene 1 174 27 2.87857 0 496 2.87857 1
genomeend 77


/* Organism #235 Quality: 1.000000 Time: 0 Id: 25 */
/* 0.0034022 -0.998174 0.655323 -0.814035 1.76623 -0.966 1.68405 -0.833185 1.50714 -0.0360811 -0.668079 -0.874721 2.08974 -0.643125  */
genomestart 235
trait 1 0 0 0.418639 0 0 0.128454 0.178891 0.435738 
node 1 1 1 1
node 2 1 1 1
node 3 1 1 1
node 4 1 1 1
node 5 1 1 1
node 6 1 1 1
node 7 1 1 1
node 8 1 1 1
node 9 1 1 1
node 10 1 1 1
node 11 1 1 1
node 12 1 1 1
node 13 1 1 1
node 14 1 1 1
node 15 1 1 1
node 16 1 1 1
node 17 1 1 1
node 18 1 1 1
node 19 1 1 1
node 20 1 1 1
node 21 1 1 1
node 22 1 1 1
node 23 1 1 1
node 24 1 1 1
node 25 1 1 3
node 26 1 0 2
node 27 1 0 2
node 66 1 0 0
gene 1 1 26 -2.14119 0 1 -2.14119 1
gene 1 1 27 -2.25563 0 2 -2.25563 1
gene 1 2 26 -4.84954 0 3 -4.84954 1
gene 1 2 27 -1.87062 0 4 -1.87062 1
gene 1 3 26 -5 0 5 -5 1
gene 1 3 27 -2.08043 0 6 -2.08043 1
gene 1 4 26 0.609873 0 7 0.609873 1
gene 1 4 27 1.24542 0 8 1.24542 1
gene 1 5 26 3.78542 0 9 3.78542 1
gene 1 5 27 4.46416 0 10 4.46416 1
gene 1 6 26 -0.339513 0 11 -0.339513 1
gene 1 6 27 0.841281 0 12 0.841281 1
gene 1 7 26 0.546805 0 13 0.546805 1
gene 1 7 27 -3.32202 0 14 -3.32202 1
gene 1 8 26 -2.79847 0 15 -2.79847 1
gene 1 8 27 5 0 16 5 1
gene 1 9 26 -3.19387 0 17 -3.19387 1
gene 1 9 27 -4.26484 0 18 -4.26484 1
gene 1 10 26 0.384175 0 19 0.384175 1
gene 1 10 27 -3.74272 0 20 -3.74272 1
gene 1 11 26 0.482444 0 21 0.482444 1
gene 1 11 27 1.45075 0 22 1.45075 1
gene 1 12 26 0.081089 0 23 0.081089 1
gene 1 12 27 -1.39286 0 24 -1.39286 1
gene 1 13 26 2.95633 0 25 2.95633 1
gene 1 13 27 2.26693 0 26 2.26693 1
gene 1 14 26 -1.29752 0 27 -1.29752 1
gene 1 14 27 0.374706 0 28 0.374706 1
gene 1 15 26 3.40234 0 29 3.40234 1
gene 1 15 27 -2.21132 0 30 -2.21132 1
gene 1 16 26 2.36197 0 31 2.36197 1
gene 1 16 27 5 0 32 5 1
gene 1 17 26 0.533499 0 33 0.533499 1
gene 1 17 27 0.0786657 0 34 0.0786657 1
gene 1 18 26 3.17935 0 35 3.17935 1
gene 1 18 27 2.36601 0 36 2.36601 1
gene 1 19 26 -2.91227 0 37 -2.91227 1
gene 1 19 27 -0.965235 0 38 -0.965235 1
gene 1 20 26 -3.19549 0 39 -3.19549 1
gene 1 20 27 1.4828 0 40 1.4828 1
gene 1 21 26 -5 0 41 -5 1
gene 1 21 27 -3.77391 0 42 -3.77391 1
gene 1 22 26 0.10899 0 43 0.10899 1
gene 1 22 27 1.84469 0 44 1.84469 1
gene 1 23 26 0.625879 0 45 0.625879 1
gene 1 23 27 5 0 46 5 1
gene 1 24 26 -0.61682 0 47 -0.61682 1
gene 1 24 27 3.10336 0 48 3.10336 1
gene 1 25 26 0.285679 0 49 0.285679 1
gene 1 25 27 0.0887682 0 50 0.0887682 1
gene 1 22 66 4.77032 0 131 4.77032 1
gene 1 66 27 2.5176 0 132 2.5176 1
gene 1 12 66 0.177048 0 467 0.177048 1
gene 1 15 66 -1.00328 0 526 -1.00328 1
gene 1 4 66 -2.15278 0 608 -2.15278 1
genomeend 235


/* Organism #815 Quality: 1.000000 Time: 0 Id: 26 */
/* -0.00384567 -0.998339 0.614254 -0.83118 1.81093 -0.96213 1.96793 -0.815679 2.25804 0.302177 -0.667956 -0.875169 1.40769 -0.633525  */
genomestart 815
trait 1 0.05 0 0.0451635 0.168258 0.0161653 0.118661 0.072646 0.0863121 
node 1 1 1 1
node 2 1 1 1
node 3 1 1 1
node 4 1 1 1
node 5 1 1 1
node 6 1 1 1
node 7 1 1 1
node 8 1 1 1
node 9 1 1 1
node 10 1 1 1
node 11 1 1 1
node 12 1 1 1
node 13 1 1 1
node 14 1 1 1
node 15 1 1 1
node 16 1 1 1
node 17 1 1 1
node 18 1 1 1
node 19 1 1 1
node 20 1 1 1
node 21 1 1 1
node 22 1 1 1
node 23 1 1 1
node 24 1 1 1
node 25 1 1 3
node 26 1 0 2
node 27 1 0 2
node 69 1 0 0
node 239 1 0 0
gene 1 1 26 -3.82325 0 1 -3.82325 1
gene 1 1 27 3.30415 0 2 3.30415 1
gene 1 2 26 -0.812215 0 3 -0.812215 1
gene 1 2 27 0.123668 0 4 0.123668 1
gene 1 3 26 -1.64671 0 5 -1.64671 1
gene 1 3 27 -1.17998 0 6 -1.17998 1
gene 1 4 26 -4.86355 0 7 -4.86355 1
gene 1 4 27 5 0 8 5 1
gene 1 5 26 -2.46464 0 9 -2.46464 1
gene 1 5 27 4.70753 0 10 4.70753 1
gene 1 6 26 -2.72241 0 11 -2.72241 1
gene 1 6 27 2.53127 0 12 2.53127 1
gene 1 7 26 -0.0894518 0 13 -0.0894518 1
gene 1 7 27 2.24917 0 14 2.24917 1
gene 1 8 26 0.65145 0 15 0.65145 1
gene 1 8 27 -2.15369 0 16 -2.15369 1
gene 1 9 26 -2.88417 0 17 -2.88417 1
gene 1 9 27 4.81653 0 18 4.81653 1
gene 1 10 26 -1.76597 0 19 -1.76597 1
gene 1 10 27 5 0 20 5 1
gene 1 11 26 2.76539 0 21 2.76539 1
gene 1 11 27 2.17584 0 22 2.17584 1
gene 1 12 26 4.45263 0 23 4.45263 1
gene 1 12 27 1.09913 0 24 1.09913 1
gene 1 13 26 -1.71066 0 25 -1.71066 1
gene 1 13 27 -2.43329 0 26 -2.43329 1
gene 1 14 26 -0.903842 0 27 -0.903842 1
gene 1 14 27 -0.63969 0 28 -0.63969 1
gene 1 15 26 3.03342 0 29 3.03342 0
gene 1 15 27 -4.35151 0 30 -4.35151 1
gene 1 16 26 -2.86711 0 31 -2.86711 1
gene 1 16 27 -1.38466 0 32 -1.38466 1
gene 1 17 26 -5 0 33 -5 0
gene 1 17 27 2.48131 0 34 2.48131 1
gene 1 18 26 -2.63013 0 35 -2.63013 1
gene 1 18 27 -1.09645 0 36 -1.09645 1
gene 1 19 26 -1.40967 0 37 -1.40967 1
gene 1 19 27 0.513545 0 38 0.513545 1
gene 1 20 26 1.90174 0 39 1.90174 1
gene 1 20 27 -1.47984 0 40 -1.47984 1
gene 1 21 26 -1.54825 0 41 -1.54825 1
gene 1 21 27 -3.55822 0 42 -3.55822 1
gene 1 22 26 4.10528 0 43 4.10528 1
gene 1 22 27 4.21204 0 44 4.21204 1
gene 1 23 26 -1.87819 0 45 -1.87819 1
gene 1 23 27 0.789748 0 46 0.789748 1
gene 1 24 26 -0.782684 0 47 -0.782684 1
gene 1 24 27 0.912301 0 48 0.912301 1
gene 1 25 26 -2.14088 0 49 -2.14088 1
gene 1 25 27 -0.523532 0 50 -0.523532 1
gene 1 26 27 -4.42466 0 51 -4.42466 1
gene 1 15 69 5 0 137 5 1
gene 1 69 26 2.02278 0 138 2.02278 1
gene 1 25 69 -0.583911 0 386 -0.583911 1
gene 1 3 69 -4.28215 0 616 -4.28215 1
gene 1 17 239 3.19463 0 755 3.19463 1
gene 1 239 26 -3.20984 0 756 -3.20984 1
gene 1 13 239 0.591297 0 832 0.591297 1
gene 1 12 239 -0.796284 0 978 -0.796284 1
genomeend 815


/* Organism #446 Quality: 0.997437 Time: 0 Id: 27 */
/* -0.000940063 -0.998578 0.904483 -0.846408 1.66709 -0.938678 0.272362 0.297467 -1.84935 1.36788 1.60323 0.505275 -0.0609784 0.496856  */
genomestart 446
trait 1 0.0712891 0.158678 0 0.107838 0.156176 0 0.380323 0 
node 1 1 1 1
node 2 1 1 1
node 3 1 1 1
node 4 1 1 1
node 5 1 1 1
node 6 1 1 1
node 7 1 1 1
node 8 1 1 1
node 9 1 1 1
node 10 1 1 1
node 11 1 1 1
node 12 1 1 1
node 13 1 1 1
node 14 1 1 1
node 15 1 1 1
node 16 1 1 1
node 17 1 1 1
node 18 1 1 1
node 19 1 1 1
node 20 1 1 1
node 21 1 1 1
node 22 1 1 1
node 23 1 1 1
node 24 1 1 1
node 25 1 1 3
node 26 1 0 2
node 27 1 0 2
node 54 1 0 0
node 93 1 0 0
node 127 1 0 0
gene 1 1 26 -4.15968 0 1 -4.15968 1
gene 1 1 27 0.480508 0 2 0.480508 1
gene 1 2 26 -1.26646 0 3 -1.26646 1
gene 1 2 27 1.01841 0 4 1.01841 1
gene 1 3 26 1.38775 0 5 1.38775 1
gene 1 3 27 1.68374 0 6 1.68374 1
gene 1 4 26 2.41205 0 7 2.41205 0
gene 1 4 27 2.88338 0 8 2.88338 1
gene 1 5 26 -2.01277 0 9 -2.01277 1
gene 1 5 27 4.47888 0 10 4.47888 1
gene 1 6 26 -3.99563 0 11 -3.99563 1
gene 1 6 27 1.2195 0 12 1.2195 1
gene 1 7 26 -2.86475 0 13 -2.86475 1
gene 1 7 27 1.28251 0 14 1.28251 1
gene 1 8 26 -3.97741 0 15 -3.97741 1
gene 1 8 27 -3.04932 0 16 -3.04932 1
gene 1 9 26 0.58613 0 17 0.58613 1
gene 1 9 27 -1.281 0 18 -1.281 1
gene 1 10 26 1.61498 0 19 1.61498 1
gene 1 10 27 5 0 20 5 1
gene 1 11 26 -2.99762 0 21 -2.99762 1
gene 1 11 27 0.863196 0 22 0.863196 1
gene 1 12 26 -2.82454 0 23 -2.82454 1
gene 1 12 27 1.13846 0 24 1.13846 1
gene 1 13 26 -2.72744 0 25 -2.72744 1
gene 1 13 27 -1.19036 0 26 -1.19036 1
gene 1 14 26 2.05594 0 27 2.05594 1
gene 1 14 27 1.46378 0 28 1.46378 1
gene 1 15 26 -5 0 29 -5 1
gene 1 15 27 1.35254 0 30 1.35254 1
gene 1 16 26 -4.24226 0 31 -4.24226 1
gene 1 16 27 5 0 32 5 1
gene 1 17 26 -4.1742 0 33 -4.1742 1
gene 1 17 27 2.85919 0 34 2.85919 1
gene 1 18 26 2.00118 0 35 2.00118 1
gene 1 18 27 -5 0 36 -5 1
gene 1 19 26 2.89098 0 37 2.89098 1
gene 1 19 27 -2.7513 0 38 -2.7513 1
gene 1 20 26 -4.46511 0 39 -4.46511 1
gene 1 20 27 2.44691 0 40 2.44691 1
gene 1 21 26 0.909922 0 41 0.909922 1
gene 1 21 27 1.93896 0 42 1.93896 1
gene 1 22 26 0.244508 0 43 0.244508 1
gene 1 22 27 5 0 44 5 1
gene 1 23 26 -1.59068 0 45 -1.59068 1
gene 1 23 27 -3.76544 0 46 -3.76544 1
gene 1 24 26 2.95761 0 47 2.95761 1
gene 1 24 27 1.14308 0 48 1.14308 1
gene 1 25 26 -1.25273 0 49 -1.25273 1
gene 1 25 27 2.10584 0 50 2.10584 1
gene 1 26 27 1.29609 0 51 1.29609 1
gene 1 9 54 0.136348 0 107 0.136348 1
gene 1 54 26 -1.31674 0 108 -1.31674 1
gene 1 1 93 3.45794 0 215 3.45794 1
gene 1 93 27 -1.3208 0 216 -1.3208 1
gene 1 54 127 1.79313 0 331 1.79313 1
gene 1 127 26 -0.401497 0 332 -0.401497 1
gene 1 18 93 1.45595 0 1502 1.45595 1
gene 1 6 54 0.105176 0 1610 0.105176 1
genomeend 446


/* Organism #915 Quality: 1.000000 Time: 0 Id: 28 */
/* 0.000339279 -0.998122 -0.689888 -0.793632 1.7246 -0.976226 1.52902 -0.889106 0.976199 -0.344586 -0.667164 -0.873966 2.13171 -0.721226  */
genomestart 915
trait 1 0.111623 0 0 0.0535595 0.006699 0.0685478 0.00371977 0.000692762 
node 1 1 1 1
node 2 1 1 1
node 3 1 1 1
node 4 1 1 1
node 5 1 1 1
node 6 1 1 1
node 7 1 1 1
node 8 1 1 1
node 9 1 1 1
node 10 1 1 1
node 11 1 1 1
node 12 1 1 1
node 13 1 1 1
node 14 1 1 1
node 15 1 1 1
node 16 1 1 1
node 17 1 1 1
node 18 1 1 1
node 19 1 1 1
node 20 1 1 1
node 21 1 1 1
node 22 1 1 1
node 23 1 1 1
node 24 1 1 1
node 25 1 1 3
node 26 1 0 2
node 27 1 0 2
node 66 1 0 0
gene 1 1 26 -1.45398 0 1 -1.45398 1
gene 1 1 27 -1.86137 0 2 -1.86137 1
gene 1 2 26 -1.51648 0 3 -1.51648 1
gene 1 2 27 -2.10002 0 4 -2.10002 1
gene 1 3 26 -1.11682 0 5 -1.11682 1
gene 1 3 27 5 0 6 5 1
gene 1 4 26 1.97409 0 7 1.97409 1
gene 1 4 27 -2.46772 0 8 -2.46772 1
gene 1 5 26 1.11798 0 9 1.11798 1
gene 1 5 27 2.07376 0 10 2.07376 1
gene 1 6 26 2.86981 0 11 2.86981 1
gene 1 6 27 -1.60308 0 12 -1.60308 1
gene 1 7 26 0.119449 0 13 0.119449 1
gene 1 7 27 -4.04209 0 14 -4.04209 1
gene 1 8 26 -2.73836 0 15 -2.73836 1
gene 1 8 27 -1.84292 0 16 -1.84292 1
gene 1 9 26 3.6859 0 17 3.6859 1
gene 1 9 27 -3.603 0 18 -3.603 1
gene 1 10 26 4.73704 0 19 4.73704 1
gene 1 10 27 -3.37027 0 20 -3.37027 1
gene 1 11 26 -2.03574 0 21 -2.03574 1
gene 1 11 27 5 0 22 5 1
gene 1 12 26 0.139119 0 23 0.139119 1
gene 1 12 27 -1.33079 0 24 -1.33079 1
gene 1 13 26 2.10571 0 25 2.10571 1
gene 1 13 27 2.70238 0 26 2.70238 1
gene 1 14 26 -1.61698 0 27 -1.61698 1
gene 1 14 27 0.245531 0 28 0.245531 1
gene 1 15 26 -0.231356 0 29 -0.231356 1
gene 1 15 27 1.05395 0 30 1.05395 1
gene 1 16 26 0.541499 0 31 0.541499 1
gene 1 16 27 -2.88877 0 32 -2.88877 1
gene 1 17 26 -4.09014 0 33 -4.09014 1
gene 1 17 27 -1.64736 0 34 -1.64736 1
gene 1 18 26 0.127751 0 35 0.127751 1
gene 1 18 27 5 0 36 5 1
gene 1 19 26 3.13324 0 37 3.13324 1
gene 1 19 27 -3.16443 0 38 -3.16443 1
gene 1 20 26 0.61889 0 39 0.61889 1
gene 1 20 27 -1.71227 0 40 -1.71227 1
gene 1 21 26 -1.48189 0 41 -1.48189 1
gene 1 21 27 0.45314 0 42 0.45314 0
gene 1 22 26 5 0 43 5 1
gene 1 22 27 -3.27126 0 44 -3.27126 1
gene 1 23 26 -3.63213 0 45 -3.63213 1
gene 1 23 27 0.81556 0 46 0.81556 1
gene 1 24 26 -0.121475 0 47 -0.121475 1
gene 1 24 27 2.053 0 48 2.053 1
gene 1 25 26 1.09298 0 49 1.09298 1
gene 1 25 27 1.11987 0 50 1.11987 1
gene 1 22 66 -0.596289 0 131 -0.596289 1
gene 1 66 27 -1.77134 0 132 -1.77134 1
gene 1 13 66 -0.0825692 0 382 -0.0825692 1
gene 1 20 66 4.03728 0 638 4.03728 1
genomeend 915


/* Organism #27 Quality: 0.991875 Time: 0 Id: 29 */
/* 0.00102522 -0.996795 -0.209904 -0.676395 1.5247 -0.816463 -0.0321581 0.0385683 -2.83146 1.11395 1.6446 1.17203 1.53095 -0.902526  */
genomestart 27
trait 1 0.0712891 0.158678 0 0.107838 0.156176 0 0.380323 0 
node 1 1 1 1
node 2 1 1 1
node 3 1 1 1
node 4 1 1 1
node 5 1 1 1
node 6 1 1 1
node 7 1 1 1
node 8 1 1 1
node 9 1 1 1
node 10 1 1 1
node 11 1 1 1
node 12 1 1 1
node 13 1 1 1
node 14 1 1 1
node 15 1 1 1
node 16 1 1 1
node 17 1 1 1
node 18 1 1 1
node 19 1 1 1
node 20 1 1 1
node 21 1 1 1
node 22 1 1 1
node 23 1 1 1
node 24 1 1 1
node 25 1 1 3
node 26 1 0 2
node 27 1 0 2
node 54 1 0 0
node 93 1 0 0
node 127 1 0 0
node 449 1 0 0
gene 1 1 26 -3.15064 0 1 -3.15064 1
gene 1 1 27 -0.026273 0 2 -0.026273 1
gene 1 2 26 -1.126 0 3 -1.126 1
gene 1 2 27 1.86318 0 4 1.86318 1
gene 1 3 26 1.24924 0 5 1.24924 1
gene 1 3 27 -0.0631691 0 6 -0.0631691 1
gene 1 4 26 -1.12465 0 7 -1.12465 0
gene 1 4 27 5 0 8 5 1
gene 1 5 26 -1.52777 0 9 -1.52777 1
gene 1 5 27 5 0 10 5 1
gene 1 6 26 -0.00265973 0 11 -0.00265973 1
gene 1 6 27 -0.565671 0 12 -0.565671 1
gene 1 7 26 -3.58286 0 13 -3.58286 1
gene 1 7 27 -1.27666 0 14 -1.27666 1
gene 1 8 26 -4.39762 0 15 -4.39762 1
gene 1 8 27 -0.386406 0 16 -0.386406 1
gene 1 9 26 -0.920177 0 17 -0.920177 1
gene 1 9 27 5 0 18 5 1
gene 1 10 26 0.388309 0 19 0.388309 1
gene 1 10 27 5 0 20 5 1
gene 1 11 26 -4.22344 0 21 -4.22344 1
gene 1 11 27 2.18451 0 22 2.18451 1
gene 1 12 26 1.60794 0 23 1.60794 1
gene 1 12 27 -1.20676 0 24 -1.20676 1
gene 1 13 26 -0.822694 0 25 -0.822694 1
gene 1 13 27 -1.56133 0 26 -1.56133 1
gene 1 14 26 0.682222 0 27 0.682222 1
gene 1 14 27 2.26942 0 28 2.26942 1
gene 1 15 26 -2.95293 0 29 -2.95293 1
gene 1 15 27 2.50436 0 30 2.50436 1
gene 1 16 26 -1.019 0 31 -1.019 1
gene 1 16 27 1.90927 0 32 1.90927 1
gene 1 17 26 -0.432133 0 33 -0.432133 1
gene 1 17 27 5 0 34 5 1
gene 1 18 26 3.33542 0 35 3.33542 1
gene 1 18 27 -2.27601 0 36 -2.27601 1
gene 1 19 26 4.11246 0 37 4.11246 1
gene 1 19 27 -5 0 38 -5 1
gene 1 20 26 -2.63703 0 39 -2.63703 1
gene 1 20 27 1.66217 0 40 1.66217 1
gene 1 21 26 0.0387849 0 41 0.0387849 1
gene 1 21 27 4.05934 0 42 4.05934 1
gene 1 22 26 -1.34927 0 43 -1.34927 1
gene 1 22 27 0.819793 0 44 0.819793 1
gene 1 23 26 1.2444 0 45 1.2444 0
gene 1 23 27 -1.65955 0 46 -1.65955 1
gene 1 24 26 -0.461017 0 47 -0.461017 1
gene 1 24 27 -0.155965 0 48 -0.155965 1
gene 1 25 26 0.0172888 0 49 0.0172888 1
gene 1 25 27 -1.26804 0 50 -1.26804 1
gene 1 26 27 0.250436 0 51 0.250436 1
gene 1 9 54 2.10168 0 107 2.10168 1
gene 1 54 26 0.901443 0 108 0.901443 1
gene 1 1 93 3.36808 0 215 3.36808 1
gene 1 93 27 -1.59892 0 216 -1.59892 1
gene 1 54 127 -1.47165 0 331 -1.47165 1
gene 1 127 26 -0.737697 0 332 -0.737697 1
gene 1 18 93 1.12463 0 1502 1.12463 1
gene 1 23 449 0.516351 0 1661 0.516351 1
gene 1 449 26 0.551857 0 1662 0.551857 1
genomeend 27


/* Organism #879 Quality: 1.000000 Time: 0 Id: 30 */
/* 0.000715854 -0.998886 -0.90859 -0.875447 1.87471 -0.848954 1.70249 -0.82309 -0.242894 0.432978 1.16158 0.186344 2.19048 -0.484249  */
genomestart 879
trait 1 0.111623 0 0 0.0535595 0.006699 0.0685478 0.00371977 0.000692762 
node 1 1 1 1
node 2 1 1 1
node 3 1 1 1
node 4 1 1 1
node 5 1 1 1
node 6 1 1 1
node 7 1 1 1
node 8 1 1 1
node 9 1 1 1
node 10 1 1 1
node 11 1 1 1
node 12 1 1 1
node 13 1 1 1
node 14 1 1 1
node 15 1 1 1
node 16 1 1 1
node 17 1 1 1
node 18 1 1 1
node 19 1 1 1
node 20 1 1 1
node 21 1 1 1
node 22 1 1 1
node 23 1 1 1
node 24 1 1 1
node 25 1 1 3
node 26 1 0 2
node 27 1 0 2
node 66 1 0 0
gene 1 1 26 -0.52216 0 1 -0.52216 1
gene 1 1 27 -2.09556 0 2 -2.09556 1
gene 1 2 26 -3.64368 0 3 -3.64368 1
gene 1 2 27 -1.72939 0 4 -1.72939 1
gene 1 3 26 3.00642 0 5 3.00642 1
gene 1 3 27 3.34305 0 6 3.34305 1
gene 1 4 26 0.816564 0 7 0.816564 1
gene 1 4 27 0.981064 0 8 0.981064 1
gene 1 5 26 0.27742 0 9 0.27742 1
gene 1 5 27 5 0 10 5 1
gene 1 6 26 0.379642 0 11 0.379642 1
gene 1 6 27 0.272933 0 12 0.272933 1
gene 1 7 26 0.256243 0 13 0.256243 1
gene 1 7 27 -4.42395 0 14 -4.42395 1
gene 1 8 26 -2.72439 0 15 -2.72439 1
gene 1 8 27 -1.25637 0 16 -1.25637 1
gene 1 9 26 4.17792 0 17 4.17792 1
gene 1 9 27 -5 0 18 -5 1
gene 1 10 26 3.08824 0 19 3.08824 1
gene 1 10 27 -5 0 20 -5 1
gene 1 11 26 4.59878 0 21 4.59878 1
gene 1 11 27 -1.1189 0 22 -1.1189 1
gene 1 12 26 -1.89725 0 23 -1.89725 1
gene 1 12 27 0.196384 0 24 0.196384 1
gene 1 13 26 -2.3969 0 25 -2.3969 1
gene 1 13 27 5 0 26 5 1
gene 1 14 26 0.126741 0 27 0.126741 1
gene 1 14 27 -0.10975 0 28 -0.10975 1
gene 1 15 26 -3.26415 0 29 -3.26415 1
gene 1 15 27 3.28118 0 30 3.28118 1
gene 1 16 26 -1.59389 0 31 -1.59389 1
gene 1 16 27 1.67144 0 32 1.67144 1
gene 1 17 26 -0.11749 0 33 -0.11749 1
gene 1 17 27 -3.93865 0 34 -3.93865 1
gene 1 18 26 -0.482394 0 35 -0.482394 1
gene 1 18 27 5 0 36 5 1
gene 1 19 26 3.80213 0 37 3.80213 1
gene 1 19 27 -1.92748 0 38 -1.92748 1
gene 1 20 26 0.217415 0 39 0.217415 1
gene 1 20 27 1.35582 0 40 1.35582 1
gene 1 21 26 1.53591 0 41 1.53591 1
gene 1 21 27 -2.04108 0 42 -2.04108 0
gene 1 22 26 -0.57654 0 43 -0.57654 1
gene 1 22 27 -3.89847 0 44 -3.89847 1
gene 1 23 26 -0.940907 0 45 -0.940907 1
gene 1 23 27 -0.628249 0 46 -0.628249 1
gene 1 24 26 -1.00082 0 47 -1.00082 1
gene 1 24 27 -1.67848 0 48 -1.67848 1
gene 1 25 26 1.96409 0 49 1.96409 1
gene 1 25 27 -0.823354 0 50 -0.823354 1
gene 1 22 66 -2.31375 0 131 -2.31375 1
gene 1 66 27 -1.94343 0 132 -1.94343 1
gene 1 13 66 2.01489 0 382 2.01489 1
gene 1 20 66 1.28111 0 638 1.28111 1
gene 1 21 66 2.06718 0 1646 2.06718 1
gene 1 24 66 -0.738161 0 1714 -0.738161 1
genomeend 879


/* Organism #71 Quality: 0.999725 Time: 0 Id: 31 */
/* 0.00171554 -0.997645 0.689467 -0.783502 2.10176 -0.714098 1.31634 -0.146581 -1.84646 1.89963 0.543231 -0.143238 1.42527 -0.535583  */
genomestart 71
trait 1 0.0712891 0.0907306 0 0.959098 0.156176 0 0.551339 0.402412 
node 1 1 1 1
node 2 1 1 1
node 3 1 1 1
node 4 1 1 1
node 5 1 1 1
node 6 1 1 1
node 7 1 1 1
node 8 1 1 1
node 9 1 1 1
node 10 1 1 1
node 11 1 1 1
node 12 1 1 1
node 13 1 1 1
node 14 1 1 1
node 15 1 1 1
node 16 1 1 1
node 17 1 1 1
node 18 1 1 1
node 19 1 1 1
node 20 1 1 1
node 21 1 1 1
node 22 1 1 1
node 23 1 1 1
node 24 1 1 1
node 25 1 1 3
node 26 1 0 2
node 27 1 0 2
node 54 1 0 0
node 93 1 0 0
node 127 1 0 0
node 449 1 0 0
gene 1 1 26 -3.96448 0 1 -3.96448 1
gene 1 1 27 -0.906549 0 2 -0.906549 1
gene 1 2 26 -2.51822 0 3 -2.51822 1
gene 1 2 27 3.25897 0 4 3.25897 1
gene 1 3 26 1.19425 0 5 1.19425 1
gene 1 3 27 -0.137146 0 6 -0.137146 1
gene 1 4 26 2.35818 0 7 2.35818 1
gene 1 4 27 5 0 8 5 1
gene 1 5 26 -2.20898 0 9 -2.20898 1
gene 1 5 27 2.76956 0 10 2.76956 1
gene 1 6 26 -1.50075 0 11 -1.50075 1
gene 1 6 27 1.85882 0 12 1.85882 1
gene 1 7 26 -4.25342 0 13 -4.25342 1
gene 1 7 27 -2.01206 0 14 -2.01206 1
gene 1 8 26 -3.52354 0 15 -3.52354 1
gene 1 8 27 -1.40517 0 16 -1.40517 1
gene 1 9 26 1.98937 0 17 1.98937 1
gene 1 9 27 -0.338202 0 18 -0.338202 1
gene 1 10 26 -1.45399 0 19 -1.45399 1
gene 1 10 27 1.92707 0 20 1.92707 1
gene 1 11 26 1.15157 0 21 1.15157 1
gene 1 11 27 -2.57805 0 22 -2.57805 1
gene 1 12 26 1.42821 0 23 1.42821 1
gene 1 12 27 1.59877 0 24 1.59877 1
gene 1 13 26 -1.03082 0 25 -1.03082 1
gene 1 13 27 -0.366859 0 26 -0.366859 1
gene 1 14 26 0.760376 0 27 0.760376 1
gene 1 14 27 5 0 28 5 1
gene 1 15 26 -2.15438 0 29 -2.15438 1
gene 1 15 27 1.10378 0 30 1.10378 1
gene 1 16 26 -5 0 31 -5 1
gene 1 16 27 3.04555 0 32 3.04555 1
gene 1 17 26 -2.56529 0 33 -2.56529 1
gene 1 17 27 2.56784 0 34 2.56784 1
gene 1 18 26 1.21286 0 35 1.21286 1
gene 1 18 27 -2.915 0 36 -2.915 1
gene 1 19 26 1.49689 0 37 1.49689 1
gene 1 19 27 -3.73867 0 38 -3.73867 1
gene 1 20 26 -0.468 0 39 -0.468 1
gene 1 20 27 2.39025 0 40 2.39025 1
gene 1 21 26 1.61452 0 41 1.61452 1
gene 1 21 27 2.31784 0 42 2.31784 1
gene 1 22 26 -2.57107 0 43 -2.57107 1
gene 1 22 27 4.94474 0 44 4.94474 1
gene 1 23 26 -2.00999 0 45 -2.00999 0
gene 1 23 27 -0.211133 0 46 -0.211133 1
gene 1 24 26 1.81449 0 47 1.81449 1
gene 1 24 27 1.3019 0 48 1.3019 1
gene 1 25 26 -0.756216 0 49 -0.756216 1
gene 1 25 27 1.17843 0 50 1.17843 1
gene 1 26 27 1.77251 0 51 1.77251 1
gene 1 9 54 -2.46589 0 107 -2.46589 1
gene 1 54 26 -1.62209 0 108 -1.62209 1
gene 1 1 93 -0.381524 0 215 -0.381524 1
gene 1 93 27 1.64715 0 216 1.64715 1
gene 1 54 127 -1.82256 0 331 -1.82256 1
gene 1 127 26 1.7359 0 332 1.7359 1
gene 1 18 93 -0.156488 0 1502 -0.156488 1
gene 1 23 449 1.16302 0 1661 1.16302 1
gene 1 449 26 1.97782 0 1662 1.97782 1
gene 1 6 449 2.29953 0 1824 2.29953 1
genomeend 71


/* Organism #231 Quality: 0.999110 Time: 0 Id: 32 */
/* -0.00162353 -0.998032 0.836613 -0.796776 1.78366 -0.871666 0.356674 0.396018 -2.17455 1.27893 1.74425 0.62288 0.440788 -0.0810963  */
genomestart 231
trait 1 0.0712891 0.158678 0 0.107838 0.156176 0 0.380323 0 
node 1 1 1 1
node 2 1 1 1
node 3 1 1 1
node 4 1 1 1
node 5 1 1 1
node 6 1 1 1
node 7 1 1 1
node 8 1 1 1
node 9 1 1 1
node 10 1 1 1
node 11 1 1 1
node 12 1 1 1
node 13 1 1 1
node 14 1 1 1
node 15 1 1 1
node 16 1 1 1
node 17 1 1 1
node 18 1 1 1
node 19 1 1 1
node 20 1 1 1
node 21 1 1 1
node 22 1 1 1
node 23 1 1 1
node 24 1 1 1
node 25 1 1 3
node 26 1 0 2
node 27 1 0 2
node 54 1 0 0
node 93 1 0 0
node 127 1 0 0
node 459 1 0 0
node 481 1 0 0
gene 1 1 26 -5 0 1 -5 0
gene 1 1 27 -2.52043 0 2 -2.52043 1
gene 1 2 26 0.938339 0 3 0.938339 1
gene 1 2 27 -1.10414 0 4 -1.10414 1
gene 1 3 26 4.09699 0 5 4.09699 1
gene 1 3 27 1.48266 0 6 1.48266 1
gene 1 4 26 1.87088 0 7 1.87088 0
gene 1 4 27 4.56529 0 8 4.56529 1
gene 1 5 26 -5 0 9 -5 1
gene 1 5 27 5 0 10 5 1
gene 1 6 26 0.495834 0 11 0.495834 1
gene 1 6 27 1.14793 0 12 1.14793 1
gene 1 7 26 -3.95866 0 13 -3.95866 1
gene 1 7 27 0.216002 0 14 0.216002 1
gene 1 8 26 -1.22817 0 15 -1.22817 1
gene 1 8 27 -0.425323 0 16 -0.425323 1
gene 1 9 26 1.37871 0 17 1.37871 1
gene 1 9 27 -1.05418 0 18 -1.05418 1
gene 1 10 26 -2.80329 0 19 -2.80329 1
gene 1 10 27 1.67101 0 20 1.67101 1
gene 1 11 26 -3.31222 0 21 -3.31222 1
gene 1 11 27 1.4966 0 22 1.4966 1
gene 1 12 26 -0.139968 0 23 -0.139968 1
gene 1 12 27 1.0041 0 24 1.0041 1
gene 1 13 26 -3.83817 0 25 -3.83817 1
gene 1 13 27 -2.26816 0 26 -2.26816 1
gene 1 14 26 3.89237 0 27 3.89237 1
gene 1 14 27 2.82007 0 28 2.82007 1
gene 1 15 26 2.05277 0 29 2.05277 1
gene 1 15 27 -0.083401 0 30 -0.083401 1
gene 1 16 26 -5 0 31 -5 1
gene 1 16 27 1.4923 0 32 1.4923 1
gene 1 17 26 -2.52486 0 33 -2.52486 1
gene 1 17 27 4.13461 0 34 4.13461 1
gene 1 18 26 0.319251 0 35 0.319251 1
gene 1 18 27 -3.10661 0 36 -3.10661 1
gene 1 19 26 2.90298 0 37 2.90298 0
gene 1 19 27 -2.98027 0 38 -2.98027 1
gene 1 20 26 -0.716592 0 39 -0.716592 1
gene 1 20 27 1.62649 0 40 1.62649 1
gene 1 21 26 0.519818 0 41 0.519818 1
gene 1 21 27 5 0 42 5 1
gene 1 22 26 0.651862 0 43 0.651862 1
gene 1 22 27 2.03025 0 44 2.03025 1
gene 1 23 26 1.93211 0 45 1.93211 1
gene 1 23 27 -1.46466 0 46 -1.46466 1
gene 1 24 26 0.878035 0 47 0.878035 1
gene 1 24 27 1.62101 0 48 1.62101 1
gene 1 25 26 -3.39232 0 49 -3.39232 1
gene 1 25 27 -0.255699 0 50 -0.255699 1
gene 1 26 27 1.3562 0 51 1.3562 1
gene 1 9 54 1.91015 0 107 1.91015 1
gene 1 54 26 -0.0327351 0 108 -0.0327351 1
gene 1 1 93 3.93479 0 215 3.93479 1
gene 1 93 27 0.658172 0 216 0.658172 1
gene 1 54 127 0.645581 0 331 0.645581 1
gene 1 127 26 0.872211 0 332 0.872211 1
gene 1 18 93 -0.155369 0 1502 -0.155369 1
gene 1 19 459 0.0596578 0 1693 0.0596578 1
gene 1 459 26 1.87496 0 1694 1.87496 1
gene 1 1 481 0.830823 0 1769 0.830823 1
gene 1 481 26 -5 0 1770 -5 1
genomeend 231


/* Organism #597 Quality: 0.998942 Time: 0 Id: 33 */
/* -0.00158893 -0.997709 0.840247 -0.765009 1.74253 -0.891077 -0.0522808 0.570872 -2.48639 1.50448 1.57516 0.654059 1.58702 -0.668058  */
genomestart 597
trait 1 0.0712891 0.158678 0 0.107838 0.156176 0 0.380323 0 
node 1 1 1 1
node 2 1 1 1
node 3 1 1 1
node 4 1 1 1
node 5 1 1 1
node 6 1 1 1
node 7 1 1 1
node 8 1 1 1
node 9 1 1 1
node 10 1 1 1
node 11 1 1 1
node 12 1 1 1
node 13 1 1 1
node 14 1 1 1
node 15 1 1 1
node 16 1 1 1
node 17 1 1 1
node 18 1 1 1
node 19 1 1 1
node 20 1 1 1
node 21 1 1 1
node 22 1 1 1
node 23 1 1 1
node 24 1 1 1
node 25 1 1 3
node 26 1 0 2
node 27 1 0 2
node 54 1 0 0
node 93 1 0 0
node 127 1 0 0
node 457 1 0 0
node 497 1 0 0
gene 1 1 26 -5 0 1 -5 1
gene 1 1 27 -1.61204 0 2 -1.61204 1
gene 1 2 26 -0.61636 0 3 -0.61636 1
gene 1 2 27 -0.21611 0 4 -0.21611 1
gene 1 3 26 0.341908 0 5 0.341908 1
gene 1 3 27 4.01628 0 6 4.01628 1
gene 1 4 26 1.32348 0 7 1.32348 1
gene 1 4 27 4.8132 0 8 4.8132 1
gene 1 5 26 -3.87732 0 9 -3.87732 1
gene 1 5 27 3.12621 0 10 3.12621 1
gene 1 6 26 -3.63342 0 11 -3.63342 1
gene 1 6 27 5 0 12 5 1
gene 1 7 26 -1.70696 0 13 -1.70696 1
gene 1 7 27 0.20542 0 14 0.20542 1
gene 1 8 26 -2.61788 0 15 -2.61788 1
gene 1 8 27 0.239346 0 16 0.239346 1
gene 1 9 26 1.75264 0 17 1.75264 1
gene 1 9 27 1.23264 0 18 1.23264 1
gene 1 10 26 -0.279326 0 19 -0.279326 1
gene 1 10 27 5 0 20 5 1
gene 1 11 26 -5 0 21 -5 0
gene 1 11 27 -3.41721 0 22 -3.41721 1
gene 1 12 26 -1.60771 0 23 -1.60771 1
gene 1 12 27 1.95087 0 24 1.95087 1
gene 1 13 26 -5 0 25 -5 1
gene 1 13 27 -0.473161 0 26 -0.473161 1
gene 1 14 26 0.560107 0 27 0.560107 1
gene 1 14 27 0.29637 0 28 0.29637 1
gene 1 15 26 -0.627289 0 29 -0.627289 1
gene 1 15 27 2.72255 0 30 2.72255 1
gene 1 16 26 -5 0 31 -5 1
gene 1 16 27 4.16097 0 32 4.16097 1
gene 1 17 26 -4.75117 0 33 -4.75117 1
gene 1 17 27 2.78981 0 34 2.78981 1
gene 1 18 26 0.939533 0 35 0.939533 1
gene 1 18 27 -3.58536 0 36 -3.58536 1
gene 1 19 26 2.19754 0 37 2.19754 1
gene 1 19 27 -1.5315 0 38 -1.5315 1
gene 1 20 26 -4.8706 0 39 -4.8706 1
gene 1 20 27 2.54968 0 40 2.54968 1
gene 1 21 26 0.0108282 0 41 0.0108282 1
gene 1 21 27 2.95604 0 42 2.95604 1
gene 1 22 26 -1.86313 0 43 -1.86313 1
gene 1 22 27 3.19718 0 44 3.19718 1
gene 1 23 26 -0.0100847 0 45 -0.0100847 1
gene 1 23 27 -0.366798 0 46 -0.366798 1
gene 1 24 26 -1.67123 0 47 -1.67123 1
gene 1 24 27 0.263262 0 48 0.263262 0
gene 1 25 26 0.758957 0 49 0.758957 1
gene 1 25 27 -1.07521 0 50 -1.07521 1
gene 1 26 27 -1.38127 0 51 -1.38127 1
gene 1 9 54 1.10615 0 107 1.10615 1
gene 1 54 26 -0.0631844 0 108 -0.0631844 1
gene 1 1 93 -1.98505 0 215 -1.98505 1
gene 1 93 27 -0.315067 0 216 -0.315067 1
gene 1 54 127 2.00945 0 331 2.00945 1
gene 1 127 26 -3.44106 0 332 -3.44106 1
gene 1 18 93 -3.11846 0 1502 -3.11846 1
gene 1 12 457 -1.27078 0 1687 -1.27078 1
gene 1 457 26 0.151698 0 1688 0.151698 1
gene 1 24 497 1.13021 0 1820 1.13021 1
gene 1 497 27 0.889789 0 1821 0.889789 1
genomeend 597


/* Organism #330 Quality: 1.000000 Time: 0 Id: 34 */
/* -0.00164528 -0.99859 -0.673318 -0.785822 1.57155 -0.963133 1.89199 -0.82887 1.81985 0.0314946 -0.668129 -0.875033 1.33569 -0.570012  */
genomestart 330
trait 1 0.111623 0 0 0.00669494 0.006699 0.0685478 0.313623 0.00017319 
node 1 1 1 1
node 2 1 1 1
node 3 1 1 1
node 4 1 1 1
node 5 1 1 1
node 6 1 1 1
node 7 1 1 1
node 8 1 1 1
node 9 1 1 1
node 10 1 1 1
node 11 1 1 1
node 12 1 1 1
node 13 1 1 1
node 14 1 1 1
node 15 1 1 1
node 16 1 1 1
node 17 1 1 1
node 18 1 1 1
node 19 1 1 1
node 20 1 1 1
node 21 1 1 1
node 22 1 1 1
node 23 1 1 1
node 24 1 1 1
node 25 1 1 3
node 26 1 0 2
node 27 1 0 2
node 66 1 0 0
gene 1 1 26 -1.01222 0 1 -1.01222 1
gene 1 1 27 -1.89546 0 2 -1.89546 1
gene 1 2 26 -1.28679 0 3 -1.28679 1
gene 1 2 27 -4.77862 0 4 -4.77862 1
gene 1 3 26 -0.549141 0 5 -0.549141 1
gene 1 3 27 5 0 6 5 1
gene 1 4 26 2.65666 0 7 2.65666 1
gene 1 4 27 -2.3407 0 8 -2.3407 1
gene 1 5 26 1.80228 0 9 1.80228 1
gene 1 5 27 3.45976 0 10 3.45976 1
gene 1 6 26 0.475855 0 11 0.475855 1
gene 1 6 27 0.880851 0 12 0.880851 1
gene 1 7 26 0.0828943 0 13 0.0828943 1
gene 1 7 27 -2.3893 0 14 -2.3893 1
gene 1 8 26 -4.99412 0 15 -4.99412 1
gene 1 8 27 -2.9658 0 16 -2.9658 1
gene 1 9 26 2.97383 0 17 2.97383 1
gene 1 9 27 -3.99759 0 18 -3.99759 1
gene 1 10 26 1.90756 0 19 1.90756 1
gene 1 10 27 -2.98004 0 20 -2.98004 1
gene 1 11 26 2.96787 0 21 2.96787 1
gene 1 11 27 3.60503 0 22 3.60503 1
gene 1 12 26 0.922688 0 23 0.922688 1
gene 1 12 27 -2.12592 0 24 -2.12592 1
gene 1 13 26 -0.0863697 0 25 -0.0863697 1
gene 1 13 27 2.93407 0 26 2.93407 1
gene 1 14 26 -2.51627 0 27 -2.51627 1
gene 1 14 27 2.15589 0 28 2.15589 1
gene 1 15 26 -2.01835 0 29 -2.01835 1
gene 1 15 27 1.49253 0 30 1.49253 1
gene 1 16 26 -1.13376 0 31 -1.13376 1
gene 1 16 27 -3.38442 0 32 -3.38442 1
gene 1 17 26 -0.442746 0 33 -0.442746 1
gene 1 17 27 -4.184 0 34 -4.184 1
gene 1 18 26 0.0816569 0 35 0.0816569 1
gene 1 18 27 3.91114 0 36 3.91114 1
gene 1 19 26 2.41219 0 37 2.41219 1
gene 1 19 27 -0.537949 0 38 -0.537949 1
gene 1 20 26 -1.60829 0 39 -1.60829 1
gene 1 20 27 4.08799 0 40 4.08799 1
gene 1 21 26 1.45162 0 41 1.45162 1
gene 1 21 27 -1.49072 0 42 -1.49072 0
gene 1 22 26 2.34169 0 43 2.34169 1
gene 1 22 27 -0.256313 0 44 -0.256313 1
gene 1 23 26 -1.63578 0 45 -1.63578 1
gene 1 23 27 -2.18277 0 46 -2.18277 1
gene 1 24 26 -0.22921 0 47 -0.22921 1
gene 1 24 27 0.0869341 0 48 0.0869341 1
gene 1 25 26 0.0489901 0 49 0.0489901 1
gene 1 25 27 -0.921067 0 50 -0.921067 1
gene 1 22 66 -1.93797 0 131 -1.93797 1
gene 1 66 27 -1.62227 0 132 -1.62227 1
gene 1 13 66 1.49241 0 382 1.49241 1
gene 1 20 66 2.74575 0 638 2.74575 1
gene 1 7 66 -0.430632 0 1644 -0.430632 1
gene 1 25 66 2.23718 0 1733 2.23718 1
gene 1 1 66 -0.586051 0 2152 -0.586051 1
genomeend 330


/* Organism #866 Quality: 0.999992 Time: 0 Id: 35 */
/* 0.000675395 -0.998064 -0.00456358 -0.658965 1.99791 -0.768494 1.75703 -0.74498 -0.615478 1.15878 -0.590272 -0.734758 1.53056 -0.903204  */
genomestart 866
trait 1 0.0697647 0.270084 0 0.0334747 0.006699 0.252575 0.00371977 0.000692762 
node 1 1 1 1
node 2 1 1 1
node 3 1 1 1
node 4 1 1 1
node 5 1 1 1
node 6 1 1 1
node 7 1 1 1
node 8 1 1 1
node 9 1 1 1
node 10 1 1 1
node 11 1 1 1
node 12 1 1 1
node 13 1 1 1
node 14 1 1 1
node 15 1 1 1
node 16 1 1 1
node 17 1 1 1
node 18 1 1 1
node 19 1 1 1
node 20 1 1 1
node 21 1 1 1
node 22 1 1 1
node 23 1 1 1
node 24 1 1 1
node 25 1 1 3
node 26 1 0 2
node 27 1 0 2
node 66 1 0 0
node 468 1 0 0
gene 1 1 26 -1.49765 0 1 -1.49765 1
gene 1 1 27 -5 0 2 -5 1
gene 1 2 26 -1.40238 0 3 -1.40238 1
gene 1 2 27 -1.34582 0 4 -1.34582 1
gene 1 3 26 2.123 0 5 2.123 1
gene 1 3 27 -0.633641 0 6 -0.633641 1
gene 1 4 26 0.818648 0 7 0.818648 1
gene 1 4 27 2.37415 0 8 2.37415 1
gene 1 5 26 -0.101179 0 9 -0.101179 1
gene 1 5 27 4.4073 0 10 4.4073 1
gene 1 6 26 1.26606 0 11 1.26606 1
gene 1 6 27 -2.1363 0 12 -2.1363 1
gene 1 7 26 5 0 13 5 1
gene 1 7 27 -2.62763 0 14 -2.62763 1
gene 1 8 26 -3.26676 0 15 -3.26676 1
gene 1 8 27 -5 0 16 -5 1
gene 1 9 26 2.14394 0 17 2.14394 1
gene 1 9 27 -4.61288 0 18 -4.61288 1
gene 1 10 26 4.13078 0 19 4.13078 1
gene 1 10 27 -2.84149 0 20 -2.84149 1
gene 1 11 26 5 0 21 5 1
gene 1 11 27 3.88679 0 22 3.88679 1
gene 1 12 26 2.88883 0 23 2.88883 1
gene 1 12 27 -4.00455 0 24 -4.00455 1
gene 1 13 26 0.314358 0 25 0.314358 1
gene 1 13 27 0.954226 0 26 0.954226 1
gene 1 14 26 -0.624995 0 27 -0.624995 1
gene 1 14 27 3.62476 0 28 3.62476 1
gene 1 15 26 -0.361223 0 29 -0.361223 1
gene 1 15 27 5 0 30 5 1
gene 1 16 26 -2.24811 0 31 -2.24811 1
gene 1 16 27 0.634724 0 32 0.634724 1
gene 1 17 26 2.46808 0 33 2.46808 1
gene 1 17 27 -5 0 34 -5 1
gene 1 18 26 5 0 35 5 0
gene 1 18 27 5 0 36 5 1
gene 1 19 26 1.03747 0 37 1.03747 1
gene 1 19 27 -5 0 38 -5 1
gene 1 20 26 -0.758833 0 39 -0.758833 1
gene 1 20 27 3.29722 0 40 3.29722 1
gene 1 21 26 -1.28367 0 41 -1.28367 1
gene 1 21 27 -1.82288 0 42 -1.82288 1
gene 1 22 26 0.354267 0 43 0.354267 1
gene 1 22 27 -0.358813 0 44 -0.358813 1
gene 1 23 26 -2.76932 0 45 -2.76932 1
gene 1 23 27 -2.29559e-05 0 46 -2.29559e-05 1
gene 1 24 26 -1.28206 0 47 -1.28206 1
gene 1 24 27 -2.88495 0 48 -2.88495 1
gene 1 25 26 -1.62715 0 49 -1.62715 1
gene 1 25 27 1.13222 0 50 1.13222 1
gene 1 22 66 -1.38436 0 131 -1.38436 1
gene 1 66 27 -0.0367597 0 132 -0.0367597 1
gene 1 13 66 1.70503 0 382 1.70503 1
gene 1 20 66 3.2871 0 638 3.2871 1
gene 1 18 468 0.472313 0 1724 0.472313 1
gene 1 468 26 0.4889 0 1725 0.4889 1
gene 1 25 66 1.27472 0 2084 1.27472 1
genomeend 866


/* Organism #230 Quality: 1.000000 Time: 0 Id: 36 */
/* 3.40125e-05 -0.999764 -0.994535 -0.932858 1.51937 -0.996239 1.7734 -0.984905 0.694027 -0.89561 -0.667474 -0.874865 0.943298 -0.829634  */
genomestart 230
trait 1 0.111623 0 0 0.0535595 0.006699 0.0685478 0.00371977 0.000692762 
node 1 1 1 1
node 2 1 1 1
node 3 1 1 1
node 4 1 1 1
node 5 1 1 1
node 6 1 1 1
node 7 1 1 1
node 8 1 1 1
node 9 1 1 1
node 10 1 1 1
node 11 1 1 1
node 12 1 1 1
node 13 1 1 1
node 14 1 1 1
node 15 1 1 1
node 16 1 1 1
node 17 1 1 1
node 18 1 1 1
node 19 1 1 1
node 20 1 1 1
node 21 1 1 1
node 22 1 1 1
node 23 1 1 1
node 24 1 1 1
node 25 1 1 3
node 26 1 0 2
node 27 1 0 2
node 66 1 0 0
node 463 1 0 0
node 545 1 0 0
gene 1 1 26 0.310647 0 1 0.310647 1
gene 1 1 27 -0.935761 0 2 -0.935761 1
gene 1 2 26 0.4563 0 3 0.4563 1
gene 1 2 27 -2.6082 0 4 -2.6082 1
gene 1 3 26 -1.26435 0 5 -1.26435 1
gene 1 3 27 5 0 6 5 1
gene 1 4 26 -1.82833 0 7 -1.82833 1
gene 1 4 27 4.42854 0 8 4.42854 1
gene 1 5 26 2.62821 0 9 2.62821 1
gene 1 5 27 4.29739 0 10 4.29739 1
gene 1 6 26 1.50696 0 11 1.50696 1
gene 1 6 27 -1.59065 0 12 -1.59065 1
gene 1 7 26 1.90089 0 13 1.90089 1
gene 1 7 27 -4.86078 0 14 -4.86078 1
gene 1 8 26 1.63691 0 15 1.63691 1
gene 1 8 27 -0.691021 0 16 -0.691021 1
gene 1 9 26 5 0 17 5 1
gene 1 9 27 -5 0 18 -5 1
gene 1 10 26 -3.89389 0 19 -3.89389 1
gene 1 10 27 -1.31609 0 20 -1.31609 1
gene 1 11 26 2.03647 0 21 2.03647 1
gene 1 11 27 3.77535 0 22 3.77535 1
gene 1 12 26 -2.85678 0 23 -2.85678 1
gene 1 12 27 2.28044 0 24 2.28044 1
gene 1 13 26 -3.83562 0 25 -3.83562 1
gene 1 13 27 2.73949 0 26 2.73949 1
gene 1 14 26 -0.228354 0 27 -0.228354 1
gene 1 14 27 -1.78951 0 28 -1.78951 1
gene 1 15 26 -0.0679756 0 29 -0.0679756 1
gene 1 15 27 -5 0 30 -5 1
gene 1 16 26 -1.51548 0 31 -1.51548 0
gene 1 16 27 -0.98888 0 32 -0.98888 1
gene 1 17 26 0.385615 0 33 0.385615 1
gene 1 17 27 -3.09819 0 34 -3.09819 1
gene 1 18 26 3.37798 0 35 3.37798 1
gene 1 18 27 2.34071 0 36 2.34071 1
gene 1 19 26 1.26788 0 37 1.26788 1
gene 1 19 27 -3.17735 0 38 -3.17735 1
gene 1 20 26 0.863959 0 39 0.863959 1
gene 1 20 27 1.60222 0 40 1.60222 1
gene 1 21 26 -1.40518 0 41 -1.40518 1
gene 1 21 27 1.99156 0 42 1.99156 1
gene 1 22 26 2.96566 0 43 2.96566 1
gene 1 22 27 -2.4171 0 44 -2.4171 1
gene 1 23 26 0.299085 0 45 0.299085 1
gene 1 23 27 0.9888 0 46 0.9888 1
gene 1 24 26 0.849735 0 47 0.849735 1
gene 1 24 27 0.816621 0 48 0.816621 1
gene 1 25 26 -0.363348 0 49 -0.363348 1
gene 1 25 27 -1.1266 0 50 -1.1266 1
gene 1 22 66 -1.45441 0 131 -1.45441 1
gene 1 66 27 -2.05514 0 132 -2.05514 1
gene 1 13 66 -0.119007 0 382 -0.119007 1
gene 1 20 66 -1.70629 0 638 -1.70629 1
gene 1 18 66 0.653604 0 1651 0.653604 1
gene 1 24 463 -2.10506 0 1706 -2.10506 1
gene 1 463 27 -0.383525 0 1707 -0.383525 1
gene 1 16 545 3.35881 0 1984 3.35881 1
gene 1 545 26 2.38639 0 1985 2.38639 1
genomeend 230


/* Organism #796 Quality: 1.000000 Time: 0 Id: 37 */
/* -0.000346161 -0.998883 -0.0511646 -0.634924 1.7499 -0.978917 1.62936 -0.899623 0.318264 -0.496136 -0.667101 -0.875225 2.17796 -0.678406  */
genomestart 796
trait 1 0.0697647 0.270084 0 0.0334747 0.006699 0.252575 0.00371977 0.000692762 
node 1 1 1 1
node 2 1 1 1
node 3 1 1 1
node 4 1 1 1
node 5 1 1 1
node 6 1 1 1
node 7 1 1 1
node 8 1 1 1
node 9 1 1 1
node 10 1 1 1
node 11 1 1 1
node 12 1 1 1
node 13 1 1 1
node 14 1 1 1
node 15 1 1 1
node 16 1 1 1
node 17 1 1 1
node 18 1 1 1
node 19 1 1 1
node 20 1 1 1
node 21 1 1 1
node 22 1 1 1
node 23 1 1 1
node 24 1 1 1
node 25 1 1 3
node 26 1 0 2
node 27 1 0 2
node 66 1 0 0
node 468 1 0 0
gene 1 1 26 -2.01266 0 1 -2.01266 1
gene 1 1 27 -2.56042 0 2 -2.56042 1
gene 1 2 26 -1.63434 0 3 -1.63434 1
gene 1 2 27 -0.636332 0 4 -0.636332 1
gene 1 3 26 -0.240402 0 5 -0.240402 1
gene 1 3 27 0.479111 0 6 0.479111 1
gene 1 4 26 0.984735 0 7 0.984735 1
gene 1 4 27 2.88984 0 8 2.88984 1
gene 1 5 26 -2.23508 0 9 -2.23508 1
gene 1 5 27 5 0 10 5 1
gene 1 6 26 3.06422 0 11 3.06422 1
